%YAML:1.0
---
opencv_ml_svm:
   format: 3
   svmType: EPS_SVR
   kernel:
      type: LINEAR
   C: 2.5000000000000000e-01
   p: 1.0000000000000001e-01
   term_criteria: { iterations:1000 }
   var_count: 324
   sv_total: 1
   support_vectors:
      - [ -6.55855760e-02, 7.82084242e-02, 1.47142693e-01,
          -2.04860773e-02, -5.05235698e-03, -2.12918967e-01,
          -1.82163328e-01, -1.41160324e-01, -7.87433535e-02,
          -6.86265202e-03, 6.72820956e-02, 1.24564044e-01,
          1.58347804e-02, 8.13934579e-02, -1.32900149e-01,
          -2.01764703e-01, -1.21292964e-01, -8.12363550e-02,
          -2.28534322e-02, 5.89895388e-03, 1.35681136e-02,
          -5.69182597e-02, -5.82101792e-02, -8.40026438e-02,
          -3.23893987e-02, -2.32306346e-02, -1.25302643e-01,
          8.15805122e-02, 1.08555727e-01, 6.07023165e-02, 7.17518479e-02,
          4.41976935e-02, -2.44923327e-02, -6.90947473e-02,
          -4.35563214e-02, -1.10560670e-01, 1.05682202e-01,
          -1.33707151e-01, 3.91969923e-03, -3.48991901e-02,
          9.40668285e-02, -7.98034295e-02, -2.66762853e-01,
          -2.20666051e-01, -4.29223664e-02, 9.85074192e-02,
          -1.14429355e-01, -1.75074950e-01, -2.27946482e-04,
          1.82753816e-01, 5.54310083e-02, -2.71370858e-01,
          -2.48995230e-01, -3.18157002e-02, 8.09337050e-02,
          5.72262108e-02, 1.81208272e-02, 6.30150735e-02, 3.03547271e-02,
          3.60869430e-02, -2.88425565e-01, -9.36901197e-02,
          -2.91013382e-02, 1.98236257e-01, 3.60174500e-03,
          -2.78237108e-02, 1.95374146e-01, 7.58972466e-02,
          3.18213291e-02, 1.18044563e-01, 1.03635341e-02, 7.48422220e-02,
          -6.52183685e-03, -1.04881398e-01, -1.41060054e-01,
          5.55954538e-02, 2.59547174e-01, 5.12179732e-02,
          -2.89962471e-01, -2.54624784e-01, -1.41650494e-02,
          -1.80533513e-01, -1.26733124e-01, -1.06916428e-01,
          6.56820238e-02, 7.87483975e-02, -1.21693805e-01,
          -4.66127127e-01, -2.67388344e-01, -8.42719898e-02,
          1.42950132e-01, -5.19144675e-03, 2.26506181e-02,
          1.18961133e-01, 3.13593358e-01, 1.87142223e-01, 1.78464055e-01,
          1.60704449e-01, 1.51587442e-01, -2.27766275e-01,
          -2.08832249e-02, -1.47644654e-01, 1.54290767e-02,
          1.79501742e-01, -5.91687895e-02, -2.71022469e-01,
          -1.85965776e-01, -1.93691581e-01, -7.32749999e-02,
          -8.17751046e-03, -1.05988376e-01, -1.39456540e-01,
          -1.42991632e-01, 2.40410771e-02, 7.53720552e-02,
          -9.10313576e-02, -1.84809551e-01, -1.71609465e-02,
          1.81884132e-02, -1.15580812e-01, 2.52887723e-03,
          -1.88432503e-02, 3.46327685e-02, 2.27890667e-02,
          -1.00982040e-01, -1.08592696e-01, -9.47450325e-02,
          -1.29689537e-02, -4.49408591e-02, -4.25860807e-02,
          -9.03323889e-02, -3.69792338e-03, -8.09022635e-02,
          -7.72098452e-02, -9.31052193e-02, 8.00236985e-02,
          1.15278158e-02, -8.23433027e-02, 3.48028005e-03,
          2.22438462e-02, 8.14090595e-02, 8.08468834e-02, 4.68731001e-02,
          5.54069597e-03, -1.28228888e-01, -6.83066994e-02,
          -5.34467697e-02, 6.48389757e-02, 3.94797176e-02,
          -4.37758677e-02, -2.29246393e-01, -1.27428681e-01,
          -9.59324017e-02, -4.69579287e-02, -1.14553027e-01,
          -8.97211507e-02, 1.71252802e-01, 9.73908305e-02,
          7.41975158e-02, 7.64899552e-02, 5.05827293e-02,
          -2.89228037e-02, -2.84746811e-02, -3.02145779e-02,
          -6.76108450e-02, 2.06815209e-02, 6.03693053e-02,
          5.52038364e-02, 4.08983463e-03, -4.01023775e-02,
          4.09313887e-02, -6.32712841e-02, 3.92583013e-02,
          5.31665832e-02, 2.25143179e-01, 1.39418811e-01, 1.86891228e-01,
          4.21087667e-02, 7.89536387e-02, 2.07691323e-02, 3.17123793e-02,
          -7.23610222e-02, -8.64330530e-02, 1.99002009e-02,
          8.59114826e-02, 8.38948488e-02, 2.15504095e-01, 2.04269379e-01,
          5.09101860e-02, -1.48820654e-01, -6.82019144e-02,
          -8.77555534e-02, -6.01383708e-02, 2.68185530e-02,
          -1.15994342e-01, -1.12776399e-01, -1.33339509e-01,
          -1.79107517e-01, 2.36957651e-02, 8.59215185e-02,
          5.29349558e-02, 1.72253847e-01, 1.32063985e-01, 1.78086445e-01,
          7.51535594e-02, 1.46210939e-01, 7.70031139e-02,
          -1.57092899e-01, -6.61903545e-02, 7.45862946e-02,
          3.53156328e-02, 9.11686718e-02, -7.30818287e-02,
          -1.85901135e-01, -2.29734063e-01, -1.10053904e-01,
          -2.16624085e-02, 3.09708770e-02, -7.81542361e-02,
          -3.50731201e-02, -1.12545803e-01, -3.19395997e-02,
          -9.21244845e-02, -1.23053730e-01, -5.10421768e-02,
          -8.01181607e-03, -6.63869604e-02, -5.76914437e-02,
          -4.27630916e-02, -6.02430776e-02, 6.08881675e-02,
          1.00160643e-01, -4.30718660e-02, -1.72958449e-02,
          4.73891273e-02, 7.11731687e-02, 3.67784426e-02, 3.48780341e-02,
          4.40731980e-02, -2.54031811e-02, -1.55828586e-02,
          -1.44172728e-01, 3.20856529e-03, -9.08872932e-02,
          -6.37298375e-02, -1.34157017e-01, -4.67825122e-02,
          -7.71650895e-02, -3.09987962e-02, -3.13885557e-03,
          -1.86752185e-01, -4.71499041e-02, 4.92574871e-02,
          1.11702327e-02, -4.74115275e-02, -6.30712956e-02,
          -2.37499923e-02, 7.69653395e-02, 3.88104729e-02,
          -1.93077493e-02, 8.80694911e-02, 1.99612393e-03,
          9.70021859e-02, 7.90529177e-02, 3.30253318e-02, 1.71896100e-01,
          1.42835915e-01, -7.28270644e-03, 9.78561640e-02,
          9.82753634e-02, -4.75056246e-02, -7.10930005e-02,
          -5.70101105e-02, -5.89999110e-02, -3.55681293e-02,
          -5.23247123e-02, -1.21053809e-03, -1.21214718e-01,
          -9.80613530e-02, -7.03180730e-02, -6.32573813e-02,
          8.00261833e-03, 8.28402862e-02, 1.15728535e-01,
          -8.80847946e-02, -2.79737506e-02, -9.04636383e-02,
          -8.98418874e-02, 9.06380862e-02, 5.30204102e-02,
          1.88254178e-01, 1.52105913e-01, 2.13559180e-01, 3.06626558e-01,
          4.97410260e-02, 1.69331938e-01, 1.84326828e-01,
          -1.47844478e-01, -8.11370015e-02, 1.26953885e-01,
          -5.31475469e-02, 1.43283471e-01, 1.83809735e-03,
          -2.55965590e-01, -1.53444439e-01, -6.32349253e-02,
          -7.36293644e-02, -3.07160094e-02, -2.82460987e-03,
          2.76661105e-02, 1.74225122e-01, 4.20479923e-02,
          -9.27325189e-02, -7.52134919e-02, -3.20393294e-02,
          -1.72438115e-01, -1.81742892e-01, -1.68099895e-01,
          -1.04580671e-01, 2.90494729e-02, -1.04383148e-01,
          -3.03884000e-01, -2.42856652e-01, -2.09970742e-01 ]
   uncompressed_sv_total: 59
   uncompressed_support_vectors:
      - [ 9.14972052e-02, 3.64513770e-02, 5.82874529e-02, 2.80253775e-02,
          9.28605795e-02, 1.72242373e-01, 2.75973171e-01, 1.64027289e-01,
          1.40166610e-01, 9.53914672e-02, 6.64146841e-02, 1.21471010e-01,
          3.37826908e-02, 1.15433015e-01, 9.44360122e-02, 1.68471783e-01,
          1.39495268e-01, 2.04639152e-01, 1.10632345e-01, 4.31064069e-02,
          2.16988977e-02, 2.48800572e-02, 9.04599577e-02, 2.77130485e-01,
          2.77130485e-01, 2.77130485e-01, 2.40546376e-01, 2.77130485e-01,
          1.61469877e-01, 6.79492354e-02, 4.09828685e-02, 1.31635189e-01,
          1.70647889e-01, 2.45186955e-01, 2.77130485e-01, 2.77130485e-01,
          7.36897588e-02, 4.06586714e-02, 7.03724548e-02, 4.84251603e-02,
          1.67058036e-01, 1.04929835e-01, 1.05440356e-01, 5.94595745e-02,
          1.33827403e-01, 1.63398117e-01, 7.00802803e-02, 5.46233095e-02,
          5.32608032e-02, 2.85607606e-01, 2.85607606e-01, 1.51412174e-01,
          1.48848921e-01, 1.41763300e-01, 2.85607606e-01, 1.29559338e-01,
          5.77004664e-02, 5.09626903e-02, 1.04688130e-01, 1.22313865e-01,
          1.20446756e-01, 1.79805666e-01, 2.85607606e-01, 2.85607606e-01,
          4.51431349e-02, 9.99279246e-02, 1.35950029e-01, 1.79273039e-01,
          1.77050710e-01, 2.19570592e-01, 2.85607606e-01, 2.85607606e-01,
          2.39587218e-01, 1.09018177e-01, 2.85562761e-02, 7.18364939e-02,
          2.51505941e-01, 2.32399687e-01, 1.20800763e-01, 1.68971419e-01,
          2.41196275e-01, 9.85432491e-02, 3.30010802e-02, 3.22643407e-02,
          1.76474065e-01, 2.04722866e-01, 1.07698724e-01, 8.37381855e-02,
          1.47638544e-01, 2.04771742e-01, 1.23498134e-01, 4.63073961e-02,
          2.44219020e-01, 2.51505941e-01, 2.30266079e-01, 1.83321580e-01,
          1.64028406e-01, 2.05692068e-01, 1.85085595e-01, 3.34180817e-02,
          1.41814202e-02, 2.51505941e-01, 2.51505941e-01, 2.51505941e-01,
          8.98831338e-02, 5.19856662e-02, 4.42013480e-02, 4.68001813e-02,
          5.20789139e-02, 1.50560457e-02, 1.48085849e-02, 1.87747534e-02,
          7.43219033e-02, 3.18672240e-01, 3.18672240e-01, 1.45969167e-01,
          1.01581946e-01, 1.30041748e-01, 8.38833973e-02, 4.87065502e-02,
          3.53223719e-02, 7.50055313e-02, 2.44575128e-01, 2.98976302e-01,
          2.70609289e-01, 1.81501299e-01, 1.62065290e-02, 1.48672108e-02,
          2.15929057e-02, 2.51717400e-02, 1.11324653e-01, 3.18672240e-01,
          3.18672240e-01, 5.75667322e-02, 2.92981695e-02, 3.45950164e-02,
          2.18536127e-02, 3.20361815e-02, 3.28197666e-02, 7.44611025e-02,
          3.18672240e-01, 3.18672240e-01, 1.68657139e-01, 4.85601425e-02,
          2.21592411e-01, 9.45817754e-02, 5.03691956e-02, 4.23469320e-02,
          7.05241859e-02, 1.97308466e-01, 1.83316141e-01, 1.72603995e-01,
          2.42754564e-01, 1.40414894e-01, 2.67167743e-02, 9.57333371e-02,
          2.00581387e-01, 2.42754564e-01, 1.28691033e-01, 1.56362295e-01,
          2.27569640e-01, 2.42754564e-01, 7.61608034e-02, 2.87438314e-02,
          4.27451096e-02, 4.79251184e-02, 7.37010315e-02, 2.22042441e-01,
          2.42754564e-01, 2.42754564e-01, 9.27402675e-02, 1.35447547e-01,
          1.02694206e-01, 1.83500156e-01, 2.42754564e-01, 2.42754564e-01,
          1.08228549e-01, 1.68089703e-01, 2.42754564e-01, 1.31190136e-01,
          2.27681622e-02, 2.01390628e-02, 2.19784334e-01, 2.30081230e-01,
          2.30081230e-01, 1.79726630e-01, 1.67794555e-01, 1.78909764e-01,
          7.67021552e-02, 5.30083943e-03, 7.08520738e-03, 1.86022311e-01,
          2.30081230e-01, 1.19191103e-01, 1.09097287e-01, 1.14701159e-01,
          1.20891228e-01, 8.85991380e-03, 7.68454373e-02, 2.07219660e-01,
          2.29750752e-01, 2.30081230e-01, 2.30081230e-01, 1.79959923e-01,
          2.02812493e-01, 2.12588638e-01, 5.87428361e-02, 2.97750719e-02,
          1.66781887e-01, 1.62319988e-01, 1.65989652e-01, 2.30081230e-01,
          1.89419582e-01, 2.18286395e-01, 2.30081230e-01, 3.15389521e-02,
          8.98882747e-03, 1.13071119e-02, 1.66757274e-02, 3.24663892e-02,
          1.30437165e-01, 3.42676491e-01, 3.42676491e-01, 4.80574369e-02,
          2.10173372e-02, 1.67770758e-02, 8.88833497e-03, 9.63541586e-03,
          1.84625369e-02, 3.35832052e-02, 3.42676491e-01, 3.42676491e-01,
          5.55152036e-02, 1.76658239e-02, 1.23074697e-02, 5.18248882e-03,
          4.99464348e-02, 1.01899020e-01, 1.67629883e-01, 3.16345572e-01,
          3.42676491e-01, 5.10692187e-02, 1.88454147e-02, 6.81293989e-03,
          9.75924451e-03, 2.83808843e-03, 1.22262277e-02, 4.96940091e-02,
          3.42676491e-01, 3.42676491e-01, 3.04973498e-02, 8.44457839e-03,
          7.34857246e-02, 2.32817288e-02, 3.10575701e-02, 4.48997580e-02,
          3.65386382e-02, 2.18233094e-01, 3.12004179e-01, 2.22973928e-01,
          9.83784646e-02, 2.10361928e-01, 1.71110392e-01, 1.52045310e-01,
          2.24540040e-01, 3.05820316e-01, 6.44124970e-02, 1.00348435e-01,
          1.95859671e-01, 1.53042555e-01, 2.14444306e-02, 1.95740145e-02,
          1.51225738e-02, 6.28748760e-02, 7.69899786e-02, 3.12004179e-01,
          3.12004179e-01, 2.36236360e-02, 2.94373687e-02, 6.02195337e-02,
          6.66610301e-02, 6.71723038e-02, 3.12004179e-01, 3.12004179e-01,
          1.07170321e-01, 1.95751309e-01, 2.25286409e-02, 3.16937864e-02,
          2.33543620e-01, 2.98624873e-01, 2.87613034e-01, 2.81913221e-01,
          2.98624873e-01, 6.95784837e-02, 9.56618562e-02, 1.19026266e-01,
          7.75798261e-02, 1.03006966e-01, 2.98624873e-01, 2.54173219e-01,
          1.82856709e-01, 2.06794262e-01, 7.84304738e-02, 9.07081291e-02,
          9.83975679e-02, 4.05289680e-02, 1.04180783e-01, 2.17245057e-01,
          1.03904091e-01, 2.98624873e-01, 2.98624873e-01, 2.86297128e-02,
          1.33431377e-02, 1.68447644e-02, 1.40166823e-02, 6.63648993e-02,
          1.66196272e-01, 5.83368838e-02, 9.58819315e-02, 8.12656507e-02,
          1.20205665e-02, 1.86666176e-02, 2.29177997e-02, 2.29887925e-02 ]
      - [ 5.86914830e-02, 1.37974635e-01, 3.00698698e-01, 3.00698698e-01,
          1.48072734e-01, 4.78573926e-02, 3.83558720e-02, 2.99100392e-02,
          2.30298601e-02, 9.86201614e-02, 2.50887424e-01, 3.00698698e-01,
          2.95671374e-01, 1.99248910e-01, 5.14652655e-02, 6.56233206e-02,
          2.76226792e-02, 3.94393913e-02, 1.19676486e-01, 1.43608063e-01,
          3.00698698e-01, 3.00698698e-01, 8.85246471e-02, 7.85704181e-02,
          5.48614860e-02, 5.74740879e-02, 3.71541046e-02, 2.04936475e-01,
          2.12191418e-01, 1.76216483e-01, 2.36787796e-01, 1.62260175e-01,
          8.19708183e-02, 1.18845269e-01, 6.31480888e-02, 6.54511005e-02,
          8.43550339e-02, 1.59349054e-01, 2.56897420e-01, 1.40538976e-01,
          1.60532951e-01, 7.73226321e-02, 4.32217941e-02, 5.37550934e-02,
          1.05194204e-01, 7.50022978e-02, 8.33645090e-02, 5.70777059e-02,
          4.04491723e-02, 9.64677855e-02, 1.26899853e-01, 3.64888944e-02,
          8.81033689e-02, 1.42098054e-01, 1.86077923e-01, 1.98866591e-01,
          9.43017676e-02, 1.80138767e-01, 2.56897420e-01, 2.27357090e-01,
          1.11131251e-01, 1.60214707e-01, 2.40659907e-01, 1.65027991e-01,
          1.49600759e-01, 1.04607329e-01, 2.06084505e-01, 2.56897420e-01,
          2.56897420e-01, 2.51570195e-01, 2.56897420e-01, 2.56897420e-01,
          5.49666993e-02, 4.42865267e-02, 3.60094719e-02, 4.02057171e-02,
          9.79694650e-02, 1.19280122e-01, 8.76840204e-02, 8.88771638e-02,
          1.14297867e-01, 9.19843391e-02, 5.70969395e-02, 5.11834770e-02,
          7.51255974e-02, 1.83473989e-01, 2.38899380e-01, 2.47104049e-01,
          1.70375228e-01, 1.27593949e-01, 1.04265310e-01, 9.14350972e-02,
          1.18060462e-01, 2.27470115e-01, 2.66151667e-01, 2.66151667e-01,
          2.66151667e-01, 2.42020532e-01, 2.66151667e-01, 6.86403662e-02,
          1.05389237e-01, 4.97395843e-02, 7.68927708e-02, 2.05327034e-01,
          2.66151667e-01, 2.66151667e-01, 2.46000022e-01, 1.56497687e-01,
          1.26149863e-01, 1.32130474e-01, 2.66222477e-01, 2.66222477e-01,
          8.85360092e-02, 7.21577257e-02, 5.73801361e-02, 5.58983684e-02,
          5.20490706e-02, 2.57223517e-01, 1.27954096e-01, 1.01513289e-01,
          2.02621460e-01, 2.06852928e-01, 1.30766273e-01, 1.65269896e-01,
          6.56907931e-02, 1.03417411e-01, 8.16313401e-02, 8.08911324e-02,
          2.66222477e-01, 2.66222477e-01, 1.34688616e-01, 9.37797725e-02,
          8.05886090e-02, 3.85114364e-02, 7.54655004e-02, 2.60187715e-01,
          5.46081997e-02, 1.01736605e-01, 2.66222477e-01, 2.66222477e-01,
          2.54058540e-01, 1.58272788e-01, 5.43431006e-02, 2.30316266e-01,
          9.93823260e-02, 6.25637397e-02, 2.76722256e-02, 9.63210016e-02,
          2.42148787e-01, 2.67742604e-01, 9.79832485e-02, 6.13778532e-02,
          1.01868480e-01, 6.36169016e-02, 4.53827269e-02, 7.92736560e-02,
          1.66960537e-01, 2.82246917e-01, 2.82246917e-01, 2.82246917e-01,
          1.36434227e-01, 1.62145555e-01, 8.63325819e-02, 6.10520914e-02,
          8.00552443e-02, 1.74619421e-01, 2.82246917e-01, 1.92079917e-01,
          7.39924684e-02, 2.96810661e-02, 9.33916047e-02, 3.37140933e-02,
          1.00736275e-01, 1.95000425e-01, 2.82246917e-01, 2.82246917e-01,
          2.82246917e-01, 1.41818300e-01, 6.77818134e-02, 4.89047505e-02,
          6.25117570e-02, 4.20219935e-02, 1.03384331e-01, 1.59766376e-01,
          2.85239428e-01, 2.85239428e-01, 2.85239428e-01, 1.47806525e-01,
          1.59675509e-01, 4.65047956e-02, 4.97496165e-02, 3.30569781e-02,
          3.83167788e-02, 2.85239428e-01, 2.13407680e-01, 1.91225663e-01,
          1.12818740e-01, 6.92544654e-02, 4.78650928e-02, 9.34854746e-02,
          1.82229608e-01, 2.85239428e-01, 2.85239428e-01, 2.85239428e-01,
          1.70100152e-01, 9.89360809e-02, 5.58631830e-02, 3.71480510e-02,
          5.70382178e-02, 7.43314698e-02, 9.23177376e-02, 2.85239428e-01,
          1.66589662e-01, 1.08046584e-01, 6.29601330e-02, 4.51851822e-02,
          5.62561601e-02, 4.28208597e-02, 1.73825651e-01, 2.48129517e-01,
          1.28658503e-01, 7.97552094e-02, 8.33713859e-02, 3.52517068e-02,
          6.08491302e-02, 1.73859835e-01, 3.08367144e-02, 9.19594020e-02,
          2.32471064e-01, 2.54874319e-01, 2.54874319e-01, 1.75998449e-01,
          7.94132799e-02, 2.52883255e-01, 1.10994041e-01, 9.35772136e-02,
          2.20657259e-01, 2.54874319e-01, 2.54874319e-01, 1.08075537e-01,
          1.03126891e-01, 8.74532759e-02, 1.46727800e-01, 1.94531798e-01,
          7.52147883e-02, 8.76777247e-02, 1.64019570e-01, 2.01178521e-01,
          1.60808176e-01, 2.54276365e-01, 1.25738427e-01, 2.54874319e-01,
          1.13756053e-01, 1.02673516e-01, 1.28827378e-01, 2.00119376e-01,
          2.75364339e-01, 2.17601940e-01, 1.68655753e-01, 8.19958746e-02,
          1.89086750e-01, 5.03172651e-02, 1.93898365e-01, 2.64652163e-01,
          2.75364339e-01, 2.75364339e-01, 1.38820410e-01, 6.88986331e-02,
          9.76531506e-02, 6.76018223e-02, 1.62279844e-01, 6.82538077e-02,
          3.46084125e-02, 1.23741962e-01, 2.30083734e-01, 1.65576801e-01,
          2.51074553e-01, 1.55328780e-01, 2.42130443e-01, 4.65688407e-02,
          6.03564791e-02, 3.48248407e-02, 2.03662023e-01, 2.75364339e-01,
          9.69831869e-02, 8.47269446e-02, 6.89846277e-02, 6.13026097e-02,
          4.32829335e-02, 1.30573332e-01, 2.01394394e-01, 3.21340829e-01,
          4.15825337e-01, 1.85202688e-01, 4.51149903e-02, 8.63143653e-02,
          8.64095539e-02, 1.26194768e-02, 6.68824241e-02, 5.75935617e-02,
          1.11283883e-01, 4.15825337e-01, 1.58536330e-01, 1.00499660e-01,
          5.00984974e-02, 9.17098075e-02, 6.45200536e-03, 1.91512723e-02,
          1.56681128e-02, 7.35906363e-02, 4.15825337e-01, 3.18307392e-02,
          8.85297544e-03, 8.55867192e-03, 1.84310749e-02, 2.68547307e-03,
          5.71706425e-03, 4.65953629e-03, 6.06353506e-02, 4.15825337e-01,
          1.06015027e-01, 1.90442856e-02, 7.57322460e-03, 2.73687728e-02 ]
      - [ 2.86269560e-02, 6.42013699e-02, 3.13736737e-01, 1.26564786e-01,
          2.03523133e-02, 2.22044233e-02, 2.79582152e-03, 8.44860636e-03,
          2.99140047e-02, 2.90242564e-02, 2.30383605e-01, 3.84563893e-01,
          2.58420140e-01, 2.13359129e-02, 6.11443724e-03, 3.53484298e-03,
          4.94466303e-03, 7.73220230e-03, 1.82291362e-02, 1.19202778e-01,
          3.84563893e-01, 2.86254644e-01, 2.23629735e-02, 1.56694110e-02,
          4.95475624e-03, 7.55892228e-03, 2.27817371e-02, 2.68961228e-02,
          3.52775812e-01, 3.84563893e-01, 2.87010223e-01, 6.28156886e-02,
          1.89359412e-02, 9.83887073e-03, 7.66083645e-03, 9.49814543e-03,
          1.14480980e-01, 2.48695582e-01, 2.56443590e-01, 2.13744819e-01,
          5.52365072e-02, 1.32461525e-02, 1.89154353e-02, 1.57636907e-02,
          2.65545659e-02, 2.40595102e-01, 2.56443590e-01, 2.56443590e-01,
          2.30221629e-01, 2.01612547e-01, 5.14694601e-02, 2.35545244e-02,
          5.36454618e-02, 7.76471496e-02, 4.02944535e-02, 2.56443590e-01,
          2.56443590e-01, 1.83870539e-01, 1.01449490e-01, 4.79069762e-02,
          1.51493261e-02, 5.82686439e-02, 2.72797924e-02, 8.82367492e-02,
          2.07909688e-01, 1.76697314e-01, 2.40294233e-01, 2.56443590e-01,
          2.18195677e-01, 8.06271061e-02, 2.44976193e-01, 8.68570507e-02,
          2.23960787e-01, 2.46907949e-01, 2.36307055e-01, 2.96989053e-01,
          2.96989053e-01, 1.24194577e-01, 2.49819197e-02, 7.09538683e-02,
          8.32342803e-02, 8.53241310e-02, 5.72395325e-02, 5.64615689e-02,
          2.05726400e-01, 1.99893951e-01, 5.36052473e-02, 2.54865661e-02,
          4.05303985e-02, 1.06320411e-01, 5.59191704e-02, 8.91283974e-02,
          1.07646003e-01, 2.96989053e-01, 2.96989053e-01, 2.96989053e-01,
          1.58838451e-01, 2.43246794e-01, 8.38035122e-02, 1.14702759e-02,
          1.25299832e-02, 3.23793925e-02, 1.86980918e-01, 2.81361192e-01,
          1.27615973e-01, 4.11512926e-02, 2.33762339e-02, 2.19555050e-02,
          1.80720724e-02, 2.64105529e-01, 3.31639856e-01, 2.67745793e-01,
          5.63945323e-02, 2.84121912e-02, 1.11513846e-02, 1.14285015e-02,
          2.11159959e-02, 5.36076911e-02, 3.20093542e-01, 3.31639856e-01,
          1.91549495e-01, 1.33786872e-01, 5.81085384e-02, 3.39970402e-02,
          2.48936452e-02, 5.63567765e-02, 4.70704287e-02, 2.92024255e-01,
          3.31639856e-01, 1.87412113e-01, 9.55783352e-02, 7.29964152e-02,
          2.82085426e-02, 3.50788869e-02, 5.77060394e-02, 7.22227246e-02,
          1.52718455e-01, 2.19822347e-01, 1.89593777e-01, 2.02930197e-01,
          1.60661817e-01, 8.14967677e-02, 8.52999985e-02, 1.25977948e-01,
          6.55385703e-02, 2.17083961e-01, 2.41473421e-01, 1.18315510e-01,
          1.22727580e-01, 7.91929588e-02, 4.16362472e-02, 7.71910548e-02,
          7.71191195e-02, 8.68483931e-02, 1.42370924e-01, 9.20062438e-02,
          1.25802830e-01, 2.41473421e-01, 2.41473421e-01, 2.41473421e-01,
          2.41473421e-01, 8.92036706e-02, 1.91034347e-01, 1.15781002e-01,
          1.40353933e-01, 1.65438592e-01, 1.43049598e-01, 1.28295377e-01,
          9.31097567e-02, 9.92368236e-02, 1.59757972e-01, 2.41473421e-01,
          1.70912713e-01, 1.37398303e-01, 1.60787925e-01, 2.41473421e-01,
          2.25479826e-01, 2.41473421e-01, 2.05559149e-01, 1.60277143e-01,
          2.83687282e-02, 2.84406021e-02, 3.86561640e-02, 9.70160365e-02,
          3.02007765e-01, 3.02007765e-01, 3.02007765e-01, 2.02074185e-01,
          7.00184926e-02, 7.62119424e-03, 9.91223287e-03, 2.36505121e-02,
          9.51809064e-02, 1.53407693e-01, 3.02007765e-01, 1.27125651e-01,
          2.65509244e-02, 2.76827365e-02, 6.59541786e-02, 7.19273537e-02,
          8.66505802e-02, 1.22485958e-01, 3.02007765e-01, 3.02007765e-01,
          3.02007765e-01, 1.58643857e-01, 1.25285804e-01, 1.57673787e-02,
          4.25007306e-02, 4.90055904e-02, 1.07643090e-01, 1.94364935e-01,
          3.02007765e-01, 1.60044402e-01, 3.48990299e-02, 6.75448179e-02,
          1.16625369e-01, 2.49279484e-01, 2.49279484e-01, 1.63740426e-01,
          9.17714313e-02, 7.62793273e-02, 5.30189537e-02, 6.21460304e-02,
          8.15966874e-02, 9.55653414e-02, 9.41728428e-02, 1.46214277e-01,
          1.73420548e-01, 1.78298384e-01, 2.14372292e-01, 2.20075041e-01,
          1.93679705e-01, 1.73073888e-01, 1.14584111e-01, 2.13384002e-01,
          2.49279484e-01, 2.41301149e-01, 2.49279484e-01, 1.11139677e-01,
          1.21414512e-01, 9.37315226e-02, 9.09872949e-02, 6.95558935e-02,
          1.84004337e-01, 1.26357645e-01, 1.08890973e-01, 1.59301221e-01,
          1.59045398e-01, 2.49279484e-01, 2.20379695e-01, 1.70055315e-01,
          1.23034999e-01, 1.35859534e-01, 1.81873783e-01, 1.58803895e-01,
          1.23545200e-01, 1.61704257e-01, 1.64472908e-01, 1.49949297e-01,
          1.59526125e-01, 2.15886995e-01, 2.27057531e-01, 2.40842655e-01,
          2.40842655e-01, 1.77029580e-01, 1.34396553e-01, 1.25654563e-01,
          1.57092020e-01, 2.14734182e-01, 2.91369054e-02, 1.44916758e-01,
          1.67410806e-01, 1.54221937e-01, 1.34694487e-01, 1.63866058e-01,
          1.50680318e-01, 1.15774363e-01, 1.24255344e-01, 7.10730478e-02,
          1.42609298e-01, 2.40842655e-01, 2.40842655e-01, 2.40842655e-01,
          1.84589401e-01, 7.99173117e-02, 7.19679445e-02, 1.54613838e-01,
          1.39019459e-01, 1.12992436e-01, 1.49490088e-01, 2.62024820e-01,
          2.62024820e-01, 2.62024820e-01, 1.54886261e-01, 1.20864265e-01,
          2.03873396e-01, 3.71295959e-02, 5.43645099e-02, 7.24441633e-02,
          2.24379569e-01, 2.62024820e-01, 2.62024820e-01, 1.06574118e-01,
          3.18094082e-02, 7.86450133e-02, 1.14440992e-01, 8.01155269e-02,
          2.04528913e-01, 2.62024820e-01, 2.53950775e-01, 1.15399584e-01,
          4.64170240e-02, 9.12726223e-02, 2.38750502e-01, 6.49256632e-02,
          3.81500125e-02, 6.82504252e-02, 2.62024820e-01, 2.62024820e-01,
          7.08016008e-02, 2.47119032e-02, 4.28349935e-02, 1.03000619e-01 ]
      - [ 1.17213905e-01, 7.54857734e-02, 1.09392568e-01, 1.76642209e-01,
          2.47649461e-01, 2.07521215e-01, 2.47649461e-01, 1.19019665e-01,
          1.92808315e-01, 1.70754731e-01, 7.51144215e-02, 1.10582657e-01,
          1.03610650e-01, 2.33202845e-01, 1.23403259e-01, 7.55474046e-02,
          1.44147053e-01, 2.47649461e-01, 6.19267970e-02, 4.38128263e-02,
          8.75034705e-02, 1.40683606e-01, 2.01656818e-01, 2.34264120e-01,
          2.47649461e-01, 2.09892094e-01, 1.86072528e-01, 1.09856233e-01,
          6.05940931e-02, 1.75765693e-01, 1.70405298e-01, 2.15729102e-01,
          2.30771407e-01, 1.00417472e-01, 1.37758046e-01, 1.71400234e-01,
          1.05990551e-01, 2.50800904e-02, 8.03949758e-02, 8.93840268e-02,
          2.86690861e-01, 2.00505480e-01, 5.03895842e-02, 8.77235904e-02,
          1.15236379e-01, 3.06295715e-02, 1.49598178e-02, 7.29881972e-02,
          1.93846300e-01, 2.86690861e-01, 2.27667585e-01, 5.99246807e-02,
          6.84630424e-02, 1.42047573e-02, 1.18487678e-01, 3.73607427e-02,
          1.68026641e-01, 1.66502476e-01, 2.86690861e-01, 2.76909828e-01,
          1.32414043e-01, 1.45440757e-01, 9.29364860e-02, 7.95414224e-02,
          2.25412175e-02, 9.92228687e-02, 2.86690861e-01, 2.86690861e-01,
          2.86690861e-01, 2.39054576e-01, 1.96131945e-01, 4.34298664e-02,
          2.24034349e-03, 1.15234070e-02, 6.10030629e-02, 2.05648258e-01,
          3.65213603e-01, 2.51085520e-01, 7.10092485e-02, 6.67792335e-02,
          2.66721332e-03, 2.93198600e-03, 0., 1.47380335e-02,
          6.64933473e-02, 3.65213603e-01, 1.84254080e-01, 1.57906190e-02,
          6.46121567e-03, 2.58705346e-03, 6.46039024e-02, 1.03076575e-02,
          6.73494712e-02, 3.05199176e-01, 3.65213603e-01, 3.48533332e-01,
          1.49928585e-01, 1.41984165e-01, 3.40640470e-02, 1.11806067e-02,
          2.60133966e-04, 1.43996645e-02, 7.06030875e-02, 3.65213603e-01,
          1.79191694e-01, 2.15532836e-02, 8.59753601e-03, 5.30411396e-03,
          2.55952813e-02, 1.82232969e-02, 5.67011237e-02, 7.02904239e-02,
          1.18423194e-01, 2.87712216e-01, 3.33899140e-01, 1.48980066e-01,
          1.14205703e-01, 4.65199985e-02, 4.19502482e-02, 1.06899574e-01,
          1.17509983e-01, 1.79596797e-01, 2.85744488e-01, 2.17462718e-01,
          8.93950388e-02, 1.26386061e-01, 2.39648167e-02, 4.29482479e-03,
          1.71366446e-02, 1.44023700e-02, 6.57365099e-02, 3.33899140e-01,
          3.33899140e-01, 1.50542557e-01, 4.48830649e-02, 5.08468673e-02,
          3.50961499e-02, 1.92140676e-02, 2.59707402e-02, 1.20320410e-01,
          3.33899140e-01, 3.33899140e-01, 1.22289523e-01, 1.39040157e-01,
          5.06594665e-02, 3.78912017e-02, 9.92986262e-02, 1.55764341e-01,
          1.53602511e-01, 2.09121436e-01, 1.59643605e-01, 1.55336261e-01,
          1.37246877e-01, 8.44382793e-02, 3.60947736e-02, 7.80903399e-02,
          2.02794760e-01, 2.59612322e-01, 2.09226549e-01, 2.59612322e-01,
          2.59612322e-01, 1.99926540e-01, 6.06230125e-02, 5.15451916e-02,
          3.78832631e-02, 1.02123842e-01, 2.59612322e-01, 1.44229889e-01,
          1.64779514e-01, 1.76201090e-01, 2.07344532e-01, 8.89413431e-02,
          5.45211323e-02, 4.59179133e-02, 1.55128285e-01, 2.59612322e-01,
          1.27872735e-01, 1.36795148e-01, 2.59612322e-01, 2.59612322e-01,
          1.21378131e-01, 2.54090577e-02, 6.52269423e-02, 2.00291604e-01,
          3.08646917e-01, 2.13278338e-01, 1.75673336e-01, 3.08646917e-01,
          1.87191591e-01, 1.63750108e-02, 2.36227037e-03, 1.60604622e-02,
          7.07735419e-02, 3.08646917e-01, 1.12472951e-01, 1.65269915e-02,
          1.00159105e-02, 1.28432931e-02, 8.63988101e-02, 3.78369391e-02,
          5.03821671e-02, 1.45375520e-01, 3.08646917e-01, 2.32778072e-01,
          1.55216068e-01, 3.08646917e-01, 3.08646917e-01, 6.41792500e-03,
          6.72825659e-03, 1.74732320e-02, 8.71245265e-02, 3.08646917e-01,
          1.37179255e-01, 2.90777683e-02, 3.33946273e-02, 2.44866628e-02,
          1.53061813e-02, 1.03710894e-03, 2.85604736e-03, 3.50716198e-03,
          5.11682034e-02, 3.09668958e-01, 3.47925037e-01, 1.30878001e-01,
          2.33251955e-02, 2.57885642e-02, 1.71118267e-02, 5.93207125e-03,
          1.73040181e-02, 9.32280943e-02, 3.47925037e-01, 3.47925037e-01,
          9.85991284e-02, 4.18645106e-02, 1.05423732e-02, 1.34486263e-03,
          2.24611559e-03, 7.30285654e-03, 6.29450455e-02, 3.08947235e-01,
          3.47925037e-01, 9.52697247e-02, 2.70430520e-02, 1.49164340e-02,
          6.75923005e-03, 7.12951506e-03, 2.71094143e-02, 1.10580608e-01,
          3.47925037e-01, 3.47925037e-01, 9.36243758e-02, 2.95892563e-02,
          3.60354930e-02, 2.68841777e-02, 2.04157718e-02, 8.81083906e-02,
          3.42237800e-01, 1.70907885e-01, 2.10181028e-01, 6.85621202e-02,
          6.14893287e-02, 3.91932875e-02, 1.95862055e-02, 2.62739919e-02,
          1.43960431e-01, 3.42237800e-01, 1.59177586e-01, 4.54148501e-02,
          1.28108174e-01, 9.49579850e-02, 1.64605863e-02, 9.69509967e-03,
          1.08959619e-02, 8.94740820e-02, 3.42237800e-01, 3.42237800e-01,
          3.42237800e-01, 3.13975886e-02, 1.70068834e-02, 9.29911342e-03,
          1.05844140e-02, 2.83735339e-02, 1.42717794e-01, 3.42237800e-01,
          3.03472251e-01, 4.69361283e-02, 1.17393844e-02, 4.00009798e-03,
          2.55042650e-02, 1.15517350e-02, 2.27497723e-02, 1.00242577e-01,
          4.01273072e-01, 2.82213867e-01, 7.57779181e-02, 1.64786786e-01,
          8.82005841e-02, 8.27116484e-04, 2.30791559e-03, 5.82749676e-03,
          4.34062183e-02, 4.01273072e-01, 1.41633347e-01, 3.22589129e-02,
          1.67492740e-02, 7.71801826e-03, 6.00957219e-03, 2.01327447e-02,
          3.97770666e-02, 1.09214477e-01, 4.01273072e-01, 3.44639838e-01,
          4.07506824e-02, 1.28490729e-02, 0., 3.08078481e-03,
          1.77883394e-02, 5.14481999e-02, 5.47369048e-02, 4.01273072e-01,
          2.19495088e-01, 9.01027024e-02, 6.64360356e-03, 3.40481079e-03 ]
      - [ 1.52364476e-02, 1.88553426e-02, 2.40359027e-02, 7.89782554e-02,
          3.12029183e-01, 5.53992316e-02, 5.57978172e-03, 1.56823751e-02,
          1.85528267e-02, 5.71122766e-02, 2.06590727e-01, 3.00733745e-01,
          2.13505730e-01, 3.11312526e-01, 1.45566493e-01, 3.24005000e-02,
          2.78452206e-02, 2.21830849e-02, 1.75574627e-02, 6.11235164e-02,
          7.34592825e-02, 1.71951279e-01, 3.12029183e-01, 1.11387014e-01,
          2.27846391e-02, 8.88626371e-03, 1.19366972e-02, 1.09824128e-01,
          3.12029183e-01, 3.12029183e-01, 3.12029183e-01, 3.12029183e-01,
          1.53591231e-01, 6.29646480e-02, 1.94538757e-02, 8.41187835e-02,
          6.61446676e-02, 1.56277761e-01, 2.52318293e-01, 1.46014616e-01,
          9.31922868e-02, 5.49564995e-02, 1.55259231e-02, 1.00682480e-02,
          1.07284533e-02, 1.91573232e-01, 2.14352205e-01, 2.72818714e-01,
          2.43822366e-01, 1.02932058e-01, 4.77218181e-02, 3.55681740e-02,
          4.69181873e-02, 3.45680825e-02, 2.72818714e-01, 1.89076096e-01,
          2.72818714e-01, 1.57690674e-01, 8.31611976e-02, 8.62663835e-02,
          4.67079692e-02, 3.58715132e-02, 1.25936121e-01, 2.72818714e-01,
          2.41033420e-01, 2.72818714e-01, 2.72818714e-01, 1.44179106e-01,
          1.01726413e-01, 1.73176512e-01, 1.50322020e-01, 1.70281976e-01,
          1.32867008e-01, 8.81926790e-02, 1.95753098e-01, 1.61329210e-01,
          2.00069785e-01, 6.52609617e-02, 8.27887729e-02, 5.79606146e-02,
          3.82402837e-02, 3.01067159e-02, 1.14116129e-02, 2.49317084e-02,
          2.43057102e-01, 2.80725211e-01, 6.47130683e-02, 5.91044128e-02,
          2.32814625e-02, 1.37070818e-02, 2.34442130e-01, 1.16557568e-01,
          2.80725211e-01, 2.36580402e-01, 2.59401590e-01, 2.06692263e-01,
          2.80725211e-01, 1.31970584e-01, 5.88047095e-02, 5.63881621e-02,
          2.67838184e-02, 5.69272377e-02, 2.57104307e-01, 2.80725211e-01,
          2.32359931e-01, 2.80725211e-01, 7.24657029e-02, 1.96978431e-02,
          1.33744217e-02, 6.38011768e-02, 8.84400830e-02, 1.87656865e-01,
          1.71362609e-01, 4.10825349e-02, 1.65147427e-02, 5.05813118e-03,
          8.06172937e-03, 1.41007870e-01, 2.39181340e-01, 2.75335193e-01,
          2.75335193e-01, 1.34852871e-01, 9.42629650e-02, 3.76985557e-02,
          6.14213459e-02, 7.99994469e-02, 4.58503738e-02, 1.60758793e-01,
          2.26533249e-01, 2.75335193e-01, 1.61839426e-01, 6.26161247e-02,
          3.47756743e-02, 8.92268680e-03, 2.62315068e-02, 2.75335193e-01,
          2.75335193e-01, 2.75335193e-01, 2.75335193e-01, 2.55293071e-01,
          1.66311264e-01, 5.89776635e-02, 1.57217711e-01, 1.99353501e-01,
          2.10251540e-01, 1.12050921e-01, 1.53682709e-01, 9.49520394e-02,
          7.77609125e-02, 8.64424631e-02, 7.17662722e-02, 1.36670440e-01,
          1.23963922e-01, 2.22623691e-01, 1.18356146e-01, 1.54992893e-01,
          1.51392713e-01, 1.27250269e-01, 7.32544810e-02, 1.62961125e-01,
          1.97644219e-01, 1.40803158e-01, 2.22623691e-01, 2.22623691e-01,
          2.22623691e-01, 2.09850520e-01, 1.18561976e-01, 8.36411044e-02,
          8.71019438e-02, 2.22623691e-01, 2.13046134e-01, 2.22623691e-01,
          2.22623691e-01, 1.25453442e-01, 2.13205114e-01, 1.94990188e-01,
          1.29802540e-01, 1.76078573e-01, 2.22623691e-01, 1.61509305e-01,
          1.60820231e-01, 1.30954430e-01, 1.49394810e-01, 1.55170262e-01,
          1.83515012e-01, 1.30105883e-01, 2.85792112e-01, 1.33545667e-01,
          6.14971407e-02, 7.13755414e-02, 6.51403144e-02, 5.26838154e-02,
          1.26867726e-01, 2.58458465e-01, 1.67343304e-01, 2.85792112e-01,
          1.70606360e-01, 4.37043793e-02, 1.66234091e-01, 2.13053957e-01,
          8.60899910e-02, 1.33789420e-01, 1.80665746e-01, 1.36690244e-01,
          2.72185773e-01, 1.94444895e-01, 9.68125537e-02, 7.59487450e-02,
          9.22909006e-02, 5.85737936e-02, 8.71965587e-02, 1.43985689e-01,
          2.13005930e-01, 2.85792112e-01, 2.56694227e-01, 9.06051919e-02,
          4.19510454e-02, 9.14338678e-02, 1.60634831e-01, 1.32936224e-01,
          7.77896643e-02, 3.80632281e-02, 3.42178270e-02, 2.10523251e-02,
          2.27863751e-02, 1.09727807e-01, 2.89281428e-01, 3.49700898e-01,
          3.33660513e-01, 1.41811952e-01, 7.14985430e-02, 2.80645564e-02,
          4.35029268e-02, 4.82501015e-02, 6.16403967e-02, 1.30431354e-01,
          3.49700898e-01, 1.95174143e-01, 1.19881511e-01, 3.83984447e-02,
          4.64142486e-02, 4.37049717e-02, 4.46862243e-02, 8.89138132e-02,
          3.05725306e-01, 3.49700898e-01, 3.49700898e-01, 1.39107049e-01,
          4.21659425e-02, 2.78194398e-02, 2.33446900e-02, 4.68698442e-02,
          1.63779259e-01, 2.57123560e-01, 2.57123560e-01, 2.57123560e-01,
          7.48438910e-02, 5.77063411e-02, 3.43888886e-02, 7.39326179e-02,
          7.91963488e-02, 1.77236274e-01, 2.30752215e-01, 2.15977505e-01,
          1.89131901e-01, 1.84698284e-01, 1.68758675e-01, 1.37133121e-01,
          8.18160921e-02, 6.20345436e-02, 1.55318424e-01, 2.11525798e-01,
          2.57123560e-01, 2.57123560e-01, 1.13070041e-01, 8.26004744e-02,
          6.33542165e-02, 5.30559123e-02, 7.63136148e-02, 1.64879799e-01,
          1.49904430e-01, 1.73975348e-01, 1.88924119e-01, 2.57123560e-01,
          1.73914015e-01, 1.72924578e-01, 9.60213467e-02, 8.33639950e-02,
          1.16299219e-01, 1.74100190e-01, 1.22994885e-01, 1.60979971e-01,
          2.45241746e-01, 2.18121901e-01, 2.45241746e-01, 2.31654897e-01,
          7.75735825e-02, 5.94697669e-02, 7.67324567e-02, 7.56379217e-02,
          6.33515567e-02, 1.49141684e-01, 1.98014051e-01, 2.45241746e-01,
          2.45241746e-01, 1.16996951e-01, 7.73968771e-02, 1.05665505e-01,
          1.30753130e-01, 1.87737241e-01, 2.45241746e-01, 1.90185413e-01,
          1.97274730e-01, 1.85095400e-01, 5.81868179e-02, 4.86107580e-02,
          4.33977842e-02, 7.89098963e-02, 1.45968392e-01, 2.45241746e-01,
          1.14765868e-01, 2.32122838e-01, 2.45241746e-01, 9.50987637e-02 ]
      - [ 2.49813676e-01, 1.20985240e-01, 2.03289092e-01, 1.42548636e-01,
          8.57011750e-02, 3.61798033e-02, 1.93387493e-02, 9.03335661e-02,
          3.03095818e-01, 2.25766033e-01, 2.59522408e-01, 3.03095818e-01,
          3.03095818e-01, 1.69978529e-01, 2.92072557e-02, 2.71267667e-02,
          6.98198974e-02, 1.55629516e-01, 5.53187467e-02, 1.13439977e-01,
          3.03095818e-01, 1.90316275e-01, 7.23911896e-02, 2.07176004e-02,
          1.40482318e-02, 4.62205335e-02, 4.34484258e-02, 6.05671927e-02,
          1.87407881e-01, 3.03095818e-01, 3.03095818e-01, 9.07441229e-02,
          5.20389806e-03, 1.39282942e-02, 3.12749855e-02, 4.15554419e-02,
          1.55248746e-01, 2.12359279e-01, 2.82697946e-01, 2.82697946e-01,
          1.35837197e-01, 1.40195182e-02, 1.95082314e-02, 1.65116563e-02,
          6.53058887e-02, 5.11784330e-02, 4.69251871e-02, 2.66025454e-01,
          2.05712870e-01, 2.82697946e-01, 1.16353057e-01, 4.19499390e-02,
          1.93093140e-02, 3.14371213e-02, 9.03903022e-02, 2.01920345e-01,
          2.82697946e-01, 2.82697946e-01, 7.84839615e-02, 1.43578714e-02,
          2.94215959e-02, 5.31876720e-02, 5.67296259e-02, 6.02329299e-02,
          1.27017990e-01, 2.27676809e-01, 1.96762934e-01, 2.82697946e-01,
          1.47128284e-01, 2.42422953e-01, 1.50688484e-01, 1.21145763e-01,
          2.26534009e-02, 2.16555335e-02, 6.30943850e-02, 1.87410086e-01,
          3.46299618e-01, 1.46219656e-01, 5.04927449e-02, 1.73703991e-02,
          2.34600082e-02, 1.64779928e-02, 1.60092320e-02, 2.52034124e-02,
          1.47953853e-01, 3.46299618e-01, 6.92516193e-02, 4.30965312e-02,
          1.61328074e-02, 9.05883778e-03, 3.23534906e-02, 3.10336389e-02,
          5.06738387e-02, 2.92663753e-01, 3.46299618e-01, 2.17423260e-01,
          3.31484675e-01, 2.35517249e-01, 1.70201704e-01, 4.60472107e-02,
          2.79123690e-02, 3.49368379e-02, 2.23913103e-01, 3.46299618e-01,
          1.21114090e-01, 1.10172451e-01, 7.28959441e-02, 6.10800833e-02,
          5.12426719e-02, 1.23566426e-01, 2.93846756e-01, 2.44868666e-01,
          6.53934479e-02, 2.42738798e-02, 1.68816354e-02, 1.33932307e-02,
          1.16718626e-02, 5.97697683e-02, 1.14656918e-01, 2.93846756e-01,
          2.93846756e-01, 1.32711738e-01, 4.91354652e-02, 5.53118400e-02,
          6.10066615e-02, 9.02425200e-02, 5.19429483e-02, 1.39349580e-01,
          2.93846756e-01, 2.93846756e-01, 8.54757801e-02, 8.76012892e-02,
          2.76995432e-02, 2.01094262e-02, 1.72888581e-02, 6.37287274e-02,
          1.01911947e-01, 2.93846756e-01, 2.93846756e-01, 1.80728197e-01,
          2.93846756e-01, 2.21526831e-01, 1.59371451e-01, 1.05613761e-01,
          9.60918739e-02, 1.32031918e-01, 2.40826234e-01, 1.81271717e-01,
          1.00666903e-01, 6.11328036e-02, 9.65144187e-02, 1.17141657e-01,
          1.43642932e-01, 7.59836286e-02, 9.11729485e-02, 1.10818267e-01,
          1.35431617e-01, 1.31303251e-01, 1.16421044e-01, 2.40826234e-01,
          2.40826234e-01, 1.68671519e-01, 8.35114121e-02, 7.38865733e-02,
          1.47839576e-01, 1.77950248e-01, 1.87450632e-01, 2.40826234e-01,
          2.40826234e-01, 2.18662813e-01, 2.09629685e-01, 9.49490890e-02,
          7.39399642e-02, 6.72563240e-02, 1.96568251e-01, 1.66670963e-01,
          1.85253814e-01, 2.40826234e-01, 2.40826234e-01, 2.40826234e-01,
          5.38938083e-02, 2.08126754e-02, 3.62101384e-02, 1.58074066e-01,
          2.12538585e-01, 1.60048500e-01, 2.70718008e-01, 2.70718008e-01,
          2.08552063e-01, 2.81837154e-02, 4.06101122e-02, 5.55093959e-02,
          1.09300539e-01, 1.26155525e-01, 1.47335619e-01, 1.93342134e-01,
          9.84247550e-02, 7.71036223e-02, 8.34851786e-02, 7.51274899e-02,
          3.96816544e-02, 1.68750226e-01, 1.46511793e-01, 2.70718008e-01,
          2.70718008e-01, 2.70718008e-01, 2.70718008e-01, 2.52824295e-02,
          6.65173009e-02, 5.71621060e-02, 1.53109252e-01, 1.75751299e-01,
          2.70718008e-01, 2.70718008e-01, 1.43386781e-01, 1.07747629e-01,
          6.01362027e-02, 9.73635763e-02, 2.84315348e-01, 2.84315348e-01,
          1.16313316e-01, 1.17370009e-01, 5.72992302e-02, 5.42447679e-02,
          4.36494611e-02, 7.59996846e-02, 1.32864922e-01, 2.14609101e-01,
          2.64951527e-01, 1.80239812e-01, 2.84315348e-01, 2.84315348e-01,
          2.45186180e-01, 7.10388944e-02, 7.05112815e-02, 7.30944648e-02,
          2.84315348e-01, 2.84315348e-01, 8.80861729e-02, 8.03830475e-02,
          8.28284025e-02, 3.67007069e-02, 5.45689985e-02, 1.10728681e-01,
          1.25592992e-01, 7.58696422e-02, 1.24355964e-01, 1.01490200e-01,
          1.35923982e-01, 2.68413872e-01, 1.60809830e-01, 1.20931819e-01,
          7.04707503e-02, 1.17097840e-01, 1.37877613e-01, 2.38625422e-01,
          1.76069826e-01, 2.38885716e-01, 2.38885716e-01, 2.08595589e-01,
          1.65810958e-01, 8.06200281e-02, 1.10391065e-01, 1.66137323e-01,
          2.38885716e-01, 1.73028961e-01, 2.38885716e-01, 1.67654768e-01,
          2.11247608e-01, 2.38885716e-01, 9.45159793e-02, 1.44591317e-01,
          1.35544971e-01, 1.57765910e-01, 8.91380683e-02, 1.22190773e-01,
          1.79767966e-01, 1.25513121e-01, 1.30586982e-01, 5.01952358e-02,
          9.19093341e-02, 1.78373471e-01, 2.38885716e-01, 2.38885716e-01,
          1.73141032e-01, 1.03755325e-01, 3.89546715e-02, 8.00337940e-02,
          5.80265410e-02, 1.03058323e-01, 1.03893153e-01, 2.40254194e-01,
          1.81698129e-01, 2.70556271e-01, 2.47870117e-01, 2.70556271e-01,
          2.40231171e-01, 3.65255028e-02, 7.20262527e-02, 7.82659724e-02,
          2.60303676e-01, 2.65515000e-01, 2.70556271e-01, 1.76860452e-01,
          1.31240681e-01, 1.12049550e-01, 2.07292438e-02, 3.94377522e-02,
          8.04500729e-02, 2.12254733e-01, 2.70556271e-01, 2.13518992e-01,
          5.83450161e-02, 2.92016640e-02, 3.36749926e-02, 2.39468794e-02,
          3.79109122e-02, 5.44223934e-02, 2.03377992e-01, 2.70556271e-01,
          1.76391378e-01, 3.75482999e-02, 2.73631793e-02, 2.37316228e-02 ]
      - [ 3.26282792e-02, 2.07472313e-02, 3.91545184e-02, 3.15930359e-02,
          2.36363307e-01, 2.02934474e-01, 1.89343169e-01, 1.20375611e-01,
          9.41540897e-02, 9.00035426e-02, 3.31318043e-02, 6.13742620e-02,
          7.68626407e-02, 3.22310209e-01, 1.35323003e-01, 3.15458253e-02,
          5.72514050e-02, 5.97869009e-02, 6.14374913e-02, 1.62385050e-02,
          5.61521165e-02, 3.26508582e-02, 3.22310209e-01, 3.22310209e-01,
          3.22310209e-01, 3.22310209e-01, 1.79436475e-01, 9.24390778e-02,
          5.12984395e-02, 1.08770564e-01, 2.12064400e-01, 3.22310209e-01,
          2.03714982e-01, 8.48450437e-02, 8.39866921e-02, 6.30502403e-02,
          1.06083646e-01, 1.71990432e-02, 1.77430008e-02, 1.05286084e-01,
          3.43922764e-01, 1.49407282e-01, 8.86352286e-02, 1.27998516e-01,
          3.72139886e-02, 5.22633716e-02, 8.10244866e-03, 1.58558190e-02,
          1.04516029e-01, 3.16040784e-01, 1.18714593e-01, 1.47805095e-01,
          1.24575742e-01, 1.09583642e-02, 5.41926473e-02, 2.13616695e-02,
          4.56216931e-02, 3.21380883e-01, 3.43922764e-01, 2.34779000e-01,
          1.02078170e-01, 7.87124410e-02, 1.95651148e-02, 4.05814610e-02,
          1.10322930e-01, 9.43504646e-02, 3.43922764e-01, 3.43922764e-01,
          2.28685752e-01, 1.52235091e-01, 8.77429992e-02, 1.82077065e-02,
          1.51104387e-02, 1.24639571e-02, 3.21447887e-02, 7.20135570e-02,
          3.82719904e-01, 1.37569994e-01, 6.21459708e-02, 2.54675951e-02,
          8.55096616e-03, 7.27315294e-03, 4.86250129e-03, 1.01209553e-02,
          3.65397111e-02, 3.82719904e-01, 2.81898588e-01, 2.93255231e-04,
          7.62738578e-04, 2.43192608e-03, 9.06204432e-02, 2.58385986e-01,
          1.56642795e-01, 1.90723121e-01, 3.82719904e-01, 1.58458874e-01,
          7.50626475e-02, 4.64707837e-02, 4.51273695e-02, 4.00634743e-02,
          4.83498722e-02, 3.93857434e-02, 8.04740340e-02, 3.82719904e-01,
          3.39606047e-01, 1.34160472e-02, 1.54263973e-02, 2.51184050e-02,
          3.49820852e-02, 1.14010470e-02, 1.19226687e-02, 1.45633360e-02,
          1.76224038e-01, 2.98134506e-01, 2.72812605e-01, 1.75590560e-01,
          1.03170656e-01, 3.37227248e-02, 1.68955196e-02, 2.46469732e-02,
          8.59167352e-02, 2.98134506e-01, 1.69614375e-01, 1.38137549e-01,
          1.22212954e-01, 3.57726142e-02, 2.34369487e-02, 3.08218859e-02,
          3.70048592e-03, 9.60293319e-03, 1.39551595e-01, 2.98134506e-01,
          2.98134506e-01, 1.69659406e-01, 4.09760289e-02, 5.86305596e-02,
          5.46432212e-02, 1.22441268e-02, 6.38820827e-02, 2.98134506e-01,
          2.98134506e-01, 2.98134506e-01, 2.98134506e-01, 4.00706865e-02,
          1.01378318e-02, 9.24351625e-03, 2.26277132e-02, 1.61747575e-01,
          3.55115443e-01, 1.69829011e-01, 6.12089150e-02, 2.04797126e-02,
          8.14756285e-03, 2.55138762e-02, 1.15453839e-01, 1.20646492e-01,
          2.36710012e-01, 3.55115443e-01, 1.97971284e-01, 5.13944440e-02,
          1.37877427e-02, 1.96257401e-02, 3.16178389e-02, 3.01413629e-02,
          3.15823555e-02, 1.35004222e-01, 3.55115443e-01, 2.44832009e-01,
          1.15007415e-01, 1.08543932e-01, 2.76535600e-02, 1.77054815e-02,
          8.09110478e-02, 2.59878606e-01, 2.65900701e-01, 3.55115443e-01,
          2.11241201e-01, 7.13941827e-02, 5.60423099e-02, 1.73708927e-02,
          7.45245814e-02, 2.22791776e-01, 2.47337773e-01, 2.42909819e-01,
          3.02753896e-01, 1.60476938e-01, 2.93680448e-02, 3.73847820e-02,
          3.79308499e-02, 2.14003399e-02, 2.99376510e-02, 7.27503896e-02,
          1.32482097e-01, 3.02753896e-01, 2.60597169e-01, 1.29631096e-02,
          1.32323494e-02, 1.44173652e-02, 2.23828275e-02, 7.78186247e-02,
          3.02753896e-01, 3.02753896e-01, 2.90663928e-01, 1.74801916e-01,
          3.60207856e-02, 3.65702249e-02, 1.44916559e-02, 6.56039547e-03,
          5.89177338e-03, 1.07827798e-01, 1.15218543e-01, 3.02753896e-01,
          3.02753896e-01, 7.24299485e-03, 5.07724099e-03, 5.57501055e-03,
          1.53343529e-02, 1.52415419e-02, 3.51620745e-03, 7.75737315e-03,
          1.25102058e-01, 2.94988841e-01, 2.94988841e-01, 8.51399675e-02,
          1.51710026e-02, 3.39302383e-02, 3.70881334e-02, 2.47678850e-02,
          9.42592472e-02, 2.94988841e-01, 2.94988841e-01, 2.94988841e-01,
          2.10606113e-01, 4.17074747e-02, 1.66103058e-02, 1.70468027e-03,
          4.72339429e-03, 3.84215750e-02, 1.95691124e-01, 2.77022898e-01,
          2.94988841e-01, 3.07242423e-02, 1.87680013e-02, 1.55191692e-02,
          1.10946707e-02, 2.73820721e-02, 6.32795393e-02, 2.94988841e-01,
          2.94988841e-01, 2.94988841e-01, 7.03527480e-02, 6.26097098e-02,
          2.90857777e-02, 6.92409202e-02, 1.35914668e-01, 2.04883292e-01,
          2.69909412e-01, 2.51864672e-01, 1.77043557e-01, 8.86536762e-02,
          3.77350189e-02, 1.70441493e-02, 8.96219537e-02, 2.69909412e-01,
          2.69909412e-01, 2.69909412e-01, 1.35671094e-01, 5.74842058e-02,
          4.81478162e-02, 1.31898476e-02, 1.60965510e-02, 6.03923686e-02,
          1.54102504e-01, 1.56198844e-01, 2.69909412e-01, 2.69909412e-01,
          2.68009871e-01, 3.17411087e-02, 4.72947769e-02, 2.33813543e-02,
          8.07838365e-02, 2.48945132e-01, 2.50616193e-01, 2.69909412e-01,
          1.43426612e-01, 6.83027431e-02, 1.22224595e-02, 1.72934420e-02,
          1.11001674e-02, 4.58849818e-02, 3.92531604e-01, 3.63976389e-01,
          2.22227320e-01, 1.26709148e-01, 3.22837941e-02, 2.58865915e-02,
          5.35230432e-03, 3.47016798e-03, 3.20041808e-03, 4.56800833e-02,
          7.44692758e-02, 3.92531604e-01, 2.70855933e-01, 7.39887170e-03,
          2.91735516e-03, 4.04236093e-03, 7.22771734e-02, 6.82908669e-02,
          1.76691353e-01, 2.01330855e-01, 2.99189448e-01, 1.24823354e-01,
          4.29704078e-02, 1.87414326e-02, 7.57719949e-02, 4.67491373e-02,
          1.42064514e-02, 2.46704873e-02, 1.13286138e-01, 3.92531604e-01,
          1.88675433e-01, 8.34135618e-03, 1.37089668e-02, 6.69939891e-02 ]
      - [ 4.10752743e-02, 4.98671606e-02, 4.13930602e-02, 1.05107576e-01,
          3.01535219e-01, 1.58213720e-01, 3.28578018e-02, 3.09190210e-02,
          3.65453735e-02, 1.78922191e-01, 2.47939810e-01, 3.01535219e-01,
          1.63316891e-01, 2.72294432e-01, 9.29051489e-02, 2.83252820e-02,
          7.21658990e-02, 1.10228188e-01, 1.12128451e-01, 9.41046327e-02,
          6.29279763e-02, 1.29031390e-01, 3.01535219e-01, 2.03008622e-01,
          9.45782065e-02, 5.90413064e-02, 7.70458132e-02, 2.27949485e-01,
          3.01535219e-01, 3.01535219e-01, 2.16250315e-01, 1.88765228e-01,
          1.15765795e-01, 8.37414190e-02, 8.19479674e-02, 1.13276631e-01,
          1.27473041e-01, 1.81042463e-01, 2.86443144e-01, 1.06790155e-01,
          1.04529902e-01, 4.43435982e-02, 2.50397101e-02, 3.09210569e-02,
          7.47949779e-02, 1.17526941e-01, 1.58520967e-01, 2.07846805e-01,
          1.21553995e-01, 1.19993173e-01, 1.37695417e-01, 4.44391593e-02,
          2.41600089e-02, 1.31374776e-01, 1.24311946e-01, 2.86443144e-01,
          2.86443144e-01, 1.60942614e-01, 7.24798068e-02, 8.75834972e-02,
          1.24542825e-01, 3.93285528e-02, 5.73423877e-02, 1.63069159e-01,
          2.86443144e-01, 2.86443144e-01, 2.86443144e-01, 2.08286703e-01,
          2.40992919e-01, 2.18777522e-01, 4.19118479e-02, 1.48146600e-01,
          1.17515780e-01, 1.36214525e-01, 1.93332002e-01, 1.43617257e-01,
          1.92288801e-01, 2.46666938e-01, 5.81603907e-02, 3.46858837e-02,
          1.31155461e-01, 3.71712931e-02, 8.67678598e-02, 1.59333587e-01,
          2.13091731e-01, 2.55195022e-01, 2.46522918e-01, 6.75759390e-02,
          1.74068492e-02, 1.44652091e-02, 1.57066643e-01, 1.87576801e-01,
          2.07943499e-01, 2.55195022e-01, 2.55195022e-01, 2.55195022e-01,
          1.59611762e-01, 4.76019867e-02, 1.99567124e-01, 3.66241522e-02,
          6.89562857e-02, 1.24876231e-01, 2.55195022e-01, 2.55195022e-01,
          2.26752847e-01, 6.55238032e-02, 3.30060944e-02, 4.48965989e-02,
          6.30503818e-02, 1.33626878e-01, 1.58542946e-01, 1.06603049e-01,
          1.47187412e-01, 7.66801536e-02, 7.06496686e-02, 5.78606986e-02,
          4.03134301e-02, 8.43923837e-02, 3.01716477e-01, 3.08351010e-01,
          1.95224419e-01, 1.13444917e-01, 9.25515741e-02, 7.23875761e-02,
          5.92369959e-02, 4.59772907e-02, 5.91518097e-02, 3.08351010e-01,
          3.08351010e-01, 2.99254805e-01, 1.10968739e-01, 3.33892591e-02,
          4.35096622e-02, 6.08417168e-02, 7.79824108e-02, 7.80605078e-02,
          3.08351010e-01, 3.08351010e-01, 2.68751323e-01, 1.42993152e-01,
          1.06984831e-01, 1.42241359e-01, 7.12936595e-02, 5.85234053e-02,
          5.73322363e-02, 1.87218711e-01, 2.48132735e-01, 1.61043480e-01,
          9.34133679e-02, 1.09517932e-01, 1.25201747e-01, 3.43625247e-02,
          3.24374847e-02, 1.38079166e-01, 1.70896739e-01, 2.43203625e-01,
          2.16629073e-01, 1.84233844e-01, 2.03498095e-01, 2.48132735e-01,
          6.64074644e-02, 6.11491129e-02, 6.56562820e-02, 1.33505881e-01,
          2.37197176e-01, 1.73743084e-01, 1.37150407e-01, 1.88488543e-01,
          2.06174791e-01, 4.49263081e-02, 2.56411619e-02, 9.80187431e-02,
          1.26232848e-01, 2.00627014e-01, 2.48132735e-01, 2.48132735e-01,
          2.48132735e-01, 2.48132735e-01, 9.29838642e-02, 6.93093315e-02,
          1.22215517e-01, 1.36164591e-01, 1.13300838e-01, 1.85170248e-01,
          2.16332793e-01, 1.86934024e-01, 2.86665499e-01, 1.22848548e-01,
          1.02802262e-01, 1.51021890e-02, 2.88004912e-02, 5.12875244e-02,
          1.45808235e-01, 1.91632673e-01, 7.92250261e-02, 9.68812332e-02,
          4.77667674e-02, 3.23207602e-02, 8.88094828e-02, 9.63757187e-02,
          2.05574229e-01, 2.86665499e-01, 2.86665499e-01, 2.86665499e-01,
          2.86665499e-01, 2.13878289e-01, 1.41400293e-01, 1.07352063e-02,
          1.05126044e-02, 4.38536219e-02, 2.04670474e-01, 2.86665499e-01,
          1.95849672e-01, 1.47919402e-01, 6.90181181e-02, 3.45302336e-02,
          7.99207389e-02, 3.12017769e-01, 3.12017769e-01, 2.62221545e-01,
          9.99021605e-02, 6.84322268e-02, 5.57207391e-02, 3.93088944e-02,
          5.83896525e-02, 7.69241005e-02, 3.12017769e-01, 3.12017769e-01,
          1.56059459e-01, 1.24761760e-01, 9.78525057e-02, 2.05849230e-01,
          5.70069328e-02, 5.21526933e-02, 1.75590619e-01, 3.12017769e-01,
          3.12017769e-01, 1.59074515e-01, 1.87316969e-01, 1.04533568e-01,
          5.90437278e-02, 2.73232106e-02, 6.01363517e-02, 6.62170649e-02,
          1.53045863e-01, 1.98965356e-01, 7.81425014e-02, 8.92793462e-02,
          5.97280189e-02, 1.06464550e-01, 5.04017994e-02, 4.70113792e-02,
          1.00017667e-01, 1.31929383e-01, 1.31458715e-01, 9.46533531e-02,
          1.80441767e-01, 2.18370765e-01, 2.87887186e-01, 5.25460280e-02,
          2.10229009e-02, 1.01645045e-01, 1.29603699e-01, 1.17500611e-01,
          2.25886479e-01, 2.87887186e-01, 2.87887186e-01, 2.87887186e-01,
          1.49685279e-01, 1.58139303e-01, 7.75872692e-02, 9.94217992e-02,
          8.48301873e-02, 1.04624338e-01, 2.19875067e-01, 8.72910842e-02,
          1.54061198e-01, 3.88910323e-02, 2.40510907e-02, 8.77519399e-02,
          9.03894380e-02, 6.60321116e-02, 2.82971799e-01, 2.87887186e-01,
          1.87586799e-01, 1.68305263e-01, 1.06921621e-01, 1.23156935e-01,
          6.98158890e-02, 4.24258821e-02, 1.31365299e-01, 2.91882187e-01,
          2.91882187e-01, 2.91882187e-01, 2.40577355e-01, 2.03454494e-01,
          2.91882187e-01, 2.30405275e-02, 6.70923106e-03, 4.43793535e-02,
          1.98896438e-01, 2.91882187e-01, 1.55666113e-01, 4.31621820e-02,
          4.44273055e-02, 8.99194181e-02, 5.79466596e-02, 4.01305519e-02,
          8.00698027e-02, 2.32738093e-01, 2.91882187e-01, 1.25875056e-01,
          7.80468881e-02, 1.28079012e-01, 2.33334020e-01, 2.54798848e-02,
          1.51372841e-02, 3.61146554e-02, 1.59879297e-01, 2.91882187e-01,
          7.97224864e-02, 8.77133198e-03, 1.92131195e-02, 7.98632726e-02 ]
      - [ 1.22105286e-01, 2.96770751e-01, 2.96770751e-01, 2.41732568e-01,
          6.01555333e-02, 2.39549186e-02, 1.99055821e-02, 3.16973142e-02,
          5.98197579e-02, 1.06210135e-01, 2.69452393e-01, 2.96770751e-01,
          2.20433727e-01, 1.11457683e-01, 7.32985139e-02, 9.85650420e-02,
          7.81203657e-02, 1.03189386e-01, 1.07026719e-01, 1.88665077e-01,
          2.96770751e-01, 2.11501315e-01, 9.57236364e-02, 6.14372492e-02,
          5.54452352e-02, 6.97691143e-02, 9.52473879e-02, 1.16226725e-01,
          2.50039041e-01, 2.96770751e-01, 1.80131197e-01, 1.07604682e-01,
          1.36068076e-01, 9.57741812e-02, 8.87385532e-02, 1.41657278e-01,
          7.49656931e-02, 9.62143838e-02, 1.57008544e-01, 1.02563336e-01,
          2.06094056e-01, 1.92178369e-01, 1.11225367e-01, 6.36542588e-02,
          7.91125968e-02, 6.99963197e-02, 1.15344599e-01, 9.17457268e-02,
          1.40168682e-01, 2.47990489e-01, 2.47990489e-01, 1.79517359e-01,
          1.16986826e-01, 1.04193844e-01, 1.61406115e-01, 1.48785993e-01,
          1.95001766e-01, 9.39497501e-02, 1.25441134e-01, 1.77820191e-01,
          1.12202398e-01, 7.26011544e-02, 1.09100312e-01, 2.46075422e-01,
          2.47990489e-01, 2.47990489e-01, 1.58033520e-01, 2.47990489e-01,
          2.47990489e-01, 2.11380884e-01, 1.96695283e-01, 1.79702640e-01,
          1.00475535e-01, 1.20167069e-01, 6.29457012e-02, 1.80648491e-01,
          2.63079613e-01, 2.08459675e-01, 1.95982084e-01, 1.96642846e-01,
          2.17892781e-01, 7.65915290e-02, 4.03300971e-02, 1.33435223e-02,
          7.65778273e-02, 2.03480199e-01, 9.20330584e-02, 5.66514470e-02,
          6.57457113e-02, 1.26424059e-01, 1.99124992e-01, 2.63079613e-01,
          2.24465698e-01, 2.14373097e-01, 2.63079613e-01, 2.63079613e-01,
          2.63079613e-01, 2.63079613e-01, 2.08065540e-01, 8.16272497e-02,
          3.08037810e-02, 1.86557136e-02, 6.86488077e-02, 1.28757522e-01,
          1.60709709e-01, 9.90192071e-02, 1.15486927e-01, 9.23924223e-02,
          1.05731249e-01, 2.53753513e-01, 1.77347526e-01, 8.22516680e-02,
          8.88979882e-02, 8.11145082e-02, 5.06129824e-02, 5.15316576e-02,
          1.26081795e-01, 9.77396592e-02, 1.81460395e-01, 1.54510021e-01,
          1.23672538e-01, 9.38063785e-02, 1.97644234e-01, 1.01077244e-01,
          1.02172658e-01, 1.16030134e-01, 1.72373950e-01, 2.53753513e-01,
          2.53753513e-01, 1.21190608e-01, 1.14701658e-01, 1.57918066e-01,
          6.23866543e-02, 8.10509473e-02, 1.86459631e-01, 1.38155133e-01,
          2.40101025e-01, 1.95035309e-01, 2.53753513e-01, 2.51003265e-01,
          2.53753513e-01, 2.09388778e-01, 2.41183326e-01, 1.39188007e-01,
          1.24973074e-01, 7.41276667e-02, 9.64762345e-02, 1.14634365e-01,
          9.91106704e-02, 1.17482878e-01, 7.27267936e-02, 5.17175570e-02,
          7.33739734e-02, 2.27128923e-01, 1.23655237e-01, 2.00998560e-01,
          1.77444115e-01, 2.29368210e-01, 2.41012082e-01, 2.17634365e-01,
          1.28901854e-01, 1.59893498e-01, 1.51438758e-01, 1.15136012e-01,
          1.49872571e-01, 2.06205994e-01, 1.91275761e-01, 1.61450118e-01,
          1.33433998e-01, 1.24439642e-01, 8.76990631e-02, 1.85746849e-01,
          1.34273410e-01, 2.21942365e-01, 2.04211086e-01, 2.41012082e-01,
          2.41012082e-01, 2.41012082e-01, 1.98507398e-01, 1.26826555e-01,
          1.63333073e-01, 1.39596164e-01, 2.17110753e-01, 2.28065044e-01,
          2.28048176e-01, 2.64403343e-01, 2.64403343e-01, 2.56124437e-01,
          1.69077232e-01, 3.59409079e-02, 3.12655382e-02, 3.85245942e-02,
          1.10797703e-01, 9.34998542e-02, 1.13460161e-01, 7.89998770e-02,
          1.02409549e-01, 5.43609746e-02, 1.43053904e-01, 8.70820433e-02,
          2.20228076e-01, 2.28943899e-01, 2.64403343e-01, 2.64403343e-01,
          2.64403343e-01, 2.64403343e-01, 1.62931472e-01, 4.01086584e-02,
          2.59278622e-02, 5.19079119e-02, 1.15615070e-01, 1.72674060e-01,
          6.80363327e-02, 8.56960118e-02, 8.23912323e-02, 8.14620331e-02,
          1.79020524e-01, 2.58469760e-01, 1.29402637e-01, 1.29420131e-01,
          1.39025733e-01, 1.68417543e-01, 5.58592379e-02, 7.14930966e-02,
          1.11214265e-01, 2.55039930e-01, 1.96963295e-01, 2.09289327e-01,
          2.78918862e-01, 2.78918862e-01, 2.78918862e-01, 2.21074060e-01,
          2.50637144e-01, 1.05066493e-01, 6.30497113e-02, 4.03875113e-02,
          1.31304301e-02, 3.70569266e-02, 1.90312162e-01, 1.41332239e-01,
          1.96154509e-02, 5.99242970e-02, 7.31364936e-02, 1.13193475e-01,
          7.97449872e-02, 7.29608908e-02, 2.78918862e-01, 2.78918862e-01,
          1.40306443e-01, 7.03210086e-02, 8.63304511e-02, 8.92680138e-02,
          2.01544538e-01, 1.26375929e-01, 1.67054042e-01, 2.70861924e-01,
          2.95504659e-01, 1.16276719e-01, 1.01596937e-01, 9.83522758e-02,
          7.74296671e-02, 1.59731716e-01, 1.66339934e-01, 1.85322970e-01,
          2.30342105e-01, 2.95504659e-01, 1.83919251e-01, 1.25681281e-01,
          1.04285546e-01, 8.13289806e-02, 7.29807243e-02, 4.18051593e-02,
          9.56729203e-02, 2.95504659e-01, 2.95504659e-01, 9.79826152e-02,
          5.21902852e-02, 2.86953468e-02, 3.99975330e-02, 4.87501211e-02,
          4.98268753e-02, 1.10825405e-01, 2.87067652e-01, 2.95504659e-01,
          1.51340470e-01, 3.58129665e-02, 1.24160601e-02, 2.22456027e-02,
          8.13589767e-02, 1.07807130e-01, 1.77079886e-01, 2.49944612e-01,
          3.07527095e-01, 3.07527095e-01, 2.25330025e-01, 1.71665877e-01,
          8.46047997e-02, 4.18427698e-02, 1.22957770e-02, 3.67298312e-02,
          9.74897742e-02, 2.90476173e-01, 1.79825976e-01, 9.49483588e-02,
          5.18054515e-02, 4.39657457e-02, 2.14049742e-02, 6.66583255e-02,
          1.29308149e-01, 2.50439167e-01, 3.07527095e-01, 3.07527095e-01,
          9.33116153e-02, 3.39716971e-02, 1.08585367e-02, 5.85267171e-02,
          5.03007993e-02, 3.83685119e-02, 8.53694975e-02, 3.07527095e-01,
          2.13324815e-01, 1.49368867e-01, 6.39383197e-02, 2.33715884e-02 ]
      - [ 4.86103557e-02, 6.79313904e-03, 2.49966308e-02, 4.11357209e-02,
          9.18469131e-02, 2.14774683e-01, 2.96952486e-01, 1.16841100e-01,
          6.87635094e-02, 1.09365702e-01, 8.25425908e-02, 1.43632382e-01,
          1.07990846e-01, 1.87457919e-01, 1.52384132e-01, 2.96952486e-01,
          2.04982519e-01, 1.48676768e-01, 3.59693021e-02, 8.52454454e-03,
          1.52577907e-02, 4.03550491e-02, 1.14424445e-01, 2.96952486e-01,
          2.96952486e-01, 2.00341642e-01, 8.10861662e-02, 1.30166605e-01,
          1.12108320e-01, 8.93597230e-02, 1.20596170e-01, 2.96952486e-01,
          2.73801625e-01, 2.96952486e-01, 1.17618814e-01, 1.13371208e-01,
          1.80622742e-01, 1.24831133e-01, 1.73301935e-01, 8.71471465e-02,
          1.44189015e-01, 5.41896932e-02, 1.37636721e-01, 1.20595530e-01,
          2.00969890e-01, 1.59843683e-01, 1.17731571e-01, 7.66335502e-02,
          8.16073641e-02, 2.29191020e-01, 1.66421488e-01, 1.16108567e-01,
          1.03852846e-01, 2.05125570e-01, 2.07716227e-01, 1.24662675e-01,
          1.40106127e-01, 1.58247054e-01, 2.75381029e-01, 2.09767997e-01,
          7.90767893e-02, 1.04283184e-01, 1.74808964e-01, 1.82308868e-01,
          1.00298069e-01, 8.60413760e-02, 2.75381029e-01, 2.75381029e-01,
          2.75381029e-01, 1.06423855e-01, 1.22106463e-01, 1.99941978e-01,
          4.69930544e-02, 5.60015440e-02, 2.44847499e-02, 8.50883871e-02,
          3.53676945e-01, 3.12069744e-01, 1.55904531e-01, 3.69766429e-02,
          5.69370165e-02, 3.86346900e-03, 2.01879768e-03, 2.89439596e-03,
          4.77692559e-02, 3.53676945e-01, 2.41734222e-01, 7.69598782e-02,
          2.04506819e-03, 4.60453518e-03, 6.68483227e-02, 6.91403449e-02,
          2.96645295e-02, 2.21209303e-01, 3.53676945e-01, 3.53676945e-01,
          7.60391578e-02, 4.34836373e-02, 6.87511340e-02, 9.34742112e-03,
          8.73068441e-03, 2.61052023e-03, 7.52060264e-02, 3.53676945e-01,
          2.89901823e-01, 4.75444309e-02, 2.79220901e-02, 2.18630470e-02,
          2.58675776e-02, 1.43750729e-02, 8.01110640e-03, 1.16025712e-02,
          6.68294504e-02, 2.82051623e-01, 3.39462131e-01, 1.21930331e-01,
          5.91844507e-02, 3.38088013e-02, 2.76989695e-02, 1.71014909e-02,
          4.57970984e-02, 2.62874156e-01, 3.12630892e-01, 3.17217857e-01,
          5.24584465e-02, 3.87812480e-02, 1.82407051e-02, 1.73062254e-02,
          1.24920271e-02, 8.33246112e-03, 1.00306168e-01, 3.39462131e-01,
          3.39462131e-01, 8.71629044e-02, 4.39089760e-02, 3.09242364e-02,
          1.75371412e-02, 2.14431318e-03, 1.83033943e-02, 1.07798181e-01,
          3.39462131e-01, 3.39462131e-01, 7.94113874e-02, 3.11981440e-02,
          3.54311392e-02, 6.49242327e-02, 5.85605651e-02, 1.42126709e-01,
          2.98490554e-01, 2.83660233e-01, 8.46503228e-02, 7.81992897e-02,
          2.93631591e-02, 3.08518223e-02, 6.50863424e-02, 7.24159032e-02,
          2.98490554e-01, 2.98490554e-01, 2.98490554e-01, 7.59140849e-02,
          7.31873363e-02, 3.23588885e-02, 3.84813398e-02, 5.72190583e-02,
          2.30226088e-02, 1.09595343e-01, 1.67545080e-01, 2.54613250e-01,
          2.59168446e-01, 9.82867256e-02, 2.62728613e-02, 3.83335166e-02,
          9.98906046e-02, 4.92817238e-02, 2.98490554e-01, 2.98490554e-01,
          2.98490554e-01, 1.15415618e-01, 1.08324289e-01, 1.97806209e-02,
          1.80873424e-02, 3.25965136e-02, 3.33347693e-02, 2.91423619e-01,
          3.63545269e-01, 2.96927214e-01, 5.35087474e-02, 3.94127145e-02,
          2.36189812e-02, 7.58305518e-03, 6.53094845e-03, 2.33348715e-03,
          6.18787594e-02, 3.63545269e-01, 2.14727014e-01, 7.14835376e-02,
          3.73875499e-02, 1.47566888e-02, 2.10607089e-02, 9.36644897e-02,
          3.63500044e-02, 2.00578064e-01, 3.63545269e-01, 3.37965012e-01,
          6.56624064e-02, 8.49517360e-02, 7.27764936e-03, 6.51712669e-03,
          2.01900098e-02, 6.01198524e-03, 4.35887016e-02, 3.63545269e-01,
          2.23477647e-01, 3.04860566e-02, 2.30562240e-02, 3.18980077e-03,
          4.98450454e-03, 5.15543204e-03, 2.61266460e-03, 9.03211813e-03,
          8.71851966e-02, 3.50480050e-01, 3.50480050e-01, 4.54626195e-02,
          1.44106252e-02, 1.57751329e-02, 8.99258908e-03, 6.11922471e-04,
          1.25514008e-02, 4.70694341e-02, 3.29525799e-01, 3.50480050e-01,
          8.49798918e-02, 1.80091076e-02, 3.48474202e-03, 1.38910464e-03,
          2.87486985e-03, 6.51287613e-03, 5.56545667e-02, 3.38112086e-01,
          3.50480050e-01, 2.61368994e-02, 1.01368176e-02, 1.13089336e-03,
          2.18896940e-03, 5.52600157e-03, 1.12921475e-02, 8.61874148e-02,
          3.35920125e-01, 3.50480050e-01, 1.20415635e-01, 1.62000470e-02,
          3.83743532e-02, 2.65188720e-02, 1.50136529e-02, 6.06048033e-02,
          8.20434019e-02, 2.26350814e-01, 3.30901235e-01, 1.17521591e-01,
          5.00199720e-02, 5.60024753e-02, 7.40845203e-02, 4.82953899e-02,
          2.19220504e-01, 3.30901235e-01, 2.02649653e-01, 1.44027799e-01,
          1.66027129e-01, 4.90383729e-02, 2.05678754e-02, 1.83018912e-02,
          1.59596801e-02, 1.95541307e-02, 8.22555348e-02, 2.18550354e-01,
          3.30901235e-01, 2.40247175e-01, 4.34727184e-02, 7.59062320e-02,
          4.91704829e-02, 3.47736999e-02, 1.15330085e-01, 3.30901235e-01,
          1.67352855e-01, 3.30901235e-01, 2.18029737e-01, 6.55674338e-02,
          2.48652641e-02, 7.46305138e-02, 3.24198939e-02, 1.55402437e-01,
          3.69994760e-01, 2.61086345e-01, 4.97855097e-02, 1.22047909e-01,
          1.20803602e-02, 2.83045019e-03, 1.55620668e-02, 5.05303266e-03,
          4.91245277e-02, 3.69994760e-01, 2.79383600e-01, 2.80911792e-02,
          1.54919652e-02, 1.63876789e-03, 3.59460413e-02, 2.29495820e-02,
          1.52338604e-02, 1.44261673e-01, 3.69994760e-01, 2.83364773e-01,
          5.24959639e-02, 6.98934048e-02, 2.12070327e-02, 2.87204311e-04,
          1.35836576e-03, 9.59130120e-04, 5.51377945e-02, 3.69994760e-01,
          3.61247808e-01, 7.06690475e-02, 9.05962382e-03, 2.97374470e-04 ]
      - [ 1.06743909e-02, 1.63179543e-02, 3.59093957e-02, 3.84434313e-02,
          3.39475535e-02, 1.06172152e-02, 5.56320138e-03, 6.20305678e-03,
          6.08739443e-03, 3.24601196e-02, 1.32056385e-01, 3.98022890e-01,
          3.98022890e-01, 1.97389439e-01, 4.83208150e-02, 2.10891720e-02,
          8.91109463e-03, 7.78269116e-03, 5.50452061e-03, 6.49151057e-02,
          2.62826979e-01, 1.98615044e-01, 6.86558411e-02, 2.33535357e-02,
          1.72898937e-02, 6.71263039e-03, 7.42948940e-03, 9.67675447e-02,
          3.98022890e-01, 3.98022890e-01, 3.98022890e-01, 8.16251487e-02,
          3.99316698e-02, 2.49319430e-02, 1.19230049e-02, 4.69609387e-02,
          3.42986584e-02, 2.12000698e-01, 2.80864805e-01, 2.48025179e-01,
          1.19634479e-01, 2.68614031e-02, 1.91041306e-02, 6.99386420e-03,
          7.83349201e-03, 6.47189319e-02, 2.18274981e-01, 2.80864805e-01,
          2.72010982e-01, 2.60528147e-01, 3.77276912e-02, 2.56853756e-02,
          2.03884672e-02, 4.93139960e-02, 7.98856616e-02, 2.80864805e-01,
          2.80864805e-01, 2.32879862e-01, 5.38746305e-02, 7.38480687e-02,
          3.79810855e-02, 2.89504137e-02, 2.43438631e-02, 7.27770850e-02,
          2.11265221e-01, 2.80864805e-01, 2.11567059e-01, 2.80864805e-01,
          1.26379609e-01, 1.15202442e-01, 6.40325695e-02, 4.72332984e-02,
          4.70731258e-02, 5.39904423e-02, 1.70823485e-01, 3.23935330e-01,
          4.00194973e-01, 7.18186498e-02, 1.54202748e-02, 1.60005819e-02,
          4.87547256e-02, 6.51208824e-03, 3.39944847e-04, 4.50267922e-03,
          1.39883563e-01, 4.00194973e-01, 5.22973612e-02, 1.14843855e-03,
          4.76660905e-04, 5.02196932e-03, 3.32633331e-02, 6.64329380e-02,
          1.01517797e-01, 3.25368226e-01, 4.00194973e-01, 1.10332079e-01,
          7.99325407e-02, 3.33605669e-02, 4.34925966e-02, 8.79277103e-03,
          0., 1.04318839e-02, 1.89268187e-01, 4.00194973e-01,
          7.97917545e-02, 1.18256698e-03, 6.12849777e-04, 8.79277103e-03,
          1.73122156e-02, 1.39992461e-01, 3.04640383e-01, 1.68027312e-01,
          7.19073787e-02, 1.15490062e-02, 5.62808942e-03, 5.12857456e-03,
          9.62737389e-03, 7.07166493e-02, 3.04640383e-01, 3.04640383e-01,
          2.60289967e-01, 6.70586303e-02, 2.23579369e-02, 1.03773307e-02,
          7.87690748e-03, 5.08481078e-02, 6.58960491e-02, 3.04640383e-01,
          3.04640383e-01, 3.04640383e-01, 7.79526010e-02, 1.06477914e-02,
          1.01923645e-02, 8.61197896e-03, 1.59843676e-02, 1.43575534e-01,
          3.04640383e-01, 3.04640383e-01, 2.72634029e-01, 1.00125246e-01,
          4.39101867e-02, 1.37644624e-02, 1.63105726e-02, 4.58574407e-02,
          1.09586023e-01, 2.54828304e-01, 2.54828304e-01, 1.48793191e-01,
          6.30815253e-02, 1.44510463e-01, 5.57191372e-02, 3.56343426e-02,
          6.81644902e-02, 1.32542223e-01, 1.43810377e-01, 2.03771904e-01,
          1.68766648e-01, 2.54828304e-01, 2.25138396e-01, 1.40636832e-01,
          7.26688728e-02, 1.00326382e-01, 2.36681208e-01, 2.43411601e-01,
          2.54828304e-01, 1.34555221e-01, 7.79175907e-02, 1.36187822e-01,
          5.02357334e-02, 6.14600107e-02, 1.33323774e-01, 2.54828304e-01,
          1.07208520e-01, 9.15568694e-02, 1.53071761e-01, 2.54828304e-01,
          2.09594339e-01, 9.57290381e-02, 1.21676892e-01, 2.29035348e-01,
          6.13270402e-02, 3.58919203e-02, 6.82576224e-02, 2.24213764e-01,
          4.35439795e-01, 1.15286030e-01, 6.95318952e-02, 3.50415818e-02,
          6.00782782e-02, 7.78090768e-03, 0., 1.16322748e-02,
          1.75312728e-01, 4.35439795e-01, 7.00956434e-02, 1.07278128e-03,
          9.42136976e-05, 7.92187080e-03, 1.16931155e-01, 1.38819385e-02,
          3.41132544e-02, 2.14624956e-01, 4.35439795e-01, 1.17395915e-01,
          4.93072011e-02, 7.30372667e-02, 9.61661637e-02, 2.78128474e-03,
          0., 4.85607190e-03, 1.57558531e-01, 4.35439795e-01,
          4.00505364e-02, 2.86208559e-03, 6.20360079e-04, 3.34419799e-03,
          6.07422739e-02, 2.99866050e-01, 2.99866050e-01, 2.99866050e-01,
          6.36864901e-02, 1.82676334e-02, 1.55674815e-02, 7.36507494e-03,
          2.32867151e-02, 8.81324336e-02, 2.91088343e-01, 2.99866050e-01,
          2.99866050e-01, 1.32073164e-01, 4.57044505e-02, 1.91909391e-02,
          1.15679381e-02, 2.42436361e-02, 4.55322750e-02, 1.49910048e-01,
          2.99866050e-01, 2.99866050e-01, 1.16236456e-01, 4.17628400e-02,
          2.16591898e-02, 1.59120969e-02, 2.84371562e-02, 2.58073248e-02,
          7.50767142e-02, 2.86087662e-01, 2.99866050e-01, 1.52091861e-01,
          4.62663807e-02, 2.24235151e-02, 1.39870746e-02, 1.24318022e-02,
          1.76019996e-01, 1.23320393e-01, 2.08650768e-01, 2.99751818e-01,
          1.65867224e-01, 6.93832114e-02, 3.15307230e-02, 5.77387735e-02,
          9.87211019e-02, 1.88118309e-01, 7.13826567e-02, 3.17582972e-02,
          3.18314195e-01, 3.52614850e-01, 1.22043565e-01, 5.33132628e-02,
          9.13710818e-02, 1.66044340e-01, 1.20849442e-02, 2.28570811e-02,
          1.28588676e-01, 3.14485222e-01, 2.69842684e-01, 4.62418683e-02,
          2.46876664e-02, 2.99616978e-02, 2.02702917e-02, 1.30971884e-02,
          1.73281915e-02, 1.05997380e-02, 3.52614850e-01, 3.52614850e-01,
          7.64005780e-02, 2.52249148e-02, 2.49236785e-02, 1.90000106e-02,
          4.19586636e-02, 7.07181357e-03, 4.54116007e-03, 2.62178659e-01,
          4.33280468e-01, 5.79965599e-02, 2.02021170e-02, 3.25101949e-02,
          4.38174233e-02, 6.87527936e-04, 0., 1.57238857e-03,
          1.42010689e-01, 4.33280468e-01, 1.73179302e-02, 1.81447144e-03,
          5.61234425e-04, 7.47448066e-04, 2.66601704e-03, 1.74557569e-03,
          1.41425827e-03, 3.31743717e-01, 4.33280468e-01, 4.33729962e-02,
          5.22433734e-03, 2.29160953e-03, 1.64234126e-03, 5.28880046e-04,
          0., 7.14722148e-04, 1.85786963e-01, 4.33280468e-01,
          2.12541427e-02, 6.81124628e-04, 3.67488101e-05, 4.75149864e-04 ]
      - [ 3.75586897e-02, 3.55495512e-02, 2.90968865e-02, 4.88812216e-02,
          4.46472764e-02, 9.58471224e-02, 1.02670752e-01, 1.30421311e-01,
          8.69978145e-02, 1.30061328e-01, 1.03024304e-01, 1.26932099e-01,
          7.80404285e-02, 6.63386211e-02, 6.49411455e-02, 9.13794935e-02,
          2.17994630e-01, 1.94607109e-01, 1.41591668e-01, 1.46919161e-01,
          1.75243005e-01, 2.22298324e-01, 9.33691636e-02, 2.47324347e-01,
          2.47324347e-01, 1.98280662e-01, 1.98322460e-01, 1.26420140e-01,
          2.26899534e-01, 2.47324347e-01, 2.47324347e-01, 2.47324347e-01,
          2.47324347e-01, 1.65163919e-01, 2.47324347e-01, 2.47324347e-01,
          1.18550345e-01, 5.12291491e-02, 8.21642131e-02, 5.43225966e-02,
          2.53695041e-01, 1.66598618e-01, 7.71353692e-02, 1.52707219e-01,
          1.51228279e-01, 5.31301759e-02, 2.60847453e-02, 5.91596439e-02,
          7.47117326e-02, 3.04431826e-01, 3.04431826e-01, 1.17276371e-01,
          5.20413183e-02, 4.34541292e-02, 8.68560448e-02, 7.74363428e-02,
          1.65575102e-01, 1.30014136e-01, 3.04431826e-01, 3.04431826e-01,
          1.20154798e-01, 2.16458991e-01, 1.78580418e-01, 9.37901586e-02,
          5.07254004e-02, 8.34426805e-02, 1.27114564e-01, 3.04431826e-01,
          3.04431826e-01, 1.75348669e-01, 1.22905754e-01, 8.90448987e-02,
          6.18149601e-02, 4.01604623e-02, 5.03549092e-02, 9.97148454e-02,
          3.31460595e-01, 3.31460595e-01, 9.92089212e-02, 2.77872309e-02,
          4.64628339e-02, 2.66676527e-02, 1.48895383e-02, 8.12799111e-03,
          7.29708523e-02, 2.51471192e-01, 1.13155261e-01, 1.04491143e-02,
          1.73790231e-02, 2.92183962e-02, 2.46712536e-01, 1.04531027e-01,
          8.97017792e-02, 1.15375526e-01, 3.31460595e-01, 3.31460595e-01,
          2.72682697e-01, 2.57523149e-01, 2.39173964e-01, 5.80627434e-02,
          2.41265167e-02, 1.41913155e-02, 5.97337857e-02, 2.41699740e-01,
          2.08855301e-01, 1.20763943e-01, 1.37023613e-01, 9.35719162e-02,
          9.00436640e-02, 1.00896314e-01, 1.02075912e-01, 1.91339448e-01,
          9.10572708e-02, 2.92241067e-01, 2.83115476e-01, 9.36893001e-02,
          8.34548026e-02, 4.94317003e-02, 9.04710591e-02, 1.27011001e-01,
          1.48425385e-01, 2.84246325e-01, 2.92241067e-01, 1.89420447e-01,
          6.15186691e-02, 5.91706075e-02, 9.32359099e-02, 6.88013881e-02,
          5.93897924e-02, 1.10998556e-01, 8.35181549e-02, 2.92241067e-01,
          2.92241067e-01, 1.73931569e-01, 6.58558309e-02, 7.56112635e-02,
          1.06445394e-01, 6.40487671e-02, 4.60917652e-02, 1.36610180e-01,
          2.92241067e-01, 2.92241067e-01, 1.52660161e-01, 7.94443190e-02,
          1.51100755e-02, 3.15624140e-02, 6.30726814e-02, 9.67393070e-02,
          2.62280017e-01, 2.62280017e-01, 1.91196263e-01, 5.78382500e-02,
          3.25873196e-02, 9.61602852e-02, 4.12686728e-02, 4.29665484e-02,
          8.99143741e-02, 2.62280017e-01, 2.62280017e-01, 2.61921644e-01,
          1.59536541e-01, 1.05538517e-01, 5.03028184e-02, 1.12859286e-01,
          7.25833774e-02, 8.72770101e-02, 2.24061370e-01, 2.62280017e-01,
          2.62280017e-01, 5.76613508e-02, 6.28636107e-02, 1.28208220e-01,
          1.28812909e-01, 1.00673839e-01, 1.42950192e-01, 2.62280017e-01,
          2.62280017e-01, 2.57700682e-01, 1.72283247e-01, 1.41878560e-01,
          1.08414322e-01, 3.57273147e-02, 2.59939022e-02, 4.28482406e-02,
          1.41775861e-01, 2.41280705e-01, 2.41280705e-01, 2.41280705e-01,
          1.64662972e-01, 1.59987211e-02, 9.15723760e-03, 1.66825149e-02,
          3.08697727e-02, 1.17506690e-01, 1.45533010e-01, 2.40130395e-01,
          1.72806352e-01, 4.61780727e-02, 1.83093756e-01, 1.30558610e-01,
          1.76046312e-01, 1.40922114e-01, 1.87896490e-01, 2.01602772e-01,
          2.41280705e-01, 2.41280705e-01, 2.31364667e-01, 8.30211863e-02,
          1.19180232e-01, 2.19300494e-01, 1.59890741e-01, 2.41280705e-01,
          1.99142382e-01, 2.41280705e-01, 1.72022030e-01, 7.87404627e-02,
          5.27611524e-02, 3.34014371e-02, 5.24151921e-02, 2.22020391e-02,
          7.03755990e-02, 3.23441684e-01, 3.23441684e-01, 1.62980318e-01,
          3.79259437e-02, 5.35700843e-02, 6.61451146e-02, 6.20039813e-02,
          2.06726026e-02, 5.83651289e-02, 2.96018690e-01, 3.23441684e-01,
          1.49920538e-01, 6.94850534e-02, 2.86238678e-02, 2.67515704e-02,
          2.92102173e-02, 1.89665947e-02, 1.26322329e-01, 3.23441684e-01,
          3.23441684e-01, 1.58481121e-01, 2.55007669e-02, 1.74305253e-02,
          1.57654695e-02, 3.98012027e-02, 2.84020640e-02, 1.48901761e-01,
          3.23441684e-01, 3.23441684e-01, 1.50872871e-01, 4.65740561e-02,
          6.96098059e-02, 1.44575000e-01, 9.25927162e-02, 6.61089495e-02,
          1.53489605e-01, 2.17715353e-01, 2.40001410e-01, 5.36375269e-02,
          9.33301449e-02, 1.33903876e-01, 1.44600913e-01, 1.45845905e-01,
          1.32935688e-01, 3.09810877e-01, 3.09810877e-01, 1.34437397e-01,
          1.05845921e-01, 1.76314101e-01, 5.59066795e-02, 3.03667895e-02,
          5.01001365e-02, 2.74205562e-02, 2.47315973e-01, 2.89397985e-01,
          3.09810877e-01, 9.83143374e-02, 6.93865940e-02, 7.69611225e-02,
          4.26974893e-02, 6.79096282e-02, 7.36378804e-02, 3.09810877e-01,
          3.09810877e-01, 8.20714459e-02, 4.88255098e-02, 7.99978971e-02,
          2.67500013e-01, 1.76390156e-01, 2.53371418e-01, 1.58738822e-01,
          2.80921668e-01, 2.39991173e-01, 1.68070018e-01, 1.82721153e-01,
          2.80921668e-01, 1.81894571e-01, 1.79106593e-01, 2.80921668e-01,
          1.63844168e-01, 2.19365820e-01, 9.76572558e-02, 1.22822858e-01,
          6.34565949e-02, 1.26566455e-01, 9.85463932e-02, 5.03354929e-02,
          6.34183735e-02, 8.49318355e-02, 2.80921668e-01, 2.80921668e-01,
          8.96245018e-02, 7.98182860e-02, 1.37932718e-01, 1.01865731e-01,
          5.18763140e-02, 5.49713075e-02, 4.07556780e-02, 7.74332657e-02,
          8.89208540e-02, 6.39672950e-02, 6.64659366e-02, 9.71651822e-02 ]
      - [ 6.79301545e-02, 3.77252325e-02, 4.24593650e-02, 3.61960754e-02,
          7.83013403e-02, 2.99859494e-01, 2.99859494e-01, 1.04160003e-01,
          7.04344064e-02, 2.45570809e-01, 1.37535781e-01, 1.51975408e-01,
          6.68307617e-02, 1.82005674e-01, 1.21181831e-01, 1.27766818e-01,
          1.06036879e-01, 8.73878002e-02, 7.92468116e-02, 3.55098508e-02,
          3.51208858e-02, 4.04961109e-02, 7.23679289e-02, 2.99859494e-01,
          2.99859494e-01, 1.17626876e-01, 1.41567364e-01, 1.87416852e-01,
          9.57511365e-02, 1.26959920e-01, 1.61572456e-01, 2.49885604e-01,
          2.24685490e-01, 2.84391075e-01, 2.37386286e-01, 1.73910782e-01,
          1.14417501e-01, 6.02899566e-02, 7.95415640e-02, 1.10384613e-01,
          3.25502694e-01, 1.74431726e-01, 3.52728441e-02, 5.74534312e-02,
          3.74775752e-02, 1.16177220e-02, 9.95225739e-03, 2.20370851e-02,
          1.43986866e-01, 3.25502694e-01, 3.25502694e-01, 1.21229794e-02,
          1.17553603e-02, 9.04339924e-03, 7.41079822e-02, 5.54989055e-02,
          1.30221397e-01, 1.61860719e-01, 3.25502694e-01, 2.41782382e-01,
          1.42898560e-01, 1.94548920e-01, 1.17645830e-01, 5.73176332e-02,
          1.00831285e-01, 9.92977843e-02, 1.14468478e-01, 3.25502694e-01,
          3.25502694e-01, 1.68899268e-01, 1.13751814e-01, 8.61618593e-02,
          1.98633447e-02, 2.42378134e-02, 3.08675300e-02, 1.31835625e-01,
          3.51096839e-01, 3.51096839e-01, 2.01601814e-02, 7.74116907e-03,
          8.14787205e-03, 1.69901829e-02, 2.77728382e-02, 2.34124139e-02,
          7.18349963e-02, 3.51096839e-01, 9.71530527e-02, 2.07507871e-02,
          1.89844295e-02, 8.17400124e-03, 1.82308391e-01, 2.77467310e-01,
          1.23784520e-01, 1.32375136e-01, 3.51096839e-01, 3.51096839e-01,
          1.81741893e-01, 1.26205698e-01, 1.00436896e-01, 6.79209605e-02,
          1.02828078e-01, 6.03290275e-02, 8.81475210e-02, 3.02809030e-01,
          9.67613831e-02, 7.42489025e-02, 8.43640864e-02, 2.89058164e-02,
          2.38430817e-02, 2.22982708e-02, 2.33196672e-02, 7.12106302e-02,
          5.30337915e-02, 2.78167933e-01, 2.78167933e-01, 1.04667537e-01,
          5.79094552e-02, 5.57766631e-02, 7.84634650e-02, 7.04175159e-02,
          2.78167933e-01, 2.60929167e-01, 2.78167933e-01, 2.78167933e-01,
          1.84083417e-01, 8.40234831e-02, 1.30121391e-02, 1.43181365e-02,
          1.48010058e-02, 6.21669665e-02, 5.69052286e-02, 2.78167933e-01,
          2.78167933e-01, 1.08896665e-01, 2.12429855e-02, 6.44988567e-02,
          8.64183158e-02, 3.85603756e-02, 2.21367136e-01, 1.87277973e-01,
          2.78167933e-01, 2.78167933e-01, 1.85058579e-01, 4.81745265e-02,
          4.70515974e-02, 7.23096430e-02, 1.13123357e-01, 2.42458493e-01,
          2.42458493e-01, 2.42458493e-01, 2.42458493e-01, 1.85601681e-01,
          1.11516446e-01, 9.29068103e-02, 9.72196162e-02, 8.41825530e-02,
          9.07506570e-02, 2.42458493e-01, 2.42458493e-01, 2.42458493e-01,
          1.41034499e-01, 1.04944102e-01, 8.93471017e-02, 8.67617577e-02,
          6.02306686e-02, 1.87163875e-01, 2.34347939e-01, 2.42458493e-01,
          2.42458493e-01, 1.13202840e-01, 8.90643373e-02, 7.62685388e-02,
          7.45104253e-02, 2.42458493e-01, 1.91711232e-01, 1.76736489e-01,
          1.70297921e-01, 1.77766368e-01, 5.78417853e-02, 7.17089400e-02,
          1.96554378e-01, 2.05061197e-01, 8.16316754e-02, 1.71942502e-01,
          2.77477264e-01, 2.66700029e-01, 1.95647135e-01, 1.26224816e-01,
          1.11911409e-01, 5.93356378e-02, 6.39085844e-02, 4.80630063e-02,
          1.34092301e-01, 2.70522714e-01, 8.53424668e-02, 4.89685163e-02,
          6.43477663e-02, 3.90537828e-02, 8.21835473e-02, 1.43369317e-01,
          2.77477264e-01, 2.77477264e-01, 2.77477264e-01, 2.08227292e-01,
          1.11587584e-01, 3.75037640e-02, 4.98036481e-02, 2.59726830e-02,
          5.34224622e-02, 2.68448323e-01, 2.36952931e-01, 2.77477264e-01,
          1.41372621e-01, 3.13056149e-02, 2.60899328e-02, 2.57970411e-02,
          4.74570738e-03, 3.09171574e-03, 3.01262480e-03, 1.87753662e-02,
          4.48479205e-02, 3.20401907e-01, 3.20401907e-01, 6.98082224e-02,
          1.74897369e-02, 5.00340462e-02, 5.43073528e-02, 1.24036726e-02,
          3.96471918e-02, 1.08456582e-01, 3.20401907e-01, 3.20401907e-01,
          2.16257304e-01, 4.01453488e-02, 2.83800671e-03, 7.33452558e-04,
          8.80247797e-04, 1.06306337e-02, 4.85047139e-02, 3.20401907e-01,
          3.20401907e-01, 3.59360091e-02, 1.42427711e-02, 1.72508471e-02,
          1.71655752e-02, 2.51261913e-03, 1.09821903e-02, 2.31059775e-01,
          3.20401907e-01, 3.20401907e-01, 2.05008507e-01, 2.30160858e-02,
          6.91542476e-02, 5.25296293e-02, 2.54165884e-02, 5.98175712e-02,
          1.32589594e-01, 1.97929442e-01, 2.83074111e-01, 1.28979519e-01,
          5.14079444e-02, 3.55343185e-02, 6.82584494e-02, 2.82048136e-01,
          2.83074111e-01, 2.36694038e-01, 1.18370600e-01, 5.98073788e-02,
          2.66719572e-02, 2.74307039e-02, 4.58511598e-02, 2.85331793e-02,
          1.46262422e-02, 5.03048189e-02, 2.54727542e-01, 2.83074111e-01,
          2.83074111e-01, 1.95615798e-01, 2.70896442e-02, 2.83412598e-02,
          3.15579586e-02, 1.08568557e-01, 2.83074111e-01, 2.83074111e-01,
          2.83074111e-01, 2.46030301e-01, 6.38070926e-02, 1.30284512e-02,
          4.46045864e-03, 1.12217940e-01, 3.21141064e-01, 3.21141064e-01,
          3.21141064e-01, 1.90572783e-01, 3.92796174e-02, 2.25779251e-03,
          3.59018543e-03, 6.47039525e-03, 3.34547088e-02, 2.04315200e-01,
          1.09532773e-01, 2.21268788e-01, 1.80997565e-01, 2.02937964e-02,
          1.07559180e-02, 1.08240750e-02, 1.84954167e-03, 4.62523140e-02,
          1.83503821e-01, 3.21141064e-01, 3.21141064e-01, 3.15855354e-01,
          6.59681782e-02, 2.12224368e-02, 6.64725015e-03, 8.00208841e-03,
          4.97358292e-02, 5.66518530e-02, 9.44953039e-02, 3.21141064e-01,
          1.78450480e-01, 3.82331647e-02, 2.07640976e-02, 3.74296792e-02 ]
      - [ 3.11099552e-02, 5.10048382e-02, 1.81066111e-01, 9.72872078e-02,
          7.29327723e-02, 3.40480432e-02, 2.56991759e-02, 3.04520279e-02,
          2.00872105e-02, 5.03132492e-02, 1.25820413e-01, 3.77601504e-01,
          3.77601504e-01, 7.27636293e-02, 1.97275057e-02, 3.15329134e-02,
          2.00506728e-02, 1.09796263e-02, 4.67047729e-02, 1.09357774e-01,
          3.77601504e-01, 1.64396331e-01, 7.91427195e-02, 2.96917949e-02,
          2.58236974e-02, 6.89667743e-03, 2.27462947e-02, 9.14940014e-02,
          3.77601504e-01, 3.77601504e-01, 3.56409311e-01, 1.27770066e-01,
          4.09471653e-02, 1.93285383e-02, 6.20759977e-03, 1.02538913e-02,
          3.67542803e-02, 1.49222523e-01, 3.03319782e-01, 2.38430858e-01,
          6.48180321e-02, 1.05987443e-02, 1.08745378e-02, 4.31632483e-03,
          2.18867958e-02, 4.86244299e-02, 1.39326915e-01, 3.03319782e-01,
          1.94791734e-01, 1.82520062e-01, 4.54691090e-02, 1.78024061e-02,
          1.71821751e-02, 5.85057549e-02, 1.10747859e-01, 3.03319782e-01,
          3.03319782e-01, 2.24674165e-01, 1.30219862e-01, 4.29724306e-02,
          1.24135306e-02, 8.08997639e-03, 4.19483334e-02, 1.40930951e-01,
          2.63325840e-01, 3.03319782e-01, 2.53196120e-01, 3.03319782e-01,
          1.06210969e-01, 4.81590852e-02, 2.09436622e-02, 9.76871699e-02,
          4.58916277e-02, 1.15636870e-01, 2.95890242e-01, 2.66519278e-01,
          3.15996259e-01, 1.62850440e-01, 4.51691449e-02, 5.13303503e-02,
          1.01928368e-01, 5.33084292e-03, 1.22410282e-02, 4.63837944e-02,
          1.48404583e-01, 3.02627176e-01, 4.09831591e-02, 1.06816189e-02,
          2.17026398e-02, 1.77349038e-02, 1.47797078e-01, 1.11470096e-01,
          1.96447596e-01, 3.15996259e-01, 3.15996259e-01, 3.15996259e-01,
          1.80408955e-01, 6.72264099e-02, 2.23723546e-01, 1.69721358e-02,
          2.93083377e-02, 1.09169044e-01, 1.65210590e-01, 2.14663506e-01,
          1.14067115e-01, 3.77749167e-02, 2.29824930e-02, 4.33500484e-02,
          2.20532492e-02, 1.01505436e-01, 3.61349761e-01, 1.23052359e-01,
          3.01681701e-02, 1.07690869e-02, 6.52478542e-03, 3.17417993e-03,
          9.01820511e-03, 5.82692921e-02, 3.61349761e-01, 3.61349761e-01,
          1.69323027e-01, 7.43677467e-02, 5.62392659e-02, 2.55829971e-02,
          3.77197936e-02, 1.94042213e-02, 2.54017953e-02, 1.86643139e-01,
          3.61349761e-01, 1.94771945e-01, 1.82937328e-02, 7.34589854e-03,
          5.10734133e-03, 2.72259070e-03, 2.15271283e-02, 5.84180690e-02,
          3.21103901e-01, 3.61349761e-01, 2.63607949e-01, 7.35694468e-02,
          7.86979944e-02, 5.60224093e-02, 6.48616180e-02, 6.28785118e-02,
          1.55639932e-01, 2.53067583e-01, 2.53067583e-01, 1.52533963e-01,
          1.11296453e-01, 7.75502250e-02, 3.98071334e-02, 6.68139979e-02,
          8.82447883e-02, 2.15366364e-01, 2.02156886e-01, 1.71999544e-01,
          1.87897488e-01, 2.53067583e-01, 7.12538362e-02, 5.32738008e-02,
          4.09528576e-02, 1.45677388e-01, 1.79062754e-01, 2.10221708e-01,
          2.53067583e-01, 1.91392213e-01, 1.02866352e-01, 8.91526267e-02,
          8.67914855e-02, 1.35755092e-01, 1.74323276e-01, 2.53067583e-01,
          9.52912793e-02, 8.23801532e-02, 2.53067583e-01, 2.53067583e-01,
          3.70958000e-02, 9.47798565e-02, 9.45132300e-02, 2.52112091e-01,
          2.26456419e-01, 7.87598863e-02, 1.30343974e-01, 3.22870463e-01,
          3.65909338e-01, 2.23784164e-01, 1.30236775e-01, 6.22768290e-02,
          2.04675063e-01, 1.48916198e-02, 1.68659557e-02, 6.21393025e-02,
          9.18309242e-02, 1.58626109e-01, 9.53185260e-02, 2.87976712e-02,
          2.86051910e-02, 3.39711159e-02, 2.74249345e-01, 6.41737208e-02,
          1.41195714e-01, 3.65909338e-01, 3.65909338e-01, 1.12001732e-01,
          1.46160573e-01, 7.84254372e-02, 2.26752058e-01, 1.07796453e-02,
          9.95083246e-03, 4.66576666e-02, 1.07708953e-01, 1.91113248e-01,
          1.00253627e-01, 2.44681165e-02, 2.97239441e-02, 2.23937705e-02,
          6.00978211e-02, 2.86672652e-01, 3.62133741e-01, 2.96983719e-01,
          2.70084124e-02, 1.25910249e-02, 9.29809641e-03, 2.00418127e-03,
          1.64918862e-02, 8.17142799e-02, 1.72789440e-01, 3.62133741e-01,
          2.85497934e-01, 5.67413494e-02, 6.22243881e-02, 1.15831427e-01,
          4.88802232e-02, 5.40885366e-02, 7.48983994e-02, 2.33098119e-01,
          3.62133741e-01, 3.09385389e-01, 6.24804720e-02, 3.95361111e-02,
          2.12206077e-02, 8.27764440e-03, 1.62279494e-02, 7.15368390e-02,
          9.07969773e-02, 2.09804416e-01, 1.51027456e-01, 5.52716367e-02,
          6.49807677e-02, 1.61249042e-01, 7.60116875e-02, 5.18931560e-02,
          1.43650979e-01, 9.37437117e-02, 1.93641663e-01, 2.49357909e-01,
          1.42099604e-01, 1.07713416e-01, 1.76183999e-01, 1.51328251e-01,
          1.38472721e-01, 1.65145352e-01, 4.63659503e-02, 6.68944940e-02,
          3.62044036e-01, 3.62044036e-01, 7.73180500e-02, 1.07288167e-01,
          1.40167654e-01, 1.59322470e-01, 6.89011663e-02, 4.50677648e-02,
          5.49849458e-02, 1.17026344e-01, 1.18767068e-01, 1.16953082e-01,
          2.16126442e-01, 1.12001598e-01, 6.64914027e-02, 5.09338863e-02,
          3.13192382e-02, 4.14906926e-02, 3.62044036e-01, 3.62044036e-01,
          1.25063807e-01, 6.11515902e-02, 3.90271172e-02, 2.22473238e-02,
          6.15611114e-02, 1.46671515e-02, 3.21916826e-02, 4.47969437e-01,
          4.47969437e-01, 1.03423528e-01, 8.58199522e-02, 5.53646833e-02,
          6.14140555e-02, 2.77720601e-03, 3.35709075e-03, 1.13438023e-02,
          6.55215010e-02, 1.80192202e-01, 9.18837935e-02, 2.74957139e-02,
          1.19462032e-02, 6.78976160e-03, 1.00830244e-02, 1.27397850e-02,
          1.88083071e-02, 4.28227633e-01, 4.47969437e-01, 8.74050483e-02,
          3.23184431e-02, 9.90405399e-03, 3.81537876e-03, 4.69253835e-04,
          1.76260143e-03, 3.24049033e-03, 5.28806224e-02, 3.45702797e-01,
          4.39095087e-02, 1.40505899e-02, 4.16265614e-03, 1.27879623e-03 ]
      - [ 1.15787506e-01, 8.89595076e-02, 2.92481780e-01, 1.98878244e-01,
          6.67709410e-02, 2.71952823e-02, 3.55079509e-02, 4.64802645e-02,
          1.16355196e-01, 1.07150219e-01, 1.78902984e-01, 2.92481780e-01,
          2.92481780e-01, 1.36520550e-01, 4.17146534e-02, 6.12255931e-02,
          5.45569733e-02, 8.69057626e-02, 1.30265564e-01, 1.71421394e-01,
          2.92481780e-01, 2.92481780e-01, 1.24022633e-01, 3.61105986e-02,
          3.50473635e-02, 6.20934702e-02, 1.44326657e-01, 1.34503067e-01,
          1.65972114e-01, 2.92481780e-01, 2.92481780e-01, 2.18324497e-01,
          9.12248716e-02, 8.22764188e-02, 1.40494466e-01, 1.41409785e-01,
          1.15048259e-01, 1.79330423e-01, 2.44299814e-01, 2.31986806e-01,
          1.84814125e-01, 6.09665141e-02, 6.24576546e-02, 7.50029981e-02,
          1.48541629e-01, 4.98813577e-02, 7.22618029e-02, 6.81292787e-02,
          1.97761133e-01, 2.44299814e-01, 9.73485559e-02, 4.99914922e-02,
          5.83486967e-02, 8.72448236e-02, 1.24162048e-01, 1.45270094e-01,
          1.98628038e-01, 2.44299814e-01, 2.44299814e-01, 1.41364440e-01,
          1.90518335e-01, 2.44299814e-01, 1.75980657e-01, 1.11347876e-01,
          9.35807824e-02, 7.46462718e-02, 2.11137533e-01, 1.83914304e-01,
          2.19089150e-01, 2.44299814e-01, 2.44299814e-01, 1.42466217e-01,
          4.06661779e-02, 5.22746034e-02, 7.32954293e-02, 2.52411902e-01,
          3.14564854e-01, 2.86546111e-01, 1.09571852e-01, 4.63536493e-02,
          5.07840104e-02, 1.58457663e-02, 3.17238607e-02, 4.89050113e-02,
          1.34956062e-01, 3.14564854e-01, 1.48178697e-01, 5.88511005e-02,
          2.94307210e-02, 5.01499549e-02, 1.13938816e-01, 7.67973587e-02,
          1.17005870e-01, 1.63020641e-01, 2.78453201e-01, 3.14564854e-01,
          3.14564854e-01, 3.00901294e-01, 1.02509551e-01, 1.54284947e-02,
          4.43018787e-02, 1.00498453e-01, 9.51572806e-02, 3.14564854e-01,
          9.69570428e-02, 3.70848626e-02, 6.28671199e-02, 7.28651360e-02,
          1.05888844e-01, 1.59885898e-01, 2.47226030e-01, 1.50940940e-01,
          1.44601047e-01, 4.83696125e-02, 4.18735892e-02, 6.10812418e-02,
          9.73458290e-02, 7.33228251e-02, 1.23572253e-01, 2.34899223e-01,
          2.47226030e-01, 2.41160274e-01, 1.44151837e-01, 7.69111812e-02,
          1.00199006e-01, 1.08636335e-01, 1.43683285e-01, 2.47226030e-01,
          2.47226030e-01, 2.12820098e-01, 2.07780629e-01, 6.04555942e-02,
          6.78667575e-02, 8.83861557e-02, 1.45801604e-01, 1.20287269e-01,
          2.47226030e-01, 2.47226030e-01, 2.47226030e-01, 2.47226030e-01,
          1.88086838e-01, 7.35020936e-02, 6.70619905e-02, 1.48623973e-01,
          4.77274209e-02, 1.07613839e-01, 1.37345806e-01, 2.43730783e-01,
          2.43730783e-01, 2.04527199e-01, 1.46732315e-01, 1.21538296e-01,
          7.88082480e-02, 5.34144416e-02, 6.09827898e-02, 4.84568328e-02,
          1.26325056e-01, 1.75067663e-01, 2.43730783e-01, 2.43730783e-01,
          1.67265654e-01, 6.01696447e-02, 4.38638031e-02, 1.93342164e-01,
          2.08872706e-01, 2.43730783e-01, 2.43730783e-01, 2.43730783e-01,
          1.66265637e-01, 1.11926831e-01, 1.55989304e-01, 3.13921906e-02,
          7.08246231e-02, 5.74948490e-02, 1.59094110e-01, 2.28175193e-01,
          2.43730783e-01, 2.24374309e-01, 1.54476598e-01, 9.90380868e-02,
          7.35674500e-02, 5.64576983e-02, 7.47002512e-02, 8.94314051e-02,
          1.99812546e-01, 3.03303927e-01, 3.03303927e-01, 2.33452439e-01,
          1.02084480e-01, 2.01996006e-02, 3.49076837e-02, 9.71130356e-02,
          1.35460779e-01, 2.62139320e-01, 6.05136454e-02, 6.00463189e-02,
          7.13639408e-02, 6.39022589e-02, 6.38209805e-02, 7.02287927e-02,
          3.56046446e-02, 2.57124901e-01, 3.01955342e-01, 3.03303927e-01,
          3.03303927e-01, 2.02533826e-01, 1.08960107e-01, 4.21937928e-02,
          3.76934968e-02, 2.63701826e-02, 1.20091997e-01, 2.83906698e-01,
          1.79056183e-01, 1.52966470e-01, 9.52353328e-02, 5.91408052e-02,
          2.24509254e-01, 2.50531942e-01, 2.37567037e-01, 2.50531942e-01,
          2.50531942e-01, 1.03888765e-01, 9.58787948e-02, 9.33954865e-02,
          1.34613439e-01, 1.41291469e-01, 2.50531942e-01, 1.99702963e-01,
          2.50531942e-01, 2.50531942e-01, 1.66498482e-01, 1.26109347e-01,
          8.22938085e-02, 1.50656179e-01, 1.92481756e-01, 2.24647477e-01,
          2.05828622e-01, 1.34455606e-01, 1.99723497e-01, 1.34003192e-01,
          1.06749251e-01, 8.00520107e-02, 7.11898804e-02, 1.11382000e-01,
          9.65389609e-02, 1.03597127e-01, 1.13393366e-01, 1.28259212e-01,
          1.36909336e-01, 1.26199335e-01, 6.44573048e-02, 7.08400831e-02,
          5.85097708e-02, 1.41232297e-01, 1.53703496e-01, 2.55504459e-01,
          2.55504459e-01, 2.35579655e-01, 2.55504459e-01, 2.12346211e-01,
          2.38260120e-01, 4.80350256e-02, 7.65299350e-02, 5.63278981e-02,
          1.59102067e-01, 1.76272243e-01, 1.98549062e-01, 2.55504459e-01,
          2.55504459e-01, 1.83480471e-01, 6.17142394e-02, 5.60715720e-02,
          8.80348980e-02, 1.04266807e-01, 1.92513436e-01, 1.62561953e-01,
          1.84122369e-01, 8.69133845e-02, 5.52921072e-02, 3.26481164e-02,
          3.82759161e-02, 3.85591015e-02, 1.22301206e-01, 1.98919550e-01,
          1.58597454e-01, 2.53191859e-01, 2.01907381e-01, 6.10654317e-02,
          6.93450496e-02, 7.76414350e-02, 2.26719547e-02, 1.74688250e-01,
          1.64362743e-01, 2.31098235e-01, 2.99597472e-01, 2.99597472e-01,
          1.50722995e-01, 9.11301225e-02, 7.81021416e-02, 2.54562460e-02,
          9.31727216e-02, 1.47616595e-01, 1.37280390e-01, 1.85244054e-01,
          1.73087239e-01, 1.04079068e-01, 6.52227700e-02, 4.29691523e-02,
          2.69133858e-02, 1.21638812e-01, 1.52483270e-01, 1.86912104e-01,
          2.99597472e-01, 2.99597472e-01, 1.29547998e-01, 9.39980149e-02,
          6.31573051e-02, 4.07346785e-02, 9.70162302e-02, 1.16739661e-01,
          2.09608480e-01, 2.99597472e-01, 2.64774919e-01, 1.24794386e-01 ]
      - [ 4.44145501e-02, 6.99090213e-02, 3.14507842e-01, 1.02176383e-01,
          5.88969178e-02, 4.94146906e-02, 6.60230294e-02, 6.48814291e-02,
          2.78369747e-02, 3.83457206e-02, 2.04202786e-01, 3.60632867e-01,
          2.65746534e-01, 1.02322213e-01, 5.35052344e-02, 3.72732878e-02,
          6.79881722e-02, 1.39290448e-02, 9.32755545e-02, 1.27275333e-01,
          3.60632867e-01, 2.32624471e-01, 6.69426322e-02, 4.49620523e-02,
          4.37833220e-02, 3.64992954e-02, 3.16401161e-02, 1.07202463e-01,
          2.93335855e-01, 3.60632867e-01, 3.60632867e-01, 1.23354129e-01,
          8.67345259e-02, 1.73174888e-02, 2.71129627e-02, 1.71914250e-02,
          1.54289519e-02, 1.52760401e-01, 2.71558762e-01, 2.61404991e-01,
          7.27779865e-02, 2.44038757e-02, 1.06597673e-02, 4.08282876e-02,
          2.20715124e-02, 6.86862022e-02, 2.25742429e-01, 2.71558762e-01,
          2.66842842e-01, 1.08250037e-01, 4.07088622e-02, 3.48889716e-02,
          2.82977130e-02, 4.84252535e-02, 6.20892271e-02, 2.71558762e-01,
          2.71558762e-01, 2.71558762e-01, 1.01026013e-01, 5.13169728e-02,
          2.62184665e-02, 4.90975715e-02, 8.48501325e-02, 2.00485945e-01,
          2.71558762e-01, 2.71558762e-01, 2.40468025e-01, 9.37900543e-02,
          1.11413985e-01, 2.12450698e-01, 1.13777965e-01, 1.79131180e-01,
          7.46589527e-02, 1.79614946e-01, 2.49200657e-01, 2.74090379e-01,
          2.74090379e-01, 9.07316208e-02, 3.78818884e-02, 2.35608947e-02,
          3.59731875e-02, 6.66785100e-03, 1.17834406e-02, 5.23168072e-02,
          2.41289943e-01, 2.74090379e-01, 9.13852155e-02, 1.03910686e-02,
          7.16481172e-03, 6.59705093e-03, 1.58973500e-01, 2.15075582e-01,
          2.31745258e-01, 2.27598935e-01, 2.18971327e-01, 2.38876075e-01,
          2.74090379e-01, 1.60936564e-01, 1.07281655e-01, 1.65473465e-02,
          2.46157125e-02, 7.85805210e-02, 2.04570442e-01, 2.74090379e-01,
          1.30331635e-01, 2.23692372e-01, 6.50943220e-02, 2.93617249e-02,
          5.67010865e-02, 1.17742702e-01, 3.16205233e-01, 2.02788264e-01,
          6.88694417e-02, 3.37689109e-02, 1.91715769e-02, 9.66809131e-03,
          1.16858603e-02, 9.26577523e-02, 1.85977891e-01, 3.16205233e-01,
          3.02104175e-01, 9.32158381e-02, 5.71855754e-02, 2.14375723e-02,
          2.71868780e-02, 3.08914091e-02, 4.65149544e-02, 1.47673741e-01,
          3.16205233e-01, 2.69164234e-01, 8.25272128e-02, 4.95198816e-02,
          3.55815440e-02, 1.47159062e-02, 4.37195078e-02, 1.17492199e-01,
          2.50862479e-01, 3.16205233e-01, 3.16205233e-01, 1.44945726e-01,
          7.61792287e-02, 8.46799836e-02, 1.74977899e-01, 1.82380006e-01,
          4.60253656e-02, 1.46795988e-01, 2.25066349e-01, 1.52960286e-01,
          9.25340056e-02, 9.45999697e-02, 5.85318953e-02, 4.64268215e-02,
          5.86010143e-02, 1.39452711e-01, 1.52105018e-01, 1.48958951e-01,
          1.64025784e-01, 1.44615665e-01, 1.70779020e-01, 1.75618753e-01,
          8.89748707e-02, 7.74627626e-02, 1.24373861e-01, 1.20088264e-01,
          2.51104712e-01, 1.68888345e-01, 1.99233234e-01, 1.16856910e-01,
          1.10751383e-01, 2.53499478e-01, 2.53499478e-01, 2.10824400e-01,
          7.61666670e-02, 1.89827472e-01, 2.53499478e-01, 2.53499478e-01,
          2.53499478e-01, 1.06502004e-01, 1.89485103e-01, 2.11621657e-01,
          2.56617188e-01, 1.28887758e-01, 1.59478009e-01, 1.99601501e-01,
