%YAML:1.0
---
opencv_ml_svm:
   format: 3
   svmType: EPS_SVR
   kernel:
      type: LINEAR
   C: 2.5000000000000000e-01
   p: 1.0000000000000001e-01
   term_criteria: { iterations:1000 }
   var_count: 756
   sv_total: 1
   support_vectors:
      - [ -1.02676013e-02, -2.11582817e-02, 2.84627676e-02,
          4.53459285e-02, -4.85550873e-02, -9.96714681e-02,
          -3.59972045e-02, -2.26522330e-02, 6.25423854e-04,
          7.51600880e-03, -1.02933422e-02, 3.40882950e-02,
          7.56660709e-03, -4.25637513e-02, -5.39125912e-02,
          -6.36520311e-02, -1.13248164e-02, 4.20278236e-02,
          -3.26284133e-02, -8.22449401e-02, -3.83824594e-02,
          -3.32147465e-03, -9.49671213e-03, -5.38353510e-02,
          -6.08475097e-02, -2.78952979e-02, -2.37523541e-02,
          -7.25979311e-03, -4.73445654e-02, 1.68441255e-02,
          3.30282561e-02, -1.56731233e-02, -5.44464923e-02,
          -7.60604590e-02, -7.62136355e-02, 2.08913051e-02,
          1.88091900e-02, -4.79554981e-02, -6.41180053e-02,
          -6.76872134e-02, -5.69621101e-02, 2.13646386e-02,
          -1.95365939e-02, -1.06891561e-02, 7.66545236e-02,
          9.15524364e-02, 1.47936838e-02, -1.32511761e-02,
          -1.73046347e-02, -3.24702598e-02, 1.99416149e-02,
          -1.69111160e-03, -2.07167622e-02, 2.08479948e-02,
          -2.14110427e-02, -7.66640976e-02, -9.34567750e-02,
          -8.33923891e-02, -4.29555178e-02, -3.55314324e-03,
          -4.31040525e-02, -7.21051469e-02, -1.12048499e-02,
          3.95819210e-02, 7.13446736e-03, -3.10354382e-02,
          -5.44826165e-02, 9.38875135e-03, -2.49029938e-02,
          -8.23555887e-03, -6.30510747e-02, -3.65393087e-02,
          2.84657199e-02, -4.58257593e-04, -3.38450782e-02,
          -3.03722601e-02, -2.52941139e-02, 5.47546968e-02,
          -2.69148108e-02, -2.09569447e-02, -2.45994180e-02,
          -2.49638464e-02, -8.93101003e-03, -2.74849832e-02,
          -1.33614764e-02, -4.05623950e-02, 9.32250544e-03,
          -1.04053602e-01, -4.26842533e-02, -2.67259572e-02,
          -1.21754128e-02, -1.42031331e-02, -3.10041942e-02,
          -5.12185618e-02, 5.63535020e-02, -2.39596819e-03,
          1.08873751e-02, 2.47909985e-02, -3.48129123e-02,
          -2.53424961e-02, -5.34171332e-03, -2.52895779e-03,
          9.56549216e-03, 8.53241608e-02, 5.05698696e-02,
          -7.24310204e-02, -6.12438470e-02, -1.91471297e-02,
          1.91600788e-02, -4.15327772e-02, -4.67450060e-02,
          -4.69522141e-02, -7.25322589e-02, -8.33195522e-02,
          -4.31689546e-02, -2.36503799e-02, 1.74010196e-03,
          3.01400516e-02, -1.09431017e-02, -1.95252877e-02,
          -3.55366841e-02, -2.50354782e-02, -4.24727872e-02,
          -3.34991328e-02, -5.58356270e-02, 2.89589465e-02,
          4.09892462e-02, 2.83921082e-02, 1.05715543e-02,
          -8.23836017e-04, -6.70304745e-02, -9.81987640e-02,
          -3.34482379e-02, -3.94277722e-02, 2.61198338e-02,
          8.01864415e-02, 6.44380301e-02, 3.29553373e-02, 3.62741202e-02,
          3.81981470e-02, 1.90609898e-02, -7.40888575e-03,
          -3.61105837e-02, 9.33645442e-02, -4.28694226e-02,
          -6.63137734e-02, -8.20604265e-02, -8.45334306e-02,
          4.02384996e-03, -5.39995730e-03, -5.62586524e-02,
          -1.04543097e-01, -3.81917395e-02, -3.15186903e-02,
          -2.17319317e-02, -6.37435094e-02, -6.34910464e-02,
          4.53026406e-02, -2.17017587e-02, 3.03132068e-02,
          -5.68192862e-02, -3.49403620e-02, 2.89973803e-04,
          -1.00414036e-02, -3.27061415e-02, -1.87298283e-02,
          3.53589617e-02, 4.93932366e-02, -7.29530677e-03,
          -5.69781996e-02, -1.01341223e-02, -4.64055222e-03,
          1.32378964e-02, -4.98671159e-02, -2.69187484e-02,
          8.12020674e-02, 1.22901937e-02, -1.44678270e-02,
          -4.60059494e-02, -3.17814164e-02, -1.91406813e-02,
          -1.72056574e-02, -4.86276820e-02, -2.86097992e-02,
          6.72191232e-02, -1.95996533e-03, -1.44685348e-02,
          -3.91367488e-02, -1.15368525e-02, 3.66576249e-03,
          4.40764590e-04, -1.05884504e-02, 1.50763234e-02,
          4.68332171e-02, -8.69697519e-03, -7.63376877e-02,
          -5.26794568e-02, 4.00593830e-03, -8.16616043e-03,
          -1.24551849e-02, -3.84883955e-02, -2.18094103e-02,
          5.91331087e-02, -3.66945826e-02, -5.39022721e-02,
          -2.82095559e-02, -7.99917895e-03, 2.41831299e-02,
          4.33999085e-04, -2.98312139e-02, -5.51443594e-03,
          -1.79345720e-02, -3.67271388e-03, -3.42568755e-03,
          -7.64541253e-02, -4.74716723e-03, -1.33863436e-02,
          -9.10200924e-03, -3.79388523e-03, 1.18348300e-02,
          -3.65356170e-02, -8.74841362e-02, -9.26248059e-02,
          -6.25618622e-02, -2.37014033e-02, -1.15132146e-02,
          5.84713509e-03, 4.24725339e-02, 2.67358776e-02,
          -1.02692412e-03, -4.44677174e-02, -3.49949263e-02,
          -5.06949387e-02, 4.02377211e-02, 7.48247746e-03,
          1.06123770e-02, -4.06818883e-03, 3.00036650e-02,
          4.12573926e-02, -5.46761006e-02, -3.27192694e-02,
          -1.95386652e-02, -2.89582703e-02, -2.54443567e-02,
          1.09425569e-02, 6.63735569e-02, 6.49548471e-02, 6.94857389e-02,
          -3.60239344e-03, -1.89285958e-03, -2.97214487e-03,
          2.07035639e-03, -4.64274362e-02, -5.30562699e-02,
          -2.25714501e-02, -8.31173640e-03, 2.59480271e-02,
          -1.10721644e-02, -2.78095715e-02, -6.80591241e-02,
          -1.61657091e-02, -3.98942120e-02, -4.93873395e-02,
          -4.03641537e-02, -1.12451557e-02, 4.50392552e-02,
          -4.99350093e-02, -1.14002950e-01, -5.49444146e-02,
          -4.56834659e-02, -6.93186820e-02, -3.80762890e-02,
          8.86303000e-03, 2.22884640e-02, 4.59207036e-02, 4.64191735e-02,
          1.07194204e-02, -3.99357863e-02, -2.35179123e-02,
          -5.22588827e-02, -3.53397131e-02, -1.80373322e-02,
          -3.38236317e-02, 5.07309400e-02, 4.05421015e-03,
          -6.11748360e-02, -5.83584122e-02, -4.63734493e-02,
          -3.42963301e-02, -5.45230098e-02, -4.86187339e-02,
          -2.53496971e-02, 6.89750984e-02, -3.01575698e-02,
          -9.07173529e-02, -1.05042420e-02, -1.28116328e-02,
          -3.39496061e-02, -3.62378731e-02, -6.25542179e-02,
          -3.94739695e-02, -3.82676423e-02, -7.23707909e-03,
          2.99283080e-02, -2.08546873e-02, -1.04020666e-02,
          -5.42244576e-02, -2.25309953e-02, 2.93108192e-03,
          -9.43638291e-03, 7.64835030e-02, -8.93468503e-03,
          -9.60995778e-02, -5.38793616e-02, -3.34212631e-02,
          -9.91418585e-02, -5.53775113e-03, 1.92500036e-02,
          -2.18844544e-02, 1.76580884e-02, 2.41430569e-02,
          -7.19473325e-03, -3.57420184e-02, -4.64853570e-02,
          -3.34378667e-02, -4.85956334e-02, -2.37668604e-02,
          -1.22529166e-02, -1.43681709e-02, -6.21012039e-02,
          -1.94619410e-02, -3.49334702e-02, -4.66433652e-02,
          -6.39661029e-02, -4.35981303e-02, 2.08245330e-02,
          6.02405928e-02, 3.12294979e-02, 1.42785776e-02,
          -3.09901293e-02, -2.60620862e-02, -1.81437209e-02,
          -4.38599326e-02, -3.60430554e-02, -6.76684976e-02,
          -1.51886223e-02, -2.46423632e-02, -1.40986061e-02,
          -8.86282232e-03, -2.67229024e-02, -2.94108130e-02,
          -4.18570451e-02, -1.46960432e-03, -3.71048264e-02,
          1.38701685e-02, 7.58689689e-03, 1.13872848e-02,
          -2.39710193e-02, -2.26250142e-02, -1.77141111e-02,
          -6.13542721e-02, -4.37543094e-02, -1.95267089e-02,
          2.06024032e-02, 8.03955793e-02, 4.79782186e-02,
          -1.23535180e-02, -5.51177040e-02, -3.86040695e-02,
          -6.28582835e-02, -1.27039356e-02, 1.72902632e-03,
          -3.13054062e-02, 2.40771193e-02, 2.11901795e-02,
          -6.33818433e-02, -9.00829658e-02, -8.36626589e-02,
          -4.72243354e-02, 3.28749605e-03, -3.46646421e-02,
          2.94187926e-02, 7.14779943e-02, 3.59734334e-02,
          -1.62451603e-02, -7.74002522e-02, -3.64391953e-02,
          -8.20084363e-02, -7.13786157e-03, -4.90483455e-02,
          2.25930065e-02, 1.94688421e-02, 5.80023136e-03,
          -5.05849309e-02, -9.91169065e-02, -8.15513059e-02,
          -5.59040308e-02, 1.44024836e-02, 6.10125214e-02,
          7.12527893e-03, 8.78983960e-02, 3.09436657e-02,
          -6.15870878e-02, -7.00711161e-02, -6.63197264e-02,
          -7.78362527e-02, -2.62973364e-02, 3.64227332e-02,
          1.08757522e-02, 3.50655317e-02, 4.44883946e-04,
          -1.25683853e-02, -5.00131771e-02, -4.01527546e-02,
          -7.35105798e-02, 1.03703029e-02, -2.22152635e-03,
          1.03570297e-02, 4.76339124e-02, 1.26102539e-02,
          -4.52200584e-02, -7.35808164e-02, -1.08954385e-01,
          -7.22976848e-02, -4.45961915e-02, -1.43864071e-02,
          1.88433528e-02, -1.83239654e-02, -2.91172359e-02,
          -3.14119495e-02, -7.15531334e-02, -9.08258557e-02,
          -2.43958533e-02, -4.31369208e-02, -7.53976107e-02,
          -3.49187031e-02, -1.10980021e-02, -5.33151217e-02,
          6.81773992e-03, -1.30817853e-02, -2.43354291e-02,
          -3.38002816e-02, -1.17633967e-02, -3.92970629e-02,
          -2.60433406e-02, -6.58141589e-03, -1.77979358e-02,
          -2.27051768e-02, -1.11803459e-02, -1.08388555e-03,
          -5.14969118e-02, -2.95664929e-02, -7.33466679e-03,
          -3.86948958e-02, -2.94692479e-02, -3.76491025e-02,
          -1.85842644e-02, -2.68521346e-02, -5.85210919e-02,
          -5.66855371e-02, -4.44906577e-03, 5.34962602e-02,
          7.98423309e-03, -4.32768418e-03, -5.00679836e-02,
          9.53269284e-03, 2.14280517e-04, -2.15138160e-02,
          -1.38457650e-02, 2.51014102e-02, 2.01511178e-02,
          5.02532907e-02, 1.08273484e-01, -2.55092373e-03,
          -3.64342630e-02, -1.79550573e-02, 4.17147297e-03,
          -4.91736680e-02, -2.08210982e-02, -4.39260975e-02,
          1.59275327e-02, 1.77060217e-02, 1.30657200e-02,
          -5.29236235e-02, -7.86219016e-02, -3.19017023e-02,
          -1.64781809e-02, -2.54530944e-02, 3.54703069e-02,
          4.96780649e-02, 7.90237337e-02, -7.03400448e-02,
          -7.33949691e-02, -5.97954262e-03, -7.87268858e-03,
          -4.15820368e-02, -6.08780384e-02, -4.57800180e-02,
          -2.68691964e-02, 5.54687828e-02, -1.85707547e-02,
          -9.64688659e-02, -1.20383568e-01, -5.07710464e-02,
          -2.62082890e-02, 1.41192134e-02, 4.94623883e-03,
          1.41356075e-02, 4.03546318e-02, 4.06155512e-02,
          -5.00131398e-02, -5.37137054e-02, -5.37143275e-02,
          -4.76786718e-02, -2.12626960e-02, 8.67841113e-03,
          3.55927497e-02, -1.95482448e-02, 3.89888324e-02,
          -5.08082137e-02, -7.17376247e-02, -7.38071799e-02,
          -3.66416350e-02, -2.29161922e-02, -1.76408328e-04,
          -2.47691069e-02, 2.84154732e-02, -3.38087440e-03,
          -7.59539157e-02, -1.29321799e-01, -3.55642065e-02,
          -3.96731012e-02, -5.10824658e-02, -1.02384109e-02,
          -1.90990102e-02, -6.56554550e-02, -9.33589693e-03,
          -8.68613720e-02, -1.46811306e-01, -6.64122030e-02,
          -4.47801501e-02, -5.99658629e-03, 2.21971422e-02,
          -4.57434356e-02, 4.62078489e-03, 2.71965172e-02,
          -4.92483005e-02, -5.96335530e-02, -5.21608889e-02,
          -1.66949835e-02, 5.20525849e-04, 5.62398210e-02,
          9.93405585e-04, 7.46648461e-02, -8.39150790e-03,
          -3.95467654e-02, -1.46637410e-02, 7.86279619e-04,
          -1.67200249e-02, -3.14791012e-03, -1.89630166e-02,
          -4.99715433e-02, 2.76462417e-02, 2.36892607e-02,
          -8.83421004e-02, -1.15560271e-01, -4.51258607e-02,
          1.11931637e-02, -1.20996041e-02, 4.56379494e-03,
          -5.22516854e-02, 1.10826935e-04, 3.73799279e-02,
          -5.64450733e-02, -3.11807413e-02, 4.09563556e-02,
          -2.31533814e-02, -5.50392307e-02, 3.20025673e-03,
          4.36109975e-02, 1.17274895e-01, -6.56985417e-02,
          -9.39931050e-02, -2.35401969e-02, -2.11262200e-02,
          -4.76416983e-02, -6.87829405e-02, -7.15881288e-02,
          -5.43028163e-03, 8.57787654e-02, -4.77108695e-02,
          -1.02146767e-01, -7.96929672e-02, -4.94088084e-02,
          -1.07189445e-02, -3.16994153e-02, 1.77506842e-02,
          8.07452295e-03, 5.85054755e-02, 2.79851872e-02,
          -1.93164386e-02, -4.85918038e-02, 1.23459520e-02,
          -3.78134027e-02, -5.28988950e-02, -2.97552738e-02,
          -3.92141752e-02, -1.53669640e-02, -2.88146529e-02,
          -7.23252222e-02, -1.94529369e-02, 1.01513853e-02,
          -1.50091741e-02, 1.49571486e-02, 3.21733877e-02,
          2.52791420e-02, 1.15215704e-01, 6.48230128e-03,
          -8.01223218e-02, -7.75793120e-02, -1.80436485e-02,
          -3.93334627e-02, -2.49051489e-02, 5.62353816e-04,
          -3.95085774e-02, 4.77345457e-04, -4.55759130e-02,
          -1.06024683e-01, -1.47845820e-01, -6.48551285e-02,
          -2.91514453e-02, 4.58716974e-03, 3.39657888e-02,
          2.85681039e-02, 4.85706180e-02, 3.81269958e-03,
          -5.82277626e-02, -1.49598662e-02, -1.20598804e-02,
          -4.48256880e-02, -2.01702937e-02, -2.79311799e-02,
          -1.93250235e-02, -7.07263080e-03, -6.44243807e-02,
          -1.65167630e-01, -1.19318195e-01, -6.94090948e-02,
          4.14272130e-04, -1.20137017e-02, -3.52394208e-02,
          -2.55717002e-02, 5.02296314e-02, 1.02362446e-01,
          -1.13189429e-01, -5.28404340e-02, -1.23287877e-03,
          1.86691787e-02, -7.69978215e-04, -1.22218644e-02,
          -2.54038423e-02, 1.21331308e-02, 1.63396467e-02,
          -1.06619492e-01, -4.65610549e-02, 4.89714630e-02,
          -2.43743416e-02, -2.74098068e-02, -2.86592171e-02,
          -5.00192009e-02, 8.94040465e-02, 5.22954613e-02,
          -1.81287169e-01, -9.55929235e-02, -3.24362069e-02,
          -4.71553355e-02, -3.78321186e-02, -7.12362230e-02,
          -8.83221254e-02, -7.00375587e-02, 3.93091664e-02,
          -6.41222745e-02, -2.97900159e-02, -5.15670627e-02,
          -4.87746950e-03, 5.36559033e-04, 1.54335648e-02,
          -7.77518982e-03, -2.08688085e-03, 2.70068720e-02,
          -3.68027017e-02, -7.40137324e-02, -2.58702487e-02,
          -4.03150506e-02, -5.90820424e-02, 2.61024409e-03,
          -1.14568705e-02, -8.81864969e-03, -1.87341906e-02,
          -8.02988559e-03, -4.37909178e-02, 4.22024122e-03,
          -4.30106372e-02, -3.98746878e-02, -5.12006953e-02,
          -1.00292303e-01, -1.10328123e-01, 1.13008339e-02,
          -6.05028048e-02, -8.30952972e-02, -8.03058967e-02,
          -9.53937788e-03, -9.81949046e-02, -3.93439196e-02,
          -6.49511740e-02, -2.97503248e-02, 3.66091281e-02,
          2.17925198e-02, 6.53882883e-03, 3.36695672e-03,
          -8.81629437e-03, 7.16188643e-03, 8.29833895e-02,
          8.00360218e-02, 5.35423681e-02, -3.15204598e-02,
          -4.87684496e-02, 7.56715564e-03, 4.10301349e-04,
          -6.89014718e-02, -6.98899850e-02, -3.14062163e-02,
          -6.26812130e-03, -1.35443155e-02, -9.04223174e-02,
          -1.62238419e-01, -1.00588739e-01, -8.04259330e-02,
          2.57629547e-02, -6.00014850e-02, -8.51337332e-03,
          -4.26315656e-03, 5.22188880e-02, 6.00191951e-03,
          2.15593223e-02, 5.85209578e-02, 6.59704804e-02,
          -2.11945139e-02, -4.44734283e-02, 5.17335441e-03,
          -4.50567454e-02, -2.27460489e-02, -9.82154086e-02,
          -1.66838646e-01, -5.98404557e-02, 5.76537754e-03 ]
   uncompressed_sv_total: 33
   uncompressed_support_vectors:
      - [ 5.97856902e-02, 9.06115249e-02, 4.02652062e-02, 2.10013669e-02,
          7.24444762e-02, 1.74675360e-02, 1.09415036e-02, 1.46676572e-02,
          2.14332454e-02, 3.19102436e-01, 1.55312255e-01, 6.66629151e-02,
          1.30192563e-01, 5.38603604e-01, 7.47989193e-02, 1.55672273e-02,
          1.38193928e-02, 1.22580417e-01, 6.22781441e-02, 8.73192623e-02,
          4.96564023e-02, 3.05508524e-02, 2.59191662e-01, 2.49334462e-02,
          3.78949731e-03, 3.41293053e-03, 1.78748276e-02, 3.00181508e-01,
          9.26975682e-02, 5.93133010e-02, 1.36939809e-01, 5.38603604e-01,
          1.39998153e-01, 1.44084841e-02, 1.26635786e-02, 4.30458114e-02,
          2.10401595e-01, 7.39523992e-02, 4.87313382e-02, 1.43949360e-01,
          4.24039096e-01, 7.26588592e-02, 2.78623197e-02, 1.16319451e-02,
          1.21510185e-01, 5.48098199e-02, 2.13562418e-02, 3.24283615e-02,
          9.75689515e-02, 4.24039096e-01, 1.97800651e-01, 7.81673938e-02,
          1.13026135e-01, 6.07148930e-02, 1.42973617e-01, 3.33328433e-02,
          1.91806369e-02, 1.16339184e-01, 4.24039096e-01, 1.03252925e-01,
          1.70561112e-02, 8.71703681e-03, 2.42990479e-02, 1.29986403e-03,
          2.64395378e-03, 3.74794640e-02, 1.30535260e-01, 4.24039096e-01,
          1.94862634e-01, 5.79839498e-02, 1.13509409e-02, 4.58075851e-03,
          1.88974421e-02, 1.57702751e-02, 7.11488649e-02, 1.93962350e-01,
          3.53283763e-01, 3.21530789e-01, 1.03552453e-01, 2.41708145e-01,
          5.00735976e-02, 1.35333305e-02, 2.60859821e-02, 7.93243498e-02,
          1.69462010e-01, 3.53283763e-01, 7.52730891e-02, 2.40238346e-02,
          4.80180494e-02, 1.57797262e-02, 4.93957754e-03, 4.73587308e-03,
          1.16280861e-01, 3.15555006e-01, 3.53283763e-01, 2.78264880e-01,
          8.83248523e-02, 1.19190570e-02, 3.88758583e-03, 3.67766730e-02,
          3.21358852e-02, 7.01421648e-02, 1.43278375e-01, 3.53283763e-01,
          7.27693290e-02, 4.26432528e-02, 1.48362704e-02, 2.31495257e-02,
          2.96046808e-02, 4.48239222e-02, 2.36783605e-02, 1.76227242e-02,
          2.46764898e-01, 2.59091444e-02, 8.53675604e-03, 6.73408294e-03,
          2.10937858e-02, 6.36784285e-02, 1.90741718e-02, 3.67549397e-02,
          1.13238133e-01, 5.11263847e-01, 2.40538552e-01, 4.73671667e-02,
          6.84254393e-02, 9.90895703e-02, 3.25042307e-02, 5.84915951e-02,
          3.99642326e-02, 2.68471297e-02, 1.27536133e-01, 3.67209278e-02,
          3.51246372e-02, 2.52773967e-02, 4.43534218e-02, 4.19787653e-02,
          7.80641809e-02, 1.14707112e-01, 1.54496074e-01, 5.11263847e-01,
          3.25421721e-01, 1.57962665e-01, 2.12589160e-01, 2.52694339e-01,
          3.11782882e-02, 7.85297994e-03, 3.31329778e-02, 1.13852195e-01,
          4.13772076e-01, 2.21033260e-01, 4.02454287e-02, 3.84290181e-02,
          5.15020303e-02, 4.95706499e-03, 5.32252202e-03, 4.09541242e-02,
          1.28120646e-01, 4.13772076e-01, 1.51324019e-01, 5.37742339e-02,
          9.48446710e-03, 5.07848337e-03, 1.89089682e-02, 3.11661530e-02,
          1.06367916e-01, 1.78965390e-01, 4.13772076e-01, 3.05057615e-01,
          9.16696563e-02, 1.14657499e-01, 1.32024467e-01, 2.82669589e-02,
          1.24154221e-02, 6.99058622e-02, 1.41852915e-01, 3.68285686e-01,
          1.64062798e-01, 4.34483103e-02, 1.32467253e-02, 3.47320959e-02,
          5.71277924e-03, 4.18680441e-03, 9.29292589e-02, 3.00670445e-01,
          3.77482295e-01, 2.21158355e-01, 9.69928131e-02, 2.84619648e-02,
          6.97180768e-03, 4.84130085e-02, 3.97783592e-02, 5.96759059e-02,
          1.47121504e-01, 3.77482295e-01, 8.80707428e-02, 4.52771112e-02,
          3.43270786e-02, 4.11730744e-02, 6.03664033e-02, 7.43611855e-03,
          1.05754949e-01, 2.04860792e-01, 3.77482295e-01, 2.13957340e-01,
          8.11981931e-02, 9.70970839e-02, 1.65909037e-01, 3.76875214e-02,
          1.33877285e-02, 5.42531572e-02, 1.38683394e-01, 3.77482295e-01,
          1.39504999e-01, 5.20043187e-02, 1.26101315e-01, 1.34756029e-01,
          3.67445424e-02, 1.96301535e-01, 1.59533888e-01, 6.03349581e-02,
          3.70887183e-02, 2.27176808e-02, 1.77798793e-02, 2.05221456e-02,
          3.66205499e-02, 7.55925477e-02, 1.99313626e-01, 2.65283465e-01,
          9.90777314e-02, 2.79681236e-01, 1.94684565e-01, 1.23747326e-01,
          1.38802618e-01, 1.65260181e-01, 2.39012949e-02, 2.55957514e-01,
          2.79681236e-01, 2.79681236e-01, 1.93801641e-01, 3.73122729e-02,
          6.75024698e-03, 1.32773705e-02, 1.59105156e-02, 4.69328612e-02,
          1.94887862e-01, 2.79681236e-01, 2.75469422e-01, 2.79681236e-01,
          2.79681236e-01, 6.75745979e-02, 3.50443870e-02, 4.61702347e-02,
          3.67658697e-02, 4.19752225e-02, 1.46656021e-01, 8.05573389e-02,
          3.37543100e-01, 2.91906208e-01, 1.20370962e-01, 1.05072074e-01,
          1.11490689e-01, 4.58143763e-02, 1.29010817e-02, 6.85259774e-02,
          8.08535740e-02, 3.37543100e-01, 1.99492037e-01, 5.09907492e-02,
          3.13867927e-02, 7.05356896e-02, 2.81402282e-02, 2.62046605e-02,
          1.36933342e-01, 9.52377543e-02, 3.37543100e-01, 3.37543100e-01,
          1.39891341e-01, 4.48395982e-02, 3.47820856e-02, 5.78354336e-02,
          4.08663042e-02, 6.82545975e-02, 6.72677457e-02, 3.26330453e-01,
          3.37543100e-01, 1.42424181e-01, 1.08133383e-01, 7.78304860e-02,
          5.64612374e-02, 1.33047048e-02, 1.08340621e-01, 6.77277148e-02,
          1.94823503e-01, 1.90022230e-01, 1.39612511e-01, 1.39985502e-01,
          1.78100869e-01, 2.54176687e-02, 1.25291310e-02, 6.15293309e-02,
          4.31149267e-02, 2.71349877e-01, 1.97091147e-01, 2.13662699e-01,
          1.82184413e-01, 1.40028864e-01, 4.35358770e-02, 4.70866747e-02,
          1.29007682e-01, 8.65312442e-02, 2.02895716e-01, 2.71349877e-01,
          2.71349877e-01, 2.14020535e-01, 1.48745388e-01, 1.54643916e-02,
          3.25317457e-02, 7.74359927e-02, 4.47259694e-02, 2.66342878e-01,
          2.71349877e-01, 2.71349877e-01, 2.71349877e-01, 1.72121421e-01,
          6.05808804e-03, 5.21412008e-02, 2.13168040e-01, 3.23150963e-01,
          3.23150963e-01, 8.24192688e-02, 1.94208138e-02, 7.63372984e-03,
          3.47809889e-03, 4.90140542e-03, 2.98558716e-02, 9.36081484e-02,
          1.97069705e-01, 3.23150963e-01, 3.14290702e-01, 8.97945613e-02,
          2.10273284e-02, 1.21124880e-02, 2.85998289e-03, 3.06885876e-03,
          2.80366261e-02, 3.23150963e-01, 3.23150963e-01, 1.53633311e-01,
          6.75658584e-02, 2.41284128e-02, 1.24005713e-02, 6.77677430e-03,
          2.15256307e-03, 8.11237376e-03, 9.77231786e-02, 2.64976770e-01,
          3.23150963e-01, 1.98377490e-01, 7.28280023e-02, 6.77206442e-02,
          1.71468053e-02, 9.86641552e-03, 3.73204313e-02, 7.66556412e-02,
          3.06850702e-01, 3.33580047e-01, 2.06926405e-01, 5.45935705e-02,
          2.81150546e-02, 5.45973927e-02, 4.08211239e-02, 3.76702994e-02,
          4.78018001e-02, 1.20741814e-01, 3.33580047e-01, 2.14651749e-01,
          1.17209479e-01, 7.71641806e-02, 1.50454333e-02, 4.43967665e-03,
          6.63243793e-03, 9.87829641e-02, 2.19747245e-01, 3.33580047e-01,
          2.86763936e-01, 7.48194382e-02, 7.25380033e-02, 2.81487256e-02,
          1.10627562e-02, 1.23422211e-02, 8.16040114e-02, 2.30431661e-01,
          3.33580047e-01, 2.87338138e-01, 1.14737183e-01, 8.04771036e-02,
          3.02180890e-02, 3.60401422e-02, 4.36068885e-02, 5.67273460e-02,
          1.03050306e-01, 2.65193492e-01, 2.40503922e-01, 9.11551043e-02,
          5.42268343e-02, 1.21560143e-02, 1.38726160e-02, 1.65846925e-02,
          2.51725670e-02, 2.69095361e-01, 3.21222931e-01, 3.21222931e-01,
          1.72952220e-01, 8.22419748e-02, 1.63976494e-02, 8.41279607e-03,
          1.47915836e-02, 1.25466138e-01, 2.75574982e-01, 3.21222931e-01,
          2.07758769e-01, 4.90458906e-02, 3.90750989e-02, 1.66348778e-02,
          9.73205920e-03, 1.11868680e-02, 1.15237795e-01, 3.21222931e-01,
          3.21222931e-01, 2.42610559e-01, 3.20734307e-02, 1.26049854e-02,
          7.32753566e-03, 9.28885955e-03, 7.90463667e-03, 1.02803275e-01,
          3.51933330e-01, 2.37792790e-01, 3.90100852e-02, 5.17263263e-02,
          3.46352868e-02, 8.61673616e-03, 6.40090322e-03, 4.13720310e-03,
          8.14216956e-02, 3.33619177e-01, 2.55233169e-01, 9.55302864e-02,
          1.08622946e-01, 1.22123107e-01, 1.94155090e-02, 2.01365501e-02,
          3.32969725e-02, 2.97433287e-02, 3.51933330e-01, 3.51933330e-01,
          6.28233105e-02, 7.51531422e-02, 7.45204985e-02, 2.30895877e-02,
          1.73015147e-02, 2.88251862e-02, 1.61709949e-01, 3.51933330e-01,
          2.90790856e-01, 5.12924157e-02, 1.80397913e-01, 2.09343061e-01,
          3.55978310e-03, 0., 0., 1.14702985e-01, 3.29619855e-01,
          3.33950788e-01, 1.01224534e-01, 3.66747938e-02, 5.69873564e-02,
          4.55949362e-03, 1.80287534e-04, 1.27709366e-03, 6.46063462e-02,
          2.78236985e-01, 3.33950788e-01, 1.30782470e-01, 3.90368327e-02,
          2.43375637e-02, 4.99348762e-03, 9.06027737e-04, 1.63310440e-03,
          1.94656789e-01, 3.33950788e-01, 3.33950788e-01, 8.51037726e-02,
          6.05111234e-02, 7.23315403e-02, 1.86852226e-03, 1.76950567e-03,
          1.29915420e-02, 1.42804325e-01, 3.33950788e-01, 3.33950788e-01,
          1.22672088e-01, 1.79474410e-02, 6.29066210e-03, 2.38863821e-03,
          2.01531075e-04, 3.69062158e-03, 1.41268566e-01, 3.24758917e-01,
          2.81299829e-01, 9.72026363e-02, 2.34935023e-02, 1.54069830e-02,
          2.65003256e-02, 1.66883338e-02, 1.26785599e-02, 1.94542900e-01,
          3.24758917e-01, 3.24758917e-01, 6.76330179e-02, 5.59674343e-03,
          5.96918352e-03, 3.10512236e-03, 1.70231834e-02, 5.77432290e-02,
          3.05697143e-01, 3.24758917e-01, 2.71325082e-01, 5.39385043e-02,
          1.02839237e-02, 8.23400635e-03, 1.88112818e-02, 2.75461655e-02,
          5.42690456e-02, 3.12759936e-01, 3.24758917e-01, 1.97023079e-01,
          4.29117270e-02, 1.26296154e-03, 1.08546540e-02, 8.01985338e-03,
          6.79200608e-03, 1.77559722e-02, 5.16550466e-02, 1.87728569e-01,
          3.10434073e-01, 2.63883442e-01, 6.58833236e-02, 3.35408673e-02,
          1.58856008e-02, 1.66595355e-02, 2.50489991e-02, 2.58533537e-01,
          3.10434073e-01, 1.68470353e-01, 1.12572633e-01, 1.23285249e-01,
          8.29101056e-02, 8.39272514e-03, 6.96271239e-03, 1.61122940e-02,
          6.92947879e-02, 8.44483897e-02, 1.49424210e-01, 3.10434073e-01,
          2.16962084e-01, 4.76833694e-02, 6.11215159e-02, 5.57797141e-02,
          5.20264208e-02, 3.10434073e-01, 3.10434073e-01, 7.53237978e-02,
          2.47512758e-01, 3.10434073e-01, 1.16812386e-01, 4.68966365e-03,
          5.35397884e-03, 5.30204270e-03, 2.16539919e-01, 3.53987724e-01,
          2.66436964e-01, 2.86538117e-02, 3.36496532e-02, 2.37923283e-02,
          6.95536612e-03, 9.85878706e-03, 2.94294730e-02, 1.34606957e-01,
          3.53987724e-01, 3.53987724e-01, 4.43257950e-02, 3.07494216e-03,
          2.94796121e-03, 3.03198900e-02, 2.81297639e-02, 2.57815793e-02,
          2.88057595e-01, 3.53987724e-01, 1.03138015e-01, 2.35067569e-02,
          6.48813918e-02, 3.58444527e-02, 1.23782661e-02, 1.58826057e-02,
          7.45377615e-02, 2.49489114e-01, 3.53987724e-01, 2.38272026e-01,
          3.63080837e-02, 0., 1.33998238e-03, 3.19055878e-02,
          8.54354501e-02, 2.01908618e-01, 2.94481486e-01, 2.94481486e-01,
          2.27820337e-01, 3.58867645e-02, 2.06627976e-03, 2.43763924e-02,
          2.04827804e-02, 7.78012723e-02, 1.92383289e-01, 2.89987117e-01,
          2.75989264e-01, 6.65973499e-02, 3.23275588e-02, 1.34066679e-03,
          2.93894913e-02, 5.53479865e-02, 1.04838111e-01, 2.94481486e-01,
          2.94481486e-01, 2.94481486e-01, 2.25693807e-01, 7.63068646e-02,
          2.52458722e-05, 1.70337949e-02, 4.16175202e-02, 9.98903662e-02,
          2.94481486e-01, 2.63051540e-01, 9.50857624e-02, 3.70866582e-02,
          2.55780630e-02, 2.48271436e-03, 2.62296442e-02, 7.76816346e-03,
          7.20977923e-03, 2.82281358e-02, 1.11583591e-01, 1.25203893e-01,
          2.09016707e-02, 1.37584507e-01, 1.52524576e-01, 4.58325744e-02,
          6.75254315e-02, 4.05494869e-02, 4.64805737e-02, 2.82113194e-01,
          4.18628842e-01, 3.50154713e-02, 1.23726510e-01, 2.99933493e-01,
          2.15319023e-01, 1.93291679e-02, 2.38395482e-02, 5.47659285e-02,
          1.77724719e-01, 2.19829187e-01, 1.01024928e-02, 3.31682560e-04,
          8.78827646e-03, 1.63573436e-02, 5.82150631e-02, 1.18251070e-01,
          7.21879750e-02, 4.04479355e-01, 4.18628842e-01, 9.19662192e-02,
          4.96817119e-02, 1.73547849e-01, 1.38603851e-01, 2.59519462e-02,
          1.53293358e-02, 2.62570344e-02, 2.29291067e-01, 3.37173492e-01,
          3.11028454e-02, 1.14923548e-02, 5.43459728e-02, 6.95674941e-02,
          3.52917891e-03, 5.43497968e-03, 1.15421183e-01, 3.37173492e-01,
          3.37173492e-01, 6.78413510e-02, 1.76373459e-02, 1.44699879e-03,
          4.47661802e-03, 8.04161727e-02, 6.05123602e-02, 1.33675054e-01,
          3.30749661e-01, 3.37173492e-01, 6.48632199e-02, 4.52018343e-02,
          9.69076976e-02, 6.73900917e-02, 7.29064122e-02, 3.02653536e-02,
          2.57962525e-01, 3.37173492e-01, 3.37173492e-01, 2.42673066e-02,
          8.93660262e-03, 1.65520273e-02, 4.30834964e-02, 2.08176710e-02,
          4.03153934e-02, 3.39160025e-01, 3.39160025e-01, 3.39160025e-01,
          1.47417068e-01, 6.67882487e-02, 3.23365722e-03, 1.24175521e-02,
          3.60025428e-02, 8.39272290e-02, 2.75816053e-01, 2.45359138e-01,
          1.09868050e-01, 3.60806286e-02, 1.99907143e-02, 1.25837245e-03,
          1.00030061e-02, 7.40179718e-02, 6.71638548e-02, 3.39160025e-01,
          3.39160025e-01, 3.39160025e-01, 3.15901339e-02, 3.33579769e-03,
          2.03881748e-02, 7.46446326e-02, 4.33259755e-02, 1.13117076e-01,
          1.91523239e-01, 2.18157470e-01, 5.82560524e-02, 4.11081128e-03,
          2.32968479e-03, 1.45767431e-03, 1.33404592e-02 ]
      - [ 5.61184883e-02, 1.14297740e-01, 2.17033580e-01, 8.91929865e-02,
          2.56750047e-01, 8.32337588e-02, 5.13649210e-02, 2.60052886e-02,
          1.01125441e-01, 1.06757477e-01, 1.65389881e-01, 2.47796640e-01,
          4.93503697e-02, 2.76961565e-01, 2.76961565e-01, 2.76961565e-01,
          2.76961565e-01, 2.76961565e-01, 4.43056338e-02, 4.29118127e-02,
          6.31825998e-02, 5.53737022e-02, 2.72564352e-01, 1.35891154e-01,
          4.09337319e-02, 2.16020476e-02, 5.29061146e-02, 6.62180558e-02,
          5.32567501e-02, 4.70377654e-02, 2.75153089e-02, 1.88807860e-01,
          2.76961565e-01, 2.14287311e-01, 1.62711024e-01, 2.23472521e-01,
          9.39987153e-02, 8.19954202e-02, 6.99497685e-02, 2.90823039e-02,
          1.64825678e-01, 2.98002571e-01, 2.63351560e-01, 2.98002571e-01,
          2.88037628e-01, 7.75643885e-02, 5.14296666e-02, 5.74724823e-02,
          3.59468162e-02, 1.26724765e-01, 2.65990317e-01, 2.12061763e-01,
          1.64363250e-01, 6.67653531e-02, 3.38143446e-02, 2.48131212e-02,
          2.13620644e-02, 1.15283141e-02, 1.10885151e-01, 2.98002571e-01,
          2.80231386e-01, 1.45174116e-01, 1.01796396e-01, 2.99868453e-02,
          1.87227689e-02, 4.97597270e-02, 5.12435064e-02, 1.12388939e-01,
          2.98002571e-01, 2.98002571e-01, 1.75006554e-01, 3.84485163e-02,
          5.95650300e-02, 3.92606445e-02, 1.03371903e-01, 7.46384263e-02,
          2.30366215e-01, 2.89129645e-01, 2.12038964e-01, 1.30969822e-01,
          4.73941676e-02, 3.10184099e-02, 3.28020453e-02, 9.44981724e-02,
          9.38523263e-02, 2.67777652e-01, 1.89707831e-01, 7.42518529e-02,
          4.19476517e-02, 5.24033122e-02, 2.50886548e-02, 1.42272273e-02,
          7.38311857e-02, 1.10585429e-01, 2.59836644e-01, 3.51831824e-01,
          3.51831824e-01, 2.76887447e-01, 6.26472309e-02, 8.70168582e-03,
          4.97391913e-03, 2.19123252e-02, 9.52772126e-02, 2.87860841e-01,
          3.23788017e-01, 1.43125996e-01, 6.57145455e-02, 1.64649524e-02,
          1.81998596e-01, 1.60885260e-01, 8.80321264e-02, 6.11857548e-02,
          1.20223865e-01, 8.96596983e-02, 8.83286297e-02, 5.80876097e-02,
          9.64670032e-02, 1.64171502e-01, 1.44092739e-01, 4.40516733e-02,
          3.54999751e-02, 1.31657884e-01, 2.10112289e-01, 2.97077090e-01,
          1.53167278e-01, 1.56471625e-01, 2.52229720e-01, 2.14258417e-01,
          1.95794687e-01, 1.59775913e-01, 1.42286882e-01, 6.77067339e-02,
          1.63350701e-01, 9.72969607e-02, 1.36278957e-01, 1.60080507e-01,
          1.49611473e-01, 6.32654577e-02, 1.01710498e-01, 2.97077090e-01,
          2.97077090e-01, 2.97077090e-01, 1.91110387e-01, 1.35550782e-01,
          1.34378066e-02, 1.73337050e-02, 6.65091677e-03, 8.26465432e-03,
          1.24722250e-01, 3.24021071e-01, 2.19496280e-01, 5.13659976e-02,
          2.95217671e-02, 9.47237294e-03, 1.38667133e-03, 1.02773532e-02,
          4.53702249e-02, 1.82514712e-01, 3.24021071e-01, 3.24021071e-01,
          6.15106896e-02, 1.11936294e-02, 1.10316277e-02, 2.36854814e-02,
          1.64870191e-02, 3.51547413e-02, 2.89106309e-01, 3.24021071e-01,
          3.24021071e-01, 4.81025428e-02, 2.62543373e-02, 5.42493770e-03,
          5.63753815e-03, 1.12082809e-02, 4.95931916e-02, 3.24021071e-01,
          3.24021071e-01, 2.50693202e-01, 1.41462246e-02, 7.16114929e-03,
          1.33906016e-02, 5.43167209e-03, 1.04678562e-02, 6.49030730e-02,
          2.49333844e-01, 3.39769185e-01, 3.39769185e-01, 1.37534380e-01,
          1.82239562e-02, 6.81038992e-03, 7.35441688e-03, 1.78160816e-02,
          5.87879159e-02, 1.16909660e-01, 1.65005624e-01, 1.68086261e-01,
          6.24012835e-02, 4.65159304e-03, 1.25042116e-02, 6.98357867e-03,
          1.04216160e-02, 6.37181550e-02, 3.39769185e-01, 3.39769185e-01,
          3.39769185e-01, 9.71719995e-02, 1.42691461e-02, 1.29679581e-02,
          9.38197225e-03, 2.42190156e-02, 4.29391228e-02, 1.36914685e-01,
          2.99543470e-01, 3.39769185e-01, 1.25678092e-01, 9.49530676e-03,
          7.29006901e-02, 4.90554720e-02, 1.14353672e-01, 1.63193747e-01,
          2.32463628e-01, 1.92349166e-01, 8.38965699e-02, 4.57417853e-02,
          5.46581149e-02, 3.10381446e-02, 2.26314310e-02, 2.29104348e-02,
          1.11462452e-01, 3.15535158e-01, 3.15535158e-01, 3.15535158e-01,
          5.19980602e-02, 3.05707343e-02, 5.64246904e-03, 1.20894110e-03,
          2.12196242e-02, 5.87830134e-02, 3.15535158e-01, 3.15535158e-01,
          1.76128328e-01, 3.34266685e-02, 2.00743303e-02, 7.03180302e-03,
          4.54456266e-03, 1.01046842e-02, 7.75708184e-02, 3.15535158e-01,
          3.15535158e-01, 2.90289640e-01, 5.56746125e-02, 3.49834263e-02,
          9.71719064e-03, 1.01196505e-02, 1.78433917e-02, 5.23903258e-02,
          3.08617592e-01, 3.08617592e-01, 2.90770888e-01, 8.78882129e-03,
          1.10292695e-02, 8.56079068e-03, 6.73453696e-03, 2.35940721e-02,
          5.61615415e-02, 2.81752020e-01, 3.08617592e-01, 1.34861544e-01,
          1.91302632e-03, 6.37900457e-03, 1.00735221e-02, 9.59677994e-03,
          2.67848745e-02, 7.75500014e-02, 3.08617592e-01, 3.08617592e-01,
          2.96768844e-01, 2.52190474e-02, 1.83051657e-02, 1.26661342e-02,
          1.58128347e-02, 5.58423288e-02, 8.46696496e-02, 3.08617592e-01,
          3.08617592e-01, 1.81335136e-01, 2.83989348e-02, 1.98909398e-02,
          3.93088534e-03, 1.33409584e-03, 1.35302395e-02, 5.50276823e-02,
          3.35236847e-01, 3.35236847e-01, 1.86017543e-01, 2.06771437e-02,
          5.47760958e-03, 5.15061058e-03, 1.19055365e-03, 8.77951924e-03,
          2.45801751e-02, 1.52125791e-01, 3.35236847e-01, 2.88299859e-01,
          4.20938060e-02, 7.70825706e-03, 7.11005973e-03, 7.66882626e-03,
          2.69783232e-02, 1.31314427e-01, 3.35236847e-01, 3.35236847e-01,
          1.63895443e-01, 4.25792038e-02, 8.96469690e-03, 5.42469136e-03,
          3.75897950e-03, 6.99565280e-03, 9.23786014e-02, 2.91600615e-01,
          3.35236847e-01, 1.82436749e-01, 3.74523513e-02, 9.01375711e-03,
          4.24162252e-03, 1.76326511e-03, 7.55460933e-03, 1.09828794e-02,
          2.18766868e-01, 3.20047379e-01, 3.20047379e-01, 8.26261863e-02,
          2.02647410e-02, 5.82569232e-03, 4.05842951e-03, 1.35570094e-02,
          4.68202494e-02, 1.94313183e-01, 3.20047379e-01, 3.19286913e-01,
          6.28058687e-02, 3.02954577e-02, 6.21697772e-03, 8.27674195e-03,
          8.07632692e-03, 5.03316429e-03, 8.20532292e-02, 3.20047379e-01,
          3.20047379e-01, 1.83231115e-01, 2.37905830e-02, 6.18699566e-03,
          4.54885885e-03, 1.30088888e-02, 4.28517647e-02, 1.20887853e-01,
          2.90888399e-01, 3.20047379e-01, 1.93007857e-01, 1.78240053e-02,
          2.58392585e-03, 9.67829581e-03, 1.81776714e-02, 9.00614783e-02,
          2.96387404e-01, 2.96387404e-01, 2.90489435e-01, 3.02229431e-02,
          1.53223788e-02, 8.04435927e-03, 3.82809900e-02, 6.36065528e-02,
          7.74110928e-02, 2.96387404e-01, 2.96387404e-01, 1.82300583e-01,
          5.38304150e-02, 2.59727668e-02, 1.19631214e-03, 4.60473169e-03,
          2.52021961e-02, 1.64683789e-01, 2.96387404e-01, 2.96387404e-01,
          2.45361462e-01, 3.93610038e-02, 8.20047501e-03, 1.24072358e-02,
          6.14935681e-02, 7.36968070e-02, 1.75780565e-01, 2.96387404e-01,
          2.96387404e-01, 1.33563429e-01, 4.87913042e-02, 4.17561866e-02,
          1.21512311e-02, 2.37323195e-02, 3.97659317e-02, 1.14759259e-01,
          2.94830114e-01, 2.94830114e-01, 1.07437201e-01, 5.25226258e-02,
          1.94255505e-02, 2.45353729e-02, 1.52704883e-02, 1.55640319e-02,
          1.68020457e-01, 2.73381323e-01, 2.80043870e-01, 1.34001955e-01,
          4.66634929e-02, 5.61246686e-02, 1.79899186e-02, 7.99070075e-02,
          6.45742714e-02, 1.38299182e-01, 2.94830114e-01, 2.94830114e-01,
          1.46948993e-01, 4.94559892e-02, 3.82876545e-02, 3.50301452e-02,
          4.75635231e-02, 3.96381728e-02, 2.94830114e-01, 2.94830114e-01,
          2.94830114e-01, 2.86594838e-01, 6.42765462e-02, 7.64578208e-02,
          8.43753200e-03, 1.33762900e-02, 9.03655775e-03, 1.46099636e-02,
          4.92164083e-02, 1.54540345e-01, 3.82170945e-01, 1.92994088e-01,
          1.72604695e-02, 3.11618280e-02, 3.48204002e-02, 4.87325937e-02,
          6.95661604e-02, 1.13665767e-01, 2.04155043e-01, 3.82170945e-01,
          3.82170945e-01, 7.79070929e-02, 9.35724005e-03, 3.43427365e-03,
          8.07820447e-03, 2.29164604e-02, 4.88915741e-02, 7.68920034e-02,
          1.35921448e-01, 6.43162131e-02, 1.13651427e-02, 1.14373446e-01,
          1.01944312e-01, 8.35054219e-02, 9.38363448e-02, 1.14644825e-01,
          1.64178148e-01, 3.82170945e-01, 3.82170945e-01, 1.42703712e-01,
          3.32237184e-02, 4.30739112e-02, 1.44805044e-01, 2.63018161e-01,
          2.67300814e-01, 1.63194597e-01, 2.55655020e-01, 1.38857335e-01,
          6.70867935e-02, 2.33405773e-02, 7.42463991e-02, 1.78659648e-01,
          2.67300814e-01, 2.67300814e-01, 2.67300814e-01, 8.57327953e-02,
          6.77007362e-02, 4.48169187e-02, 1.19349964e-01, 1.13661155e-01,
          1.74128354e-01, 1.57863051e-01, 1.67276606e-01, 8.33943337e-02,
          1.99266478e-01, 2.64904797e-01, 1.42693281e-01, 4.87402529e-02,
          7.60937631e-02, 1.82505503e-01, 1.45991355e-01, 2.67300814e-01,
          2.10163325e-01, 8.89136195e-02, 1.19432017e-01, 5.07111177e-02,
          8.82726815e-03, 5.82682304e-02, 8.26465040e-02, 8.82567614e-02,
          2.92797774e-01, 2.73475677e-01, 1.09601013e-01, 6.14510514e-02,
          1.42499013e-02, 7.49641983e-03, 3.31658944e-02, 5.94128929e-02,
          2.29838863e-01, 2.92797774e-01, 2.92797774e-01, 2.92797774e-01,
          5.48863932e-02, 1.07881976e-02, 6.29688427e-03, 4.60255593e-02,
          1.12050340e-01, 4.07742225e-02, 2.92797774e-01, 2.92797774e-01,
          1.12619303e-01, 6.17671758e-02, 1.02921054e-02, 3.31323827e-03,
          2.73794532e-02, 8.34867880e-02, 1.12406388e-01, 2.92797774e-01,
          2.92797774e-01, 2.92797774e-01, 5.06733991e-02, 8.44589062e-03,
          4.53552827e-02, 2.18981113e-02, 2.16764268e-02, 4.17075418e-02,
          8.75735730e-02, 1.56517282e-01, 8.96129236e-02, 7.46146590e-02,
          6.80700392e-02, 2.13313758e-01, 1.97221309e-01, 9.41642448e-02,
          1.25348613e-01, 3.22567105e-01, 3.72885913e-01, 3.20093304e-01,
          3.72885913e-01, 2.34627545e-01, 8.14306363e-02, 4.85367887e-02,
          2.62237731e-02, 5.34703285e-02, 1.09171785e-01, 1.98706582e-01,
          7.13344663e-02, 5.03333434e-02, 9.89619568e-02, 8.04779232e-02,
          7.03530014e-02, 2.57627871e-02, 9.70686674e-02, 1.32492065e-01,
          1.82129413e-01, 1.72438920e-01, 2.83422261e-01, 1.69860438e-01,
          7.14960992e-02, 7.62477219e-02, 4.69406620e-02, 5.47499396e-02,
          2.09402278e-01, 1.94739476e-01, 1.84925258e-01, 2.73541212e-01,
          7.62482807e-02, 2.92194709e-02, 5.18793538e-02, 5.49687892e-02,
          5.24771661e-02, 2.73541212e-01, 2.73541212e-01, 1.76584885e-01,
          1.76781461e-01, 4.06004451e-02, 6.86621442e-02, 2.43165605e-02,
          6.90796738e-03, 8.09765756e-02, 1.48541763e-01, 2.58000761e-01,
          2.29201645e-01, 2.59759426e-01, 8.96033794e-02, 8.03690851e-02,
          2.17916388e-02, 1.55224511e-02, 1.11335225e-01, 2.73541212e-01,
          2.73541212e-01, 2.73541212e-01, 2.73541212e-01, 1.18458055e-01,
          2.27103266e-03, 4.49550189e-02, 6.76027089e-02, 4.19973657e-02,
          2.91711479e-01, 3.26659530e-01, 1.01295382e-01, 3.38461250e-02,
          1.15875220e-02, 2.99695344e-03, 3.20772193e-02, 6.74906448e-02,
          4.28715721e-02, 3.26659530e-01, 3.26659530e-01, 2.82367378e-01,
          4.84640822e-02, 1.44047495e-02, 7.45150633e-03, 2.04578638e-02,
          3.42073701e-02, 1.09924980e-01, 3.26659530e-01, 3.26659530e-01,
          1.12964042e-01, 6.62432909e-02, 2.09856275e-02, 2.25064158e-03,
          2.26966348e-02, 7.87727907e-02, 1.06029369e-01, 3.26659530e-01,
          3.26659530e-01, 6.74042329e-02, 3.35407816e-02, 1.11028012e-02,
          7.86996335e-02, 3.68306711e-02, 4.60864007e-02, 8.40170607e-02,
          2.51291305e-01, 4.94356602e-01, 7.61925802e-02, 3.12680900e-02,
          8.72080922e-02, 7.85964578e-02, 4.00436446e-02, 1.97167322e-02,
          5.45504913e-02, 3.36252674e-02, 7.60339573e-02, 1.28880322e-01,
          1.44846156e-01, 1.18947886e-01, 4.80364226e-02, 3.84525359e-02,
          6.49498627e-02, 1.26528144e-01, 4.94356602e-01, 4.94356602e-01,
          6.64525554e-02, 3.29771340e-02, 5.47386669e-02, 1.00719906e-01,
          3.14175524e-02, 3.10561042e-02, 4.37214561e-02, 5.47616184e-02,
          5.94471432e-02, 5.94259948e-02, 1.48276880e-01, 1.38783053e-01,
          5.64710684e-02, 1.71955321e-02, 6.12397911e-03, 6.78547621e-02,
          7.86084458e-02, 1.54898971e-01, 1.74145058e-01, 1.49668828e-01,
          8.96325335e-02, 8.10522437e-02, 1.37316426e-02, 6.47158874e-03,
          1.54188380e-01, 2.45111451e-01, 3.42037529e-01, 3.42037529e-01,
          3.42037529e-01, 2.16599107e-01, 2.68281400e-02, 7.37681286e-03,
          2.31009838e-03, 1.76111404e-02, 3.89207453e-02, 4.13607359e-02,
          6.15228191e-02, 5.51845841e-02, 5.16234711e-02, 3.76060791e-02,
          9.99913737e-03, 3.79823381e-03, 7.05360249e-02, 1.23891711e-01,
          3.42037529e-01, 3.42037529e-01, 3.42037529e-01, 1.49503797e-01,
          1.13069667e-02, 1.77501608e-03, 9.18737985e-03, 1.17170744e-01,
          2.80369252e-01, 1.99151546e-01, 1.77742019e-01, 1.50945604e-01,
          5.50581254e-02, 3.64492112e-03, 6.32259343e-03, 3.76932956e-02,
          1.46758363e-01, 2.80369252e-01, 2.56102949e-01, 5.02394810e-02,
          2.64160987e-02, 1.30693801e-02, 5.34580722e-02, 3.35891210e-02,
          4.74868864e-02, 6.34801015e-02, 1.36652917e-01, 2.08699033e-01,
          2.80369252e-01, 2.80369252e-01, 1.58000201e-01, 1.18832029e-01,
          1.83337092e-01, 2.80369252e-01, 2.41584778e-01, 2.80369252e-01,
          2.09580094e-01, 1.54331237e-01, 1.70698956e-01, 1.48689523e-01 ]
      - [ 1.09753877e-01, 2.22739741e-01, 3.39869767e-01, 2.85915762e-01,
          1.25225291e-01, 2.30153520e-02, 9.73982178e-03, 1.70110748e-03,
          7.21626207e-02, 1.43527284e-01, 3.05658668e-01, 2.21818194e-01,
          1.95636407e-01, 2.02267870e-01, 3.11099533e-02, 1.53741259e-02,
          4.92091896e-03, 8.64537060e-02, 7.98282027e-02, 7.91167468e-02,
          2.74336725e-01, 1.94565922e-01, 2.63845325e-01, 5.72492331e-02,
          2.24261321e-02, 2.56908312e-03, 7.30730519e-02, 1.41480625e-01,
          1.68925196e-01, 1.87933609e-01, 2.11850762e-01, 3.29042405e-01,
          9.17849764e-02, 3.58047485e-02, 1.33580994e-02, 8.94466862e-02,
          2.61766138e-03, 7.86722358e-03, 1.58494599e-02, 3.23939696e-02,
          2.87014283e-02, 1.03450508e-03, 4.13114671e-04, 6.96283416e-04,
          1.62139651e-03, 8.77532661e-02, 1.34474814e-01, 3.91877532e-01,
          3.91877532e-01, 1.97782978e-01, 1.58006400e-02, 8.38792324e-03,
          6.69600861e-03, 3.81560363e-02, 6.38008583e-03, 6.05014563e-02,
          9.41668898e-02, 1.53121248e-01, 1.13088779e-01, 2.21991129e-02,
          1.41650299e-03, 4.72084945e-03, 4.20117611e-03, 8.75695795e-02,
          2.96159178e-01, 3.91877532e-01, 3.91877532e-01, 3.91877532e-01,
          9.22942758e-02, 1.01730991e-02, 6.64301068e-02, 3.96593586e-02,
          1.66533887e-01, 1.19064733e-01, 2.59473056e-01, 2.59473056e-01,
          8.83484930e-02, 3.11508179e-02, 8.12336355e-02, 1.12938643e-01,
          1.29579931e-01, 1.63065672e-01, 5.85335046e-02, 7.68426955e-02,
          6.95966259e-02, 6.94078058e-02, 1.02590024e-01, 2.43032992e-01,
          2.59473056e-01, 1.85127452e-01, 9.26311314e-02, 1.27907261e-01,
          2.59473056e-01, 2.59473056e-01, 1.84121296e-01, 9.85683575e-02,
          6.94707036e-02, 1.12776756e-01, 5.56881651e-02, 1.09545209e-01,
          1.13033973e-01, 1.09396502e-01, 2.59473056e-01, 2.36203626e-01,
          2.05261335e-01, 2.40513191e-01, 2.59473056e-01, 9.01630968e-02,
          1.67916454e-02, 1.98256038e-02, 1.20097566e-02, 5.18483995e-03,
          1.60135552e-02, 1.31730898e-03, 6.25059241e-04, 1.05085189e-03,
          1.37680490e-02, 1.23514034e-01, 1.31147414e-01, 6.12696186e-02,
          2.12618914e-02, 2.05267407e-02, 7.42024975e-03, 9.09049995e-03,
          5.59432106e-03, 6.97452053e-02, 2.39936516e-01, 3.81800145e-01,
          3.81800145e-01, 1.60859767e-02, 1.47630488e-02, 3.42044397e-03,
          3.74584342e-03, 8.81883968e-03, 1.08825311e-01, 3.81800145e-01,
          3.81800145e-01, 3.81800145e-01, 4.70938869e-02, 2.11088471e-02,
          4.15951833e-02, 1.31932095e-01, 1.28427535e-01, 3.40046376e-01,
          6.40129298e-02, 1.28057867e-01, 1.27698541e-01, 1.82460159e-01,
          8.23867470e-02, 1.89591143e-02, 5.53149357e-03, 1.59933325e-02,
          2.70828623e-02, 4.67987210e-02, 2.06535071e-01, 3.11879009e-01,
          3.11879009e-01, 2.75138438e-01, 6.04211278e-02, 4.59287548e-03,
          5.05949184e-02, 2.55129784e-02, 2.29601473e-01, 3.06112796e-01,
          2.46893555e-01, 2.86145896e-01, 6.88870400e-02, 3.11265290e-02,
          8.37960467e-02, 9.13249850e-02, 9.29375961e-02, 9.10042599e-02,
          1.68169707e-01, 3.11879009e-01, 3.11879009e-01, 1.98518977e-01,
          2.50970218e-02, 3.51823531e-02, 6.32641017e-02, 3.60975079e-02,
          1.75732058e-02, 7.46545419e-02, 3.11102241e-01, 3.43431681e-01,
          2.28951588e-01, 6.74867481e-02, 1.94348395e-02, 3.13396752e-02,
          1.37749175e-02, 5.06414175e-02, 1.11149527e-01, 1.51642099e-01,
          3.43431681e-01, 2.55761832e-01, 9.94902253e-02, 9.26028565e-02,
          4.85125370e-02, 2.57230718e-02, 1.06451437e-02, 8.50941613e-02,
          2.71201372e-01, 3.43431681e-01, 1.55782759e-01, 1.57449860e-02,
          2.01587565e-02, 1.47669492e-02, 8.96120444e-03, 2.84589324e-02,
          2.05474913e-01, 1.88578025e-01, 3.43431681e-01, 2.01613545e-01,
          2.33350638e-02, 8.50143880e-02, 6.75599724e-02, 3.28554846e-02,
          1.40131310e-01, 3.13878268e-01, 3.13878268e-01, 1.09531239e-01,
          5.08551411e-02, 5.73654287e-03, 1.02072358e-02, 6.99251518e-03,
          5.08368127e-02, 2.59709209e-01, 3.13878268e-01, 3.13878268e-01,
          1.34299263e-01, 6.41041920e-02, 2.98187509e-02, 6.32251650e-02,
          7.29271770e-02, 1.14696071e-01, 2.44348999e-02, 1.30906522e-01,
          3.13878268e-01, 2.36289382e-01, 1.82128116e-01, 1.64856594e-02,
          1.59717426e-02, 5.15828328e-03, 9.52021591e-03, 2.42275819e-02,
          4.63796221e-02, 3.13878268e-01, 3.13878268e-01, 2.10992545e-01,
          4.93288040e-02, 8.90360866e-03, 6.78771734e-03, 9.27432068e-03,
          1.16960704e-01, 1.37179971e-01, 2.25245774e-01, 3.45936418e-01,
          9.24555287e-02, 3.71970013e-02, 6.71204031e-02, 8.17861930e-02,
          4.24169898e-02, 4.48635146e-02, 5.16379699e-02, 2.66201019e-01,
          3.45936418e-01, 1.33271158e-01, 3.00769899e-02, 2.99863070e-02,
          3.92027684e-02, 1.40257319e-02, 9.22448561e-03, 1.08918892e-02,
          3.45936418e-01, 3.45936418e-01, 2.01771513e-01, 4.64555100e-02,
          7.14255637e-03, 8.48457497e-03, 1.10040011e-03, 4.77464078e-03,
          3.73211019e-02, 3.39772403e-01, 3.45936418e-01, 1.75538406e-01,
          6.51590079e-02, 6.06865063e-03, 5.37689263e-03, 7.61178235e-05,
          9.04345047e-03, 1.01283468e-01, 2.34849289e-01, 3.24358881e-01,
          1.41903043e-01, 4.40075584e-02, 1.31360814e-02, 3.61213624e-03,
          7.15237064e-03, 3.41436937e-02, 1.99436262e-01, 1.86963946e-01,
          3.24358881e-01, 1.73252374e-01, 7.01494589e-02, 1.35398105e-01,
          7.34280273e-02, 5.93043640e-02, 4.34247870e-03, 1.49154097e-01,
          3.24358881e-01, 3.24358881e-01, 2.89644182e-01, 1.31569117e-01,
          7.09648896e-03, 1.27561030e-03, 2.59117247e-03, 1.90403014e-02,
          1.31389678e-01, 2.17523351e-01, 2.51028895e-01, 2.79499084e-01,
          1.08571373e-01, 8.86891857e-02, 1.89524312e-02, 2.06533037e-02,
          7.41538173e-03, 1.90481618e-02, 1.47562131e-01, 1.29091054e-01,
          1.80876940e-01, 3.06894425e-02, 6.11390686e-03, 3.80595843e-03,
          6.73880940e-03, 4.59988136e-03, 1.23548005e-02, 3.69454443e-01,
          3.69454443e-01, 2.47624740e-01, 1.01264738e-01, 3.65239149e-03,
          1.73518341e-03, 3.16238939e-03, 9.97182634e-03, 1.73704568e-02,
          1.55237556e-01, 1.84707716e-01, 2.27905408e-01, 1.27608985e-01,
          1.05981849e-01, 3.59452106e-02, 9.47593711e-03, 7.69187463e-03,
          1.73474420e-02, 3.69454443e-01, 3.69454443e-01, 3.69454443e-01,
          1.71759009e-01, 9.71224811e-03, 3.73356370e-03, 3.94044537e-03,
          6.03999244e-04, 3.77252139e-03, 3.30447555e-01, 3.30447555e-01,
          1.70244202e-01, 4.72061001e-02, 1.61987217e-03, 9.95145965e-05,
          6.67236309e-05, 7.18251104e-04, 5.77524379e-02, 2.74253398e-01,
          3.30447555e-01, 1.60125479e-01, 7.19565079e-02, 4.86454135e-03,
          1.31470588e-04, 4.90013117e-05, 6.92326867e-04, 9.57532506e-03,
          3.13844621e-01, 3.30447555e-01, 1.63057104e-01, 5.40900417e-02,
          4.99127340e-03, 3.33764474e-05, 3.14265402e-04, 5.48648997e-04,
          1.38955548e-01, 3.11252803e-01, 3.30447555e-01, 2.24071905e-01,
          1.23142779e-01, 2.02126708e-02, 8.55652965e-04, 1.07836397e-03,
          1.65806431e-03, 1.82834476e-01, 3.04003507e-01, 3.04003507e-01,
          3.04003507e-01, 1.51616901e-01, 7.76844518e-03, 1.09632092e-03,
          1.03573583e-03, 5.41899493e-03, 8.40287134e-02, 2.16910258e-01,
          1.37982592e-01, 2.83441126e-01, 5.42903617e-02, 1.20229395e-02,
          1.89293816e-03, 3.48826288e-03, 3.69961094e-03, 2.27322683e-01,
          3.04003507e-01, 3.04003507e-01, 3.04003507e-01, 1.54283434e-01,
          1.81854870e-02, 4.94808611e-03, 3.85234086e-03, 6.74524624e-03,
          1.17438689e-01, 3.04003507e-01, 1.51780739e-01, 1.53696060e-01,
          2.12097540e-02, 8.41538329e-03, 5.50706452e-03, 4.12021577e-03,
          1.47850774e-02, 1.65867954e-02, 1.57481611e-01, 1.56278446e-01,
          1.27221927e-01, 1.30189285e-01, 1.92533389e-01, 1.70959964e-01,
          1.47409281e-02, 1.51549838e-02, 2.51880456e-02, 2.89028972e-01,
          2.89028972e-01, 2.51099288e-01, 8.33388567e-02, 1.80076472e-02,
          3.00469957e-02, 5.03383717e-03, 6.91629872e-02, 1.12606145e-01,
          2.89028972e-01, 2.89028972e-01, 2.29550362e-01, 1.65465847e-01,
          1.78498581e-01, 2.33443394e-01, 3.06927618e-02, 1.11553043e-01,
          1.11258544e-01, 2.89028972e-01, 2.89028972e-01, 2.28793591e-01,
          8.54810029e-02, 2.80780829e-02, 6.32321760e-02, 1.75682623e-02,
          4.57978016e-03, 3.69440168e-02, 2.38031715e-01, 3.06813121e-01,
          1.46347567e-01, 5.07969297e-02, 8.39207321e-03, 0.,
          2.30647903e-03, 2.86245700e-02, 1.95799574e-01, 3.06813121e-01,
          3.06813121e-01, 2.54395396e-01, 1.07990660e-01, 2.99401935e-02,
          1.87138689e-03, 1.35308905e-02, 4.93125133e-02, 1.24136455e-01,
          2.51642048e-01, 3.06813121e-01, 1.32748991e-01, 6.50520548e-02,
          3.92614603e-02, 1.03197414e-02, 9.02245101e-03, 1.14596538e-01,
          2.63401181e-01, 2.92069823e-01, 3.06813121e-01, 1.99010655e-01,
          9.35813710e-02, 6.82595074e-02, 2.07113172e-03, 4.39655036e-02,
          7.92087018e-02, 3.06652516e-01, 3.06652516e-01, 2.50645071e-01,
          2.88732201e-01, 9.43180397e-02, 2.27652863e-02, 1.43312076e-02,
          2.21371148e-02, 3.93506326e-02, 2.79244542e-01, 3.06652516e-01,
          1.27179906e-01, 6.24037199e-02, 1.13331079e-02, 5.43431239e-03,
          1.21099139e-02, 4.78200568e-03, 2.03954488e-01, 3.06652516e-01,
          3.06652516e-01, 1.54464573e-01, 1.62135407e-01, 4.71261740e-02,
          2.70875525e-02, 1.00973733e-02, 6.27809390e-02, 6.22046962e-02,
          1.93568513e-01, 3.06652516e-01, 1.44050330e-01, 9.58638862e-02,
          9.54801310e-03, 1.70051865e-03, 7.79140228e-03, 7.06939539e-03,
          9.09107774e-02, 1.65988207e-01, 2.10621849e-01, 2.34288841e-01,
          2.34288841e-01, 8.54593888e-02, 4.23291996e-02, 7.32008591e-02,
          4.07994315e-02, 2.19894588e-01, 1.56322539e-01, 2.34288841e-01,
          2.34288841e-01, 1.61285043e-01, 8.63167271e-02, 4.95030172e-02,
          1.23073816e-01, 5.70513457e-02, 9.81130227e-02, 2.17773080e-01,
          2.34288841e-01, 2.34288841e-01, 2.34288841e-01, 9.82517228e-02,
          7.20837787e-02, 1.02216609e-01, 8.33608359e-02, 1.94913864e-01,
          1.63688272e-01, 2.34288841e-01, 2.05417901e-01, 1.54206693e-01,
          1.36821717e-01, 1.86264649e-01, 2.22959802e-01, 1.09272331e-01,
          2.03465268e-01, 2.61850893e-01, 2.61850893e-01, 2.61850893e-01,
          1.86022386e-01, 1.16518833e-01, 8.87618288e-02, 1.71489090e-01,
          4.97480892e-02, 8.70814472e-02, 2.07690984e-01, 2.12560862e-01,
          2.61850893e-01, 1.63129836e-01, 7.27815405e-02, 7.95026124e-02,
          9.73300077e-03, 3.21025588e-02, 1.78267881e-01, 2.46458039e-01,
          2.61850893e-01, 2.14938909e-01, 2.19732746e-01, 1.21932358e-01,
          2.05967054e-01, 2.61850893e-01, 9.20016542e-02, 3.92275769e-03,
          5.35738729e-02, 1.20743617e-01, 1.93119094e-01, 1.13335162e-01,
          2.14001536e-02, 1.85683202e-02, 1.39580518e-02, 5.76437125e-03,
          2.10219651e-01, 2.49552339e-01, 3.18770796e-01, 3.43298346e-01,
          2.12336525e-01, 4.95658554e-02, 4.33527529e-02, 1.34228927e-03,
          7.24688247e-02, 4.39712033e-02, 5.56443669e-02, 1.71105281e-01,
          3.43298346e-01, 2.99141347e-01, 1.36330733e-02, 5.87250397e-04,
          0., 8.72727670e-03, 3.13379132e-04, 2.22470704e-03,
          1.33826956e-01, 3.43298346e-01, 1.61941439e-01, 3.87959764e-03,
          2.81060603e-03, 2.00742087e-03, 3.13379132e-04, 3.61736934e-03,
          0., 1.91517338e-01, 3.43298346e-01, 2.39725366e-01,
          4.53729648e-04, 0., 0., 3.61736934e-03, 1.67199627e-01,
          2.54341453e-01, 2.54341453e-01, 2.54341453e-01, 2.27993920e-01,
          1.66039050e-01, 1.19447134e-01, 1.64845273e-01, 1.71183661e-01,
          1.98083043e-01, 2.54341453e-01, 2.54341453e-01, 2.54341453e-01,
          2.27151096e-01, 1.40476525e-01, 2.20293224e-01, 1.85324639e-01,
          1.71687782e-01, 1.26581863e-01, 1.01781122e-01, 1.20388612e-01,
          1.37814760e-01, 8.14222321e-02, 5.65854535e-02, 3.15899551e-02,
          4.84781675e-02, 1.12732418e-01, 1.03658602e-01, 1.74203306e-01,
          2.02924699e-01, 1.35955825e-01, 9.99133736e-02, 3.52214202e-02,
          2.19262242e-02, 2.64029875e-02, 9.61142778e-02, 2.44875148e-01,
          2.70454019e-01, 2.94219315e-01, 2.94219315e-01, 2.94219315e-01,
          8.05350840e-02, 2.94219315e-01, 1.84428081e-01, 1.42431408e-01,
          1.02678910e-02, 2.58762352e-02, 1.58626974e-01, 2.94219315e-01,
          1.35653228e-01, 3.90989706e-03, 1.74486861e-02, 7.91730732e-03,
          6.78156968e-03, 8.01420733e-02, 1.42981321e-01, 2.55452454e-01,
          2.73807973e-01, 1.77278817e-01, 1.45194698e-02, 2.02934276e-02,
          3.61873466e-03, 4.89632040e-02, 2.95187300e-03, 3.32520087e-03,
          1.53936401e-01, 2.94219315e-01, 1.17198981e-01, 0.,
          7.33858498e-04, 2.55896419e-04, 3.93702707e-04, 0., 0.,
          2.29217947e-01, 3.87903273e-01, 1.11052908e-01, 0.,
          1.02897221e-03, 3.93318798e-04, 0., 3.98891186e-03, 0.,
          2.77522564e-01, 3.87903273e-01, 1.44205168e-01, 0., 0., 0.,
          3.98891186e-03, 0., 2.58261128e-03, 2.74269938e-01,
          3.87903273e-01, 1.49044827e-01, 0., 0., 0., 0., 4.76844702e-03,
          2.62398161e-02, 3.22586358e-01, 3.87903273e-01, 1.71135709e-01,
          0., 0., 0., 4.76844702e-03 ]
      - [ 2.52891272e-01, 2.01271966e-01, 1.61478072e-01, 2.55115479e-01,
          3.62039804e-01, 3.60037088e-02, 2.45586261e-02, 2.37048883e-02,
          1.53413311e-01, 1.20889425e-01, 1.08885460e-01, 9.43202004e-02,
          1.04330741e-01, 2.22577319e-01, 1.33137733e-01, 9.75445732e-02,
          6.82761520e-02, 2.35694945e-01, 1.83224425e-01, 1.10343643e-01,
          2.75459271e-02, 2.08030373e-01, 3.62039804e-01, 6.40601888e-02,
          4.21195365e-02, 2.72607058e-02, 1.85223565e-01, 7.21567646e-02,
          4.38415334e-02, 1.53929470e-02, 8.25211778e-02, 3.62039804e-01,
          1.76727563e-01, 9.97843146e-02, 5.07243723e-02, 9.82278213e-02,
          7.64709115e-02, 1.92028545e-02, 1.85918920e-02, 5.11346646e-02,
          2.58839548e-01, 1.91464484e-01, 1.10006377e-01, 7.58205205e-02,
          2.51600683e-01, 1.78980574e-01, 1.13869617e-02, 1.23501774e-02,
          8.13466534e-02, 3.10840189e-01, 3.10840189e-01, 2.79215753e-01,
          2.25141823e-01, 3.10840189e-01, 2.08942257e-02, 7.20732892e-03,
          4.85635316e-03, 3.82174551e-02, 3.10840189e-01, 2.15303913e-01,
          4.77922820e-02, 2.31522974e-02, 4.85176668e-02, 4.75566462e-02,
          1.17709506e-02, 1.17974998e-02, 1.06027767e-01, 3.10840189e-01,
          2.17359290e-01, 1.07277676e-01, 9.78372842e-02, 1.28865078e-01,
          9.17923674e-02, 1.08801341e-02, 5.36308251e-03, 2.46794485e-02,
          2.71959931e-01, 2.71959931e-01, 2.71959931e-01, 2.63312995e-01,
          2.71959931e-01, 3.91493551e-02, 1.01444442e-02, 9.52248462e-03,
          2.05977056e-02, 1.28550589e-01, 1.82472289e-01, 2.38508925e-01,
          2.19252691e-01, 1.35541812e-01, 6.09810092e-02, 2.30382681e-02,
          8.91810283e-03, 6.68751225e-02, 2.71959931e-01, 1.74927875e-01,
          1.33984596e-01, 1.24000579e-01, 1.49188191e-01, 1.38252705e-01,
          3.04231625e-02, 1.03701791e-02, 8.38403478e-02, 2.71959931e-01,
          2.07050249e-01, 1.81236297e-01, 1.66884959e-01, 2.71959931e-01,
          7.50223324e-02, 6.34139851e-02, 2.74006333e-02, 2.30894610e-01,
          4.16382074e-01, 4.73205969e-02, 5.98380379e-02, 3.68691906e-02,
          7.04860091e-02, 4.31183763e-02, 2.54037362e-02, 2.32914127e-02,
          1.34595051e-01, 4.04326737e-01, 1.49308115e-01, 1.36591360e-01,
          7.28229657e-02, 9.84659493e-02, 1.76321473e-02, 2.79396530e-02,
          3.44347395e-02, 1.90614492e-01, 4.16382074e-01, 1.27265751e-01,
          4.14726175e-02, 2.60566492e-02, 1.52549837e-02, 2.61541270e-02,
          2.95090843e-02, 5.45898378e-02, 2.16407523e-01, 4.16382074e-01,
          1.80861011e-01, 8.49870816e-02, 7.47958645e-02, 7.02270269e-02,
          2.08624918e-02, 1.08111715e-02, 1.88564509e-02, 8.45793784e-02,
          3.39946032e-01, 2.72297680e-01, 5.77014647e-02, 2.79338956e-02,
          4.99675572e-02, 3.17406468e-02, 3.98204774e-02, 4.10023667e-02,
          1.87282845e-01, 3.39946032e-01, 2.19447210e-01, 6.04021735e-02,
          6.35563284e-02, 9.39821973e-02, 1.66589320e-02, 2.65464392e-02,
          7.13875890e-02, 1.68680772e-01, 3.39946032e-01, 3.18384051e-01,
          7.42765591e-02, 6.24395162e-02, 4.43344489e-02, 7.97887892e-02,
          1.08807825e-01, 1.51043773e-01, 2.72070587e-01, 3.39946032e-01,
          2.61852652e-01, 8.18452388e-02, 3.22509035e-02, 5.36708049e-02,
          3.80366966e-02, 6.49184585e-02, 4.54381928e-02, 1.84172869e-01,
          3.24813753e-01, 1.14612468e-01, 8.59020054e-02, 4.99068163e-02,
          8.16794112e-02, 1.58139244e-01, 6.24694116e-02, 3.01979613e-02,
          1.44110605e-01, 3.24813753e-01, 2.12887913e-01, 1.59556016e-01,
          6.64159730e-02, 2.36385062e-01, 6.44563735e-02, 1.18851162e-01,
          1.70102388e-01, 2.69929618e-01, 3.24813753e-01, 1.44987032e-01,
          8.64676982e-02, 1.44272596e-02, 2.47240458e-02, 7.21548945e-02,
          6.60602897e-02, 1.04600221e-01, 1.57263577e-01, 3.24813753e-01,
          3.13765079e-01, 1.17630571e-01, 3.20115425e-02, 1.17513537e-01,
          2.26705223e-02, 1.66022610e-02, 1.94982421e-02, 1.05656050e-01,
          4.80696768e-01, 1.28372639e-01, 5.96452914e-02, 6.81097656e-02,
          2.79564802e-02, 3.65321971e-02, 3.70205343e-02, 4.29391339e-02,
          1.19341798e-01, 3.84717464e-01, 1.88925937e-01, 9.15672854e-02,
          6.40168637e-02, 2.57311966e-02, 1.18647128e-01, 8.37719068e-02,
          2.92346757e-02, 7.55864903e-02, 4.80696768e-01, 1.22144148e-01,
          3.56391631e-02, 7.48655796e-02, 5.04557267e-02, 6.30759150e-02,
          6.96025640e-02, 4.92310636e-02, 5.75198866e-02, 4.22396153e-01,
          1.54971465e-01, 6.21510893e-02, 4.97864224e-02, 6.55634180e-02,
          1.58537291e-02, 2.87805349e-02, 4.09703627e-02, 8.88475776e-02,
          3.41992527e-01, 3.01580817e-01, 8.18221793e-02, 5.51699698e-02,
          1.02684340e-02, 2.68369392e-02, 5.00769280e-02, 8.72409195e-02,
          1.41162485e-01, 3.41992527e-01, 3.41992527e-01, 1.02139093e-01,
          1.39393741e-02, 6.93409005e-03, 2.29244251e-02, 2.62436848e-02,
          1.66712124e-02, 4.41131219e-02, 3.41992527e-01, 3.41992527e-01,
          4.99554500e-02, 3.12067345e-02, 2.64625568e-02, 3.19459738e-04,
          2.17528874e-03, 1.42730772e-02, 1.19374759e-01, 3.41992527e-01,
          3.41992527e-01, 5.33056222e-02, 8.63650069e-03, 6.07568945e-04,
          1.97181683e-02, 4.48419042e-02, 8.27540159e-02, 9.23949108e-02,
          3.70407969e-01, 2.20466897e-01, 7.43990093e-02, 2.10586214e-03,
          1.71342550e-03, 6.00793213e-03, 2.41925046e-02, 5.82191832e-02,
          8.55447203e-02, 3.92659634e-01, 2.13512152e-01, 3.77265699e-02,
          5.87748503e-03, 3.20108123e-02, 2.20102980e-03, 6.09900896e-03,
          2.78469771e-02, 6.97870404e-02, 3.92659634e-01, 3.92236263e-01,
          4.23074737e-02, 1.88260910e-03, 1.08249541e-02, 3.59534496e-03,
          1.84679870e-02, 6.68453574e-02, 1.55113950e-01, 3.92659634e-01,
          2.72141695e-01, 1.88652631e-02, 3.74286575e-03, 1.54056260e-02,
          1.43094227e-01, 8.09323788e-02, 4.03948091e-02, 5.95515333e-02,
          3.82350981e-01, 2.01804817e-01, 2.56378893e-02, 3.91200185e-02,
          3.05612087e-02, 5.74436933e-02, 4.63679135e-02, 6.20015711e-02,
          6.16716184e-02, 3.82350981e-01, 1.64275035e-01, 3.80074941e-02,
          3.43672298e-02, 4.95534129e-02, 6.97974339e-02, 4.69535924e-02,
          1.84789915e-02, 8.79125372e-02, 3.82350981e-01, 3.82350981e-01,
          6.82373568e-02, 2.06674248e-01, 6.89811409e-02, 5.06338701e-02,
          2.38847714e-02, 3.14740017e-02, 6.77808970e-02, 3.82350981e-01,
          2.40769014e-01, 3.68134417e-02, 7.14466721e-02, 5.98243028e-02,
          1.30572440e-02, 1.26922010e-02, 1.82857178e-02, 3.73472385e-02,
          3.61103594e-01, 3.01240414e-01, 2.85936184e-02, 1.00441650e-02,
          1.65102072e-02, 2.69944430e-05, 1.16288019e-02, 3.04389726e-02,
          7.91961178e-02, 3.61103594e-01, 3.61103594e-01, 1.00210160e-02,
          1.14426669e-03, 2.06404933e-04, 9.07290820e-03, 1.52658205e-02,
          1.52345402e-02, 2.96431147e-02, 3.61103594e-01, 3.23401362e-01,
          2.27953605e-02, 8.40823725e-03, 1.65303405e-02, 1.33656384e-03,
          5.01225591e-02, 3.46415900e-02, 4.31078598e-02, 3.61103594e-01,
          3.61103594e-01, 1.03562819e-02, 4.94795246e-03, 1.34984963e-03,
          8.58017895e-03, 1.67730562e-02, 5.87038286e-02, 7.85559490e-02,
          3.69937509e-01, 3.69937509e-01, 1.90920848e-02, 9.33885947e-03,
          5.23289740e-02, 1.37463342e-02, 2.89226025e-02, 1.02848731e-01,
          1.80978715e-01, 3.69937509e-01, 2.82099307e-01, 3.25700231e-02,
          2.96485946e-02, 7.32975900e-02, 6.89717568e-03, 2.22807303e-02,
          2.75804661e-02, 5.41931316e-02, 3.69937509e-01, 3.03619772e-01,
          2.02272721e-02, 1.81935318e-02, 3.71075608e-02, 4.25230339e-02,
          2.72882450e-02, 5.76233789e-02, 1.81233332e-01, 3.69937509e-01,
          1.56550840e-01, 4.00861315e-02, 3.20684575e-02, 5.67285344e-02,
          4.06807736e-02, 4.91730124e-02, 9.53319110e-03, 5.62615283e-02,
          3.31411451e-01, 3.31411451e-01, 5.61855212e-02, 1.34802207e-01,
          4.92797680e-02, 2.05275286e-02, 2.69018952e-02, 2.94204131e-02,
          7.17342272e-02, 3.31411451e-01, 2.37061456e-01, 3.74763273e-02,
          4.82523218e-02, 2.85485014e-02, 3.27609889e-02, 4.21670750e-02,
          2.33776234e-02, 5.71001209e-02, 3.31411451e-01, 3.31411451e-01,
          1.70473322e-01, 1.51190251e-01, 5.51201254e-02, 1.34340907e-02,
          2.60807071e-02, 7.47810900e-02, 2.12272629e-01, 3.31411451e-01,
          3.31411451e-01, 9.75746736e-02, 7.51735345e-02, 2.37653535e-02,
          3.52537120e-03, 1.89301986e-02, 2.16856916e-02, 6.43181279e-02,
          3.57074529e-01, 2.26970971e-01, 2.62490846e-02, 8.41263402e-03,
          8.68215412e-03, 5.91669464e-03, 4.92890626e-02, 2.54750587e-02,
          4.18852493e-02, 3.57074529e-01, 3.57074529e-01, 2.51091402e-02,
          2.09000036e-02, 7.64530245e-03, 3.93673731e-03, 1.73029248e-02,
          5.66944405e-02, 3.01097929e-01, 3.57074529e-01, 2.00722188e-01,
          1.69085711e-02, 5.93249407e-03, 6.09025359e-03, 1.71874743e-02,
          4.11861949e-02, 6.76484928e-02, 1.47639737e-01, 3.57074529e-01,
          3.57074529e-01, 4.50455807e-02, 3.99068408e-02, 3.56789269e-02,
          1.63890142e-02, 3.07878461e-02, 1.74081959e-02, 4.26080674e-02,
          3.25382113e-01, 2.98508495e-01, 4.03196923e-02, 4.08170111e-02,
          2.06245277e-02, 5.16756140e-02, 6.29600137e-02, 1.21245772e-01,
          2.31902510e-01, 3.25382113e-01, 1.14870489e-01, 6.38514161e-02,
          6.43638745e-02, 3.25533636e-02, 4.00432236e-02, 5.78932948e-02,
          8.70830417e-02, 1.26912683e-01, 3.25382113e-01, 2.98157215e-01,
          7.90784881e-02, 7.12413937e-02, 9.22528729e-02, 9.18115824e-02,
          1.64219663e-01, 1.63499832e-01, 2.68386364e-01, 3.25382113e-01,
          1.57989770e-01, 1.68053851e-01, 2.07323477e-01, 1.08525090e-01,
          1.09528834e-02, 1.55225657e-02, 2.18485873e-02, 3.14611793e-02,
          2.64236301e-01, 2.64236301e-01, 1.47423059e-01, 1.29965529e-01,
          5.05781658e-02, 1.02934726e-02, 2.26070732e-02, 1.51841983e-01,
          1.82007760e-01, 2.64236301e-01, 2.64236301e-01, 1.32379740e-01,
          9.20263827e-02, 3.76473404e-02, 1.92466676e-02, 1.43957688e-02,
          2.23869961e-02, 2.87050642e-02, 2.64236301e-01, 2.64236301e-01,
          2.02484593e-01, 1.52777955e-01, 1.28455400e-01, 4.85652201e-02,
          2.83734463e-02, 2.06087172e-01, 1.41446576e-01, 2.64236301e-01,
          2.64236301e-01, 2.64236301e-01, 2.28868097e-01, 2.02441439e-01,
          8.08747392e-03, 2.72081215e-02, 1.99378401e-01, 3.33630741e-01,
          3.58244181e-01, 1.57121941e-01, 2.71699317e-02, 1.28714563e-02,
          1.20156566e-02, 2.31636818e-02, 3.75877991e-02, 7.76204914e-02,
          1.76158085e-01, 3.58244181e-01, 2.34230593e-01, 3.42922136e-02,
          3.48869339e-02, 4.05213721e-02, 2.99981330e-02, 3.10604721e-02,
          2.52959132e-01, 1.90117210e-01, 2.50650138e-01, 1.93977490e-01,
          1.09933555e-01, 1.05498604e-01, 9.93434340e-02, 1.36502990e-02,
          2.01003365e-02, 6.18363209e-02, 2.47976184e-01, 3.58244181e-01,
          1.80557907e-01, 1.63311623e-02, 2.10095830e-02, 3.38591672e-02,
          2.85167396e-02, 5.27742915e-02, 7.79246464e-02, 1.18857235e-01,
          3.15968722e-01, 1.04388222e-01, 2.70783547e-02, 3.08445152e-02,
          5.47403023e-02, 1.17808908e-01, 1.87610626e-01, 1.12843804e-01,
          1.63491488e-01, 3.15968722e-01, 9.95289609e-02, 4.35645208e-02,
          9.77680534e-02, 1.07105240e-01, 3.63603830e-02, 5.11930250e-02,
          1.47773683e-01, 2.73214638e-01, 3.15968722e-01, 1.15586221e-01,
          1.66072082e-02, 2.53957864e-02, 6.45662397e-02, 2.02473015e-01,
          2.60334998e-01, 2.37609252e-01, 3.15968722e-01, 3.15968722e-01,
          1.40801758e-01, 1.78371351e-02, 8.41318965e-02, 1.59959450e-01,
          2.37511676e-02, 9.18226317e-03, 9.25991312e-03, 2.23966762e-02,
          1.95353776e-01, 2.28547812e-01, 1.49777055e-01, 1.17243588e-01,
          1.08772352e-01, 6.03938289e-02, 2.25928444e-02, 4.66103442e-02,
          4.42017987e-02, 2.91405022e-01, 3.04600090e-01, 3.04600090e-01,
          3.04600090e-01, 2.82972097e-01, 1.81515515e-02, 1.09187458e-02,
          1.30106257e-02, 2.65216269e-02, 9.61222723e-02, 1.14882059e-01,
          8.42432380e-02, 6.92390501e-02, 2.93612685e-02, 9.09086540e-02,
          2.92086508e-02, 1.56402122e-02, 1.05087571e-02, 2.31338054e-01,
          3.04600090e-01, 3.04600090e-01, 3.04600090e-01, 1.66881919e-01,
          1.83287803e-02, 7.11682066e-03, 2.29149070e-02, 2.91586965e-02,
          9.87524241e-02, 1.34544507e-01, 1.55808926e-01, 1.67341098e-01,
          1.04592383e-01, 1.47842048e-02, 1.93434749e-02, 6.87783286e-02,
          1.55987993e-01, 2.96822041e-01, 6.06473461e-02, 2.98505854e-02,
          3.01851835e-02, 2.69809924e-02, 1.12006456e-01, 8.78400821e-03,
          7.79043557e-03, 2.32621860e-02, 1.89243659e-01, 2.04612672e-01,
          2.96822041e-01, 2.96822041e-01, 1.80643514e-01, 2.75346875e-01,
          1.71341136e-01, 2.40111366e-01, 2.71500468e-01, 2.96822041e-01,
          1.05040684e-01, 2.36666411e-01, 1.43721238e-01, 2.61047632e-01,
          5.65259568e-02, 7.89725184e-02, 1.99756786e-01, 2.72862047e-01,
          2.72862047e-01, 6.73094168e-02, 1.57480780e-02, 1.40217338e-02,
          5.20796925e-02, 1.57763749e-01, 1.76688194e-01, 2.00346202e-01,
          2.72862047e-01, 2.72862047e-01, 9.31537598e-02, 1.74887590e-02,
          2.48821769e-02, 8.21627676e-02, 1.76097095e-01, 2.72862047e-01,
          2.72862047e-01, 2.72862047e-01, 2.72862047e-01, 5.23629859e-02,
          1.28210969e-02, 1.68434400e-02, 1.04283407e-01, 1.23812884e-01,
          1.95772633e-01, 1.64639592e-01, 2.72862047e-01, 1.68442547e-01,
          4.50189039e-02, 9.61864460e-03, 8.06174614e-03, 3.42491753e-02 ]
      - [ 4.09775898e-02, 2.67423242e-02, 2.91850567e-02, 5.32884561e-02,
          1.94225416e-01, 3.01356107e-01, 3.01356107e-01, 1.14783064e-01,
          1.00484148e-01, 1.29143689e-02, 8.25398415e-03, 1.03702638e-02,
          1.17480038e-02, 1.43374205e-01, 3.01356107e-01, 3.01356107e-01,
          1.46059766e-01, 5.97394817e-02, 5.69774248e-02, 6.75893994e-03,
          3.95880174e-03, 2.86752805e-02, 2.92095244e-01, 3.01356107e-01,
          2.59696275e-01, 6.04109652e-02, 1.10098258e-01, 6.38827384e-02,
          7.85383862e-03, 4.03251499e-03, 2.62430720e-02, 2.35221967e-01,
          3.01356107e-01, 3.01356107e-01, 9.27780941e-02, 8.25356841e-02,
          1.31994914e-02, 1.51113002e-02, 7.92634301e-03, 2.80390158e-02,
          1.47353768e-01, 3.26547891e-01, 3.26547891e-01, 9.91017446e-02,
          2.72337012e-02, 1.92133859e-02, 1.47619899e-02, 6.14463026e-03,
          2.08928194e-02, 1.25155434e-01, 2.30132401e-01, 3.26547891e-01,
          4.30490710e-02, 2.08446942e-02, 2.23687105e-02, 9.57448035e-03,
          4.85848403e-03, 4.04895954e-02, 2.59737253e-01, 3.26547891e-01,
          3.26547891e-01, 8.37049708e-02, 1.76186599e-02, 2.29448061e-02,
          8.40701163e-03, 2.96073314e-03, 1.39038246e-02, 2.48577699e-01,
          3.26547891e-01, 3.26547891e-01, 6.80611506e-02, 2.33079605e-02,
          3.06466389e-02, 1.15964310e-02, 1.26959225e-02, 2.74908077e-02,
          2.22914472e-01, 3.60043019e-01, 3.60043019e-01, 2.15828642e-02,
          3.25022861e-02, 8.60141963e-03, 3.44691682e-03, 9.06769279e-03,
          1.34237362e-02, 1.13620378e-01, 1.61739171e-01, 1.05565578e-01,
          1.22508500e-02, 9.88839380e-03, 4.68714349e-02, 6.28350163e-03,
          4.17534541e-03, 1.47512751e-02, 3.60043019e-01, 3.60043019e-01,
          3.60043019e-01, 4.88460809e-02, 4.67991456e-02, 2.07413249e-02,
          4.82256711e-03, 9.74063855e-03, 1.33661712e-02, 2.53163934e-01,
          3.60043019e-01, 2.06204727e-01, 6.30860915e-03, 1.33113824e-02,
          1.06433764e-01, 2.40844544e-02, 6.43010112e-03, 2.24014223e-02,
          2.64698625e-01, 2.88670510e-01, 1.93002939e-01, 4.52659316e-02,
          1.20586149e-01, 1.44076914e-01, 2.25301478e-02, 4.13999800e-03,
          2.16619354e-02, 2.88670510e-01, 2.88670510e-01, 2.88670510e-01,
          1.11457862e-01, 1.45620376e-01, 1.03206836e-01, 5.85702881e-02,
          4.47868109e-02, 3.41232046e-02, 1.49511606e-01, 1.99210912e-01,
          1.32253394e-01, 7.66713694e-02, 1.48870990e-01, 1.47330359e-01,
          5.19373864e-02, 6.49109185e-02, 4.97400984e-02, 2.88670510e-01,
          2.88670510e-01, 2.88670510e-01, 1.60726920e-01, 2.00788438e-01,
          2.42315903e-02, 2.47767800e-03, 1.33926270e-03, 1.44612156e-02,
          2.29725063e-01, 2.93678820e-01, 2.93678820e-01, 6.69584945e-02,
          2.61819158e-02, 5.05301263e-03, 2.54534680e-05, 9.23583211e-05,
          4.04093880e-03, 2.35437334e-01, 2.93678820e-01, 2.93678820e-01,
          5.03325798e-02, 5.68098109e-03, 3.21154818e-02, 6.03111321e-03,
          2.77005341e-02, 3.03917564e-02, 2.93678820e-01, 2.93678820e-01,
          2.93678820e-01, 8.89895409e-02, 6.21569827e-02, 2.34560901e-03,
          2.31310562e-03, 5.43455535e-04, 8.70462041e-03, 2.93678820e-01,
          2.93678820e-01, 2.93678820e-01, 5.62867820e-02, 3.35902371e-03,
          1.33510428e-02, 1.43049736e-04, 8.54985381e-04, 2.39495118e-03,
          3.20215195e-01, 3.20215195e-01, 3.20215195e-01, 5.64396195e-02,
          1.31019996e-02, 1.30834095e-02, 2.31996551e-03, 5.32388734e-03,
          3.07842088e-03, 1.50762722e-01, 2.49062568e-01, 1.58175543e-01,
          1.18113412e-02, 9.50978417e-03, 1.64467040e-02, 2.24098898e-02,
          8.80055316e-03, 1.08633125e-02, 3.20215195e-01, 3.20215195e-01,
          3.20215195e-01, 1.26141235e-01, 2.08283309e-02, 1.56685654e-02,
          1.84510723e-02, 1.94380283e-02, 1.76848024e-02, 2.02128187e-01,
          3.20215195e-01, 3.20215195e-01, 5.09769320e-02, 2.62009576e-02,
          5.24170101e-02, 4.89682816e-02, 9.49649215e-02, 6.74199015e-02,
          7.35136569e-02, 1.73174620e-01, 1.29467621e-01, 7.40134940e-02,
          1.00258857e-01, 8.73689055e-02, 3.60453874e-02, 2.14722037e-01,
          1.67243183e-01, 3.17656189e-01, 3.17656189e-01, 3.17656189e-01,
          2.27011472e-01, 2.11522982e-01, 5.36917290e-03, 5.37175918e-03,
          2.57078502e-02, 2.56459024e-02, 7.20480308e-02, 8.69557410e-02,
          5.85756786e-02, 1.99695323e-02, 7.94520322e-03, 2.33666766e-02,
          1.06819458e-02, 1.54454112e-01, 2.19256669e-01, 3.17656189e-01,
          3.17656189e-01, 3.17656189e-01, 1.63207799e-01, 9.20110494e-02,
          1.70544405e-02, 2.40160292e-03, 5.91158085e-02, 6.00103065e-02,
          2.82141179e-01, 2.84571499e-01, 2.84571499e-01, 7.86629841e-02,
          5.74395731e-02, 1.19460362e-03, 2.42583873e-03, 2.74812430e-03,
          1.35785211e-02, 2.44261041e-01, 2.71705240e-01, 2.84571499e-01,
          3.60059738e-02, 4.52509476e-03, 1.16273612e-02, 1.62592262e-03,
          6.51893988e-02, 1.19796790e-01, 2.84571499e-01, 2.84571499e-01,
          2.84571499e-01, 1.00951374e-01, 6.40988648e-02, 3.11177666e-03,
          3.25371453e-04, 9.37674195e-03, 3.00604198e-02, 2.84571499e-01,
          2.84571499e-01, 2.84571499e-01, 4.93483841e-02, 1.91313531e-02,
          4.51513473e-03, 1.82848237e-02, 6.78051449e-03, 2.76504084e-02,
          2.83898085e-01, 2.83898085e-01, 2.83898085e-01, 1.04098208e-01,
          8.83971434e-03, 8.24349467e-03, 2.49815825e-02, 1.45701868e-02,
          4.25380729e-02, 1.50829807e-01, 2.83898085e-01, 2.83898085e-01,
          1.06117234e-01, 1.64951198e-02, 7.00528850e-04, 3.22863040e-03,
          3.80911352e-03, 4.85319011e-02, 2.83898085e-01, 2.83898085e-01,
          2.83898085e-01, 8.90080631e-02, 2.93654227e-03, 6.61630509e-03,
          2.14604698e-02, 1.79902129e-02, 1.05460860e-01, 2.83898085e-01,
          2.83898085e-01, 2.83898085e-01, 1.98027596e-01, 5.53447101e-03,
          9.49014630e-03, 2.48349737e-03, 6.38418319e-03, 2.93320380e-02,
          1.15262590e-01, 1.28588542e-01, 7.24022761e-02, 1.98304709e-02,
          1.25025250e-02, 2.71869674e-02, 8.45998432e-03, 1.34223714e-01,
          2.91078717e-01, 3.45526934e-01, 3.45526934e-01, 3.45526934e-01,
          1.99854374e-01, 1.45594284e-01, 1.50063243e-02, 2.30183802e-03,
          1.85415370e-03, 1.94640160e-02, 1.74488977e-01, 1.43739551e-01,
          6.80201650e-02, 1.96855068e-02, 2.27627642e-02, 9.31761414e-03,
          0., 5.42011708e-02, 1.14137210e-01, 3.45526934e-01,
          3.45526934e-01, 3.45526934e-01, 4.66126278e-02, 5.86065315e-02,
          8.00867751e-03, 5.83447516e-04, 4.77965884e-02, 9.64137316e-02,
          2.87342161e-01, 2.87342161e-01, 2.87342161e-01, 6.06840439e-02,
          5.84627539e-02, 4.01503546e-03, 1.11330512e-04, 1.82242841e-02,
          3.93884368e-02, 2.87342161e-01, 2.87342161e-01, 2.87342161e-01,
          2.67841518e-02, 2.66115181e-02, 3.44705279e-03, 0.,
          3.01897768e-02, 6.78214431e-02, 2.87342161e-01, 2.87342161e-01,
          2.36768931e-01, 1.32387197e-02, 2.52525341e-02, 1.71166623e-03,
          5.06047763e-05, 1.98743120e-02, 6.21271431e-02, 2.87342161e-01,
          2.87342161e-01, 2.87342161e-01, 3.84839950e-03, 1.30237294e-02,
          3.81459482e-04, 1.01810903e-03, 2.79411324e-03, 3.60689908e-02,
          2.80846715e-01, 2.80846715e-01, 2.80846715e-01, 2.55154874e-02,
          1.34872273e-03, 9.13330633e-03, 4.23374306e-03, 2.14750841e-02,
          1.09052628e-01, 2.80846715e-01, 2.80846715e-01, 2.80846715e-01,
          9.87737700e-02, 5.01277251e-03, 1.37108407e-04, 3.58605495e-04,
          4.90377052e-03, 4.91599888e-02, 2.80846715e-01, 2.80846715e-01,
          2.80846715e-01, 7.62606831e-03, 3.13402939e-04, 7.55271083e-03,
          5.13523526e-04, 1.77316181e-02, 1.48968562e-01, 2.80846715e-01,
          2.80846715e-01, 2.80846715e-01, 3.71795483e-02, 7.12627824e-03,
          2.90017854e-02, 5.92163904e-03, 6.50758203e-03, 2.09769029e-02,
          2.45321274e-01, 1.86106205e-01, 1.45644307e-01, 6.39857426e-02,
          5.60097992e-02, 3.14469449e-03, 2.21190765e-03, 5.38386684e-03,
          3.34058739e-02, 3.16534609e-01, 3.16534609e-01, 2.57381201e-01,
          1.66964792e-02, 8.85204598e-03, 3.70305441e-02, 1.28684044e-02,
          2.43805982e-02, 2.62363348e-02, 2.06539199e-01, 3.16534609e-01,
          3.16534609e-01, 2.67587453e-01, 8.36599991e-02, 1.38817858e-02,
          7.50057166e-03, 2.24594250e-02, 3.44599485e-02, 3.16534609e-01,
          2.25384161e-01, 3.16534609e-01, 1.55700669e-01, 4.72069792e-02,
          9.06436355e-04, 0., 2.97644874e-03, 3.07553094e-02,
          3.33617538e-01, 2.59632051e-01, 1.42764136e-01, 1.60867686e-03,
          2.90994579e-03, 4.47642960e-04, 1.35664508e-04, 1.31581016e-02,
          5.06297573e-02, 3.33617538e-01, 3.33617538e-01, 3.33617538e-01,
          1.10325625e-03, 1.43101078e-03, 8.92267388e-04, 1.77209920e-04,
          2.27337750e-03, 4.23284173e-02, 3.33617538e-01, 1.75187185e-01,
          5.30158542e-02, 6.46663643e-03, 3.28007340e-03, 7.24687707e-04,
          2.32642065e-04, 1.72842834e-02, 6.28779307e-02, 3.33617538e-01,
          3.33617538e-01, 2.94032782e-01, 1.73142168e-03, 1.45044085e-03,
          6.66066015e-04, 4.47258033e-04, 1.15133710e-02, 3.26436944e-02,
          3.00515980e-01, 3.00515980e-01, 3.00515980e-01, 2.49098800e-03,
          1.16797848e-04, 4.57135541e-03, 2.82545644e-03, 1.64630003e-02,
          1.10927261e-01, 3.00515980e-01, 3.00515980e-01, 1.91738293e-01,
          1.31338704e-02, 6.51576929e-03, 9.55277705e-04, 5.75046113e-04,
          1.89723969e-02, 2.19235476e-02, 3.00515980e-01, 3.00515980e-01,
          3.00515980e-01, 1.02859619e-03, 5.90919226e-04, 4.21361299e-03,
          6.95879757e-03, 4.29655723e-02, 9.71289426e-02, 3.00515980e-01,
          3.00515980e-01, 1.75704166e-01, 4.16030502e-03, 5.59911970e-03,
          2.26244777e-02, 5.25838276e-03, 1.90376267e-02, 2.42734849e-02,
          1.71674401e-01, 3.07940096e-01, 3.07940096e-01, 1.74822032e-01,
          5.32260388e-02, 2.01647710e-02, 3.56171397e-03, 2.91391872e-02,
          5.90095520e-02, 3.06637526e-01, 1.69517189e-01, 3.07940096e-01,
          2.59743452e-01, 9.41018090e-02, 1.63156167e-02, 2.53726426e-03,
          1.00399079e-02, 2.33805794e-02, 2.85546333e-01, 3.07940096e-01,
          9.73622650e-02, 3.71669829e-02, 2.89237406e-02, 6.90759486e-03,
          8.67823372e-04, 1.36924889e-02, 5.11093847e-02, 3.07940096e-01,
          3.07940096e-01, 2.04976246e-01, 1.35207996e-01, 4.96736690e-02,
          2.37191096e-03, 5.97096747e-04, 7.58794416e-03, 1.12729818e-01,
          3.36202174e-01, 1.03860058e-01, 5.34166694e-02, 2.90600564e-02,
          1.26061998e-02, 3.88424494e-03, 4.77758673e-04, 1.01733059e-02,
          1.45383626e-01, 3.36202174e-01, 3.36202174e-01, 2.30501980e-01,
          4.36893990e-03, 1.02232341e-02, 2.72975606e-03, 4.13510483e-04,
          5.06272772e-03, 9.29519013e-02, 3.36202174e-01, 2.86651075e-01,
          1.18597098e-01, 2.25418042e-02, 8.63178354e-03, 2.84664221e-02,
          2.25377851e-03, 7.85514712e-03, 1.31426021e-01, 3.36202174e-01,
          3.36202174e-01, 3.02859277e-01, 1.18737714e-02, 3.19299512e-02,
          1.64164382e-03, 5.30585763e-04, 6.27874210e-03, 2.79340055e-02,
          3.17063004e-01, 3.17063004e-01, 2.56692141e-01, 1.53237360e-03,
          3.72833316e-03, 8.34889070e-04, 1.76734803e-03, 1.53172612e-02,
          4.69822660e-02, 3.17063004e-01, 3.17063004e-01, 1.13860406e-01,
          1.32408098e-03, 7.97752175e-04, 1.44874295e-02, 2.62643257e-03,
          9.22607072e-03, 5.91515638e-02, 3.17063004e-01, 3.17063004e-01,
          2.98544526e-01, 7.02782674e-03, 1.91415176e-02, 4.87252291e-05,
          9.14053991e-04, 5.42239798e-03, 3.14607359e-02, 3.17063004e-01,
          3.17063004e-01, 1.26830280e-01, 2.35368800e-03, 1.08284340e-03,
          1.01932744e-02, 1.55124045e-03, 4.66457196e-03, 1.67379826e-02,
          2.94894993e-01, 3.63703161e-01, 4.33664769e-02, 2.23389757e-03,
          1.01297069e-02, 1.22966056e-04, 2.35225569e-04, 1.72227621e-03,
          1.52297178e-02, 3.40572655e-01, 3.63703161e-01, 3.28332372e-02,
          8.66194349e-03, 1.22966056e-04, 1.19538959e-02, 9.53647960e-03,
          9.70061030e-03, 2.30803229e-02, 3.63703161e-01, 3.63703161e-01,
          8.05442110e-02, 2.77586910e-03, 7.21990131e-03, 1.72796450e-03,
          1.15689461e-03, 2.27122125e-03, 3.86905624e-03, 3.44343483e-01,
          3.63703161e-01, 4.66521420e-02, 6.77069556e-03, 1.41236500e-03,
          1.61392521e-03, 6.11203606e-04, 1.42317219e-03, 3.29449438e-02,
          1.98095143e-01, 3.26257467e-01, 1.36302516e-01, 3.21569666e-03,
          8.93736607e-04, 4.80626747e-02, 5.37975645e-03, 7.04677496e-03,
          6.81177154e-02, 3.26257467e-01, 3.26257467e-01, 3.26257467e-01,
          3.50024849e-02, 8.49525630e-02, 2.50025798e-04, 1.12348190e-03,
          3.27523565e-03, 1.26033649e-02, 1.20426811e-01, 2.81529307e-01,
          9.81748998e-02, 2.60271435e-03, 3.54333286e-04, 6.26844466e-02,
          1.55965257e-02, 2.39148885e-02, 4.81722876e-02, 3.26257467e-01,
          3.26257467e-01, 3.26257467e-01, 2.34032214e-01, 1.08749822e-01,
          2.29590256e-02, 5.23921894e-03, 8.03312659e-03, 4.68817279e-02,
          2.83712238e-01, 2.83712238e-01, 2.38627031e-01, 2.34277714e-02,
          5.54929003e-02, 1.17594213e-03, 2.76469323e-03, 2.34837085e-02,
          4.82969619e-02, 2.83712238e-01, 2.83712238e-01, 8.90398100e-02,
          6.49292953e-03, 7.65730580e-03, 5.76088391e-02, 4.38160934e-02,
          2.68782191e-02, 3.62493061e-02, 2.83712238e-01, 2.83712238e-01,
          2.83712238e-01, 2.33450592e-01, 1.38645649e-01, 4.91241775e-02,
          1.31692812e-01, 2.19713569e-01, 1.04630060e-01, 2.83712238e-01,
          2.83712238e-01, 1.21201508e-01, 1.19782381e-01, 9.69984159e-02 ]
      - [ 5.71726402e-03, 1.50875393e-02, 2.04916000e-01, 3.96233767e-01,
          2.20874608e-01, 2.59036403e-02, 7.77484011e-03, 3.53587093e-03,
          4.49846871e-03, 5.17811067e-03, 3.36011089e-02, 2.38107696e-01,
          3.28547895e-01, 1.19494915e-01, 3.57895461e-03, 3.62566346e-03,
          3.97264073e-03, 6.18206058e-03, 9.30029899e-03, 1.47656864e-02,
          2.47189805e-01, 3.96233767e-01, 2.43202507e-01, 1.24613047e-02,
          6.18981523e-03, 3.31903528e-03, 7.32322177e-03, 1.37445414e-02,
          1.19406983e-01, 3.84660125e-01, 3.39380741e-01, 1.05963282e-01,
          5.94046526e-03, 3.70035321e-03, 1.15531608e-02, 1.64708570e-02,
          1.38675319e-02, 1.33011825e-02, 5.09995744e-02, 6.03061393e-02,
          2.33251322e-02, 2.97056884e-03, 3.73210525e-03, 2.85631442e-03,
          4.20023035e-03, 2.46963888e-01, 2.57369667e-01, 2.29428932e-01,
          3.22679251e-01, 1.45038009e-01, 6.59224391e-02, 8.71415250e-03,
          3.82781355e-03, 6.93148151e-02, 1.11674286e-01, 1.37484923e-01,
          1.49130300e-01, 1.89295530e-01, 1.26615167e-01, 5.01260813e-03,
          1.04566822e-02, 6.89338427e-03, 2.17026621e-02, 3.31599653e-01,
          3.31599653e-01, 3.31599653e-01, 3.31599653e-01, 3.31599653e-01,
          1.03900954e-01, 3.55046354e-02, 7.61574507e-03, 8.47610310e-02,
          1.77654937e-01, 1.41439766e-01, 1.12609990e-01, 2.15939775e-01,
          9.27674919e-02, 1.39421061e-01, 1.18746199e-01, 6.11558557e-02,
          1.64383337e-01, 1.45669848e-01, 2.81944815e-02, 2.61869188e-02,
          1.11205004e-01, 1.55836746e-01, 2.55584151e-01, 2.55584151e-01,
          2.36508623e-01, 2.31176764e-01, 2.14174688e-01, 1.98010623e-01,
          1.57359555e-01, 2.55584151e-01, 1.64385736e-01, 1.46178275e-01,
          1.11700349e-01, 3.20386291e-02, 7.41961002e-02, 7.04679936e-02,
          5.53945974e-02, 7.33714551e-02, 1.54342115e-01, 2.55584151e-01,
          2.55584151e-01, 2.55584151e-01, 1.54556125e-01, 1.20929718e-01,
          4.49808827e-03, 3.08880024e-02, 7.47242048e-02, 1.28534496e-01,
          6.02577068e-02, 5.46044484e-03, 2.54954072e-03, 1.50273566e-03,
          2.90896022e-03, 9.37216505e-02, 1.75247252e-01, 2.35767856e-01,
          1.63449183e-01, 6.37253746e-02, 1.06190750e-02, 4.59614629e-03,
          1.36687718e-02, 6.48934096e-02, 5.58356307e-02, 2.49051020e-01,
          1.49621800e-01, 2.73833513e-01, 1.31863400e-01, 3.89520638e-02,
          2.42767800e-02, 1.14512863e-02, 2.77683903e-02, 3.58910292e-01,
          3.85293424e-01, 3.85293424e-01, 3.85293424e-01, 1.82397932e-01,
          8.89144167e-02, 6.33857921e-02, 6.68953061e-02, 1.79593995e-01,
          1.85741410e-01, 1.63789928e-01, 1.37183920e-01, 1.51375949e-01,
          1.52021185e-01, 7.27462023e-03, 5.35268849e-03, 5.98078128e-03,
          7.18362927e-02, 2.47704014e-01, 2.47704014e-01, 1.93812981e-01,
          2.47704014e-01, 2.47704014e-01, 3.53958011e-02, 2.57486515e-02,
          6.62549585e-03, 8.46566632e-02, 2.27183551e-01, 2.47704014e-01,
          2.47704014e-01, 2.47704014e-01, 2.47704014e-01, 7.43417144e-02,
          5.15119694e-02, 5.15198484e-02, 1.37308568e-01, 1.64620697e-01,
          2.14103818e-01, 1.76165953e-01, 2.47704014e-01, 2.47704014e-01,
          8.14762414e-02, 5.66346273e-02, 3.90988626e-02, 9.57207382e-02,
          1.72693446e-01, 1.78965852e-01, 1.47481069e-01, 2.47659713e-01,
          2.07065940e-01, 8.26602876e-02, 7.73994699e-02, 8.95603187e-03,
          2.93566193e-02, 1.55064613e-01, 1.54966459e-01, 1.69349566e-01,
          1.82406783e-01, 2.56267518e-01, 2.42075652e-01, 2.56267518e-01,
          1.00501992e-01, 5.76321520e-02, 6.55597970e-02, 1.84353709e-01,
          1.44979239e-01, 2.27158844e-01, 2.36458167e-01, 7.36888349e-02,
          5.93371429e-02, 9.99164488e-03, 2.32238937e-02, 1.36948794e-01,
          2.56267518e-01, 2.31120288e-01, 1.71409771e-01, 2.56267518e-01,
          1.62173972e-01, 2.15161696e-01, 1.64776221e-02, 1.75184179e-02,
          9.30805281e-02, 1.21179812e-01, 4.94153202e-02, 1.19216532e-01,
          1.35084331e-01, 1.17367133e-02, 1.11791492e-02, 1.12471245e-02,
          4.04458344e-02, 1.32531658e-01, 2.67684609e-01, 2.67684609e-01,
          2.67684609e-01, 1.30819693e-01, 4.20311131e-02, 6.97406605e-02,
          6.12178408e-02, 6.69885501e-02, 2.33776957e-01, 1.59696370e-01,
          1.24071650e-01, 1.76362142e-01, 2.67684609e-01, 2.34599765e-02,
          2.07990017e-02, 5.99855818e-02, 1.42205805e-01, 2.34988019e-01,
          2.67684609e-01, 2.67684609e-01, 2.67684609e-01, 2.67684609e-01,
          9.61248800e-02, 1.89896464e-01, 1.83056608e-01, 1.69644251e-01,
          7.11213127e-02, 1.59051865e-01, 2.81719357e-01, 2.81719357e-01,
          2.03313515e-01, 8.35905671e-02, 7.70575479e-02, 7.61189759e-02,
          5.09637035e-02, 1.94006190e-02, 7.12837800e-02, 1.55112043e-01,
          2.66782641e-01, 2.36123219e-01, 6.96701035e-02, 3.70244272e-02,
          3.83389294e-02, 2.56006327e-02, 8.25565308e-02, 1.68978944e-01,
          2.81719357e-01, 2.81719357e-01, 2.81719357e-01, 1.35219455e-01,
          1.54300183e-01, 1.10593729e-01, 5.63489012e-02, 2.27531083e-02,
          6.51899800e-02, 2.81719357e-01, 2.81719357e-01, 2.81719357e-01,
          6.69423044e-02, 4.00093906e-02, 2.38294136e-02, 1.30070820e-02,
          2.67200619e-02, 1.45713672e-01, 1.18718676e-01, 1.86170191e-01,
          2.02262923e-01, 9.65565071e-02, 7.25172237e-02, 7.57601038e-02,
          4.52208333e-02, 4.46355455e-02, 2.45756850e-01, 1.13335878e-01,
          1.12413324e-01, 2.41154775e-01, 1.71581626e-01, 1.44919604e-01,
          9.10647362e-02, 3.74454334e-02, 5.01355678e-02, 1.28112987e-01,
          2.77716041e-01, 2.77716041e-01, 2.77716041e-01, 1.51341155e-01,
          1.99356019e-01, 1.31846592e-01, 4.27036993e-02, 3.56026515e-02,
          9.09962058e-02, 1.88412115e-01, 2.59796232e-01, 2.77716041e-01,
          2.53258854e-01, 2.18516275e-01, 1.41867250e-01, 5.69470823e-02,
          9.77165848e-02, 1.42154485e-01, 1.79959550e-01, 1.24265336e-01,
          2.45398074e-01, 2.32142806e-02, 9.98084433e-03, 4.70777601e-02,
          8.68380219e-02, 9.49040726e-02, 2.43381396e-01, 2.93735057e-01,
          2.34114558e-01, 1.82583943e-01, 4.77356277e-02, 5.27083725e-02,
          7.23067895e-02, 1.06764309e-01, 6.46562204e-02, 2.26713374e-01,
          2.93735057e-01, 1.79945186e-01, 2.93735057e-01, 7.74304047e-02,
          4.70897444e-02, 6.27430379e-02, 9.19880718e-02, 8.52806196e-02,
          2.93735057e-01, 2.93735057e-01, 2.93735057e-01, 1.45647049e-01,
          5.51985912e-02, 2.70007122e-02, 3.39676179e-02, 1.05476797e-01,
          4.86287735e-02, 2.02899694e-01, 2.79266030e-01, 2.79266030e-01,
          2.77324170e-01, 8.02119672e-02, 7.00146109e-02, 4.84773666e-02,
          4.47570756e-02, 2.27538478e-02, 9.44682211e-02, 2.70162404e-01,
          2.52233207e-01, 2.45680824e-01, 4.19646576e-02, 2.80690454e-02,
          1.88770983e-02, 9.77439061e-03, 2.93755978e-02, 1.89538449e-01,
          2.79266030e-01, 2.79266030e-01, 1.90198973e-01, 5.22141680e-02,
          2.29839571e-02, 9.00929049e-03, 3.30193900e-02, 3.38437296e-02,
          2.43174627e-01, 2.79266030e-01, 2.79266030e-01, 2.00936839e-01,
          4.21442874e-02, 1.61375310e-02, 1.43562518e-02, 5.86774237e-02,
          4.98666018e-02, 1.48663953e-01, 2.79737383e-01, 2.79737383e-01,
          2.79737383e-01, 5.30266427e-02, 7.28758797e-02, 5.46305366e-02,
          3.70046571e-02, 4.09939811e-02, 7.29465410e-02, 2.69710511e-01,
          2.79737383e-01, 2.79737383e-01, 6.42123222e-02, 5.10271341e-02,
          3.53536159e-02, 4.41442318e-02, 5.25161996e-02, 2.79737383e-01,
          2.79737383e-01, 2.79737383e-01, 1.57353953e-01, 4.42457385e-02,
          1.80658456e-02, 3.04750726e-02, 8.07257593e-02, 4.49325405e-02,
          1.71590492e-01, 2.79737383e-01, 2.79737383e-01, 1.31789938e-01,
          1.07932044e-02, 7.31893070e-03, 2.02661529e-02, 3.57790515e-02,
          1.33050948e-01, 2.43513972e-01, 2.75301665e-01, 2.47828230e-01,
          2.75301665e-01, 1.04274265e-01, 1.37954190e-01, 1.07976168e-01,
          1.16333239e-01, 1.29294127e-01, 2.75301665e-01, 2.75301665e-01,
          2.75301665e-01, 1.04043834e-01, 6.19111657e-02, 4.99771461e-02,
          3.77147272e-02, 1.03497379e-01, 1.80599868e-01, 1.89915746e-01,
          1.64523140e-01, 2.61762589e-01, 2.66803503e-01, 4.21894901e-02,
          6.68271109e-02, 4.48579825e-02, 5.06997965e-02, 1.00085102e-01,
          1.13300480e-01, 2.47481599e-01, 1.85975268e-01, 9.82331187e-02,
          4.06079814e-02, 2.76781805e-02, 1.62223112e-02, 3.83299999e-02,
          5.16886748e-02, 1.95589721e-01, 2.80386686e-01, 2.80386686e-01,
          1.75992236e-01, 6.24427050e-02, 4.15146612e-02, 1.51130306e-02,
          3.51272635e-02, 9.09803584e-02, 2.80386686e-01, 2.80386686e-01,
          2.80386686e-01, 2.30977386e-01, 7.60089010e-02, 3.94351706e-02,
          3.01812142e-02, 1.25213236e-01, 6.27908483e-02, 1.21918619e-01,
          2.36844227e-01, 2.73135662e-01, 1.98014095e-01, 6.20252043e-02,
          2.05238871e-02, 2.78133564e-02, 3.56054716e-02, 9.04073343e-02,
          2.56966442e-01, 2.28893265e-01, 1.98797509e-01, 2.40137443e-01,
          1.17081851e-01, 3.62641625e-02, 5.58977239e-02, 5.12225069e-02,
          1.38910070e-01, 3.30634892e-01, 3.30634892e-01, 3.30634892e-01,
          1.71555027e-01, 6.20885827e-02, 1.72349289e-02, 2.00857148e-02,
          1.60601914e-01, 8.36663246e-02, 2.89716303e-01, 3.30634892e-01,
          2.87946790e-01, 1.56694904e-01, 5.72972279e-03, 3.59277334e-03,
          1.87372938e-02, 3.99688184e-02, 1.01278603e-01, 2.87181526e-01,
          3.14700991e-01, 1.27115503e-01, 1.15475371e-01, 5.99456318e-02,
          2.05980595e-02, 2.01853644e-02, 3.96370590e-02, 5.54526709e-02,
          9.67011005e-02, 1.64611131e-01, 9.45183113e-02, 6.34472147e-02,
          3.36944498e-03, 8.99340841e-04, 1.00444152e-03, 1.39482468e-02,
          1.85843810e-01, 2.23907739e-01, 1.75950617e-01, 2.71609634e-01,
          2.71609634e-01, 4.90161143e-02, 7.90390670e-02, 1.07099656e-02,
          1.56141296e-02, 1.46601290e-01, 1.05380908e-01, 1.58736572e-01,
          1.51913524e-01, 1.65846497e-01, 5.33230975e-02, 5.01023382e-02,
          1.52808521e-02, 7.47596547e-02, 2.60056376e-01, 1.42201468e-01,
          1.70454100e-01, 2.71609634e-01, 2.71609634e-01, 8.91925171e-02,
          1.11724786e-01, 6.17675260e-02, 8.09031501e-02, 2.57230341e-01,
          1.37816727e-01, 2.06200361e-01, 1.64025486e-01, 2.40817040e-01,
          1.03820041e-01, 1.33654758e-01, 1.20202757e-01, 2.33740807e-01,
          1.44978493e-01, 1.58687323e-01, 2.65538424e-01, 2.65538424e-01,
          2.26881653e-01, 6.23775311e-02, 3.17174122e-02, 2.51856428e-02,
          1.10838905e-01, 1.08375810e-01, 2.25735709e-01, 2.65538424e-01,
          2.65538424e-01, 2.54133046e-01, 7.22587928e-02, 1.30794812e-02,
          2.30812822e-02, 4.14021015e-02, 1.51052162e-01, 2.02888072e-01,
          2.65538424e-01, 2.65538424e-01, 1.77273884e-01, 7.91066661e-02,
          9.53857824e-02, 9.91107970e-02, 2.51565933e-01, 4.81845066e-02,
          1.39199644e-01, 2.61658400e-01, 1.76785842e-01, 1.29566848e-01,
          3.13351788e-02, 5.45417797e-03, 1.64334085e-02, 2.25460641e-02,
          2.43577167e-01, 4.42908049e-01, 4.42908049e-01, 3.69090766e-01,
          3.67370337e-01, 1.07060306e-01, 3.37110683e-02, 3.01632769e-02,
          5.37257902e-02, 6.66328222e-02, 1.29712150e-01, 1.56955838e-01,
          8.05305466e-02, 1.05242923e-01, 5.09902835e-03, 6.11749990e-03,
          1.88501750e-03, 1.99685674e-02, 7.21602440e-02, 1.69871598e-01,
          2.56823719e-01, 2.00617313e-01, 1.89556286e-01, 2.00182293e-02,
          4.78903716e-03, 1.45140784e-02, 1.62306875e-02, 2.35175733e-02,
          2.46646628e-02, 5.22976369e-02, 2.13054270e-02, 1.02309160e-01,
          2.30319635e-03, 5.21187438e-03, 1.36267697e-03, 2.12068595e-02,
          2.72163421e-01, 8.99724662e-02, 1.32230371e-01, 2.72163421e-01,
          2.72163421e-01, 1.21062815e-01, 9.13628936e-02, 1.12070628e-01,
          2.11396471e-01, 2.72163421e-01, 1.33741125e-01, 2.25183755e-01,
          1.69028148e-01, 2.20518872e-01, 9.62168202e-02, 1.73604995e-01,
          1.52852654e-01, 2.72163421e-01, 2.64310092e-01, 2.29189955e-02,
          2.09194701e-02, 5.45642599e-02, 7.85364062e-02, 3.96049693e-02,
          2.93464791e-02, 5.27344868e-02, 2.59396762e-01, 2.72163421e-01,
          4.31421399e-02, 5.10531552e-02, 3.82197239e-02, 5.18051051e-02,
          2.88861152e-02, 3.54214236e-02, 3.48947607e-02, 2.72163421e-01,
          1.75525948e-01, 2.63412297e-01, 3.53710145e-01, 2.79879063e-01,
          1.11490570e-01, 6.21888898e-02, 1.24305509e-01, 1.16578445e-01,
          2.54746705e-01, 2.68987641e-02, 9.91602093e-02, 1.53709039e-01,
          1.17028773e-01, 5.70202395e-02, 1.63673256e-02, 3.74660245e-03,
          1.93258021e-02, 2.07831655e-02, 3.53710145e-01, 7.78076872e-02,
          9.66190323e-02, 4.72435020e-02, 5.59710637e-02, 2.59863138e-02,
          2.81715132e-02, 1.69228986e-02, 3.53710145e-01, 3.53710145e-01,
          2.19577700e-02, 3.07563376e-02, 2.00756267e-02, 7.10866749e-02,
          2.17100605e-02, 4.74962126e-03, 6.58213394e-03, 3.53710145e-01,
          1.82347987e-02, 4.37432490e-02, 5.10847867e-02, 3.25513259e-02,
          6.76904619e-02, 3.73360445e-03, 1.99297140e-03, 5.37015684e-03,
          1.23216007e-02, 1.58367828e-02, 2.68878639e-02, 4.75482047e-02,
          1.56900845e-02, 7.11117536e-02, 4.17573989e-04, 1.24981313e-03,
          3.49444774e-04, 1.30502423e-02, 4.82463747e-01, 1.93309002e-02,
          2.96360012e-02, 1.50687201e-02, 1.52995288e-01, 3.32020074e-02,
          7.07818288e-03, 5.80100808e-03, 4.82463747e-01, 4.82463747e-01,
          2.59749386e-02, 4.51871976e-02, 1.88310463e-02, 1.20146014e-01,
          3.29081975e-02, 5.25783328e-03, 9.31551855e-04, 4.82463747e-01 ]
      - [ 2.59729661e-02, 6.16056696e-02, 2.40114760e-02, 8.50135237e-02,
          1.66626438e-01, 7.80943930e-02, 3.37562151e-02, 2.33154930e-02,
          1.76364172e-03, 1.39539614e-01, 2.74839014e-01, 2.74839014e-01,
          2.74839014e-01, 2.22681507e-01, 1.00777388e-01, 1.45872712e-01,
          6.47080615e-02, 4.27913480e-02, 1.04569562e-01, 1.15226418e-01,
          6.93027526e-02, 2.02059716e-01, 2.74839014e-01, 8.64410847e-02,
          3.85744572e-02, 9.59708616e-02, 4.54435963e-03, 2.43454278e-01,
          2.74839014e-01, 2.43462518e-01, 2.74839014e-01, 2.74839014e-01,
          2.16782570e-01, 1.84048161e-01, 1.52128547e-01, 5.97847737e-02,
          9.37961861e-02, 2.96183020e-01, 2.96183020e-01, 1.99830085e-01,
          2.96183020e-01, 1.26747355e-01, 8.15195814e-02, 6.68164864e-02,
          8.61376002e-02, 6.23706505e-02, 1.37386352e-01, 9.86386985e-02,
          4.98343855e-02, 2.96183020e-01, 1.92783430e-01, 1.03424810e-01,
