%YAML:1.0
---
opencv_ml_svm:
   format: 3
   svmType: EPS_SVR
   kernel:
      type: LINEAR
   C: 2.5000000000000000e-01
   p: 1.0000000000000001e-01
   term_criteria: { iterations:1000 }
   var_count: 576
   sv_total: 1
   support_vectors:
      - [ -6.88128993e-02, 1.58913091e-01, 1.54192582e-01,
          5.46316057e-02, -8.84969234e-02, -5.30790761e-02,
          -7.08762184e-02, -8.27650800e-02, -1.23973221e-01,
          -3.38905840e-03, 1.55633256e-01, 6.31233156e-02,
          -6.24720342e-02, -1.52297571e-01, -7.48690218e-02,
          -8.31127539e-02, -5.81816323e-02, -8.07294101e-02,
          -7.17422366e-02, -4.31197397e-02, 9.38651711e-02,
          1.45655528e-01, -1.51408315e-02, -9.63590741e-02,
          -6.94557428e-02, -1.16412349e-01, -1.91548467e-01,
          -2.71464270e-02, 2.89204959e-02, 3.92628573e-02,
          6.44476488e-02, -6.56851605e-02, -9.96078551e-02,
          6.02242677e-03, -2.73433179e-02, -1.29165187e-01,
          3.74762714e-02, 6.89556077e-02, 9.17770993e-03,
          -1.20532371e-01, -1.09084591e-01, -2.10237671e-02,
          -8.14252943e-02, -5.99087365e-02, -1.27884764e-02,
          1.74031958e-01, -5.36747184e-03, -6.63544163e-02,
          -7.28485510e-02, -5.50981089e-02, 6.03610603e-03,
          -4.20737304e-02, -2.07237210e-02, 1.59144834e-01,
          -2.19638459e-02, -7.73660280e-03, -1.45632923e-02,
          -1.80300407e-03, -5.16157560e-02, -1.92637667e-02,
          2.62699872e-02, -2.37485468e-02, -5.94431087e-02,
          9.25973058e-02, 4.23364937e-02, -1.74164248e-03,
          5.70901930e-02, 3.11596971e-02, 1.00200474e-01, 6.81096837e-02,
          6.35823514e-03, -1.78328678e-02, 1.14183679e-01,
          -1.18176512e-01, -1.56967983e-01, -8.26672763e-02,
          -5.65485433e-02, -6.12272136e-02, -4.68243957e-02,
          2.89811324e-02, 1.82016656e-01, 1.00475349e-01,
          -3.62813510e-02, -5.89446127e-02, -8.13888684e-02,
          -9.19093564e-02, -1.29595697e-01, -1.61849819e-02,
          1.10252537e-02, 1.57153398e-01, 6.98739886e-02,
          -9.07464791e-03, -5.68858162e-02, -3.49148586e-02,
          5.65563180e-02, 2.05800831e-02, 4.63362038e-02, 4.00476567e-02,
          2.40097530e-02, 9.33359042e-02, 7.78839216e-02, 6.25878796e-02,
          -2.88337544e-02, -7.24762604e-02, -5.46439961e-02,
          5.31790666e-02, 9.59558263e-02, 4.59106714e-02, 3.87415551e-02,
          2.07843613e-02, 1.20052844e-02, -6.07166141e-02,
          -8.97019729e-02, -8.03245604e-02, 6.49672449e-02,
          6.19331188e-02, 8.32981914e-02, -6.50727302e-02,
          -7.96370134e-02, -7.41463974e-02, -4.51621115e-02,
          -6.48995582e-03, 2.66253669e-02, 4.32267524e-02,
          4.60464992e-02, 2.53270380e-03, 2.80039124e-02, 7.65128657e-02,
          1.10010557e-01, 4.09822762e-02, -4.81658578e-02,
          -4.60713767e-02, 8.05342421e-02, 8.63555223e-02,
          -2.90043708e-02, -1.01868413e-01, -1.10621661e-01,
          -7.29368180e-02, -4.32434827e-02, 1.88284069e-02,
          5.26925959e-02, 7.11541474e-02, 7.39242360e-02,
          -7.02562630e-02, -8.64710882e-02, -1.44468948e-01,
          -1.78062133e-02, 8.37010071e-02, 7.62694404e-02,
          -6.43322989e-02, -6.23851009e-02, -9.04067159e-02,
          -1.28101245e-01, 3.15427370e-02, -1.95443556e-02,
          -2.39017769e-03, -5.81045030e-03, -3.50646377e-02,
          -3.51115726e-02, 1.31619908e-02, 2.76876539e-02,
          -2.14990526e-02, -2.78352425e-02, -9.60154608e-02,
          -1.08232453e-01, 1.31240532e-01, 1.69134527e-01,
          1.86873470e-02, -1.65237352e-01, -1.92373991e-01,
          -8.28436315e-02, 7.52595514e-02, 4.71745059e-02,
          2.52972916e-02, 5.67466170e-02, 9.81690213e-02, 8.24952424e-02,
          1.92606207e-02, -7.28968158e-03, 1.08420394e-01,
          -2.57195439e-02, 4.19602683e-03, 4.92531434e-03,
          -3.28637436e-02, -6.33595213e-02, -7.94172660e-02,
          -1.45599628e-02, -3.09128165e-02, -1.28261782e-02,
          -2.96062566e-02, -2.58616321e-02, -7.32852845e-03,
          4.28045541e-02, 2.48291418e-02, -1.55997341e-02,
          9.77863465e-03, -1.81773268e-02, -5.63555472e-02,
          3.91751062e-03, 1.65015068e-02, 6.05850033e-02, 2.42177723e-03,
          5.28786108e-02, -6.32520113e-03, 5.08672521e-02,
          1.61544830e-02, 1.23602733e-01, 2.35247705e-02,
          -1.47792548e-02, -5.88609604e-03, -2.47718822e-02,
          2.82933954e-02, 6.50130725e-03, -2.98979040e-02,
          -1.21353148e-02, 4.54438888e-02, 1.81938317e-02,
          3.14235012e-03, 1.15096252e-02, 3.92686576e-02, 7.90425912e-02,
          -8.24645814e-03, -6.22621290e-02, 1.22798495e-02,
          -4.80950475e-02, 1.36687318e-02, 3.07219997e-02,
          3.59945595e-02, -3.04884054e-02, -9.37111024e-03,
          -2.80260555e-02, 1.07455123e-02, 7.96778053e-02,
          2.80539552e-03, 3.80621515e-02, 2.71248259e-02, 7.60223158e-03,
          1.84036084e-02, 3.26143689e-02, -1.00672208e-02,
          -1.13230012e-01, -5.44025041e-02, -1.22925481e-02,
          5.72643802e-02, 1.03329197e-02, -4.02814476e-03,
          4.14498486e-02, 3.59872431e-02, -2.74444390e-02,
          8.28631315e-03, 4.75034714e-02, 6.52681217e-02, 5.38080116e-04,
          1.97054520e-02, 3.83589678e-02, 4.73345211e-03,
          -1.86022650e-02, -2.35844348e-02, -2.74818251e-03,
          4.40548472e-02, 2.36822595e-03, -7.64096603e-02,
          -4.88835312e-02, -3.59176695e-02, 1.61375199e-02,
          1.05162755e-01, 1.22069390e-02, 3.83695867e-03,
          -1.79807059e-02, -9.81854051e-02, 4.22601998e-02,
          1.45949945e-02, 2.09679548e-02, 5.76294437e-02, 6.17125109e-02,
          3.85640673e-02, 5.91507107e-02, -1.71613563e-02,
          2.77983956e-02, -4.40447479e-02, -6.81120753e-02,
          9.12940654e-04, 1.08319618e-01, 1.62609890e-01, 5.04258722e-02,
          -1.06795169e-01, -1.16349809e-01, -8.02416727e-02,
          1.64112933e-02, -6.10691234e-02, -3.45702097e-02,
          9.21249166e-02, 1.78418607e-01, 2.27122512e-02,
          -1.31039217e-01, -1.66938305e-01, -3.85508724e-02,
          6.74503222e-02, 5.19450791e-02, 4.33676690e-02, 5.50005548e-02,
          5.84245399e-02, 1.37017285e-02, 2.62933969e-03,
          -1.85167920e-02, 8.77390727e-02, 6.34713657e-03,
          -5.71233518e-02, -8.98168981e-03, 4.90494482e-02,
          1.24150708e-01, 3.75772007e-02, 5.21685369e-02, 4.84262481e-02,
          -2.85459012e-02, 3.53554972e-02, -1.93651058e-02,
          2.35654488e-02, -2.23025344e-02, 3.18501443e-02,
          2.97081657e-03, -7.11702928e-03, 5.51222786e-02,
          1.50355892e-02, 3.71927656e-02, -7.44478311e-03,
          8.83359555e-03, -2.68105324e-02, -1.34276743e-05,
          2.37266235e-02, 7.38926083e-02, -1.85723454e-02,
          5.10189086e-02, 2.07066257e-02, -2.09862529e-03,
          -1.63258146e-02, -2.29356121e-02, -4.82217036e-03,
          2.73214355e-02, 3.45386080e-02, -2.78338492e-02,
          -2.89945025e-02, -2.70531941e-02, 1.60360057e-02,
          4.58071940e-02, -8.74082837e-03, -1.91688389e-02,
          -6.51929062e-03, 2.06782320e-03, 2.97596701e-03,
          -5.28666601e-02, -5.32577634e-02, -1.82544158e-04,
          4.11720462e-02, 4.09403034e-02, 1.98187418e-02,
          -1.58858802e-02, -8.12156498e-03, 7.14036589e-03,
          -8.24343264e-02, 9.08352493e-04, -2.36213803e-02,
          -6.10993989e-02, 9.55584401e-04, 1.70370971e-03,
          4.93235029e-02, 3.50751691e-02, -1.81488991e-02,
          -4.22983319e-02, 1.37443794e-02, -4.55891080e-02,
          -3.61433104e-02, 7.41542643e-03, -1.19346092e-02,
          -2.57413369e-02, 7.56991580e-02, 5.20593300e-02,
          2.05239505e-02, -4.61929180e-02, -5.38410358e-02,
          -2.47798320e-02, 4.98255678e-02, 2.16456410e-02,
          2.97554322e-02, 3.21614407e-02, 7.63934627e-02,
          -3.95157598e-02, 1.37752004e-03, -2.27376409e-02,
          -5.59217855e-02, -4.46621589e-02, -5.24776205e-02,
          2.86686923e-02, 6.35612011e-02, 4.00669612e-02, 3.94847069e-04,
          4.73316498e-02, -1.60242580e-02, 3.85337658e-02,
          6.86025023e-02, 1.46758510e-02, 2.04704907e-02, 7.48257861e-02,
          6.03716858e-02, 1.94492098e-02, -3.01880967e-02,
          -7.06555173e-02, 8.68229941e-03, 1.05772927e-01,
          1.45940676e-01, 8.49978328e-02, -1.71907749e-02,
          -3.81355584e-02, -4.43053581e-02, 2.73266640e-02,
          2.87258420e-02, 7.24619022e-03, 1.13951787e-02,
          -5.70706502e-02, -2.50664037e-02, 2.04929672e-02,
          1.49822617e-02, 1.89388711e-02, -2.45545544e-02,
          -9.79057327e-03, -6.43246388e-03, 2.24011596e-02,
          -4.21799794e-02, -5.91165293e-03, -3.95174213e-02,
          -5.38972951e-02, -3.41860428e-02, 6.39711972e-03,
          -8.36185440e-02, -2.36159246e-02, 2.03254875e-02,
          1.38959393e-01, 1.01792611e-01, 1.72532141e-01, 1.22025959e-01,
          -3.31352092e-02, 2.48514488e-02, 4.23027202e-02,
          2.09193733e-02, -5.56843020e-02, 7.07240030e-02,
          -4.67681475e-02, 2.97604147e-02, 2.12334823e-02,
          4.01966125e-02, -5.98943606e-02, -1.15772530e-01,
          -1.08030386e-01, -3.26795946e-03, 2.78258212e-02,
          -4.56262603e-02, 8.06972161e-02, 1.03806585e-01,
          -9.14701819e-02, -7.05443174e-02, -1.08728610e-01,
          -1.52796328e-01, -1.27290756e-01, -3.52847464e-02,
          -8.92932415e-02, -3.65550965e-02, 7.71162584e-02,
          4.64907801e-03, 3.21479812e-02, 9.49451625e-02, 9.72103104e-02,
          7.31835142e-03, 2.48786435e-02, -8.80945474e-03,
          3.26662138e-02, 1.21893166e-02, 7.45253935e-02, 5.37788495e-02,
          6.04996607e-02, 5.00284322e-02, 7.55074173e-02, 4.32156101e-02,
          -3.72150466e-02, -3.05844825e-02, 6.59497604e-02,
          6.37853742e-02, 1.12645151e-02, -4.31563007e-03,
          -7.07552060e-02, -7.49768689e-02, -6.56213388e-02,
          -6.93029538e-02, -4.37378921e-02, -6.92289025e-02,
          7.22872317e-02, 1.11305237e-01, 1.27378767e-02, 6.82771299e-03,
          2.55797934e-02, -1.68670081e-02, -1.45034045e-01,
          -1.43472895e-01, -1.04073219e-01, 9.31050628e-02,
          8.30970034e-02, 3.60822640e-02, -1.81456879e-02,
          6.27126023e-02, 4.36277613e-02, -3.82856876e-02,
          -1.68133471e-02, 7.55875185e-02, 7.28097484e-02,
          1.27344206e-01, 4.12459075e-02, 2.40466688e-02,
          -3.15076560e-02, -3.06234024e-02, -1.87141262e-02,
          3.80341150e-02, 5.17971488e-03, 7.91109204e-02, 1.05247989e-01,
          -6.20634807e-03, -7.06485957e-02, -1.59414560e-02,
          -2.10284106e-02, -1.09199688e-01, -1.48349419e-01,
          -4.35124636e-02, 1.13577686e-01, 9.96044949e-02,
          -5.69506735e-02, -4.60501686e-02, -1.48185253e-01,
          -8.60093907e-02, -4.76637334e-02, -1.12042755e-01,
          -7.58817345e-02, 9.38262418e-02, 1.14895239e-01,
          1.05453834e-01, 8.55559185e-02, 1.65240336e-02,
          -2.23214608e-02, -2.96043903e-02, 3.71267051e-02,
          2.17076670e-02, 3.45237553e-02, 3.07215285e-03, 1.09765448e-01,
          5.45680597e-02, 8.14542919e-02, -1.57996081e-02,
          -7.91809931e-02, -9.21676531e-02, -7.76720718e-02,
          -4.82189097e-02, 1.47016779e-01, 5.79615086e-02,
          6.78953230e-02, -7.61693865e-02, -1.42395664e-02,
          -5.85139953e-02, -1.55064434e-01, -4.56400849e-02,
          1.59254428e-02, -2.24212427e-02, 7.39355609e-02,
          8.03309754e-02, 2.50148717e-02, 4.43686098e-02,
          -8.53281021e-02, -1.54338285e-01, -1.09815851e-01,
          -8.85583982e-02 ]
   uncompressed_sv_total: 51
   uncompressed_support_vectors:
      - [ 4.12526391e-02, 2.45047361e-01, 2.90638924e-01, 1.28978431e-01,
          4.74928394e-02, 1.45416511e-02, 9.56757553e-03, 9.52552631e-03,
          2.03613117e-02, 1.24829255e-01, 2.90638924e-01, 2.90638924e-01,
          1.54241905e-01, 6.13873340e-02, 6.90295845e-02, 4.73910123e-02,
          5.68781830e-02, 5.03815673e-02, 4.46103290e-02, 1.76390380e-01,
          2.90638924e-01, 2.90638924e-01, 1.16460860e-01, 5.38189001e-02,
          6.61216229e-02, 1.24859571e-01, 6.54718056e-02, 1.07412897e-01,
          2.22468808e-01, 2.90638924e-01, 2.03207254e-01, 8.40423927e-02,
          1.51622310e-01, 2.64117450e-01, 2.54027367e-01, 1.11442424e-01,
          1.52900457e-01, 2.26894498e-01, 2.25754917e-01, 1.21034592e-01,
          8.70038420e-02, 1.68194443e-01, 1.23706207e-01, 1.22627199e-01,
          9.54461023e-02, 1.43887848e-01, 8.82655308e-02, 1.08701997e-01,
          1.70286134e-01, 1.23035952e-01, 1.84321240e-01, 1.18122831e-01,
          1.15675464e-01, 1.92065790e-01, 1.10699274e-01, 9.84492302e-02,
          1.52790979e-01, 1.00019149e-01, 1.12372763e-01, 2.26894498e-01,
          2.26894498e-01, 2.26894498e-01, 1.48591623e-01, 1.77971914e-01,
          1.67750075e-01, 1.13912329e-01, 2.26894498e-01, 2.13795826e-01,
          2.21698359e-01, 2.26894498e-01, 2.13256225e-01, 1.96900368e-01,
          1.08430259e-01, 7.90769309e-02, 1.34914771e-01, 2.49061421e-01,
          1.63645089e-01, 1.27909333e-01, 8.19971636e-02, 7.78118074e-02,
          1.27923921e-01, 1.40247077e-01, 1.75283805e-01, 1.84214488e-01,
          1.77888811e-01, 2.04191148e-01, 1.10001087e-01, 1.27854183e-01,
          7.25845397e-02, 9.03662518e-02, 1.21724017e-01, 1.51503414e-01,
          2.64174342e-01, 2.64174342e-01, 2.64174342e-01, 1.34466529e-01,
          9.15109143e-02, 7.34640136e-02, 1.02160171e-01, 1.28240138e-01,
          2.64174342e-01, 2.64174342e-01, 2.64174342e-01, 2.64174342e-01,
          1.54259324e-01, 1.10987589e-01, 5.42506203e-02, 5.66193834e-02,
          1.20154813e-01, 1.93548486e-01, 1.90196082e-01, 9.21364129e-02,
          1.32049918e-01, 1.24144316e-01, 1.80439547e-01, 1.35123670e-01,
          1.26936987e-01, 4.07673046e-02, 5.11959456e-02, 5.74719161e-02,
          1.23008654e-01, 2.71743983e-01, 1.66599318e-01, 1.56654805e-01,
          1.35017425e-01, 8.34430903e-02, 1.12592973e-01, 2.71743983e-01,
          2.71743983e-01, 1.40262797e-01, 2.55485535e-01, 1.74150214e-01,
          1.91898540e-01, 1.07992344e-01, 6.59303665e-02, 6.22139908e-02,
          1.02279410e-01, 1.65368706e-01, 9.26296636e-02, 2.71743983e-01,
          2.48897970e-01, 2.71743983e-01, 1.54498518e-01, 1.21033527e-01,
          4.83341180e-02, 7.47821257e-02, 2.30865106e-01, 2.40861878e-01,
          2.12031901e-01, 7.50104561e-02, 1.47442922e-01, 2.10464016e-01,
          1.14178956e-01, 7.58715197e-02, 6.12844303e-02, 1.75082639e-01,
          1.22821338e-01, 1.31483391e-01, 1.49856299e-01, 2.40861878e-01,
          2.40861878e-01, 2.18842521e-01, 1.19154915e-01, 5.17468117e-02,
          9.22964439e-02, 1.95892707e-01, 2.40861878e-01, 1.07880421e-01,
          1.29792616e-01, 1.37511238e-01, 1.33303091e-01, 1.34774715e-01,
          1.35397568e-01, 1.23824999e-01, 1.42542839e-01, 2.27616310e-01,
          1.49494469e-01, 2.40861878e-01, 2.40861878e-01, 2.01241359e-01,
          6.89624697e-02, 5.64424954e-02, 6.53826520e-02, 5.68481535e-02,
          1.12840280e-01, 1.70353517e-01, 2.28645235e-01, 2.28645235e-01,
          1.59849763e-01, 1.56300262e-01, 1.55108452e-01, 1.28458485e-01,
          1.67241916e-01, 1.73423097e-01, 1.42405123e-01, 2.28645235e-01,
          1.88425779e-01, 1.30034760e-01, 9.85269994e-02, 1.30014941e-01,
          1.37895644e-01, 1.19419314e-01, 1.86321720e-01, 1.49836436e-01,
          2.28645235e-01, 1.84570089e-01, 1.68782488e-01, 1.72255039e-01,
          2.28645235e-01, 2.28645235e-01, 1.88451216e-01, 1.74551591e-01,
          1.63932815e-01, 1.98816732e-01, 1.94324762e-01, 1.61664590e-01,
          1.33598387e-01, 1.40719101e-01, 2.26016268e-01, 1.96187347e-01,
          2.17212886e-01, 9.10782069e-02, 1.03927501e-01, 1.03781529e-01,
          7.15536624e-02, 1.06850356e-01, 2.26016268e-01, 2.26016268e-01,
          1.79698929e-01, 2.17032298e-01, 1.41091108e-01, 1.53367043e-01,
          8.32523927e-02, 7.04437569e-02, 1.66491970e-01, 2.26016268e-01,
          2.26016268e-01, 1.58044130e-01, 1.19204126e-01, 1.25040457e-01,
          1.25056028e-01, 1.90307453e-01, 7.29849339e-02, 1.98563814e-01,
          2.13502020e-01, 2.26016268e-01, 1.33788079e-01, 1.24285139e-01,
          1.44496158e-01, 1.88566267e-01, 2.16934323e-01, 1.58811495e-01,
          9.74877849e-02, 2.31718376e-01, 2.31718376e-01, 9.12915468e-02,
          1.68335348e-01, 1.44642755e-01, 1.70961171e-01, 7.65152276e-02,
          9.63775888e-02, 7.99630880e-02, 1.49529114e-01, 1.48126915e-01,
          6.09329939e-02, 2.21594140e-01, 1.38588101e-01, 1.56789929e-01,
          8.02828819e-02, 1.34912312e-01, 2.31718376e-01, 2.31718376e-01,
          2.31718376e-01, 5.55525832e-02, 1.21378087e-01, 1.42630145e-01,
          1.64852768e-01, 1.67099774e-01, 2.31718376e-01, 1.82869449e-01,
          2.31718376e-01, 2.08474472e-01, 1.04467116e-01, 2.31718376e-01,
          1.74080923e-01, 1.24414228e-01, 6.45624921e-02, 2.31718376e-01,
          1.78495362e-01, 8.55431184e-02, 1.00025639e-01, 8.96583647e-02,
          2.51247615e-01, 1.55183330e-01, 1.07411951e-01, 1.31401554e-01,
          1.11046597e-01, 2.51247615e-01, 2.51247615e-01, 2.51247615e-01,
          1.36228099e-01, 1.27756789e-01, 9.05037820e-02, 9.35376063e-02,
          1.38249561e-01, 1.51284531e-01, 1.68459013e-01, 8.15521032e-02,
          1.01969391e-01, 2.97295116e-02, 2.02666745e-01, 2.51247615e-01,
          2.13780209e-01, 1.24270938e-01, 1.04201570e-01, 2.51247615e-01,
          2.51247615e-01, 2.51247615e-01, 9.07970890e-02, 9.64970589e-02,
          1.65350571e-01, 1.92105770e-01, 1.32237151e-01, 1.32482156e-01,
          1.36359304e-01, 2.38469511e-01, 2.61325389e-01, 1.47194788e-01,
          1.10754259e-01, 7.24798888e-02, 7.01410696e-02, 6.57112002e-02,
          1.54958025e-01, 1.73185080e-01, 2.45972559e-01, 2.61325389e-01,
          1.80635393e-01, 1.37987465e-01, 1.28798321e-01, 1.00131840e-01,
          1.12741545e-01, 1.70369089e-01, 1.37344688e-01, 2.61325389e-01,
          2.61325389e-01, 1.22507676e-01, 6.04947172e-02, 8.17503706e-02,
          8.51667747e-02, 6.80010468e-02, 8.90486985e-02, 1.76335827e-01,
          2.61325389e-01, 2.61325389e-01, 2.26643890e-01, 1.18418328e-01,
          9.49789658e-02, 1.26143768e-01, 1.81453973e-01, 1.04227260e-01,
          1.83703229e-01, 2.18982205e-01, 1.93624556e-01, 1.22991741e-01,
          9.45612043e-02, 1.54896453e-01, 1.25807509e-01, 1.31615907e-01,
          6.49789721e-02, 1.95804611e-01, 2.08264694e-01, 2.18982205e-01,
          8.49036425e-02, 1.58299550e-01, 1.80332273e-01, 2.03474984e-01,
          1.88168094e-01, 1.18486434e-01, 1.95919886e-01, 1.27127320e-01,
          1.15963012e-01, 1.67623490e-01, 1.51872411e-01, 1.61149994e-01,
          1.88659146e-01, 1.66281745e-01, 5.83977327e-02, 1.44916266e-01,
          1.32748425e-01, 2.10155576e-01, 1.19098283e-01, 2.18982205e-01,
          2.18982205e-01, 2.18982205e-01, 2.18982205e-01, 8.55631754e-02,
          2.08752692e-01, 1.30696133e-01, 1.92181438e-01, 2.95146685e-02,
          1.30472139e-01, 1.59089923e-01, 2.16445506e-01, 1.57412693e-01,
          2.22309262e-01, 1.83234379e-01, 1.22459762e-01, 1.35296509e-01,
          9.62122232e-02, 2.22309262e-01, 1.75547034e-01, 1.57021120e-01,
          6.73344508e-02, 2.19265059e-01, 1.44487649e-01, 1.31219074e-01,
          2.22309262e-01, 1.26068190e-01, 1.52041152e-01, 1.89002439e-01,
          2.22309262e-01, 1.59016639e-01, 1.43246010e-01, 1.60657451e-01,
          1.49378031e-01, 2.22309262e-01, 1.86647668e-01, 1.56019032e-01,
          1.71128437e-01, 1.79978058e-01, 9.15800110e-02, 1.34276241e-01,
          8.19710866e-02, 3.66581753e-02, 5.42126745e-02, 1.97612196e-02,
          1.07567631e-01, 2.74562329e-01, 2.74562329e-01, 1.44806907e-01,
          4.81957346e-02, 2.05379322e-01, 2.60618687e-01, 2.74562329e-01,
          3.57335135e-02, 1.34587348e-01, 2.01086804e-01, 2.74562329e-01,
          2.18513951e-01, 1.10130347e-01, 5.98469339e-02, 1.41669959e-02,
          2.11684573e-02, 2.17271838e-02, 8.27165693e-02, 1.41124368e-01,
          2.74562329e-01, 2.51878232e-01, 5.87335043e-02, 1.54429600e-01,
          5.63466661e-02, 1.17869221e-01, 1.21371103e-02, 1.10951677e-01,
          9.87542719e-02, 2.74562329e-01, 2.74562329e-01, 1.78951859e-01,
          1.59968749e-01, 2.33544812e-01, 2.33544812e-01, 5.41133396e-02,
          8.45860392e-02, 7.59644806e-02, 1.90538794e-01, 1.55986980e-01,
          1.30167276e-01, 2.03266084e-01, 2.10179925e-01, 2.33544812e-01,
          2.29655266e-01, 1.46503523e-01, 6.78728670e-02, 1.50338620e-01,
          2.33544812e-01, 1.74475729e-01, 1.76912680e-01, 7.54529163e-02,
          1.15903549e-01, 1.61908809e-02, 9.13468301e-02, 5.32083809e-02,
          1.95609674e-01, 2.16584757e-01, 2.26702094e-01, 2.33544812e-01,
          1.36838168e-01, 1.01415552e-01, 1.44696057e-01, 1.64826900e-01,
          9.35199410e-02, 9.62018967e-02, 2.01224595e-01, 2.33544812e-01,
          1.90993369e-01, 7.99238384e-02, 6.40638322e-02, 2.23039895e-01,
          2.28716120e-01, 1.66715130e-01, 1.44463852e-01, 1.70505613e-01,
          9.54755545e-02, 1.60534486e-01, 6.28771856e-02, 1.31003276e-01,
          1.56912893e-01, 2.28716120e-01, 2.28716120e-01, 2.28716120e-01,
          2.28716120e-01, 1.29607528e-01, 2.17336029e-01, 1.00759991e-01,
          6.00595176e-02, 1.83121920e-01, 2.24484637e-01, 1.52465269e-01,
          4.95820679e-02, 1.16933301e-01, 1.94936424e-01, 2.28716120e-01,
          1.38535827e-01, 8.24450403e-02, 1.60002887e-01, 1.79273769e-01,
          1.76298171e-01, 1.36121035e-01, 1.35938868e-01, 1.94562569e-01,
          1.23919711e-01, 1.71186343e-01, 2.54812628e-01, 2.16476187e-01,
          1.55327320e-01, 1.87072098e-01, 2.28142604e-01, 2.08818257e-01,
          1.06241152e-01, 1.11239456e-01, 2.25453585e-01, 2.54812628e-01,
          2.54812628e-01, 1.71854407e-01, 6.82770610e-02, 5.65639995e-02,
          4.85002697e-02, 4.32285704e-02, 2.41711140e-01, 2.34798178e-01,
          2.54812628e-01, 1.21917143e-01, 1.12780184e-01, 9.40309241e-02,
          7.92024806e-02, 9.28083956e-02, 1.19597189e-01, 7.50800967e-02,
          1.96072564e-01, 2.54812628e-01, 2.54812628e-01, 1.45825639e-01,
          1.31965494e-02, 5.66094136e-03, 5.33240475e-03, 2.68273074e-02 ]
      - [ 6.85310783e-03, 7.74764642e-02, 3.40578437e-01, 3.27558607e-01,
          1.67949840e-01, 5.43807894e-02, 1.57581568e-02, 2.69384519e-03,
          2.53149820e-03, 9.73227527e-03, 2.36856222e-01, 3.40578437e-01,
          1.75012365e-01, 7.08486214e-02, 3.14904414e-02, 1.06200529e-02,
          3.67812044e-03, 5.47134923e-03, 7.73841236e-03, 7.43089542e-02,
          3.40578437e-01, 3.40578437e-01, 1.99871272e-01, 3.58324647e-02,
          7.92682450e-03, 1.68531586e-03, 3.71769094e-03, 7.11968169e-03,
          1.14670932e-01, 3.40578437e-01, 3.40578437e-01, 5.19692488e-02,
          6.82269502e-03, 4.25406732e-03, 1.92263140e-03, 3.00777028e-03,
          8.67151245e-02, 3.30220073e-01, 3.30220073e-01, 1.11886412e-01,
          3.83427888e-02, 2.07728166e-02, 1.05110658e-02, 9.38334502e-03,
          1.33483987e-02, 2.38650024e-01, 3.30220073e-01, 1.70094937e-01,
          2.67793760e-02, 5.28161675e-02, 2.75682285e-02, 2.19099205e-02,
          4.23412994e-02, 5.68409674e-02, 6.73744008e-02, 2.21609309e-01,
          3.30220073e-01, 1.97856486e-01, 5.96536137e-02, 4.47884165e-02,
          7.00976178e-02, 6.57786503e-02, 4.56448346e-02, 2.23369136e-01,
          1.51099324e-01, 2.05669641e-01, 1.10347487e-01, 1.81035429e-01,
          2.05449700e-01, 1.66650429e-01, 2.45490432e-01, 2.06489965e-01,
          2.18133792e-01, 1.36002481e-01, 3.77100632e-02, 2.07317490e-02,
          5.26802503e-02, 3.90890203e-02, 3.93323414e-02, 7.50300512e-02,
          1.43459484e-01, 1.35394245e-01, 5.86285479e-02, 1.31329549e-02,
          1.63423046e-02, 3.95807065e-02, 4.22678813e-02, 1.25163019e-01,
          2.59340912e-01, 2.27492914e-01, 2.63006210e-01, 1.41355529e-01,
          1.09739095e-01, 9.40760374e-02, 2.34769702e-01, 2.13521332e-01,
          1.68949738e-01, 2.63006210e-01, 2.63006210e-01, 2.19795376e-01,
          1.71799675e-01, 3.01021356e-02, 1.02117017e-01, 1.81790888e-01,
          1.72554478e-01, 2.63006210e-01, 2.63006210e-01, 2.63006210e-01,
          3.24452557e-02, 1.88500602e-02, 8.45417753e-03, 1.11816758e-02,
          2.91797165e-02, 3.19454521e-02, 2.36494258e-01, 2.93980300e-01,
          1.31426871e-01, 2.47142445e-02, 9.28447768e-03, 6.28744485e-03,
          2.26892941e-02, 1.89972803e-01, 2.79698581e-01, 2.93980300e-01,
          2.93980300e-01, 6.85296506e-02, 5.85367493e-02, 4.81353886e-02,
          2.48117726e-02, 4.60060611e-02, 1.24436632e-01, 1.55233771e-01,
          2.93980300e-01, 2.93980300e-01, 2.01006502e-01, 4.59257029e-02,
          6.88651344e-03, 1.34918578e-02, 2.07981281e-02, 1.57472894e-01,
          2.93980300e-01, 2.93980300e-01, 2.54775107e-01, 1.19177066e-01,
          5.33118984e-03, 2.67154928e-02, 2.02681825e-01, 3.59137028e-01,
          3.59137028e-01, 3.42313014e-02, 2.11828109e-03, 8.52629170e-03,
          8.49042553e-03, 1.65070649e-02, 6.95501864e-02, 1.70567393e-01,
          3.59137028e-01, 1.54468000e-01, 3.13253887e-02, 2.11457759e-02,
          8.25667102e-03, 9.55352001e-03, 3.63994460e-03, 1.14690783e-02,
          1.66312084e-02, 3.59137028e-01, 3.59137028e-01, 2.55131274e-01,
          1.56752858e-02, 1.50636397e-02, 8.90397467e-03, 3.19621079e-02,
          3.94496731e-02, 2.83304267e-02, 1.96184054e-01, 3.43959570e-01,
          1.36493534e-01, 4.90680225e-02, 2.70746518e-02, 2.65952293e-02,
          9.56273898e-02, 1.18711986e-01, 9.80766565e-02, 1.58136219e-01,
          1.10577762e-01, 7.17005506e-02, 1.08912341e-01, 7.84075633e-02,
          8.57663900e-02, 2.16686904e-01, 1.42547980e-01, 2.13602424e-01,
          2.19306216e-01, 2.30641574e-01, 1.42819464e-01, 1.56775683e-01,
          1.77982584e-01, 2.22086310e-01, 1.58142701e-01, 1.11950547e-01,
          6.67296797e-02, 2.01845869e-01, 2.32528895e-01, 1.57683641e-01,
          1.33025885e-01, 8.03026408e-02, 1.52092174e-01, 2.05194101e-01,
          1.52934834e-01, 1.92157105e-01, 2.34721884e-01, 2.34721884e-01,
          2.34721884e-01, 1.63336784e-01, 1.19805641e-01, 1.98017240e-01,
          1.57854408e-01, 1.09457560e-01, 1.33232668e-01, 1.00906551e-01,
          1.72066465e-01, 1.35608003e-01, 1.37392819e-01, 2.23872483e-01,
          2.04487413e-01, 8.24039653e-02, 8.45289230e-02, 3.41314301e-02,
          6.25739694e-02, 1.67715862e-01, 2.37180218e-01, 2.50082672e-01,
          2.50082672e-01, 1.93536013e-01, 9.51226428e-02, 1.23454772e-01,
          1.57609910e-01, 1.43417269e-01, 1.77072152e-01, 2.08558843e-01,
          1.19480573e-01, 1.60157010e-01, 1.12684660e-01, 5.20847924e-02,
          1.03544749e-01, 1.21905424e-01, 2.05012023e-01, 2.50082672e-01,
          2.50082672e-01, 2.50082672e-01, 2.08763137e-01, 9.60125327e-02,
          5.06759584e-02, 2.25094073e-02, 2.21378542e-02, 6.43382594e-02,
          2.22372219e-01, 2.77359873e-01, 2.77359873e-01, 1.90697357e-01,
          1.49873853e-01, 3.62924188e-02, 3.83449974e-03, 1.15250880e-02,
          4.24432941e-02, 2.77359873e-01, 2.77359873e-01, 2.18180090e-01,
          1.08395196e-01, 8.71028677e-02, 5.49441166e-02, 3.70574333e-02,
          7.81682879e-02, 2.74087310e-01, 2.77359873e-01, 2.77359873e-01,
          1.82910874e-01, 8.67214054e-02, 9.54015702e-02, 3.61317173e-02,
          1.29874349e-02, 3.60932052e-02, 2.18928769e-01, 2.77359873e-01,
          2.77359873e-01, 6.49508983e-02, 4.31183390e-02, 5.58987856e-02,
          5.58403041e-03, 1.44406082e-03, 1.53613416e-03, 5.40930443e-02,
          3.51469517e-01, 3.51469517e-01, 4.63234410e-02, 1.79433599e-02,
          1.39926355e-02, 2.05324497e-02, 1.08893523e-02, 1.63357891e-02,
          4.87779304e-02, 2.21525386e-01, 2.69993663e-01, 6.22022077e-02,
          4.07998338e-02, 2.00622957e-02, 6.43204525e-03, 5.52421808e-03,
          1.16944779e-02, 7.42548052e-03, 3.50143433e-01, 3.51469517e-01,
          3.26731205e-01, 1.35261025e-02, 1.13537060e-02, 4.15921863e-03,
          4.79265116e-03, 1.57282855e-02, 5.75363915e-03, 9.68168527e-02,
          3.51469517e-01, 3.49982917e-01, 5.85907139e-02, 1.01349466e-02,
          1.16595007e-01, 1.12457089e-01, 1.16584122e-01, 1.32868856e-01,
          1.91122875e-01, 1.89956531e-01, 1.34078592e-01, 1.32102042e-01,
          1.56251743e-01, 1.30666673e-01, 1.47023857e-01, 1.35458365e-01,
          1.56476438e-01, 2.46465996e-01, 2.46465996e-01, 2.46465996e-01,
          2.20104694e-01, 2.35254288e-01, 2.38807239e-02, 6.82206675e-02,
          7.73685202e-02, 2.67133508e-02, 8.76928642e-02, 2.27144435e-01,
          2.46465996e-01, 2.24508926e-01, 8.32160488e-02, 9.23527405e-02,
          1.41042560e-01, 9.01963040e-02, 3.26411612e-02, 1.14754423e-01,
          1.33169368e-01, 2.46465996e-01, 2.46465996e-01, 2.46465996e-01,
          1.05337590e-01, 1.41122729e-01, 1.21134706e-01, 9.60902721e-02,
          1.66416556e-01, 1.84355170e-01, 1.61907539e-01, 1.75945669e-01,
          1.47733346e-01, 1.31101966e-01, 2.30649218e-01, 2.47376949e-01,
          2.47376949e-01, 2.47376949e-01, 1.75647169e-01, 7.17585608e-02,
          6.71103299e-02, 9.88548994e-02, 2.03013048e-01, 1.97623193e-01,
          1.02101713e-01, 2.84673646e-02, 7.19647110e-02, 9.39638689e-02,
          1.94133624e-01, 2.30117574e-01, 2.29160428e-01, 2.41912007e-01,
          2.47376949e-01, 2.47376949e-01, 8.34169686e-02, 1.32493615e-01,
          9.51576978e-02, 1.09335169e-01, 6.48258403e-02, 1.35558978e-01,
          7.79972076e-02, 1.25486955e-01, 2.85394579e-01, 2.85394579e-01,
          2.85394579e-01, 2.04803973e-01, 4.27704602e-02, 3.98572162e-02,
          7.61570409e-02, 3.88449468e-02, 6.16273060e-02, 2.09257498e-01,
          2.85394579e-01, 2.85394579e-01, 1.37054101e-01, 8.19084607e-03,
          1.73546355e-02, 4.04674336e-02, 1.17264271e-01, 2.65198797e-01,
          2.85394579e-01, 1.61461905e-01, 9.80942249e-02, 6.84892312e-02,
          2.79277414e-02, 3.40054631e-02, 6.78978115e-02, 6.13241568e-02,
          2.20711872e-01, 2.85394579e-01, 2.85394579e-01, 1.33875921e-01,
          1.89044923e-02, 6.13243785e-04, 9.86026786e-03, 2.83928923e-02,
          1.50243333e-03, 4.47703619e-03, 9.44336317e-03, 1.96910519e-02,
          1.35336980e-01, 3.14905256e-01, 3.14905256e-01, 1.96161605e-02,
          1.30140886e-03, 1.31054097e-04, 1.47815107e-03, 8.53533763e-03,
          5.57270693e-03, 3.23907435e-02, 3.14905256e-01, 3.14905256e-01,
          1.42768219e-01, 8.89471360e-03, 1.83600246e-03, 2.09419755e-03,
          6.09954447e-03, 8.40983540e-02, 3.14905256e-01, 2.98836678e-01,
          3.14905256e-01, 2.98966337e-02, 2.18391721e-03, 1.33119971e-02,
          2.57145683e-03, 1.19229825e-02, 4.59924974e-02, 1.34659991e-01,
          2.04467669e-01, 3.14905256e-01, 3.14905256e-01, 5.48721291e-02,
          7.03802146e-03, 1.83761381e-02, 6.69883750e-03, 7.24334363e-03,
          2.66729258e-02, 1.59249932e-01, 3.46255243e-01, 3.46255243e-01,
          4.69600260e-02, 5.27439676e-02, 6.71663284e-02, 1.59864537e-02,
          1.90024134e-02, 3.09334453e-02, 6.04970343e-02, 1.49588346e-01,
          2.37407431e-01, 1.35197103e-01, 6.88208267e-02, 1.57877412e-02,
          1.73605531e-02, 1.46933040e-02, 2.53435075e-02, 7.73419589e-02,
          3.46255243e-01, 3.46255243e-01, 2.61447132e-01, 1.11997388e-01,
          3.06154937e-02, 8.38398375e-03, 1.41208712e-02, 2.82512717e-02,
          3.21853571e-02, 2.06912115e-01, 3.46255243e-01, 3.46255243e-01,
          2.04702735e-01, 1.79236695e-01, 5.95189147e-02, 2.10429877e-02,
          3.39434408e-02, 7.75483027e-02, 1.27506867e-01, 1.66465923e-01,
          2.12431699e-01, 2.77193338e-01, 2.69363195e-01, 2.60443330e-01,
          3.98933478e-02, 4.56498303e-02, 4.46301103e-02, 9.67585817e-02,
          1.03666186e-01, 1.44290835e-01, 2.48243257e-01, 8.31985623e-02,
          1.43952118e-02, 1.30522680e-02, 1.38102740e-01, 1.31839707e-01,
          1.66133314e-01, 2.77193338e-01, 2.77193338e-01, 2.77193338e-01,
          1.44292802e-01, 5.89180551e-02, 1.09500773e-02, 1.72910169e-01,
          1.09254248e-01, 1.39061749e-01, 1.82282031e-01, 2.77193338e-01,
          1.82731926e-01, 2.89344698e-01, 2.89344698e-01, 8.51126313e-02,
          2.99904589e-02, 2.22188029e-02, 3.57004069e-02, 6.57910854e-02,
          9.26336721e-02, 1.03624403e-01, 2.89344698e-01, 2.89344698e-01,
          2.89344698e-01, 1.45072564e-01, 1.19986963e-02, 1.09964442e-02,
          1.84577983e-02, 5.09937480e-02, 1.64540797e-01, 2.01574236e-01,
          1.27684370e-01, 3.27894241e-02, 8.00681934e-02, 4.55220826e-02,
          1.17820300e-01, 1.80266052e-01, 1.88768998e-01, 5.54923005e-02,
          2.69877166e-01, 2.26243377e-01, 2.70404696e-01, 2.89344698e-01,
          6.26577809e-02, 8.68092179e-02, 1.01009235e-01, 7.82501027e-02 ]
      - [ 5.25203720e-02, 1.59653842e-01, 3.23824733e-01, 3.23824733e-01,
          1.00885339e-01, 2.26540826e-02, 4.04031090e-02, 4.32164408e-02,
          2.62244008e-02, 4.84709293e-02, 3.23824733e-01, 3.23824733e-01,
          1.60948947e-01, 4.25776020e-02, 2.55650077e-02, 3.26680951e-02,
          3.63909081e-02, 2.21898351e-02, 4.99452539e-02, 6.86155632e-02,
          3.23824733e-01, 3.23824733e-01, 1.48682281e-01, 4.70302626e-03,
          4.30012047e-02, 2.41294391e-02, 2.27010287e-02, 4.36955057e-02,
          1.98228329e-01, 3.23824733e-01, 3.23824733e-01, 8.08482245e-02,
          9.92906652e-03, 2.46045236e-02, 1.71859413e-02, 1.07883662e-02,
          1.15858249e-01, 3.23961765e-01, 3.23961765e-01, 6.12279810e-02,
          1.72499660e-02, 1.63391698e-02, 1.03267813e-02, 1.91731881e-02,
          1.82995927e-02, 3.23961765e-01, 3.23961765e-01, 1.64608523e-01,
          1.33257657e-02, 2.20008679e-02, 8.42318032e-03, 6.10026903e-02,
          1.99379027e-02, 6.52357936e-02, 5.15792929e-02, 3.23961765e-01,
          3.23961765e-01, 1.90897763e-01, 4.41231653e-02, 2.24893484e-02,
          1.87785607e-02, 1.70281362e-02, 1.32883061e-02, 1.61225259e-01,
          3.23961765e-01, 3.23961765e-01, 7.86327198e-02, 6.23954758e-02,
          4.18318845e-02, 1.11336090e-01, 7.17382059e-02, 6.83254823e-02,
          2.63207763e-01, 2.26307169e-01, 6.13337643e-02, 1.75683461e-02,
          5.84452190e-02, 3.05767003e-02, 5.80903366e-02, 3.09733283e-02,
          2.03515470e-01, 2.63207763e-01, 8.25314447e-02, 5.56946620e-02,
          7.60895088e-02, 1.02272503e-01, 4.29934040e-02, 7.60482028e-02,
          2.45219350e-01, 2.63207763e-01, 2.63207763e-01, 2.63207763e-01,
          1.78658932e-01, 5.61766401e-02, 1.17867276e-01, 9.08987224e-02,
          1.15615234e-01, 1.36152923e-01, 2.29920879e-01, 2.50633210e-01,
          7.69911855e-02, 7.99500570e-02, 9.26624909e-02, 2.36412287e-01,
          1.32936165e-01, 1.17566571e-01, 2.63207763e-01, 2.63207763e-01,
          8.59764665e-02, 2.59792395e-02, 2.72566602e-02, 4.53198887e-02,
          5.56363650e-02, 2.92236377e-02, 2.01822400e-01, 2.78936476e-01,
          1.82709962e-01, 5.06686978e-02, 2.97167022e-02, 5.64751923e-02,
          1.30106509e-01, 2.53942102e-01, 2.05772221e-01, 2.78936476e-01,
          2.78936476e-01, 7.35420883e-02, 7.91915432e-02, 3.05167232e-02,
          1.77718904e-02, 4.84037958e-02, 1.08791620e-01, 1.09700173e-01,
          2.78936476e-01, 2.78936476e-01, 2.58245051e-01, 8.75552893e-02,
          6.20526448e-02, 6.57718107e-02, 1.02509543e-01, 1.38719127e-01,
          2.67135799e-01, 2.78936476e-01, 2.78936476e-01, 1.02293529e-01,
          1.15959160e-02, 2.40956694e-02, 2.65233487e-01, 3.13939124e-01,
          2.88146406e-01, 2.21153591e-02, 2.08898000e-02, 1.51687898e-02,
          1.15883043e-02, 3.11150588e-02, 5.80635853e-02, 3.13939124e-01,
          3.13939124e-01, 2.30752736e-01, 2.45905370e-02, 7.15688057e-03,
          6.79237256e-03, 1.12909684e-02, 1.55199750e-03, 2.26404425e-03,
          4.85253446e-02, 3.13939124e-01, 3.13939124e-01, 1.62211224e-01,
          7.58241350e-03, 9.83746070e-03, 9.31404345e-03, 1.71551686e-02,
          4.04755548e-02, 1.71087831e-01, 3.13939124e-01, 3.13939124e-01,
          1.77412689e-01, 2.55426262e-02, 1.66823193e-02, 2.52058636e-02,
          9.32105407e-02, 1.81925163e-01, 2.54502118e-01, 2.54502118e-01,
          1.41731605e-01, 4.83260751e-02, 2.38226932e-02, 1.01392111e-02,
          2.63998471e-02, 1.70102745e-01, 2.54502118e-01, 2.54502118e-01,
          1.58695966e-01, 1.48810372e-01, 8.02505240e-02, 1.16107300e-01,
          5.53724915e-02, 9.09604281e-02, 1.06248245e-01, 1.07158422e-01,
          2.54502118e-01, 2.54502118e-01, 2.54502118e-01, 1.91066906e-01,
          5.90928309e-02, 3.44010331e-02, 6.45641834e-02, 1.70730889e-01,
          1.68458223e-01, 2.54502118e-01, 2.15037346e-01, 2.54502118e-01,
          2.16277793e-01, 1.01284340e-01, 6.48578256e-02, 9.10100937e-02,
          1.90980941e-01, 2.24688843e-01, 2.24688843e-01, 7.45351613e-02,
          1.67408422e-01, 8.05755928e-02, 1.25155583e-01, 1.37275785e-01,
          1.45629391e-01, 1.68608084e-01, 8.78485739e-02, 9.84966308e-02,
          7.96092302e-02, 2.24688843e-01, 1.59936011e-01, 1.63107857e-01,
          2.24688843e-01, 2.24688843e-01, 1.53563604e-01, 1.80489779e-01,
          2.24688843e-01, 1.61429748e-01, 1.89911336e-01, 1.33378103e-01,
          1.29568949e-01, 1.37654901e-01, 7.81766847e-02, 1.38727009e-01,
          1.39951497e-01, 1.76400542e-01, 1.90348133e-01, 2.10597143e-01,
          2.06341177e-01, 1.85211524e-01, 1.88046739e-01, 1.32343516e-01,
          7.26639777e-02, 4.14502025e-02, 2.16795765e-02, 4.01932858e-02,
          1.65404290e-01, 2.25169286e-01, 2.88040102e-01, 2.28014335e-01,
          1.39802307e-01, 3.65754440e-02, 2.56601050e-02, 1.12802507e-02,
          3.32610346e-02, 2.54494220e-01, 2.88040102e-01, 2.88040102e-01,
          1.52620450e-01, 4.89135273e-02, 8.26035216e-02, 9.30949673e-02,
          6.99890181e-02, 1.22988433e-01, 2.88040102e-01, 2.88040102e-01,
          1.82299614e-01, 1.02980591e-01, 1.26271665e-01, 3.17423046e-02,
          3.71343195e-02, 2.89372262e-02, 1.72363058e-01, 2.88040102e-01,
          2.88040102e-01, 1.73619881e-01, 4.61299233e-02, 5.90656176e-02,
          1.92775263e-03, 5.41620073e-04, 1.24679478e-02, 1.04136519e-01,
          3.33741635e-01, 3.33741635e-01, 3.58902775e-02, 2.33465992e-03,
          6.08284259e-03, 1.05567314e-02, 2.76935752e-02, 3.12625207e-02,
          1.10828817e-01, 3.33741635e-01, 3.33741635e-01, 1.14203416e-01,
          2.82478239e-02, 2.81598493e-02, 8.62643681e-03, 8.08560941e-03,
          1.37532847e-02, 3.03869732e-02, 2.06057817e-01, 3.33741635e-01,
          3.33741635e-01, 6.40725717e-03, 2.15008035e-02, 8.35302286e-03,
          1.13543654e-02, 1.70593075e-02, 2.25125495e-02, 1.21461600e-01,
          3.33741635e-01, 3.33741635e-01, 6.27653450e-02, 2.42165867e-02,
          8.40543732e-02, 9.01733488e-02, 7.48182833e-02, 1.73198164e-01,
          2.55752742e-01, 2.55752742e-01, 1.76315963e-01, 9.12936479e-02,
          9.61011946e-02, 1.70790717e-01, 1.08286507e-01, 1.15660027e-01,
          1.78579822e-01, 1.93389654e-01, 2.55752742e-01, 1.66181535e-01,
          1.49737626e-01, 1.21781513e-01, 6.85285851e-02, 4.31917831e-02,
          4.16715704e-02, 8.36776793e-02, 6.74843192e-02, 2.55752742e-01,
          2.55752742e-01, 2.11913019e-01, 7.25844204e-02, 2.01208755e-01,
          1.03309371e-01, 1.02934241e-01, 2.09001899e-01, 1.14738472e-01,
          1.77715123e-01, 2.55752742e-01, 2.55752742e-01, 1.77440032e-01,
          1.93782419e-01, 1.07103080e-01, 1.40676543e-01, 1.29966497e-01,
          1.26328379e-01, 1.60715684e-01, 1.20416880e-01, 1.33066088e-01,
          8.65750685e-02, 1.70545414e-01, 1.41463220e-01, 2.21493125e-01,
          2.14286745e-01, 1.96730927e-01, 1.35297760e-01, 1.00555427e-01,
          1.13747418e-01, 1.33435115e-01, 2.34378725e-01, 1.31991863e-01,
          1.45027131e-01, 1.18163064e-01, 1.63532898e-01, 1.40000850e-01,
          1.01662137e-01, 1.69716761e-01, 1.78076372e-01, 2.34378725e-01,
          2.34378725e-01, 2.34378725e-01, 1.71194330e-01, 1.77705139e-01,
          1.49132580e-01, 1.08295426e-01, 2.32832551e-01, 2.23861650e-01,
          6.82428852e-02, 9.40960720e-02, 2.25933418e-01, 2.09396407e-01,
          2.53627032e-01, 1.12698875e-01, 7.42197707e-02, 5.61991483e-02,
          1.23794138e-01, 2.38274522e-02, 3.64305042e-02, 2.31005728e-01,
          3.20365638e-01, 3.20365638e-01, 1.03081338e-01, 3.14036123e-02,
          1.58800837e-02, 5.27311936e-02, 7.58541673e-02, 2.47269750e-01,
          3.20365638e-01, 2.21646264e-01, 9.77115035e-02, 3.53644751e-02,
          8.01054239e-02, 1.17953710e-01, 1.20320484e-01, 1.89099610e-02,
          1.36531010e-01, 3.20365638e-01, 3.20365638e-01, 1.49607927e-01,
          6.11053919e-03, 1.87695958e-02, 1.04236612e-02, 2.81742867e-02,
          1.18026091e-02, 2.13693995e-02, 1.67683288e-02, 1.92094222e-02,
          5.42282276e-02, 3.32288831e-01, 3.32288831e-01, 4.27329876e-02,
          2.57437043e-02, 7.08542066e-03, 1.09265633e-02, 7.23824464e-03,
          7.13158352e-03, 2.15168167e-02, 3.32288831e-01, 3.32288831e-01,
          1.58361554e-01, 2.46896073e-02, 8.69860873e-03, 2.46412847e-02,
          1.25106564e-02, 1.53348381e-02, 6.16177469e-02, 3.32288831e-01,
          3.32288831e-01, 1.76089779e-01, 3.43069732e-02, 2.01456621e-02,
          2.11502314e-02, 1.77027145e-03, 1.33483857e-02, 3.59492861e-02,
          1.82137862e-01, 3.32288831e-01, 3.32288831e-01, 8.77301171e-02,
          2.60489956e-02, 1.12894056e-02, 1.46986004e-02, 1.97346453e-02,
          2.01021396e-02, 1.43952221e-01, 2.98492938e-01, 2.93613255e-01,
          6.35678917e-02, 9.33566242e-02, 3.99227031e-02, 5.93269914e-02,
          9.23848376e-02, 7.93313906e-02, 1.02209136e-01, 2.98492938e-01,
          2.98492938e-01, 2.79875904e-01, 1.10180661e-01, 2.58937273e-02,
          3.66802071e-03, 9.19597596e-03, 3.55993174e-02, 8.39699581e-02,
          2.98492938e-01, 2.98492938e-01, 2.64393628e-01, 2.08185598e-01,
          2.32238732e-02, 1.32658472e-02, 1.30120832e-02, 3.26995254e-02,
          3.27529646e-02, 1.08323731e-01, 2.88053125e-01, 2.98492938e-01,
          2.27264509e-01, 9.04374719e-02, 9.21582803e-02, 5.61503060e-02,
          1.10025600e-01, 9.03548673e-02, 6.17904477e-02, 1.94779843e-01,
          2.88253635e-01, 2.88253635e-01, 2.88253635e-01, 2.88253635e-01,
          8.68495554e-02, 8.72969851e-02, 8.64071399e-02, 3.55299227e-02,
          1.54283613e-01, 2.44829953e-01, 2.88253635e-01, 8.30209777e-02,
          1.88603792e-02, 1.21179391e-02, 2.00046636e-02, 1.55121880e-02,
          1.50154456e-02, 1.10603668e-01, 2.88253635e-01, 2.88253635e-01,
          2.88253635e-01, 8.12400505e-02, 1.84080079e-02, 2.81665623e-02,
          3.20492242e-03, 1.93714851e-03, 3.82352136e-02, 2.48108014e-01,
          1.37086719e-01, 3.15126270e-01, 3.15126270e-01, 1.05234593e-01,
          2.50929128e-02, 1.74067970e-02, 2.45002210e-02, 6.36105910e-02,
          6.09021783e-02, 3.18985656e-02, 2.54521966e-01, 3.15126270e-01,
          3.15126270e-01, 5.60117923e-02, 1.68768875e-02, 8.95437319e-03,
          6.25819992e-03, 1.66555047e-02, 2.67207325e-01, 3.15126270e-01,
          2.08953306e-01, 2.48377994e-02, 2.15916783e-02, 7.23939884e-05,
          4.12767055e-03, 1.46051673e-02, 4.55984361e-02, 1.06507562e-01,
          3.15126270e-01, 3.15126270e-01, 1.94197282e-01, 1.53140634e-01,
          1.43533973e-02, 7.74287619e-03, 1.37457345e-02, 3.90980989e-02 ]
      - [ 6.99765310e-02, 1.97979689e-01, 2.86061227e-01, 2.04348445e-01,
          7.37117082e-02, 2.67758425e-02, 1.11038508e-02, 1.12350713e-02,
          4.30499427e-02, 1.82408437e-01, 2.54019022e-01, 2.86061227e-01,
          2.08474591e-01, 9.38116014e-02, 3.65605019e-02, 4.32222076e-02,
          6.23993240e-02, 1.24639615e-01, 1.12207651e-01, 1.35591611e-01,
          2.86061227e-01, 2.86061227e-01, 1.57084018e-01, 6.78517371e-02,
          5.14304340e-02, 2.72265431e-02, 7.58358017e-02, 1.87433869e-01,
          2.86061227e-01, 2.86061227e-01, 2.86061227e-01, 1.35574117e-01,
          6.52579144e-02, 1.17009796e-01, 8.50569606e-02, 9.71449465e-02,
          1.57316431e-01, 1.81399807e-01, 2.39536896e-01, 1.89363316e-01,
          5.41390441e-02, 5.49645089e-02, 5.18929735e-02, 7.93897808e-02,
          1.17970251e-01, 2.07188010e-01, 1.12440400e-01, 1.68843821e-01,
          1.90156981e-01, 1.06499717e-01, 1.21630132e-01, 8.76287669e-02,
          1.59088656e-01, 1.88041195e-01, 1.03001893e-01, 2.57964283e-01,
          2.57964283e-01, 2.19192252e-01, 6.79777116e-02, 7.54248574e-02,
          9.48616043e-02, 1.01070702e-01, 5.28141968e-02, 1.01522513e-01,
          2.57964283e-01, 2.57964283e-01, 2.45652914e-01, 1.97704345e-01,
          2.31356919e-01, 2.20930487e-01, 1.71865463e-01, 6.46676198e-02,
          2.03960046e-01, 7.83606619e-02, 9.20307189e-02, 7.36893266e-02,
          7.26257041e-02, 1.08087488e-01, 1.26394764e-01, 1.74069151e-01,
          1.75615042e-01, 1.95082620e-01, 9.62866172e-02, 1.08999200e-01,
          3.12109217e-02, 7.63056874e-02, 1.74288616e-01, 2.37803027e-01,
          2.33289033e-01, 1.30566657e-01, 1.55482218e-01, 1.05459504e-01,
          1.33493960e-01, 1.43510833e-01, 2.12758347e-01, 2.26905942e-01,
          2.37803027e-01, 1.78868622e-01, 1.17326804e-01, 2.10716546e-01,
          1.15948252e-01, 1.59959763e-01, 1.10830568e-01, 1.96619108e-01,
          2.37803027e-01, 2.37803027e-01, 2.37803027e-01, 2.01755062e-01,
          9.18001607e-02, 5.36395013e-02, 8.25452730e-02, 4.68316302e-02,
          1.76628724e-01, 1.21807076e-01, 2.87101716e-01, 2.37000555e-01,
          8.38256329e-02, 4.78951186e-02, 1.12354914e-02, 4.02094573e-02,
          9.22354907e-02, 2.87101716e-01, 8.22691545e-02, 2.56390631e-01,
          1.70841664e-01, 6.97524920e-02, 1.25941813e-01, 7.33942389e-02,
          1.51567101e-01, 1.44964486e-01, 1.50869042e-01, 2.34391972e-01,
          2.87101716e-01, 2.87101716e-01, 1.37621850e-01, 8.37429985e-02,
          3.28162424e-02, 7.76991472e-02, 1.01608306e-01, 1.84957460e-01,
          1.55954808e-01, 2.87101716e-01, 2.87101716e-01, 9.52095762e-02,
          1.30076036e-01, 7.90729374e-02, 1.47982210e-01, 1.89115375e-01,
          1.62588611e-01, 1.18682846e-01, 9.65833589e-02, 6.21481165e-02,
          7.73855671e-02, 2.07144409e-01, 2.29564622e-01, 2.30939507e-01,
          1.63969830e-01, 7.51780123e-02, 1.19184799e-01, 1.67293817e-01,
          1.68429226e-01, 1.43047661e-01, 1.13912173e-01, 6.66703060e-02,
          1.24740452e-01, 1.80033043e-01, 2.30939507e-01, 2.04320207e-01,
          9.02219787e-02, 8.67841095e-02, 1.01509772e-01, 2.25730911e-01,
          1.80254027e-01, 2.28139132e-01, 1.53523073e-01, 2.05786839e-01,
          2.30939507e-01, 1.91819608e-01, 2.30939507e-01, 2.30939507e-01,
          1.35481670e-01, 2.32355222e-01, 2.32355222e-01, 1.30380675e-01,
          3.30023654e-02, 7.53780380e-02, 1.11070365e-01, 1.13919608e-01,
          1.25795692e-01, 1.27475634e-01, 2.04347134e-01, 2.32355222e-01,
          1.97583467e-01, 1.43993184e-01, 1.41929433e-01, 1.25139967e-01,
          7.42997006e-02, 1.20581791e-01, 1.52602777e-01, 2.03348085e-01,
          2.32355222e-01, 1.24597184e-01, 1.11252040e-01, 2.07767367e-01,
          2.00109199e-01, 1.81262895e-01, 2.32355222e-01, 1.46594733e-01,
          1.99669272e-01, 2.23998278e-01, 1.72630623e-01, 1.32500857e-01,
          1.48932159e-01, 1.74957991e-01, 1.60989344e-01, 1.56898424e-01,
          1.11806035e-01, 1.08564630e-01, 1.46222040e-01, 1.64428115e-01,
          1.73196152e-01, 1.29588693e-01, 9.58460048e-02, 6.13170415e-02,
          1.32784873e-01, 1.32686809e-01, 2.40315348e-01, 2.40315348e-01,
          1.58316806e-01, 1.91305101e-01, 1.63364649e-01, 1.66896999e-01,
          1.81583062e-01, 1.88207626e-01, 1.34209275e-01, 2.02870190e-01,
          2.18565717e-01, 2.18676716e-01, 1.42126575e-01, 9.27919075e-02,
          1.00825287e-01, 1.12029150e-01, 1.52618408e-01, 1.45863459e-01,
          2.40315348e-01, 2.40315348e-01, 2.35479742e-01, 1.75397590e-01,
          1.23110235e-01, 1.42622590e-01, 1.34003341e-01, 1.54246137e-01,
          1.14696406e-01, 1.72930285e-01, 2.40398511e-01, 1.86704695e-01,
          1.43227085e-01, 1.27437308e-01, 2.14469433e-01, 2.08809644e-01,
          1.25083834e-01, 9.01199803e-02, 5.10627106e-02, 1.14293844e-01,
          1.34812459e-01, 2.11290345e-01, 1.48713604e-01, 2.40398511e-01,
          1.87559754e-01, 6.67875037e-02, 1.24380611e-01, 2.40398511e-01,
          2.40398511e-01, 2.22417340e-01, 2.24373639e-01, 8.93504918e-02,
          1.14517882e-01, 1.27442956e-01, 1.09981246e-01, 1.00875549e-01,
          1.09012321e-01, 1.50593549e-01, 2.40398511e-01, 2.40398511e-01,
          1.75596729e-01, 1.31730467e-01, 1.24719322e-01, 9.67845321e-02,
          8.27250704e-02, 6.03736378e-02, 7.75461346e-02, 1.99581221e-01,
          2.37725899e-01, 1.56882793e-01, 4.40275297e-02, 5.41391000e-02,
          1.50654137e-01, 9.93332937e-02, 9.35643390e-02, 1.50105223e-01,
          1.88455477e-01, 2.37725899e-01, 2.37725899e-01, 1.98533908e-01,
          1.46816194e-01, 2.37725899e-01, 1.27933845e-01, 6.15026765e-02,
          3.37012932e-02, 1.56370178e-01, 2.37725899e-01, 1.53584898e-01,
          1.85163245e-01, 1.19041011e-01, 1.74935162e-01, 1.05846822e-01,
          1.27364382e-01, 1.08945124e-01, 1.71127483e-01, 2.37725899e-01,
          2.37725899e-01, 2.37725899e-01, 2.23784596e-01, 1.79780751e-01,
          6.79128170e-02, 1.04395613e-01, 1.64520994e-01, 1.01957835e-01,
          1.83408365e-01, 2.08861083e-01, 2.23222971e-01, 1.24006592e-01,
          1.32719100e-01, 1.15543194e-01, 1.55032501e-01, 1.69022784e-01,
          1.34808004e-01, 1.24554217e-01, 1.25159994e-01, 1.99764639e-01,
          1.70254648e-01, 9.31570753e-02, 1.08607240e-01, 2.23222971e-01,
          2.04979837e-01, 1.49344921e-01, 2.23222971e-01, 2.13524133e-01,
          2.23222971e-01, 1.69789627e-01, 8.41476023e-02, 2.02991351e-01,
          2.23222971e-01, 2.23222971e-01, 1.72546789e-01, 2.17129365e-01,
          1.28122419e-01, 1.67217240e-01, 1.20079704e-01, 9.03181583e-02,
          7.84315169e-02, 1.23731151e-01, 1.79092407e-01, 1.58595949e-01,
          9.30821374e-02, 1.04464568e-01, 2.55880743e-01, 2.12500945e-01,
          8.77614468e-02, 5.25213890e-02, 1.80510476e-01, 2.59693086e-01,
          1.66904613e-01, 1.28767163e-01, 1.39630377e-01, 2.59693086e-01,
          2.59693086e-01, 8.94872248e-02, 1.15088761e-01, 8.18929598e-02,
          2.11353093e-01, 1.12684675e-01, 1.01112425e-01, 9.51478779e-02,
          2.59693086e-01, 2.51641065e-01, 7.83627406e-02, 8.42116252e-02,
          5.44754006e-02, 1.45802125e-01, 1.12006359e-01, 1.01777680e-01,
          1.88010439e-01, 2.59693086e-01, 2.59693086e-01, 1.15099646e-01,
          5.20206355e-02, 1.59267977e-01, 2.20983073e-01, 2.15552077e-01,
          2.45321795e-01, 1.10405877e-01, 1.43123224e-01, 1.20084986e-01,
          6.49732053e-02, 6.25350103e-02, 1.37511089e-01, 1.78886712e-01,
          2.45321795e-01, 2.45321795e-01, 1.46843553e-01, 4.02643122e-02,
          3.46812531e-02, 7.17097372e-02, 6.63796961e-02, 1.38458997e-01,
          2.23345995e-01, 2.15454102e-01, 2.28088558e-01, 1.82043642e-01,
          2.45321795e-01, 2.10732967e-01, 1.15067080e-01, 4.23228256e-02,
          1.82403103e-01, 2.45321795e-01, 2.45321795e-01, 2.45321795e-01,
          1.09114036e-01, 3.47659476e-02, 2.39977334e-02, 7.60783181e-02,
          8.47351477e-02, 3.43929343e-02, 2.77174748e-02, 7.55416229e-02,
          2.09812194e-01, 1.64630562e-01, 2.75744885e-01, 1.95045784e-01,
          8.18391368e-02, 1.11858241e-01, 1.79620519e-01, 9.96004641e-02,
          1.15281105e-01, 2.00554475e-01, 2.64653325e-01, 2.75744885e-01,
          2.52468675e-01, 1.36695325e-01, 2.44988967e-02, 8.02362617e-03,
          8.11588019e-03, 4.11895663e-02, 1.01492524e-01, 1.49632022e-01,
          2.75744885e-01, 2.75744885e-01, 7.60212913e-02, 9.36114714e-02,
          9.69158038e-02, 2.21082009e-02, 4.35386114e-02, 1.27734393e-01,
          2.25449175e-01, 2.75744885e-01, 2.75744885e-01, 1.45171404e-01,
          1.19362444e-01, 2.33757377e-01, 2.33757377e-01, 1.62799716e-01,
          2.28100792e-01, 2.04439431e-01, 2.17324033e-01, 1.42744213e-01,
          1.19718328e-01, 2.05440313e-01, 2.33757377e-01, 2.33757377e-01,
          1.62415817e-01, 2.10552707e-01, 1.09058574e-01, 8.07229951e-02,
          8.81867781e-02, 9.95005071e-02, 1.53946549e-01, 1.54867306e-01,
          9.20642018e-02, 5.15804999e-02, 1.06787547e-01, 2.30763882e-01,
          2.09699586e-01, 1.35378644e-01, 1.38121977e-01, 2.33757377e-01,
          1.67174339e-01, 1.82019889e-01, 6.58949912e-02, 1.09339923e-01,
          1.66721016e-01, 1.12078354e-01, 1.16210721e-01, 1.51127949e-01,
          2.29695246e-01, 1.54319778e-01, 2.21716970e-01, 9.44096446e-02,
          1.06641360e-01, 5.63140810e-02, 1.29813418e-01, 1.71437100e-01,
          1.45773590e-01, 2.39059672e-01, 2.14169309e-01, 2.39059672e-01,
          1.24296330e-01, 7.97158033e-02, 1.14138626e-01, 2.39059672e-01,
          2.39059672e-01, 1.95863262e-01, 2.39059672e-01, 1.75454795e-01,
          1.61523089e-01, 7.04292953e-02, 9.24632773e-02, 4.81727272e-02,
          3.81846689e-02, 1.02126956e-01, 1.92053273e-01, 2.39059672e-01,
          2.39059672e-01, 2.39059672e-01, 8.73126835e-02, 7.67903700e-02,
          6.90863281e-02, 4.15855162e-02, 7.75963515e-02, 2.39059672e-01,
          2.06650540e-01, 2.50916839e-01, 2.50916839e-01, 1.86098158e-01,
          1.36927664e-01, 1.16164170e-01, 2.13422239e-01, 1.78494662e-01,
          1.45245299e-01, 8.51314217e-02, 2.50916839e-01, 2.50916839e-01,
          2.17757508e-01, 1.73996389e-01, 4.45801169e-02, 2.67787799e-02,
          2.16639005e-02, 7.16409683e-02, 2.50916839e-01, 2.50916839e-01,
          2.50916839e-01, 1.09258972e-01, 1.46003529e-01, 7.65862763e-02,
          3.28315981e-02, 4.40448709e-02, 1.42880201e-01, 1.33404717e-01,
          1.95089653e-01, 1.89561903e-01, 1.57206178e-01, 2.50916839e-01,
          6.32111877e-02, 1.06696151e-02, 2.01289933e-02, 9.44138467e-02 ]
      - [ 8.06009620e-02, 1.92157552e-01, 3.33144128e-01, 1.99577406e-01,
          4.13770042e-02, 2.17605624e-02, 3.22319567e-02, 9.74512193e-03,
          3.20079885e-02, 8.25826079e-02, 3.33144128e-01, 3.33144128e-01,
          1.09308876e-01, 3.48876566e-02, 9.41868220e-03, 1.07300272e-02,
          3.65819270e-03, 4.08900641e-02, 5.36962524e-02, 9.82536972e-02,
          3.33144128e-01, 3.33144128e-01, 5.50525114e-02, 9.79791507e-02,
          6.15325645e-02, 2.31583565e-02, 1.43651785e-02, 4.08791006e-02,
          2.75170654e-01, 3.33144128e-01, 3.33144128e-01, 4.32377644e-02,
          2.64090952e-02, 2.15367153e-02, 4.60080989e-03, 1.29144834e-02,
          1.37257949e-01, 3.13168019e-01, 3.13168019e-01, 4.11221497e-02,
          1.97036471e-02, 2.01341510e-03, 5.55896782e-04, 6.52158773e-03,
          2.06745137e-02, 3.13168019e-01, 3.13168019e-01, 1.04612693e-01,
          1.93583611e-02, 9.22957249e-03, 4.60641785e-03, 5.51110832e-03,
          2.06555091e-02, 4.50005308e-02, 8.13437700e-02, 3.13168019e-01,
          3.13168019e-01, 1.31860539e-01, 4.67427969e-02, 2.40863748e-02,
          6.84548775e-03, 1.25907706e-02, 2.03188602e-02, 2.99535006e-01,
          3.13168019e-01, 3.13168019e-01, 6.43993542e-02, 1.28121495e-01,
          9.75421816e-02, 2.48628613e-02, 6.03122227e-02, 1.59798935e-01,
          2.79152602e-01, 1.57125160e-01, 2.43095327e-02, 1.51287448e-02,
          1.33878440e-02, 7.82957859e-03, 2.56200805e-02, 7.09278733e-02,
          1.56492561e-01, 1.29736930e-01, 2.53233891e-02, 1.05959587e-02,
          1.00813601e-02, 2.05008704e-02, 1.55215245e-02, 1.68974921e-01,
          2.79152602e-01, 2.43751675e-01, 2.79152602e-01, 2.79152602e-01,
          1.88094556e-01, 1.12675048e-01, 1.84379414e-01, 1.35372862e-01,
          5.90098388e-02, 1.19087934e-01, 2.79152602e-01, 1.97840989e-01,
          9.30563807e-02, 7.90895000e-02, 9.10343677e-02, 1.46443516e-01,
          9.85403880e-02, 2.79152602e-01, 2.79152602e-01, 2.79152602e-01,
          2.81488877e-02, 6.38035731e-03, 8.00373312e-03, 5.31828403e-03,
          3.04972157e-02, 4.91049215e-02, 2.87506044e-01, 3.06278467e-01,
          1.03810057e-01, 4.11444269e-02, 2.56604999e-02, 8.36375449e-03,
          1.16457582e-01, 2.15436280e-01, 3.06278467e-01, 3.06278467e-01,
          2.47732401e-01, 7.97885582e-02, 4.47603874e-02, 1.64694134e-02,
          2.12847106e-02, 1.00673772e-02, 4.96975817e-02, 8.68518949e-02,
          3.06278467e-01, 3.06278467e-01, 1.56423390e-01, 3.13167535e-02,
          1.43463193e-02, 6.63616788e-03, 3.43718715e-02, 1.22981079e-01,
          3.06278467e-01, 3.06278467e-01, 2.31099844e-01, 6.48300201e-02,
          1.62285585e-02, 4.77212667e-02, 3.14385027e-01, 3.14385027e-01,
          1.84499681e-01, 1.04399540e-01, 2.76780985e-02, 2.34540571e-02,
          6.94082119e-03, 5.91540858e-02, 1.49399117e-01, 3.14385027e-01,
          3.14385027e-01, 1.11006476e-01, 4.11494821e-02, 9.87343583e-03,
          1.17462706e-02, 1.66582055e-02, 6.50171144e-03, 1.56287849e-02,
          1.18463613e-01, 3.14385027e-01, 3.14385027e-01, 1.10947929e-01,
          1.07128015e-02, 7.33188679e-03, 8.89469869e-03, 6.45290464e-02,
          1.01624101e-01, 2.44877622e-01, 3.14385027e-01, 3.14385027e-01,
          1.01096623e-01, 4.48794551e-02, 5.02291769e-02, 2.95184962e-02,
          1.08800963e-01, 2.52223432e-01, 2.53239602e-01, 2.22389117e-01,
          8.26827586e-02, 5.96671402e-02, 1.67180169e-02, 2.32372768e-02,
          4.69364449e-02, 2.06646830e-01, 2.53239602e-01, 2.53239602e-01,
          1.04447313e-01, 1.72213718e-01, 1.22228689e-01, 3.62973996e-02,
          5.10586128e-02, 1.58427969e-01, 1.01243339e-01, 1.72587171e-01,
          2.53239602e-01, 2.53239602e-01, 2.53239602e-01, 1.34031683e-01,
          6.92451894e-02, 8.36577043e-02, 8.12178105e-02, 1.33979589e-01,
          2.16122657e-01, 2.53239602e-01, 2.33783588e-01, 1.84258118e-01,
          1.74732730e-01, 7.00450838e-02, 8.59737545e-02, 1.02507897e-01,
          2.00712562e-01, 2.36334920e-01, 1.58667967e-01, 1.12358309e-01,
          2.06773296e-01, 1.54445514e-01, 6.09241314e-02, 1.03008881e-01,
          1.93956614e-01, 1.30219206e-01, 1.16069406e-01, 7.67697319e-02,
          1.07259862e-01, 1.82704285e-01, 1.48770839e-01, 2.36334920e-01,
          2.36334920e-01, 1.71463266e-01, 1.23621061e-01, 1.68028444e-01,
          2.16940194e-01, 1.74483031e-01, 1.17346033e-01, 1.42649367e-01,
          1.20313436e-01, 1.71831816e-01, 9.13862586e-02, 9.82966423e-02,
          1.20290659e-01, 1.07117817e-01, 1.76347420e-01, 2.29216158e-01,
          2.18922585e-01, 2.36334920e-01, 2.36334920e-01, 1.19681962e-01,
          5.04042208e-02, 3.75454202e-02, 2.91451309e-02, 2.28507761e-02,
          9.68308747e-02, 1.80133760e-01, 2.91876674e-01, 2.60548770e-01,
          8.33295509e-02, 1.53692374e-02, 1.35231037e-02, 1.16356723e-02,
          2.32585222e-02, 1.27234966e-01, 2.91876674e-01, 2.91876674e-01,
          1.01365589e-01, 2.86149215e-02, 6.48767129e-02, 9.07385722e-02,
          7.69049376e-02, 1.47765771e-01, 2.91876674e-01, 2.91876674e-01,
          2.91876674e-01, 1.26732633e-01, 6.95890784e-02, 1.40774921e-02,
          2.66611036e-02, 4.13385294e-02, 1.20480038e-01, 2.91876674e-01,
          2.91876674e-01, 2.91876674e-01, 3.89261954e-02, 1.60561949e-02,
          3.94664379e-03, 6.46876451e-03, 3.82636748e-02, 1.89208508e-01,
          3.14114422e-01, 3.14114422e-01, 5.05767912e-02, 2.86984839e-03,
          7.56192533e-03, 1.73111390e-02, 5.62609471e-02, 9.43840817e-02,
          2.43432641e-01, 3.14114422e-01, 2.49769807e-01, 1.74481124e-01,
          6.35738298e-02, 3.93311977e-02, 6.62032235e-03, 1.07553089e-02,
          3.56672741e-02, 5.28128855e-02, 2.32126176e-01, 3.14114422e-01,
          3.14114422e-01, 1.55274654e-02, 1.55149763e-02, 9.51587129e-03,
          2.31905319e-02, 4.47346717e-02, 7.36434609e-02, 1.40670732e-01,
          3.14114422e-01, 3.14114422e-01, 9.53809172e-02, 2.58389022e-02,
          4.57963683e-02, 9.44968760e-02, 1.38570502e-01, 1.85531646e-01,
          2.46182829e-01, 1.99375987e-01, 2.46182829e-01, 1.27701208e-01,
          8.38375166e-02, 1.25244737e-01, 6.63337037e-02, 1.78765640e-01,
          1.28363073e-01, 1.80525258e-01, 2.46182829e-01, 2.30235517e-01,
          1.41281158e-01, 9.15836766e-02, 7.84784257e-02, 5.52732348e-02,
          5.65067008e-02, 5.80498502e-02, 1.17688641e-01, 2.46182829e-01,
          2.46182829e-01, 2.46182829e-01, 6.46177009e-02, 2.29925811e-01,
          7.44957924e-02, 1.07281156e-01, 7.38927051e-02, 1.56872779e-01,
          2.28691459e-01, 2.46182829e-01, 2.46182829e-01, 1.28027767e-01,
          1.27326682e-01, 7.89338872e-02, 2.16829747e-01, 1.32576600e-01,
          9.35501158e-02, 1.62538916e-01, 1.46615967e-01, 1.71415865e-01,
          7.70706534e-02, 1.03422426e-01, 2.10013062e-01, 2.53310442e-01,
          2.53310442e-01, 2.11411998e-01, 1.29037663e-01, 1.56624436e-01,
          1.67504773e-01, 7.75054842e-02, 2.30404466e-01, 1.89365193e-01,
          1.71553299e-01, 1.12209417e-01, 1.32346168e-01, 1.43303648e-01,
          1.44305125e-01, 1.33927807e-01, 1.58918366e-01, 1.92204803e-01,
          2.53310442e-01, 2.53310442e-01, 2.41110146e-01, 1.04624346e-01,
          1.07914746e-01, 1.20593883e-01, 1.03973120e-01, 1.04785413e-01,
          4.28338870e-02, 1.20397016e-01, 2.31901869e-01, 2.85820961e-01,
          2.80228883e-01, 1.30773038e-01, 1.16115205e-01, 7.98863545e-02,
          3.50677036e-02, 8.88869632e-03, 2.87620891e-02, 1.74581796e-01,
          2.85820961e-01, 2.85820961e-01, 1.45486340e-01, 8.21594074e-02,
          1.97745655e-02, 7.83146452e-03, 5.08648232e-02, 2.85432965e-01,
          2.85820961e-01, 2.85820961e-01, 8.69212076e-02, 5.93013987e-02,
          5.98834865e-02, 4.32985276e-02, 3.01598739e-02, 1.32013196e-02,
          8.25124756e-02, 2.85820961e-01, 2.85820961e-01, 2.59064406e-01,
          5.05219288e-02, 2.05451883e-02, 7.03096623e-03, 8.90377630e-03,
          1.09577049e-02, 1.37655409e-02, 2.84736864e-02, 5.71216941e-02,
          6.50256127e-02, 3.21954817e-01, 3.21954817e-01, 7.45347589e-02,
          5.06660007e-02, 6.73174299e-03, 7.19232392e-03, 1.67223513e-02,
          4.37097587e-02, 3.49138640e-02, 3.21954817e-01, 3.21954817e-01,
          1.73925772e-01, 2.95930263e-02, 3.29658687e-02, 1.17721157e-02,
          3.35881449e-02, 5.63840196e-02, 1.38611183e-01, 2.92053103e-01,
          3.21954817e-01, 1.96018830e-01, 1.31580964e-01, 3.63338515e-02,
          1.33584403e-02, 1.83225814e-02, 4.40466441e-02, 5.95624708e-02,
          1.68774232e-01, 3.21954817e-01, 3.21954817e-01, 1.35085464e-01,
          4.06862013e-02, 2.42683776e-02, 3.07664908e-02, 3.67760658e-02,
          3.68990526e-02, 2.05521926e-01, 2.88402557e-01, 2.88402557e-01,
          8.29153284e-02, 1.90305158e-01, 6.50264546e-02, 9.21656042e-02,
          6.51916713e-02, 1.04590096e-01, 1.39698491e-01, 2.88402557e-01,
          2.88402557e-01, 2.78757304e-01, 2.77557354e-02, 2.59728748e-02,
          2.06406042e-02, 4.17304002e-02, 6.29192591e-02, 8.35507885e-02,
          2.88402557e-01, 2.88402557e-01, 1.81886688e-01, 1.42894685e-01,
          2.98917405e-02, 3.24708335e-02, 5.56396805e-02, 9.22759920e-02,
          5.17644621e-02, 1.76208764e-01, 2.88402557e-01, 2.88402557e-01,
          2.91820496e-01, 1.81229398e-01, 7.20815286e-02, 6.97719231e-02,
          7.97208026e-02, 6.60239682e-02, 6.04046322e-02, 1.69674531e-01,
          2.91820496e-01, 2.91820496e-01, 2.91820496e-01, 2.76110142e-01,
          6.54261708e-02, 2.18111146e-02, 5.47257699e-02, 4.09169495e-02,
          4.78665456e-02, 1.74955904e-01, 2.91820496e-01, 7.93058649e-02,
          2.01503057e-02, 2.32953895e-02, 5.52074574e-02, 2.82915663e-02,
          3.70417535e-02, 1.74146622e-01, 2.91820496e-01, 2.91820496e-01,
          2.91820496e-01, 1.26807183e-01, 2.01744661e-02, 2.92753950e-02,
          1.18369870e-02, 8.97912960e-03, 3.12387999e-02, 2.23293975e-01,
          1.45274475e-01, 3.10367703e-01, 3.10367703e-01, 1.21626526e-01,
          1.97374355e-02, 2.43681278e-02, 2.11052019e-02, 1.50181632e-02,
          3.06739509e-02, 2.31428817e-02, 1.90482065e-01, 3.10367703e-01,
          3.10367703e-01, 1.60559684e-01, 3.61438282e-02, 1.16858948e-02,
          3.14853480e-03, 9.03113373e-03, 1.97712898e-01, 3.10367703e-01,
          2.96426773e-01, 4.68208753e-02, 2.20305882e-02, 9.36160702e-03,
          1.14380019e-02, 7.87105691e-03, 4.03184965e-02, 6.11806549e-02,
          2.26742193e-01, 3.10367703e-01, 3.10367703e-01, 1.73262790e-01,
          4.25329134e-02, 3.17646749e-02, 1.45401182e-02, 1.51301455e-02 ]
      - [ 5.68207959e-03, 1.04071647e-01, 3.49899590e-01, 2.11942866e-01,
          6.06656931e-02, 1.56255625e-02, 9.46754217e-03, 3.96507513e-03,
          4.39250097e-03, 3.92138734e-02, 3.49899590e-01, 3.49899590e-01,
          8.46583694e-02, 2.87933387e-02, 7.21983239e-03, 8.20414163e-03,
          1.42431641e-02, 2.61054393e-02, 7.16924109e-03, 5.84496185e-02,
          3.49899590e-01, 3.49899590e-01, 1.36666387e-01, 4.89111245e-02,
          1.21151237e-02, 1.44132588e-03, 6.54698350e-03, 3.18117142e-02,
          3.20329428e-01, 3.49899590e-01, 2.49249950e-01, 2.74099186e-02,
          9.55960993e-03, 3.73565196e-03, 5.78944851e-03, 1.37108676e-02,
          1.31537616e-01, 2.95071959e-01, 2.95071959e-01, 5.86203672e-02,
          2.55056378e-02, 7.61612924e-03, 1.42092351e-02, 1.51557904e-02,
          6.61940053e-02, 2.95071959e-01, 2.95071959e-01, 9.81998369e-02,
          3.57493572e-02, 1.73182171e-02, 1.04147019e-02, 2.20403168e-02,
          5.19532524e-02, 2.72094816e-01, 1.29189238e-01, 2.95071959e-01,
          2.95071959e-01, 9.18420777e-02, 6.73080459e-02, 2.71190498e-02,
          2.27842815e-02, 3.06702312e-02, 4.74019349e-02, 2.95071959e-01,
          2.95071959e-01, 1.09782510e-01, 4.52439860e-02, 1.65115699e-01,
          6.60635382e-02, 4.04731184e-02, 1.31040588e-01, 2.95071959e-01,
          2.88919836e-01, 1.10702224e-01, 2.49618199e-02, 2.54175402e-02,
          1.41554708e-02, 1.74888745e-02, 2.29522735e-02, 1.15560375e-01,
          2.88919836e-01, 1.33422583e-01, 6.60279989e-02, 6.34986907e-02,
          1.58353999e-01, 3.87883335e-02, 4.06795368e-02, 8.84997174e-02,
          2.72495687e-01, 2.88919836e-01, 2.88919836e-01, 1.58024490e-01,
          2.17453819e-02, 5.69579713e-02, 1.49682879e-01, 8.66398215e-02,
          1.13962121e-01, 2.12559283e-01, 2.88919836e-01, 1.01037174e-01,
          5.30274436e-02, 2.05927677e-02, 6.27182350e-02, 1.02383077e-01,
          1.42337799e-01, 2.88919836e-01, 2.88919836e-01, 2.88919836e-01,
          9.00902674e-02, 6.16903603e-02, 1.25942364e-01, 2.22515449e-01,
          7.39922673e-02, 6.75933287e-02, 1.91558048e-01, 2.87739813e-01,
          1.64663196e-01, 2.74416953e-02, 3.01570017e-02, 6.21508062e-02,
          1.01158701e-01, 3.01422060e-01, 1.75117895e-01, 1.75448820e-01,
          1.15589172e-01, 3.22790183e-02, 4.60697487e-02, 4.13439870e-02,
          3.57264653e-02, 4.05545123e-02, 8.46579522e-02, 1.43933788e-01,
          3.01422060e-01, 3.01422060e-01, 1.81522548e-01, 2.51863841e-02,
          2.01185290e-02, 2.62801778e-02, 3.74507196e-02, 2.61282712e-01,
          3.01422060e-01, 3.01422060e-01, 2.76848435e-01, 3.90664861e-02,
          1.60962883e-02, 1.24595780e-02, 2.93691367e-01, 2.93691367e-01,
          2.02711463e-01, 7.05398172e-02, 2.01445986e-02, 9.26325214e-04,
          1.57992430e-02, 7.43918046e-02, 1.89706117e-01, 2.93691367e-01,
          2.93691367e-01, 7.61843398e-02, 3.81823555e-02, 1.59338128e-03,
          4.22026217e-03, 2.21265126e-02, 2.85493266e-02, 1.55535173e-02,
          9.88899469e-02, 2.93691367e-01, 2.93691367e-01, 1.48086071e-01,
          4.15100604e-02, 7.95704033e-03, 2.62193251e-02, 1.71936676e-01,
          1.70757413e-01, 2.93691367e-01, 2.93691367e-01, 2.93691367e-01,
          1.70943290e-01, 9.99455433e-03, 1.16718765e-02, 3.03835813e-02,
          1.70849040e-01, 2.64616102e-01, 2.64616102e-01, 1.98204741e-01,
          1.16840623e-01, 5.18282056e-02, 2.77395286e-02, 3.23677920e-02,
          6.73426986e-02, 2.64616102e-01, 2.11135313e-01, 1.52978867e-01,
          1.11481726e-01, 1.74279943e-01, 7.28639364e-02, 6.46829084e-02,
          1.14402466e-01, 2.19793260e-01, 2.34135389e-01, 2.64616102e-01,
          2.64616102e-01, 2.47573540e-01, 2.10127473e-01, 1.73887491e-01,
          3.02550960e-02, 2.67987270e-02, 5.78343123e-02, 1.75081432e-01,
          1.27206683e-01, 1.73285246e-01, 2.02669486e-01, 1.11942180e-01,
          1.19173601e-01, 1.16260350e-01, 6.52994439e-02, 1.28365263e-01,
          2.54945844e-01, 1.48406267e-01, 3.25581282e-02, 9.98419300e-02,
          1.54772699e-01, 1.12129420e-01, 1.92172647e-01, 1.51593760e-01,
          2.54945844e-01, 9.20652449e-02, 1.12415597e-01, 4.61589620e-02,
          9.42424461e-02, 1.79586351e-01, 1.99420303e-01, 2.54945844e-01,
          2.54945844e-01, 2.33991936e-01, 1.44221231e-01, 1.55535966e-01,
          1.59857944e-01, 1.84593916e-01, 9.59878713e-02, 1.04171939e-01,
          1.58829451e-01, 7.60068372e-02, 1.28526226e-01, 6.86571524e-02,
          2.11313128e-01, 2.29311034e-01, 1.13745630e-01, 2.54945844e-01,
          1.70773134e-01, 1.45546466e-01, 1.72420189e-01, 1.30010888e-01,
          2.65229568e-02, 3.79944034e-02, 2.95206755e-02, 7.81057701e-02,
          1.74358308e-01, 1.27413407e-01, 3.04931611e-01, 2.58816600e-01,
          8.80071521e-02, 1.07485829e-02, 4.73485654e-03, 1.50192762e-02,
          6.48614466e-02, 2.15038732e-01, 3.04931611e-01, 3.04931611e-01,
          1.46589696e-01, 2.72535346e-02, 5.77484034e-02, 1.02849483e-01,
          1.03827223e-01, 1.75284937e-01, 3.04931611e-01, 1.85671628e-01,
          1.10896781e-01, 1.60277158e-01, 6.98021948e-02, 3.50606441e-02,
          4.75295372e-02, 5.18821403e-02, 2.21356675e-01, 3.04931611e-01,
          3.04931611e-01, 1.90383002e-01, 1.01698413e-01, 3.17213684e-02,
          1.57450493e-02, 1.87316220e-02, 3.98638435e-02, 1.23084195e-01,
          2.90549040e-01, 2.90549040e-01, 1.00890480e-01, 2.58028563e-02,
          2.64103692e-02, 1.37340799e-01, 1.01247251e-01, 1.59368381e-01,
          2.90549040e-01, 2.90549040e-01, 2.90549040e-01, 1.64395705e-01,
          2.32985988e-02, 4.01146822e-02, 1.32863186e-02, 1.44233229e-02,
          2.76838131e-02, 6.50717989e-02, 2.04840839e-01, 2.90549040e-01,
          2.52783567e-01, 3.06989159e-02, 3.32916901e-02, 5.88061549e-02,
          4.76430468e-02, 6.31824508e-02, 1.66477144e-01, 2.23870531e-01,
          2.90549040e-01, 2.90549040e-01, 7.26082176e-02, 5.52904122e-02,
          1.65409863e-01, 1.09383769e-01, 1.37341335e-01, 2.63855070e-01,
          2.63855070e-01, 2.63855070e-01, 9.43960175e-02, 4.53857705e-02,
          7.48525187e-02, 1.18690200e-01, 1.12942375e-01, 9.41551700e-02,
          1.86556399e-01, 1.49423018e-01, 1.25401825e-01, 1.00733981e-01,
          9.75363404e-02, 1.35087401e-01, 9.46452245e-02, 4.97913435e-02,
          5.39413914e-02, 2.04840168e-01, 2.14747325e-01, 2.63855070e-01,
          2.63855070e-01, 1.62315354e-01, 1.07207313e-01, 1.15993418e-01,
          8.67372602e-02, 6.41336888e-02, 1.67036921e-01, 1.68285713e-01,
          2.42492244e-01, 2.63855070e-01, 2.27724195e-01, 1.61789075e-01,
          7.69541711e-02, 1.82763755e-01, 1.98262125e-01, 1.59256682e-01,
          1.11739717e-01, 9.64928344e-02, 1.01891734e-01, 6.37575686e-02,
          1.26402825e-01, 8.73730630e-02, 2.46833593e-01, 2.46833593e-01,
          8.87187868e-02, 2.46833593e-01, 2.04925299e-01, 6.62689209e-02,
          8.48503634e-02, 1.16898373e-01, 2.29754165e-01, 1.33749977e-01,
          1.03401244e-01, 1.23815693e-01, 1.18499048e-01, 1.44755200e-01,
          1.87093198e-01, 1.46213785e-01, 2.39057258e-01, 2.46833593e-01,
          2.46833593e-01, 2.46833593e-01, 1.36236176e-01, 1.11396492e-01,
          1.71653450e-01, 1.32244691e-01, 1.24785282e-01, 2.32981965e-01,
          9.81671065e-02, 1.90853626e-01, 1.35081142e-01, 1.43298104e-01,
          2.85713077e-01, 1.38553694e-01, 3.56081538e-02, 6.50723204e-02,
          4.26257364e-02, 5.94116114e-02, 9.25976261e-02, 1.49171352e-01,
          2.85713077e-01, 2.85713077e-01, 2.85713077e-01, 3.51132564e-02,
          2.78169792e-02, 2.01530773e-02, 2.02209353e-01, 2.85713077e-01,
          2.85713077e-01, 1.58884868e-01, 7.73747861e-02, 7.58008733e-02,
          3.65894958e-02, 4.13161777e-02, 5.60422838e-02, 7.19935447e-02,
          1.91815540e-01, 2.85713077e-01, 2.85713077e-01, 2.50966996e-01,
          8.00477862e-02, 1.36517100e-02, 5.24088135e-03, 1.80607997e-02,
          8.30080267e-03, 1.47469351e-02, 1.90794170e-02, 5.70659637e-02,
          1.79495588e-01, 3.09663624e-01, 3.09663624e-01, 5.72554916e-02,
          3.99631597e-02, 3.16562280e-02, 2.39283461e-02, 2.51060054e-02,
          5.69812842e-02, 1.02800809e-01, 3.09663624e-01, 3.09663624e-01,
          2.35307619e-01, 6.06360883e-02, 2.15820391e-02, 6.70901500e-03,
          9.52796638e-03, 3.36826965e-02, 1.51270434e-01, 3.09663624e-01,
          3.09663624e-01, 1.01116791e-01, 6.97559491e-02, 5.56747355e-02,
          6.61778031e-03, 5.33829816e-03, 1.45801734e-02, 6.68894574e-02,
          1.69057354e-01, 3.09663624e-01, 3.09663624e-01, 1.93798482e-01,
          2.96189357e-02, 1.71393659e-02, 1.65024512e-02, 5.76873086e-02,
          5.82115762e-02, 1.61879241e-01, 2.91817814e-01, 2.91817814e-01,
          9.89428833e-02, 1.13219790e-01, 3.50681618e-02, 4.22476381e-02,
          1.03437968e-01, 8.60947892e-02, 1.99219227e-01, 2.91817814e-01,
          2.91817814e-01, 2.91817814e-01, 4.06615213e-02, 1.00841690e-02,
          9.26007982e-03, 1.27976928e-02, 2.65234932e-02, 4.65727411e-02,
          2.78353781e-01, 2.91817814e-01, 1.90838233e-01, 1.77718073e-01,
          4.94288243e-02, 2.04554386e-02, 2.60063242e-02, 3.49964015e-02,
          4.68185283e-02, 2.01790467e-01, 2.91817814e-01, 2.91817814e-01,
          2.74245858e-01, 7.18095750e-02, 4.54320163e-02, 6.28947690e-02,
          7.23684877e-02, 1.01588286e-01, 1.95308819e-01, 1.97625026e-01,
          2.74245858e-01, 2.74245858e-01, 2.74245858e-01, 1.49027899e-01,
          5.13948798e-02, 7.28004351e-02, 1.26984537e-01, 1.40474096e-01,
          1.14718392e-01, 2.74245858e-01, 2.74245858e-01, 8.59072730e-02,
          2.68647056e-02, 1.67209320e-02, 2.83045024e-02, 2.96791475e-02,
          8.69712234e-02, 1.63021281e-01, 2.74245858e-01, 2.74245858e-01,
          2.74245858e-01, 8.75444487e-02, 1.12800738e-02, 3.18078995e-02,
          4.45202142e-02, 4.91470136e-02, 6.81457445e-02, 2.74245858e-01,
          3.16022128e-01, 3.16022128e-01, 3.16022128e-01, 1.07378170e-01,
          4.30098586e-02, 6.86905384e-02, 5.37983403e-02, 4.04598601e-02,
          9.59264934e-02, 1.01270497e-01, 3.16022128e-01, 3.16022128e-01,
          2.67585754e-01, 1.99919537e-01, 2.55692806e-02, 8.80903099e-03,
          3.15543707e-03, 1.75781716e-02, 2.26452887e-01, 3.16022128e-01,
          1.98830456e-01, 3.28168087e-02, 1.98915545e-02, 2.40835361e-02,
          2.56906822e-02, 1.40932929e-02, 8.00389796e-02, 6.37522265e-02,
          2.04744190e-01, 1.84623182e-01, 8.68964121e-02, 2.28968248e-01,
          3.46194059e-02, 2.23902296e-02, 1.53073696e-02, 2.83045303e-02 ]
      - [ 1.44474983e-01, 3.09281915e-01, 3.09281915e-01, 1.00348443e-01,
          1.96707621e-02, 4.22276650e-03, 5.42888418e-03, 2.53889598e-02,
          6.71481416e-02, 1.51238799e-01, 3.09281915e-01, 3.09281915e-01,
          1.29518703e-01, 3.96421589e-02, 2.35989746e-02, 1.48401326e-02,
          3.79887074e-02, 4.00883704e-02, 4.83260825e-02, 1.94057480e-01,
          3.09281915e-01, 3.09281915e-01, 6.03963360e-02, 5.48592908e-03,
          4.97623207e-03, 1.00735612e-02, 1.56498626e-02, 7.18468651e-02,
          3.09281915e-01, 3.09281915e-01, 3.09281915e-01, 6.63093179e-02,
          2.64467904e-03, 6.78350357e-03, 2.75093429e-02, 4.77610482e-03,
          1.77392736e-01, 2.96542734e-01, 2.35995620e-01, 9.36585441e-02,
          5.21325767e-02, 4.66756970e-02, 2.11346988e-02, 3.60574424e-02,
          4.70545404e-02, 2.73722082e-01, 2.96542734e-01, 9.98079330e-02,
          4.41050716e-02, 5.17012812e-02, 4.05427516e-02, 2.24146303e-02,
          4.60529141e-02, 1.26826912e-01, 1.35870457e-01, 2.96542734e-01,
          2.96542734e-01, 2.18732163e-01, 9.20382887e-02, 1.73308291e-02,
          2.70169936e-02, 5.27836680e-02, 3.92410420e-02, 2.96542734e-01,
          2.96542734e-01, 2.95978934e-01, 1.50994793e-01, 1.43981412e-01,
          7.08215535e-02, 9.18011665e-02, 1.05669402e-01, 1.37438878e-01,
          2.64527321e-01, 1.56279474e-01, 2.88425796e-02, 1.18378447e-02,
          2.45599654e-02, 1.65774450e-02, 3.19987871e-02, 9.59088206e-02,
          2.40919620e-01, 2.26720229e-01, 7.78005496e-02, 2.00762711e-02,
          1.21964766e-02, 2.80694403e-02, 2.92116348e-02, 1.29778758e-01,
          2.64527321e-01, 2.64527321e-01, 2.64527321e-01, 2.37141505e-01,
          7.64387846e-02, 6.99430481e-02, 1.07750632e-01, 1.03796855e-01,
          1.33649364e-01, 1.89327583e-01, 2.64527321e-01, 2.44474798e-01,
          1.62866578e-01, 7.55098090e-02, 4.49684262e-02, 1.03765331e-01,
          1.36688009e-01, 2.64527321e-01, 2.64527321e-01, 2.64527321e-01,
          7.49890357e-02, 6.46227747e-02, 4.24009189e-02, 3.69540937e-02,
          6.16826899e-02, 8.52072239e-02, 1.77241653e-01, 2.88055629e-01,
          1.58951566e-01, 7.16800466e-02, 1.20152868e-01, 1.05953217e-01,
          1.06373712e-01, 2.11905405e-01, 2.88055629e-01, 2.45985761e-01,
          1.89403325e-01, 1.20902143e-01, 8.34390223e-02, 8.20724070e-02,
          4.45311666e-02, 3.68598513e-02, 5.32919355e-02, 1.17793493e-01,
          2.88055629e-01, 2.88055629e-01, 1.52601346e-01, 1.50560200e-01,
          5.93904182e-02, 7.74276555e-02, 5.45113534e-02, 1.87058255e-01,
          2.88055629e-01, 2.88055629e-01, 2.88055629e-01, 1.01813480e-01,
          1.73224006e-02, 4.95060980e-02, 3.07226837e-01, 3.07226837e-01,
          1.85857385e-01, 3.28208208e-02, 1.96523848e-03, 2.67632073e-03,
          2.65027629e-03, 3.84229161e-02, 2.07264721e-01, 3.07226837e-01,
          3.07226837e-01, 1.45759672e-01, 8.92380811e-03, 7.47602852e-03,
          2.32713372e-02, 2.14008074e-02, 6.76798401e-03, 2.00891513e-02,
          1.07371412e-01, 3.07226837e-01, 3.07226837e-01, 1.72117054e-01,
          4.07528840e-02, 3.13820643e-03, 4.09797998e-03, 7.39967376e-02,
          8.47661793e-02, 1.93851322e-01, 3.07226837e-01, 3.07226837e-01,
          1.70329809e-01, 9.07751918e-02, 4.20709513e-02, 6.37750253e-02,
          7.52799287e-02, 2.47302845e-01, 2.47302845e-01, 2.47302845e-01,
          1.01999871e-01, 1.23512885e-02, 2.46007685e-02, 5.97624667e-02,
          6.50466084e-02, 2.15203047e-01, 2.47302845e-01, 2.47302845e-01,
          1.88199103e-01, 1.25437945e-01, 5.03030494e-02, 6.46272004e-02,
          8.30515102e-02, 8.88594314e-02, 1.21666558e-01, 1.54136285e-01,
          2.18319908e-01, 2.47302845e-01, 2.40373611e-01, 1.23034537e-01,
          1.05203517e-01, 7.56157711e-02, 1.26576841e-01, 2.10096315e-01,
          2.47302845e-01, 2.47302845e-01, 2.42115214e-01, 1.75597131e-01,
          1.11476026e-01, 9.32655036e-02, 6.19987287e-02, 1.18948162e-01,
          2.16737092e-01, 1.79510653e-01, 1.24451160e-01, 1.23306796e-01,
          1.15200996e-01, 1.20882958e-01, 1.18217774e-01, 1.23418815e-01,
          1.41538665e-01, 1.48996502e-01, 1.27748296e-01, 6.96186274e-02,
          9.38308686e-02, 1.38741240e-01, 1.97579265e-01, 2.28260800e-01,
          2.28260800e-01, 1.53957680e-01, 2.28260800e-01, 2.28260800e-01,
          2.28260800e-01, 1.85807064e-01, 1.41096234e-01, 1.10484317e-01,
          7.82279223e-02, 6.26714677e-02, 1.68351725e-01, 1.19717702e-01,
          1.75043300e-01, 1.57555714e-01, 2.28260800e-01, 2.28260800e-01,
          1.77868724e-01, 2.28260800e-01, 1.78755045e-01, 1.45952880e-01,
          8.63462538e-02, 5.82104139e-02, 4.69071791e-02, 5.43040857e-02,
          7.99838901e-02, 1.59632340e-01, 2.76489407e-01, 2.76489407e-01,
          7.88484216e-02, 8.84766951e-02, 1.78848468e-02, 3.10288332e-02,
          7.71242380e-02, 1.35658115e-01, 2.74750978e-01, 2.76489407e-01,
          1.98737651e-01, 6.24128804e-02, 7.32866675e-02, 7.56424218e-02,
          1.09433852e-01, 1.50798485e-01, 1.97028548e-01, 2.47384682e-01,
          2.76489407e-01, 1.77708894e-01, 4.98388000e-02, 6.01724759e-02,
          3.11625749e-02, 9.09214169e-02, 2.11008325e-01, 2.76489407e-01,
          2.76489407e-01, 2.76489407e-01, 1.28270611e-01, 4.41699140e-02,
          2.39414312e-02, 4.55223396e-02, 6.19191043e-02, 1.63959756e-01,
          2.76172489e-01, 2.49708548e-01, 1.41567171e-01, 3.49390954e-02,
          2.59842835e-02, 8.39214027e-02, 4.39139828e-02, 4.65481654e-02,
          2.29194194e-01, 2.76172489e-01, 2.76172489e-01, 2.76172489e-01,
          1.33604914e-01, 7.45578110e-02, 6.67932928e-02, 5.84511273e-02,
          6.29090220e-02, 3.92961316e-02, 1.14122108e-01, 1.72598839e-01,
          2.76172489e-01, 2.53882438e-01, 1.34099647e-01, 8.33721086e-02,
          5.89349680e-02, 3.50391120e-02, 4.99042794e-02, 9.37672108e-02,
          2.76172489e-01, 2.76172489e-01, 2.76172489e-01, 1.44124597e-01,
          1.49046659e-01, 5.34733050e-02, 6.74849227e-02, 1.64649174e-01,
          1.68808252e-01, 2.06400007e-01, 2.51468748e-01, 1.40610725e-01,
          1.40136242e-01, 2.26921842e-01, 1.92833275e-01, 1.52329117e-01,
          1.74018741e-01, 1.32534951e-01, 1.45043492e-01, 1.97850972e-01,
          9.27892849e-02, 1.29573137e-01, 1.13891691e-01, 5.06487601e-02,
          3.42706218e-02, 9.01567563e-02, 6.94672987e-02, 2.35738412e-01,
          2.51468748e-01, 2.51468748e-01, 1.38170704e-01, 1.76832497e-01,
          1.39571503e-01, 7.66372532e-02, 1.32417500e-01, 1.74536288e-01,
          2.17760712e-01, 2.51468748e-01, 2.21755207e-01, 1.62602991e-01,
          2.29336366e-01, 2.38597915e-01, 2.09952071e-01, 1.49543285e-01,
          9.20280367e-02, 6.80838004e-02, 1.09227337e-01, 4.48748879e-02,
          1.53873190e-01, 1.27359822e-01, 1.82304576e-01, 2.42112085e-01,
          2.42112085e-01, 1.44453764e-01, 8.71273205e-02, 1.37666166e-01,
          6.97825924e-02, 1.12439416e-01, 1.67516515e-01, 2.18724459e-01,
          1.62913814e-01, 1.33400783e-01, 1.81831747e-01, 1.54531628e-01,
          1.37952492e-01, 1.37996957e-01, 1.76136002e-01, 1.78513855e-01,
          2.42112085e-01, 2.42112085e-01, 2.42112085e-01, 1.32968023e-01,
          1.56542733e-01, 1.52057603e-01, 1.03044853e-01, 9.66719911e-02,
          7.05669001e-02, 1.18727848e-01, 2.72363394e-01, 2.13017076e-01,
          1.38411030e-01, 1.18301257e-01, 1.62985206e-01, 7.82388374e-02,
          2.80232374e-02, 5.81505299e-02, 7.24444985e-02, 2.72363394e-01,
          2.72363394e-01, 2.47664481e-01, 1.99929595e-01, 1.53381586e-01,
          6.73138425e-02, 2.74190921e-02, 1.20614052e-01, 2.72363394e-01,
          2.72363394e-01, 2.56143749e-01, 5.67047074e-02, 5.62116019e-02,
          1.12887949e-01, 6.91768304e-02, 2.76339725e-02, 1.01603508e-01,
          2.47471884e-01, 2.72363394e-01, 2.72363394e-01, 1.18931189e-01,
          8.53104442e-02, 6.09855913e-02, 5.16192131e-02, 6.31220192e-02,
          8.97751302e-02, 5.08282930e-02, 1.20196141e-01, 8.67124647e-02,
          1.57571629e-01, 1.57438964e-01, 2.85409808e-01, 2.85409808e-01,
          1.99363828e-01, 1.14504158e-01, 7.00483769e-02, 5.84950186e-02,
          6.52649328e-02, 1.37017816e-01, 1.69240385e-01, 2.85409808e-01,
          2.85409808e-01, 2.40744948e-01, 7.39738196e-02, 5.90667948e-02,
          1.23425223e-01, 1.78238839e-01, 2.85409808e-01, 2.85409808e-01,
          1.43105432e-01, 1.06823988e-01, 6.23364598e-02, 5.52199557e-02,
          5.18124327e-02, 7.83863217e-02, 1.36592016e-01, 2.85409808e-01,
          1.75428033e-01, 8.35350901e-02, 9.22178626e-02, 7.32061863e-02,
          1.02891311e-01, 6.06218390e-02, 3.25644389e-02, 6.45073429e-02,
          8.13777745e-02, 2.38019511e-01, 3.09930503e-01, 3.09930503e-01,
          1.82316884e-01, 1.61040381e-01, 1.20793261e-01, 4.93851788e-02,
          9.15983245e-02, 1.81377381e-01, 2.96721905e-01, 3.09930503e-01,
          3.09930503e-01, 2.88107514e-01, 6.85063899e-02, 3.27166542e-02,
          3.20739634e-02, 6.78928792e-02, 1.22702099e-01, 5.87414242e-02,
          1.37617603e-01, 1.21026225e-01, 9.36765522e-02, 1.43617064e-01,
          4.24216464e-02, 1.02634076e-02, 3.39920335e-02, 7.05257952e-02,
          6.91464469e-02, 2.34139249e-01, 2.27368802e-01, 1.70725241e-01,
          1.84111431e-01, 2.18742728e-01, 1.60962462e-01, 8.09423998e-02,
          1.51101053e-01, 1.49970770e-01, 1.84522420e-01, 2.57865638e-01,
          2.57865638e-01, 2.40459561e-01, 2.57865638e-01, 2.57865638e-01,
          2.26623774e-01, 1.44366115e-01, 1.48791313e-01, 1.10643663e-01,
          1.37772039e-01, 1.20804422e-01, 1.70919001e-01, 6.75202236e-02,
          8.29725862e-02, 4.18433659e-02, 5.35013415e-02, 6.04530200e-02,
          1.06720649e-01, 1.45053566e-01, 1.51076749e-01, 1.51626110e-01,
          1.31615564e-01, 2.44144261e-01, 1.28710493e-01, 2.57865638e-01,
          1.66106746e-01, 9.78932083e-02, 8.70039538e-02, 8.93708020e-02,
          1.95584103e-01, 2.66561747e-01, 2.66561747e-01, 1.81545630e-01,
          7.19816536e-02, 5.51880486e-02, 5.51427379e-02, 5.01858443e-02,
          3.32365893e-02, 1.54748619e-01, 2.66561747e-01, 2.66561747e-01,
          2.29839981e-01, 1.37998298e-01, 1.12094179e-01, 7.96563551e-02,
          5.04900329e-02, 1.11480676e-01, 1.20821051e-01, 1.76446527e-01,
          1.42749771e-01, 1.23602785e-01, 2.66561747e-01, 1.52923584e-01,
          6.62540868e-02, 4.11750488e-02, 7.08027929e-02, 1.76335588e-01,
          2.27439225e-01, 1.76291421e-01, 2.16477543e-01, 2.66561747e-01,
          1.58083409e-01, 1.60714045e-01, 8.01744536e-02, 1.46001205e-01 ]
      - [ 6.47931993e-02, 1.72058001e-01, 1.73507363e-01, 9.36238840e-02,
          6.43796995e-02, 2.08128840e-02, 1.44003034e-02, 1.16755906e-02,
          2.57356502e-02, 1.10820651e-01, 3.07903022e-01, 3.07903022e-01,
          7.16748908e-02, 4.21913266e-02, 3.78353335e-02, 5.52502461e-02,
          5.76088466e-02, 4.72536646e-02, 3.87624763e-02, 1.50942817e-01,
          3.07903022e-01, 3.07903022e-01, 1.05448134e-01, 3.10360435e-02,
          3.52317020e-02, 3.03133074e-02, 4.09560502e-02, 9.97688100e-02,
          3.07903022e-01, 3.07903022e-01, 2.99388915e-01, 6.46566004e-02,
          6.37885109e-02, 2.63237864e-01, 2.92925268e-01, 1.32152170e-01,
          1.62975416e-01, 2.57577181e-01, 1.53601438e-01, 2.71595456e-02,
          3.96375246e-02, 3.96627039e-02, 5.47013134e-02, 5.62929437e-02,
          6.15074486e-02, 2.57577181e-01, 2.57577181e-01, 3.28639410e-02,
          6.11016639e-02, 1.00922383e-01, 1.13082893e-01, 6.52758554e-02,
          9.41040069e-02, 2.57577181e-01, 9.83773395e-02, 2.57577181e-01,
          2.46682137e-01, 5.14761470e-02, 8.28267932e-02, 1.57677099e-01,
          2.57577181e-01, 2.57577181e-01, 8.95066187e-02, 1.00772627e-01,
          1.49579525e-01, 5.33950701e-02, 1.66417465e-01, 2.57577181e-01,
          2.57577181e-01, 2.57577181e-01, 1.26281068e-01, 1.92734376e-01,
          2.14368984e-01, 1.19102873e-01, 2.01436337e-02, 4.98905070e-02,
          8.50096643e-02, 1.06699675e-01, 9.29525271e-02, 2.20564216e-01,
          2.53574550e-01, 6.69928715e-02, 2.44061332e-02, 3.79001498e-02,
          3.46684568e-02, 3.76449861e-02, 5.10851257e-02, 2.08378315e-01,
          2.53574550e-01, 2.53574550e-01, 5.54894991e-02, 8.35378841e-02,
          1.29386261e-01, 2.53574550e-01, 2.53574550e-01, 2.53574550e-01,
          1.62074998e-01, 1.02016710e-01, 2.03157872e-01, 1.31614776e-02,
          1.08236797e-01, 2.53574550e-01, 2.12210461e-01, 1.43014669e-01,
          1.87315598e-01, 2.53574550e-01, 2.53574550e-01, 8.63201767e-02,
          2.48546619e-02, 1.81162767e-02, 4.07902449e-02, 2.13042814e-02,
          9.92817525e-03, 3.80602926e-02, 3.08220357e-01, 3.08220357e-01,
          1.18051536e-01, 2.48217341e-02, 5.61061036e-03, 1.95473265e-02,
          7.50859594e-03, 5.21559753e-02, 1.56346157e-01, 3.08220357e-01,
          2.40419284e-01, 3.32173072e-02, 1.23058958e-02, 6.61747977e-02,
          1.47443131e-01, 5.89397959e-02, 6.35731369e-02, 3.08220357e-01,
          3.08220357e-01, 3.08220357e-01, 5.13736866e-02, 2.45374888e-02,
          3.41025903e-03, 2.45212317e-02, 3.46280560e-02, 1.70298576e-01,
          3.08220357e-01, 3.08220357e-01, 2.50452578e-01, 2.55506858e-02,
          1.22313499e-02, 4.69402038e-02, 2.28643611e-01, 2.65350789e-01,
          1.81666583e-01, 3.26338038e-02, 4.72591855e-02, 3.01503856e-02,
          3.25848982e-02, 9.37479585e-02, 1.50346816e-01, 2.65350789e-01,
          2.60202050e-01, 8.56423154e-02, 3.91119048e-02, 2.35293701e-01,
          2.65350789e-01, 1.76831678e-01, 7.63520449e-02, 2.62726601e-02,
          6.56236932e-02, 2.65350789e-01, 2.65350789e-01, 1.44325376e-01,
          3.93019021e-02, 2.15657242e-02, 8.82662311e-02, 2.65350789e-01,
          8.62020478e-02, 8.73783827e-02, 1.69130176e-01, 2.36435220e-01,
          1.12215348e-01, 1.34207755e-01, 2.12932125e-01, 2.65350789e-01,
          1.31569728e-01, 1.21254347e-01, 1.12260044e-01, 5.50489724e-02,
          7.68688694e-02, 1.54223278e-01, 2.39859655e-01, 2.39859655e-01,
          1.29381150e-01, 1.15041494e-01, 7.93930069e-02, 7.93346763e-02,
          1.67616561e-01, 2.34330565e-01, 2.39859655e-01, 2.39859655e-01,
          1.23745002e-01, 1.11746028e-01, 2.39859655e-01, 1.17248133e-01,
          7.18445256e-02, 7.97240660e-02, 1.12376310e-01, 1.48702890e-01,
          1.68621138e-01, 2.24080205e-01, 2.39859655e-01, 1.46699131e-01,
          1.16234615e-01, 1.55409425e-01, 1.87245771e-01, 2.24770695e-01,
          2.28833482e-01, 1.36090711e-01, 1.73673019e-01, 1.92938954e-01,
          8.65240842e-02, 8.04755241e-02, 1.70284376e-01, 2.28345305e-01,
          2.28345305e-01, 1.96858078e-01, 1.43863484e-01, 7.71410614e-02,
          1.16241038e-01, 1.23584867e-01, 1.74541891e-01, 2.28345305e-01,
          2.28345305e-01, 1.49224818e-01, 1.66493893e-01, 1.70108646e-01,
          1.59806222e-01, 5.65258488e-02, 1.64981678e-01, 9.50129330e-02,
          1.58801854e-01, 2.22392157e-01, 1.86211377e-01, 1.66168869e-01,
          1.25077188e-01, 1.63531929e-01, 1.38982683e-01, 2.28345305e-01,
          1.93863034e-01, 1.06675439e-01, 1.68491036e-01, 1.77432626e-01,
          1.03677541e-01, 1.48864016e-01, 2.10534379e-01, 2.01891810e-01,
          9.83956084e-02, 1.44006044e-01, 1.33745849e-01, 8.47462714e-02,
          1.29094377e-01, 2.71524817e-01, 2.71524817e-01, 1.19006827e-01,
          4.65299748e-02, 2.85653807e-02, 2.43101213e-02, 3.47900987e-02,
          1.01669364e-01, 2.71524817e-01, 2.71524817e-01, 2.71524817e-01,
          5.32842465e-02, 3.22569683e-02, 2.71524817e-01, 1.76718995e-01,
          6.70084208e-02, 9.48571116e-02, 2.14623943e-01, 1.84508234e-01,
          1.13591351e-01, 1.44736499e-01, 2.26528555e-01, 4.15038727e-02,
          4.21539433e-02, 5.60418926e-02, 2.40136117e-01, 2.71524817e-01,
          2.71524817e-01, 1.40245512e-01, 5.05408123e-02, 7.51323104e-02,
          7.62015581e-02, 4.00767624e-02, 2.90258992e-02, 8.92540142e-02,
          2.71225184e-01, 2.71225184e-01, 6.80010393e-02, 2.54289825e-02,
          4.90677953e-02, 2.71225184e-01, 2.07483351e-01, 1.54877678e-01,
          1.04043335e-01, 2.42048740e-01, 2.69261360e-01, 7.87096098e-02,
          6.19704835e-02, 1.93614110e-01, 4.70851585e-02, 3.33093777e-02,
          8.44810996e-03, 3.94492596e-02, 1.57802939e-01, 2.71225184e-01,
          2.71225184e-01, 7.66170770e-02, 1.42892180e-02, 1.58222407e-01,
          2.51995116e-01, 1.67309344e-01, 1.26754522e-01, 1.19165599e-01,
          2.71225184e-01, 2.71225184e-01, 1.33674547e-01, 3.71573977e-02,
          2.12520331e-01, 1.87945664e-01, 1.50694087e-01, 1.06823444e-01,
          1.11611046e-01, 1.89038336e-01, 1.08615667e-01, 1.03353381e-01,
          2.10981384e-01, 9.43407789e-02, 7.91492760e-02, 1.12266950e-01,
          1.13295160e-01, 1.83284536e-01, 2.23011509e-01, 8.25680271e-02,
          2.14939490e-01, 2.24087879e-01, 1.56834602e-01, 2.24087879e-01,
          2.24087879e-01, 2.24087879e-01, 8.68308395e-02, 1.21065177e-01,
          1.18491553e-01, 1.82248831e-01, 1.09406613e-01, 1.20580785e-01,
          1.01366036e-01, 1.18153565e-01, 2.24087879e-01, 2.24087879e-01,
          2.24087879e-01, 1.03742130e-01, 2.24087879e-01, 1.83684364e-01,
          1.05963729e-01, 5.49388006e-02, 9.28733796e-02, 1.35732695e-01,
          1.74812257e-01, 1.33680269e-01, 1.04225382e-01, 1.70687467e-01,
          1.48896083e-01, 2.12486535e-01, 9.41775739e-02, 5.71963564e-02,
          1.17008239e-01, 2.00612783e-01, 1.08920828e-01, 2.47082934e-01,
          2.47082934e-01, 1.87354282e-01, 6.06585704e-02, 4.54177149e-02,
          1.01325884e-01, 1.66017994e-01, 2.47082934e-01, 2.47082934e-01,
          2.38771796e-01, 1.95635289e-01, 1.22520745e-01, 5.68708517e-02,
          4.29677367e-02, 1.36461109e-01, 1.05642073e-01, 2.37603769e-01,
          2.47082934e-01, 2.47082934e-01, 2.47082934e-01, 1.22105740e-01,
          1.51680902e-01, 6.38381094e-02, 5.51433749e-02, 1.19118296e-01,
          2.62998521e-01, 1.28720865e-01, 1.55825734e-01, 2.37045422e-01,
          2.07951829e-01, 3.85381356e-02, 1.75422374e-02, 1.31500840e-01,
          2.62998521e-01, 2.62998521e-01, 2.13321388e-01, 4.17639948e-02,
          6.84106946e-02, 6.80444539e-02, 6.34594709e-02, 3.56798396e-02,
          2.62998521e-01, 1.49270967e-01, 2.48958811e-01, 1.56432316e-01,
          2.26958871e-01, 2.28046536e-01, 1.13560863e-01, 5.90982325e-02,
          3.27309221e-02, 2.62998521e-01, 2.62998521e-01, 2.62998521e-01,
          1.06759258e-01, 3.00792418e-02, 5.33203483e-02, 5.28809130e-02,
          2.09294483e-02, 8.25795624e-03, 7.93507555e-04, 1.44058969e-02,
          4.24477421e-02, 3.31335843e-01, 3.31335843e-01, 1.20055258e-01,
          1.99295413e-02, 6.43324777e-02, 7.69622177e-02, 8.25542361e-02,
          1.18838117e-01, 6.62136674e-02, 2.21421227e-01, 3.31335843e-01,
          3.31335843e-01, 6.06416538e-02, 1.16749136e-02, 8.09009001e-03,
          8.87093320e-03, 1.91325024e-02, 4.68795709e-02, 2.19905972e-01,
          3.31335843e-01, 1.67185768e-01, 5.61803766e-02, 1.85306612e-02,
          4.69001615e-03, 1.42190251e-02, 3.16017717e-02, 6.12516627e-02,
          1.46607444e-01, 3.31335843e-01, 3.31335843e-01, 1.16911516e-01,
          8.73428136e-02, 1.09061733e-01, 1.58475533e-01, 2.22664058e-01,
          6.57184571e-02, 9.42848399e-02, 2.44367555e-01, 2.68314034e-01,
          1.43417045e-01, 1.20153897e-01, 6.73233941e-02, 1.40484512e-01,
          2.68314034e-01, 2.27629259e-01, 1.84750751e-01, 6.99004084e-02,
          2.54498750e-01, 1.97868153e-01, 6.74099699e-02, 3.05507146e-02,
          5.53274564e-02, 6.78192005e-02, 4.53944318e-02, 4.68425453e-02,
          2.20351413e-01, 2.68314034e-01, 2.04516560e-01, 2.68314034e-01,
          5.18016517e-02, 8.25795904e-02, 1.24592736e-01, 7.71197453e-02,
          6.10832050e-02, 4.14063781e-02, 2.68314034e-01, 2.68314034e-01,
          1.17926091e-01, 9.01810005e-02, 1.33175343e-01, 1.62106290e-01,
          2.54026145e-01, 2.36710861e-01, 1.14610419e-01, 7.99493641e-02,
          1.05383232e-01, 1.26245424e-01, 2.54026145e-01, 2.54026145e-01,
          1.06920607e-01, 2.25883022e-01, 2.54026145e-01, 2.33353809e-01,
          1.01067126e-01, 7.51784220e-02, 2.54026145e-01, 1.81687906e-01,
          6.53447360e-02, 5.42219430e-02, 1.01993904e-01, 1.00816704e-01,
          3.36038657e-02, 7.33976662e-02, 2.54026145e-01, 2.31710762e-01,
          2.54026145e-01, 2.15460375e-01, 4.01587114e-02, 8.93778354e-02,
          8.70431140e-02, 5.35557866e-02, 4.07830030e-02, 2.34944284e-01,
          8.95448476e-02, 3.02385569e-01, 3.02385569e-01, 1.49290398e-01,
          1.50254786e-01, 1.65241167e-01, 1.50032714e-01, 7.60727078e-02,
          6.61453754e-02, 5.65298647e-02, 1.14234470e-01, 3.02385569e-01,
          3.02385569e-01, 1.29835650e-01, 4.71271984e-02, 3.17921154e-02,
          3.84103209e-02, 4.70460318e-02, 1.23732641e-01, 3.02385569e-01,
          3.02385569e-01, 7.65913203e-02, 7.01271370e-02, 5.21409214e-02,
          4.08238955e-02, 1.81897767e-02, 1.11074679e-01, 4.14538458e-02,
          1.57539830e-01, 3.02385569e-01, 3.02385569e-01, 1.96212992e-01,
          4.22965661e-02, 2.89354883e-02, 1.35297356e-02, 4.00831886e-02 ]
      - [ 8.49019587e-02, 3.37090045e-01, 3.37090045e-01, 8.93166065e-02,
          4.58056293e-02, 1.71298906e-02, 1.67414919e-02, 1.01363705e-02,
          3.36820781e-02, 1.73679084e-01, 3.37090045e-01, 3.37090045e-01,
          4.53964658e-02, 3.93917970e-02, 1.09994989e-02, 3.61023620e-02,
          3.56540047e-02, 6.13115542e-02, 6.65080547e-02, 1.88558906e-01,
          3.37090045e-01, 2.22057417e-01, 1.02891006e-01, 1.80658028e-02,
          1.87341198e-02, 2.18402017e-02, 2.81212274e-02, 1.09768644e-01,
          3.37090045e-01, 3.37090045e-01, 1.14272669e-01, 6.83167428e-02,
          4.98107448e-02, 3.47978435e-02, 6.14416264e-02, 5.32612987e-02,
          2.42378920e-01, 2.76514500e-01, 1.88387647e-01, 2.04629805e-02,
          2.86829546e-02, 8.82746372e-03, 2.25141570e-02, 5.59603497e-02,
          9.35434699e-02, 2.76514500e-01, 2.60856509e-01, 6.05840869e-02,
          1.52647635e-02, 3.08030080e-02, 2.70792879e-02, 3.87458205e-02,
          1.03444807e-01, 2.76514500e-01, 1.99012607e-01, 2.76514500e-01,
          2.76514500e-01, 8.22241455e-02, 5.53301349e-02, 8.74079093e-02,
          7.52931833e-02, 1.17852807e-01, 1.60718098e-01, 2.76514500e-01,
          2.53522664e-01, 1.49002820e-01, 1.32600233e-01, 8.08397755e-02,
          1.52851373e-01, 1.15394734e-01, 1.36034489e-01, 2.76514500e-01,
          2.45226130e-01, 1.03759311e-01, 2.37637423e-02, 8.79254192e-03,
          2.12530289e-02, 6.62801862e-02, 1.03851177e-01, 2.08590314e-01,
          2.86437571e-01, 8.43919069e-02, 4.21512127e-02, 3.34775224e-02,
          1.54731413e-02, 3.56373079e-02, 3.38351466e-02, 1.30109623e-01,
          2.86437571e-01, 2.86437571e-01, 2.86437571e-01, 1.08504795e-01,
          1.37486398e-01, 1.63061872e-01, 8.61546844e-02, 1.03638500e-01,
          1.09845050e-01, 1.96698904e-01, 2.86437571e-01, 1.27297461e-01,
          6.89851716e-02, 1.14581533e-01, 9.75621492e-02, 6.51270300e-02,
          8.02656785e-02, 2.86437571e-01, 2.86437571e-01, 2.86437571e-01,
          6.92615733e-02, 4.62261513e-02, 7.35322759e-02, 1.68040425e-01,
          1.35128826e-01, 2.14193072e-02, 1.31768689e-01, 3.13570291e-01,
          2.46426687e-01, 4.44822982e-02, 4.24428470e-02, 1.23568036e-01,
          3.13570291e-01, 1.97060913e-01, 7.00447336e-02, 8.03975910e-02,
          1.26825899e-01, 6.66810349e-02, 1.20732829e-01, 5.22599928e-02,
          7.93450624e-02, 6.54480457e-02, 9.61389393e-02, 1.82486072e-01,
          3.13570291e-01, 3.13570291e-01, 2.08567455e-01, 8.58651400e-02,
          6.27512112e-02, 7.93492571e-02, 9.53742117e-02, 2.04237968e-01,
          2.64894783e-01, 3.13570291e-01, 1.41299382e-01, 7.47236758e-02,
          4.83238026e-02, 8.48967060e-02, 2.60846794e-01, 2.42218271e-01,
          1.35063574e-01, 4.44601029e-02, 1.51379732e-02, 2.66941506e-02,
          2.39321347e-02, 1.01441041e-01, 2.60846794e-01, 2.60846794e-01,
          1.57530457e-01, 9.50817391e-02, 1.87252015e-01, 9.49242711e-02,
          1.18023388e-01, 9.35504287e-02, 3.44508812e-02, 4.44508754e-02,
