%YAML:1.0
---
opencv_ml_svm:
   format: 3
   svmType: EPS_SVR
   kernel:
      type: LINEAR
   C: 1.0000000000000000e-02
   p: 1.0000000000000001e-01
   term_criteria: { iterations:1000 }
   var_count: 576
   sv_total: 1
   support_vectors:
      - [ -5.77340834e-03, 3.12543139e-02, 5.83368987e-02,
          2.27632131e-02, -2.41299439e-02, -3.96484621e-02,
          -5.33746220e-02, -3.80228423e-02, -2.03884114e-02,
          1.36431130e-02, 5.50656058e-02, 5.02872877e-02,
          -3.05794808e-03, -3.73572297e-02, -3.99895236e-02,
          -5.16332723e-02, -3.70216183e-02, -1.39710326e-02,
          -1.50797777e-02, 8.32929928e-03, 5.54075576e-02,
          5.23547716e-02, -3.63583909e-03, -4.27099913e-02,
          -5.65771982e-02, -4.75432836e-02, -2.89505199e-02,
          -1.14482001e-03, 3.91266495e-02, 4.30579185e-02,
          3.56664620e-02, -2.22569015e-02, -3.79123241e-02,
          -4.19857167e-02, -3.37585956e-02, -1.62101276e-02,
          2.51720250e-02, 4.39607017e-02, 2.78661214e-02,
          -1.83975268e-02, -3.38035598e-02, -3.39718014e-02,
          -4.99639176e-02, -3.07525843e-02, -3.76523449e-03,
          5.41681685e-02, 4.41202223e-02, 1.41935062e-03,
          -2.05010790e-02, -2.89441831e-02, -3.37409563e-02,
          -4.33813781e-02, -2.61031985e-02, 3.10154241e-02,
          1.23790065e-02, 4.11890633e-02, 3.59341353e-02,
          -8.31858546e-04, -2.10478362e-02, -2.76814513e-02,
          -3.15396450e-02, -2.32517440e-02, -2.59539671e-03,
          4.42932174e-02, 3.62001136e-02, 1.69801991e-02,
          -5.50786499e-03, 1.14063593e-03, -1.27598438e-02,
          -2.71649230e-02, -1.10104475e-02, 3.10386494e-02,
          5.09744696e-02, 6.57107495e-03, -2.40473822e-02,
          -2.17283051e-02, -2.35093907e-02, -3.05361263e-02,
          -3.57818753e-02, -3.03981500e-03, 4.90193814e-02,
          2.74882931e-02, -9.75444727e-03, -2.07191892e-02,
          -2.46437937e-02, -2.72747483e-02, -4.00871895e-02,
          -2.18552575e-02, 1.40289748e-02, 4.51283678e-02,
          4.46048900e-02, 1.69316474e-02, -4.74019162e-03,
          -7.11079687e-03, 3.83958174e-03, -1.12235444e-02,
          -2.19193324e-02, 5.02006197e-03, 4.35395055e-02,
          2.88078021e-02, 8.44533381e-04, -6.37511350e-03,
          -1.33146197e-02, -9.99764074e-03, -1.55966524e-02,
          5.43095637e-03, 2.46235300e-02, 3.94242965e-02, 4.30665864e-03,
          -1.38209723e-02, -1.97469536e-02, -1.62380561e-02,
          -1.84504203e-02, -2.79311948e-02, 1.18314149e-02,
          3.49938273e-02, 2.08278112e-02, -1.66263171e-02,
          -2.43541691e-02, -2.62540337e-02, -1.12937130e-02,
          3.86702036e-03, 3.81091260e-04, 9.10219550e-03, 7.34610949e-03,
          -8.14585388e-03, 5.99300396e-03, -3.53405252e-03,
          -7.99176097e-03, -1.03963809e-02, -1.12188412e-02,
          1.83589305e-04, 2.12627035e-02, 4.06403579e-02, 2.51830239e-02,
          -2.07449030e-02, -2.54873317e-02, -2.98178308e-02,
          -1.79661643e-02, 3.84477898e-03, 2.19222754e-02,
          2.23007854e-02, 1.91044305e-02, -1.25956452e-02,
          -1.74732655e-02, -1.62169356e-02, 2.48745121e-02,
          4.55664061e-02, 2.27115341e-02, -2.78220549e-02,
          -5.13415821e-02, -3.99222076e-02, -2.32649725e-02,
          -1.17037073e-03, 1.33426720e-02, 3.62967886e-02,
          4.17487957e-02, 2.30410122e-04, -2.54256427e-02,
          -3.72737721e-02, -2.26242822e-02, -6.29925728e-03,
          -1.25406915e-02, -2.58418452e-02, -1.82860047e-02,
          4.07415964e-02, 4.29206975e-02, -2.36534746e-03,
          -5.19008115e-02, -4.30664048e-02, -2.07939260e-02,
          9.52812750e-03, 5.70857897e-03, 1.59002375e-02, 3.55800763e-02,
          3.11124977e-02, -3.59450380e-04, -3.37740518e-02,
          -1.89337898e-02, 6.47962745e-03, 8.84522498e-03,
          2.49598958e-02, 3.07869855e-02, 1.10056149e-02,
          -7.70461466e-03, -1.84048899e-02, -2.50731334e-02,
          -1.08644133e-02, 7.34654069e-03, 2.73910053e-02,
          2.08220463e-02, 1.69087835e-02, 6.00246200e-03, 9.42734629e-03,
          -1.50676528e-02, -2.62396131e-02, -1.26353269e-02,
          2.28438135e-02, 1.47415139e-02, 1.39095224e-02, 1.97675712e-02,
          2.02586651e-02, 1.41075877e-02, -5.39976312e-03,
          -2.44633500e-02, -1.04924338e-02, 1.46891577e-02,
          2.12504771e-02, 8.95796996e-03, 9.16096941e-03, 7.48274475e-03,
          8.82327929e-03, -6.92710141e-03, -2.47021765e-02,
          -1.59860030e-02, 1.48433307e-02, 2.82958914e-02,
          1.11990692e-02, 5.89393685e-03, 3.41847003e-03, 1.24242483e-02,
          -9.85072460e-03, -2.50519216e-02, -3.43356095e-03,
          2.45639533e-02, 1.74163971e-02, 9.68842674e-03, 2.24026060e-03,
          -1.25867652e-03, 3.28664714e-03, -6.24172622e-03,
          -4.14327113e-03, 1.52314054e-02, 2.58235242e-02,
          1.77869741e-02, 6.34066295e-03, 5.67468675e-03, 8.70312192e-03,
          6.73406990e-03, -1.22212451e-02, -2.55184975e-02,
          -1.66528579e-02, 1.08109247e-02, 2.04140823e-02,
          1.39341708e-02, 1.41759636e-02, 1.23332320e-02, 1.51963690e-02,
          -2.44283373e-03, -6.26823492e-03, 2.47156224e-03,
          2.29566731e-02, 3.48111638e-03, 1.21075776e-03,
          -2.43351795e-03, -8.44121911e-03, -2.44042161e-03,
          9.71446745e-03, 5.84673136e-03, 1.69125441e-02, 9.06745531e-03,
          -1.53400404e-02, -1.57814231e-02, -2.07560491e-02,
          -1.08523779e-02, 1.74100660e-02, 1.38213141e-02,
          8.51409230e-03, -1.70927420e-02, -2.04440374e-02,
          1.73189826e-02, 1.07306549e-02, 2.82345898e-03, 1.33269457e-02,
          2.54744925e-02, 1.38273304e-02, -3.49160493e-03,
          -5.22073172e-03, 1.42417932e-02, -1.06699262e-02,
          -9.98354144e-03, -9.37264413e-03, 2.36151852e-02,
          2.71335188e-02, 1.55992741e-02, -2.02596616e-02,
          -3.71444523e-02, -1.68380681e-02, -1.13579342e-02,
          -2.43828632e-02, -2.73870826e-02, 6.08963938e-03,
          4.67875041e-02, 2.77767852e-02, -3.29303592e-02,
          -3.47344466e-02, -1.83810405e-02, 8.49630777e-03,
          2.79740104e-03, -5.02476096e-03, 1.75833590e-02,
          3.23392749e-02, 2.46388335e-02, -1.04384599e-02,
          -1.29013369e-02, 4.46240325e-03, -2.22573280e-02,
          -2.86061000e-02, -3.00109629e-02, -1.54264551e-02,
          2.19731703e-02, 2.97035892e-02, 1.21236918e-02,
          -2.07501315e-02, -2.15779636e-02, -7.05754431e-03,
          -1.90462209e-02, -2.34711934e-02, -1.72143616e-02,
          3.62008897e-04, 2.15486046e-02, 1.94303654e-02, 2.16209539e-03,
          -1.00768525e-02, 1.30633516e-02, 5.30987000e-03,
          -3.50848283e-03, 5.88602759e-03, 1.50523968e-02,
          1.34157827e-02, -8.33265856e-03, -5.85301546e-03,
          8.42666440e-03, 1.17657753e-02, 2.50613154e-03,
          -2.49581784e-03, 1.91354891e-03, 6.43200101e-03,
          1.43610116e-03, -1.42926658e-02, -8.68490618e-03,
          9.48823057e-03, 3.22905439e-03, -5.82019426e-03,
          -9.46257077e-03, -8.58087465e-03, -2.97359587e-03,
          8.64759274e-03, 7.76526472e-03, 1.21281948e-02, 5.28894925e-05,
          1.68180447e-02, 8.69129039e-03, 6.30179793e-03, 1.18731316e-02,
          9.39483754e-03, -4.48004296e-03, -6.42981939e-03,
          7.02121481e-03, 1.67842153e-02, 7.36332545e-03,
          -2.91787041e-03, -2.33933423e-03, 1.56474917e-03,
          -1.23025232e-03, -9.53245815e-03, -2.46439613e-02,
          -1.10741006e-02, 6.38205651e-03, 1.74104199e-02,
          1.49328299e-02, 1.86990742e-02, 1.35679254e-02, 1.06589925e-02,
          -1.22202886e-02, -1.93355680e-02, -4.53244802e-03,
          1.58664249e-02, 2.35767923e-02, 1.20419497e-02, 8.14534351e-03,
          1.09070046e-02, 8.87225941e-03, -8.00903980e-03,
          -1.59398485e-02, -3.14269750e-03, 2.18659285e-02,
          2.63050217e-02, 3.37738506e-02, 2.89423391e-02, 1.26079619e-02,
          -2.88582314e-03, -9.58001055e-03, -2.19684318e-02,
          -4.33845678e-03, 2.29104497e-02, 1.52215967e-02,
          1.51844388e-02, 3.07755265e-02, 3.19575593e-02, 2.46351883e-02,
          -3.99793964e-03, -2.14722510e-02, -2.86129862e-03,
          1.20260119e-02, -1.22712450e-02, -6.12570811e-03,
          1.99809019e-02, 4.25830036e-02, 3.11481040e-02,
          -4.88190027e-03, -4.66147810e-02, -3.39438505e-02,
          -1.41599150e-02, 1.50232799e-02, 3.89022380e-02,
          4.29156981e-02, 2.33584978e-02, -7.12620281e-03,
          -2.51600016e-02, -3.10135204e-02, -1.51337450e-02,
          9.82704293e-03, -1.59302838e-02, 7.19831418e-03,
          3.44888568e-02, 3.26756909e-02, 2.91954726e-03,
          -3.89955416e-02, -5.11017740e-02, -4.53427844e-02,
          -2.00655628e-02, -1.71983745e-02, -2.68951003e-02,
          -3.14326584e-02, -1.95125304e-02, 1.19581958e-03,
          3.49482708e-02, 3.40893604e-02, 4.50390019e-03,
          -1.19184423e-02, -8.42057541e-03, -2.02469416e-02,
          -2.69082300e-02, -2.27773786e-02, -1.66296419e-02,
          1.41350701e-02, 3.00355516e-02, 2.67875046e-02,
          -3.16360529e-04, -1.48487892e-02, -2.40350123e-02,
          -3.27722952e-02, -2.15537678e-02, -1.14458455e-02,
          6.75588194e-03, 2.85409074e-02, 1.78527385e-02,
          -1.21160410e-02, -8.50859378e-03, -2.46861968e-02,
          -3.23639363e-02, -2.72614844e-02, -2.65999902e-02,
          -2.37724744e-02, 2.34362930e-02, 3.50945070e-02,
          1.22915506e-02, -3.33154137e-04, -9.49225575e-03,
          -1.38666024e-02, -1.55675495e-02, -1.59409530e-02,
          -7.63343135e-03, 1.66868158e-02, 3.16447765e-02,
          1.32587506e-02, 2.85025556e-02, 8.90976191e-03, 8.61346489e-04,
          6.06870838e-03, 3.53951566e-03, -1.66707560e-02,
          -4.55520162e-03, 2.84697935e-02, 4.37423587e-02,
          1.39218883e-03, -1.66686475e-02, -2.63759252e-02,
          -2.60467120e-02, -3.54226753e-02, -3.59778181e-02,
          -1.54675305e-04, 1.98609512e-02, 3.02712396e-02,
          3.38712744e-02, -9.19336639e-03, -1.87639631e-02,
          -1.90938506e-02, -3.25532034e-02, -4.11620028e-02,
          -2.70334333e-02, 2.44872291e-02, 4.99945730e-02,
          4.53230292e-02, 2.14077644e-02, 1.93518761e-03, 5.09281596e-03,
          7.12983031e-03, -1.53301191e-02, -2.48386953e-02,
          5.49024902e-03, 3.83221470e-02, 4.74271923e-02, 4.77904864e-02,
          3.41972746e-02, -1.88858272e-03, -1.50176780e-02,
          -2.21136604e-02, -3.13463844e-02, -1.72283668e-02,
          2.64237542e-02, 4.58623059e-02, 3.79980309e-03,
          -2.04322748e-02, -1.98879242e-02, -2.91123576e-02,
          -3.79772857e-02, -4.35900614e-02, -4.04801639e-03,
          4.38040085e-02, 4.72933948e-02, 2.41355188e-02,
          -4.19199961e-04, -3.01646143e-02, -4.13259231e-02,
          -4.35478650e-02, -5.08570559e-02, -3.00948005e-02,
          2.58696303e-02, 3.77805829e-02, 6.32982478e-02, 5.38518950e-02,
          1.60659384e-02, -1.67544913e-02, -2.67789885e-02,
          -3.24575379e-02, -2.13894844e-02, 1.41445044e-02,
          -4.10469854e-03, 4.01711799e-02, 5.01715206e-02,
          4.24718894e-02, -1.22105191e-02, -4.89793196e-02,
          -5.43213226e-02, -4.38229367e-02, -1.74068213e-02,
          4.16461080e-02, 4.89614643e-02, 2.98983362e-02,
          -1.46487802e-02, -2.78629269e-02, -4.13681976e-02,
          -4.85431477e-02, -2.90507171e-02, 8.60411394e-03,
          -2.09326367e-03, 3.20452787e-02, 3.01051177e-02,
          1.53040122e-02, -6.43764623e-03, -4.92550209e-02,
          -5.82276098e-02, -4.07123677e-02, -1.97280440e-02 ]
   uncompressed_sv_total: 66
   uncompressed_support_vectors:
      - [ 4.12526391e-02, 2.45047361e-01, 2.90638924e-01, 1.28978431e-01,
          4.74928394e-02, 1.45416511e-02, 9.56757553e-03, 9.52552631e-03,
          2.03613117e-02, 1.24829255e-01, 2.90638924e-01, 2.90638924e-01,
          1.54241905e-01, 6.13873340e-02, 6.90295845e-02, 4.73910123e-02,
          5.68781830e-02, 5.03815673e-02, 4.46103290e-02, 1.76390380e-01,
          2.90638924e-01, 2.90638924e-01, 1.16460860e-01, 5.38189001e-02,
          6.61216229e-02, 1.24859571e-01, 6.54718056e-02, 1.07412897e-01,
          2.22468808e-01, 2.90638924e-01, 2.03207254e-01, 8.40423927e-02,
          1.51622310e-01, 2.64117450e-01, 2.54027367e-01, 1.11442424e-01,
          1.52900457e-01, 2.26894498e-01, 2.25754917e-01, 1.21034592e-01,
          8.70038420e-02, 1.68194443e-01, 1.23706207e-01, 1.22627199e-01,
          9.54461023e-02, 1.43887848e-01, 8.82655308e-02, 1.08701997e-01,
          1.70286134e-01, 1.23035952e-01, 1.84321240e-01, 1.18122831e-01,
          1.15675464e-01, 1.92065790e-01, 1.10699274e-01, 9.84492302e-02,
          1.52790979e-01, 1.00019149e-01, 1.12372763e-01, 2.26894498e-01,
          2.26894498e-01, 2.26894498e-01, 1.48591623e-01, 1.77971914e-01,
          1.67750075e-01, 1.13912329e-01, 2.26894498e-01, 2.13795826e-01,
          2.21698359e-01, 2.26894498e-01, 2.13256225e-01, 1.96900368e-01,
          1.08430259e-01, 7.90769309e-02, 1.34914771e-01, 2.49061421e-01,
          1.63645089e-01, 1.27909333e-01, 8.19971636e-02, 7.78118074e-02,
          1.27923921e-01, 1.40247077e-01, 1.75283805e-01, 1.84214488e-01,
          1.77888811e-01, 2.04191148e-01, 1.10001087e-01, 1.27854183e-01,
          7.25845397e-02, 9.03662518e-02, 1.21724017e-01, 1.51503414e-01,
          2.64174342e-01, 2.64174342e-01, 2.64174342e-01, 1.34466529e-01,
          9.15109143e-02, 7.34640136e-02, 1.02160171e-01, 1.28240138e-01,
          2.64174342e-01, 2.64174342e-01, 2.64174342e-01, 2.64174342e-01,
          1.54259324e-01, 1.10987589e-01, 5.42506203e-02, 5.66193834e-02,
          1.20154813e-01, 1.93548486e-01, 1.90196082e-01, 9.21364129e-02,
          1.32049918e-01, 1.24144316e-01, 1.80439547e-01, 1.35123670e-01,
          1.26936987e-01, 4.07673046e-02, 5.11959456e-02, 5.74719161e-02,
          1.23008654e-01, 2.71743983e-01, 1.66599318e-01, 1.56654805e-01,
          1.35017425e-01, 8.34430903e-02, 1.12592973e-01, 2.71743983e-01,
          2.71743983e-01, 1.40262797e-01, 2.55485535e-01, 1.74150214e-01,
          1.91898540e-01, 1.07992344e-01, 6.59303665e-02, 6.22139908e-02,
          1.02279410e-01, 1.65368706e-01, 9.26296636e-02, 2.71743983e-01,
          2.48897970e-01, 2.71743983e-01, 1.54498518e-01, 1.21033527e-01,
          4.83341180e-02, 7.47821257e-02, 2.30865106e-01, 2.40861878e-01,
          2.12031901e-01, 7.50104561e-02, 1.47442922e-01, 2.10464016e-01,
          1.14178956e-01, 7.58715197e-02, 6.12844303e-02, 1.75082639e-01,
          1.22821338e-01, 1.31483391e-01, 1.49856299e-01, 2.40861878e-01,
          2.40861878e-01, 2.18842521e-01, 1.19154915e-01, 5.17468117e-02,
          9.22964439e-02, 1.95892707e-01, 2.40861878e-01, 1.07880421e-01,
          1.29792616e-01, 1.37511238e-01, 1.33303091e-01, 1.34774715e-01,
          1.35397568e-01, 1.23824999e-01, 1.42542839e-01, 2.27616310e-01,
          1.49494469e-01, 2.40861878e-01, 2.40861878e-01, 2.01241359e-01,
          6.89624697e-02, 5.64424954e-02, 6.53826520e-02, 5.68481535e-02,
          1.12840280e-01, 1.70353517e-01, 2.28645235e-01, 2.28645235e-01,
          1.59849763e-01, 1.56300262e-01, 1.55108452e-01, 1.28458485e-01,
          1.67241916e-01, 1.73423097e-01, 1.42405123e-01, 2.28645235e-01,
          1.88425779e-01, 1.30034760e-01, 9.85269994e-02, 1.30014941e-01,
          1.37895644e-01, 1.19419314e-01, 1.86321720e-01, 1.49836436e-01,
          2.28645235e-01, 1.84570089e-01, 1.68782488e-01, 1.72255039e-01,
          2.28645235e-01, 2.28645235e-01, 1.88451216e-01, 1.74551591e-01,
          1.63932815e-01, 1.98816732e-01, 1.94324762e-01, 1.61664590e-01,
          1.33598387e-01, 1.40719101e-01, 2.26016268e-01, 1.96187347e-01,
          2.17212886e-01, 9.10782069e-02, 1.03927501e-01, 1.03781529e-01,
          7.15536624e-02, 1.06850356e-01, 2.26016268e-01, 2.26016268e-01,
          1.79698929e-01, 2.17032298e-01, 1.41091108e-01, 1.53367043e-01,
          8.32523927e-02, 7.04437569e-02, 1.66491970e-01, 2.26016268e-01,
          2.26016268e-01, 1.58044130e-01, 1.19204126e-01, 1.25040457e-01,
          1.25056028e-01, 1.90307453e-01, 7.29849339e-02, 1.98563814e-01,
          2.13502020e-01, 2.26016268e-01, 1.33788079e-01, 1.24285139e-01,
          1.44496158e-01, 1.88566267e-01, 2.16934323e-01, 1.58811495e-01,
          9.74877849e-02, 2.31718376e-01, 2.31718376e-01, 9.12915468e-02,
          1.68335348e-01, 1.44642755e-01, 1.70961171e-01, 7.65152276e-02,
          9.63775888e-02, 7.99630880e-02, 1.49529114e-01, 1.48126915e-01,
          6.09329939e-02, 2.21594140e-01, 1.38588101e-01, 1.56789929e-01,
          8.02828819e-02, 1.34912312e-01, 2.31718376e-01, 2.31718376e-01,
          2.31718376e-01, 5.55525832e-02, 1.21378087e-01, 1.42630145e-01,
          1.64852768e-01, 1.67099774e-01, 2.31718376e-01, 1.82869449e-01,
          2.31718376e-01, 2.08474472e-01, 1.04467116e-01, 2.31718376e-01,
          1.74080923e-01, 1.24414228e-01, 6.45624921e-02, 2.31718376e-01,
          1.78495362e-01, 8.55431184e-02, 1.00025639e-01, 8.96583647e-02,
          2.51247615e-01, 1.55183330e-01, 1.07411951e-01, 1.31401554e-01,
          1.11046597e-01, 2.51247615e-01, 2.51247615e-01, 2.51247615e-01,
          1.36228099e-01, 1.27756789e-01, 9.05037820e-02, 9.35376063e-02,
          1.38249561e-01, 1.51284531e-01, 1.68459013e-01, 8.15521032e-02,
          1.01969391e-01, 2.97295116e-02, 2.02666745e-01, 2.51247615e-01,
          2.13780209e-01, 1.24270938e-01, 1.04201570e-01, 2.51247615e-01,
          2.51247615e-01, 2.51247615e-01, 9.07970890e-02, 9.64970589e-02,
          1.65350571e-01, 1.92105770e-01, 1.32237151e-01, 1.32482156e-01,
          1.36359304e-01, 2.38469511e-01, 2.61325389e-01, 1.47194788e-01,
          1.10754259e-01, 7.24798888e-02, 7.01410696e-02, 6.57112002e-02,
          1.54958025e-01, 1.73185080e-01, 2.45972559e-01, 2.61325389e-01,
          1.80635393e-01, 1.37987465e-01, 1.28798321e-01, 1.00131840e-01,
          1.12741545e-01, 1.70369089e-01, 1.37344688e-01, 2.61325389e-01,
          2.61325389e-01, 1.22507676e-01, 6.04947172e-02, 8.17503706e-02,
          8.51667747e-02, 6.80010468e-02, 8.90486985e-02, 1.76335827e-01,
          2.61325389e-01, 2.61325389e-01, 2.26643890e-01, 1.18418328e-01,
          9.49789658e-02, 1.26143768e-01, 1.81453973e-01, 1.04227260e-01,
          1.83703229e-01, 2.18982205e-01, 1.93624556e-01, 1.22991741e-01,
          9.45612043e-02, 1.54896453e-01, 1.25807509e-01, 1.31615907e-01,
          6.49789721e-02, 1.95804611e-01, 2.08264694e-01, 2.18982205e-01,
          8.49036425e-02, 1.58299550e-01, 1.80332273e-01, 2.03474984e-01,
          1.88168094e-01, 1.18486434e-01, 1.95919886e-01, 1.27127320e-01,
          1.15963012e-01, 1.67623490e-01, 1.51872411e-01, 1.61149994e-01,
          1.88659146e-01, 1.66281745e-01, 5.83977327e-02, 1.44916266e-01,
          1.32748425e-01, 2.10155576e-01, 1.19098283e-01, 2.18982205e-01,
          2.18982205e-01, 2.18982205e-01, 2.18982205e-01, 8.55631754e-02,
          2.08752692e-01, 1.30696133e-01, 1.92181438e-01, 2.95146685e-02,
          1.30472139e-01, 1.59089923e-01, 2.16445506e-01, 1.57412693e-01,
          2.22309262e-01, 1.83234379e-01, 1.22459762e-01, 1.35296509e-01,
          9.62122232e-02, 2.22309262e-01, 1.75547034e-01, 1.57021120e-01,
          6.73344508e-02, 2.19265059e-01, 1.44487649e-01, 1.31219074e-01,
          2.22309262e-01, 1.26068190e-01, 1.52041152e-01, 1.89002439e-01,
          2.22309262e-01, 1.59016639e-01, 1.43246010e-01, 1.60657451e-01,
          1.49378031e-01, 2.22309262e-01, 1.86647668e-01, 1.56019032e-01,
          1.71128437e-01, 1.79978058e-01, 9.15800110e-02, 1.34276241e-01,
          8.19710866e-02, 3.66581753e-02, 5.42126745e-02, 1.97612196e-02,
          1.07567631e-01, 2.74562329e-01, 2.74562329e-01, 1.44806907e-01,
          4.81957346e-02, 2.05379322e-01, 2.60618687e-01, 2.74562329e-01,
          3.57335135e-02, 1.34587348e-01, 2.01086804e-01, 2.74562329e-01,
          2.18513951e-01, 1.10130347e-01, 5.98469339e-02, 1.41669959e-02,
          2.11684573e-02, 2.17271838e-02, 8.27165693e-02, 1.41124368e-01,
          2.74562329e-01, 2.51878232e-01, 5.87335043e-02, 1.54429600e-01,
          5.63466661e-02, 1.17869221e-01, 1.21371103e-02, 1.10951677e-01,
          9.87542719e-02, 2.74562329e-01, 2.74562329e-01, 1.78951859e-01,
          1.59968749e-01, 2.33544812e-01, 2.33544812e-01, 5.41133396e-02,
          8.45860392e-02, 7.59644806e-02, 1.90538794e-01, 1.55986980e-01,
          1.30167276e-01, 2.03266084e-01, 2.10179925e-01, 2.33544812e-01,
          2.29655266e-01, 1.46503523e-01, 6.78728670e-02, 1.50338620e-01,
          2.33544812e-01, 1.74475729e-01, 1.76912680e-01, 7.54529163e-02,
          1.15903549e-01, 1.61908809e-02, 9.13468301e-02, 5.32083809e-02,
          1.95609674e-01, 2.16584757e-01, 2.26702094e-01, 2.33544812e-01,
          1.36838168e-01, 1.01415552e-01, 1.44696057e-01, 1.64826900e-01,
          9.35199410e-02, 9.62018967e-02, 2.01224595e-01, 2.33544812e-01,
          1.90993369e-01, 7.99238384e-02, 6.40638322e-02, 2.23039895e-01,
          2.28716120e-01, 1.66715130e-01, 1.44463852e-01, 1.70505613e-01,
          9.54755545e-02, 1.60534486e-01, 6.28771856e-02, 1.31003276e-01,
          1.56912893e-01, 2.28716120e-01, 2.28716120e-01, 2.28716120e-01,
          2.28716120e-01, 1.29607528e-01, 2.17336029e-01, 1.00759991e-01,
          6.00595176e-02, 1.83121920e-01, 2.24484637e-01, 1.52465269e-01,
          4.95820679e-02, 1.16933301e-01, 1.94936424e-01, 2.28716120e-01,
          1.38535827e-01, 8.24450403e-02, 1.60002887e-01, 1.79273769e-01,
          1.76298171e-01, 1.36121035e-01, 1.35938868e-01, 1.94562569e-01,
          1.23919711e-01, 1.71186343e-01, 2.54812628e-01, 2.16476187e-01,
          1.55327320e-01, 1.87072098e-01, 2.28142604e-01, 2.08818257e-01,
          1.06241152e-01, 1.11239456e-01, 2.25453585e-01, 2.54812628e-01,
          2.54812628e-01, 1.71854407e-01, 6.82770610e-02, 5.65639995e-02,
          4.85002697e-02, 4.32285704e-02, 2.41711140e-01, 2.34798178e-01,
          2.54812628e-01, 1.21917143e-01, 1.12780184e-01, 9.40309241e-02,
          7.92024806e-02, 9.28083956e-02, 1.19597189e-01, 7.50800967e-02,
          1.96072564e-01, 2.54812628e-01, 2.54812628e-01, 1.45825639e-01,
          1.31965494e-02, 5.66094136e-03, 5.33240475e-03, 2.68273074e-02 ]
      - [ 1.40675884e-02, 1.02048725e-01, 2.91489065e-01, 5.54727167e-02,
          1.89586710e-02, 5.10356855e-03, 2.85697961e-03, 6.56063319e-04,
          8.44444800e-03, 1.68273032e-01, 3.41434687e-01, 3.41434687e-01,
          5.45206629e-02, 8.74897838e-02, 3.72273289e-02, 1.80153623e-02,
          4.02208464e-03, 3.78215313e-02, 2.99075060e-02, 1.54135093e-01,
          3.41434687e-01, 2.60139942e-01, 1.11129463e-01, 3.63500118e-02,
          1.92364510e-02, 1.15498749e-03, 3.66047723e-03, 1.98058665e-01,
          3.41434687e-01, 3.41434687e-01, 2.96421260e-01, 1.82070628e-01,
          5.50616197e-02, 3.04495320e-02, 2.97355582e-03, 4.34638336e-02,
          2.45359153e-01, 2.51414239e-01, 2.51414239e-01, 5.45527972e-02,
          1.42028391e-01, 2.99546644e-02, 2.72518434e-02, 2.90704332e-02,
          8.95555541e-02, 2.51414239e-01, 2.51414239e-01, 1.01906322e-01,
          8.46333578e-02, 1.64759725e-01, 2.02536564e-02, 2.44455859e-02,
          8.54811668e-02, 2.32243091e-01, 2.02820301e-01, 2.51414239e-01,
          2.51414239e-01, 1.59058586e-01, 1.49232924e-01, 3.81814763e-02,
          3.43810506e-02, 3.19564976e-02, 1.06700040e-01, 2.51414239e-01,
          2.51414239e-01, 2.06091344e-01, 1.65018559e-01, 2.46311218e-01,
          6.81525692e-02, 8.16468075e-02, 8.80533457e-02, 1.94484815e-01,
          2.48899937e-01, 1.53674200e-01, 2.98145190e-02, 3.90930250e-02,
          1.12340495e-01, 3.10062170e-02, 6.19709529e-02, 1.21792987e-01,
          2.48899937e-01, 1.58807009e-01, 6.55388087e-02, 1.36805512e-02,
          2.02469490e-02, 9.62079838e-02, 6.74930513e-02, 2.13021234e-01,
          2.48899937e-01, 2.48899937e-01, 2.14175358e-01, 2.15637222e-01,
          9.28958952e-02, 7.17313141e-02, 2.27382168e-01, 1.33853763e-01,
          2.44025335e-01, 1.70201078e-01, 2.30051711e-01, 1.33409083e-01,
          8.01658258e-02, 4.12124284e-02, 2.64219400e-02, 1.89571664e-01,
          2.18298301e-01, 2.48899937e-01, 2.48899937e-01, 2.25382701e-01,
          5.12341522e-02, 1.21988812e-02, 7.98919424e-03, 1.30711291e-02,
          4.46879938e-02, 1.11621842e-01, 3.05261284e-01, 3.08046341e-01,
          1.33497894e-01, 3.81172495e-03, 8.09731137e-04, 4.00751305e-04,
          2.67826114e-03, 2.80862916e-02, 1.00479223e-01, 2.94346005e-01,
          1.87828600e-01, 1.66376308e-02, 6.68208823e-02, 3.92452925e-02,
          8.31449404e-03, 1.48430075e-02, 1.14562683e-01, 3.08046341e-01,
          3.08046341e-01, 3.08046341e-01, 1.81332424e-01, 1.44530106e-02,
          1.07843895e-02, 1.52310622e-05, 2.93960590e-02, 1.12329856e-01,
          3.08046341e-01, 3.08046341e-01, 3.08046341e-01, 7.06503913e-02,
          7.14141428e-02, 8.25619176e-02, 2.78313369e-01, 2.46187136e-01,
          2.28048593e-01, 4.76908125e-02, 2.56998073e-02, 5.93143143e-03,
          1.30447345e-02, 2.24372119e-01, 2.78313369e-01, 2.78313369e-01,
          2.78313369e-01, 2.78313369e-01, 3.35787572e-02, 2.36501526e-02,
          3.17735784e-03, 3.11714653e-02, 7.31727406e-02, 3.22191641e-02,
          1.14056535e-01, 2.13148713e-01, 2.78313369e-01, 1.24215327e-01,
          4.04831730e-02, 1.42535614e-02, 3.32327746e-02, 2.02822775e-01,
          1.16009757e-01, 1.77984878e-01, 2.78313369e-01, 2.78313369e-01,
          9.07036513e-02, 5.63517883e-02, 6.22113049e-02, 1.10060513e-01,
          1.55682489e-01, 2.30651334e-01, 2.30651334e-01, 1.91783130e-01,
          1.56624302e-01, 3.91479321e-02, 4.52181697e-02, 3.15368511e-02,
          7.56361932e-02, 1.78534538e-01, 2.30651334e-01, 2.30651334e-01,
          1.58071026e-01, 1.64873436e-01, 9.48096216e-02, 1.15267850e-01,
          1.28129140e-01, 1.61183953e-01, 1.45540193e-01, 1.72047064e-01,
          1.75504476e-01, 2.30651334e-01, 2.30651334e-01, 1.17125154e-01,
          9.03163701e-02, 1.15935571e-01, 1.33247942e-01, 1.35922581e-01,
          2.16910303e-01, 2.30651334e-01, 2.01923892e-01, 1.93592355e-01,
          1.53980538e-01, 1.59926817e-01, 1.87131047e-01, 1.34161741e-01,
          1.12249181e-01, 1.76465780e-01, 1.64205775e-01, 7.97691792e-02,
          1.59695789e-01, 1.45319030e-01, 2.34054729e-01, 1.82720736e-01,
          1.42950147e-01, 1.05676942e-01, 9.83387977e-02, 1.08588427e-01,
          6.28711358e-02, 1.48152024e-01, 2.34054729e-01, 2.34054729e-01,
          2.34054729e-01, 1.02116883e-01, 1.07203282e-01, 1.57080412e-01,
          2.34054729e-01, 1.32171139e-01, 1.57409877e-01, 1.37835518e-01,
          1.55815363e-01, 1.86174423e-01, 1.20379172e-01, 1.38533324e-01,
          1.11690000e-01, 2.34054729e-01, 1.26488715e-01, 1.72555089e-01,
          2.34054729e-01, 2.34054729e-01, 2.19451979e-01, 1.28440678e-01,
          7.71441162e-02, 5.00215292e-02, 2.61176452e-02, 4.48314995e-02,
          1.21931411e-01, 2.51195043e-01, 2.51195043e-01, 2.51195043e-01,
          1.38817415e-01, 4.72168550e-02, 3.11098341e-02, 2.74450630e-02,
          7.00919256e-02, 2.46782765e-01, 2.51195043e-01, 2.51195043e-01,
          1.68042675e-01, 1.13825157e-01, 1.32648125e-01, 8.23310837e-02,
          1.19449869e-01, 1.12930499e-01, 1.64323613e-01, 2.29540139e-01,
          2.51195043e-01, 1.96963266e-01, 2.08431810e-01, 9.33596939e-02,
          5.89922033e-02, 7.80756101e-02, 2.15161279e-01, 2.51195043e-01,
          2.18562588e-01, 1.88952759e-01, 8.85608271e-02, 1.74148306e-01,
          3.50303091e-02, 1.22274533e-02, 1.29625509e-02, 9.81841534e-02,
          2.64467329e-01, 1.84526011e-01, 1.07976452e-01, 5.43656535e-02,
          6.94577992e-02, 7.76186585e-02, 2.06064973e-02, 3.23088095e-02,
          1.72761217e-01, 2.64467329e-01, 1.76311016e-01, 2.24380642e-01,
          1.97344974e-01, 2.09626615e-01, 3.70566398e-02, 1.14566386e-02,
          3.43493861e-03, 5.39407171e-02, 2.48479083e-01, 2.64467329e-01,
          2.64467329e-01, 1.16471149e-01, 1.11097462e-01, 5.88352159e-02,
          6.90057361e-03, 2.41341302e-03, 7.71094561e-02, 2.64467329e-01,
          2.64467329e-01, 2.64467329e-01, 2.64467329e-01, 2.64467329e-01,
          7.11074471e-02, 6.12880215e-02, 5.43670543e-02, 1.60723835e-01,
          1.71344146e-01, 2.00869679e-01, 2.13215962e-01, 2.20935419e-01,
          1.78612351e-01, 1.15826502e-01, 1.26649573e-01, 1.46061450e-01,
          1.57920703e-01, 1.68181255e-01, 1.66482657e-01, 2.16788292e-01,
          1.83235094e-01, 1.01715870e-01, 4.23811078e-02, 3.59411389e-02,
          2.31611542e-02, 8.59351233e-02, 1.25965714e-01, 2.43229896e-01,
          2.43229896e-01, 2.43229896e-01, 2.32642025e-01, 1.13432631e-01,
          9.95564833e-02, 6.83838129e-02, 1.22982726e-01, 1.90488905e-01,
          2.28262901e-01, 2.43229896e-01, 2.43229896e-01, 1.83478862e-01,
          1.33780241e-01, 1.30819812e-01, 2.26487517e-01, 1.05650097e-01,
          1.36453226e-01, 1.07054718e-01, 1.57282159e-01, 1.22401759e-01,
          1.08795330e-01, 1.48555085e-01, 1.78558871e-01, 2.26487517e-01,
          1.31919712e-01, 1.75103143e-01, 1.20222777e-01, 2.07465246e-01,
          1.50747955e-01, 1.63741857e-01, 2.06381887e-01, 1.52059734e-01,
          1.43363521e-01, 1.05513498e-01, 2.07346752e-01, 1.34694457e-01,
          2.23687485e-01, 1.41030222e-01, 1.73244759e-01, 2.26487517e-01,
          2.26487517e-01, 2.26487517e-01, 2.23267734e-01, 2.01888204e-01,
          1.10858321e-01, 7.36640766e-02, 8.44869018e-02, 1.74523994e-01,
          1.42094061e-01, 2.02741444e-01, 2.04807073e-01, 1.51968062e-01,
          2.09150866e-01, 8.87377486e-02, 1.44074425e-01, 1.25908986e-01,
          1.55062839e-01, 1.08252794e-01, 1.08638115e-01, 1.73036873e-01,
          2.40968555e-01, 2.62965083e-01, 1.17455967e-01, 8.91532078e-02,
          4.16518636e-02, 9.58350524e-02, 1.67233407e-01, 2.62965083e-01,
          2.62965083e-01, 2.58193076e-01, 1.81679070e-01, 6.00693934e-02,
          2.84460392e-02, 4.98765707e-02, 8.94072577e-02, 9.36139822e-02,
          1.99148342e-01, 2.62965083e-01, 2.62965083e-01, 2.62965083e-01,
          6.59292638e-02, 4.55236770e-02, 1.42643154e-02, 4.56589274e-02,
          3.41785625e-02, 2.56466377e-03, 6.53234019e-04, 2.65731514e-02,
          1.10722490e-01, 2.93813109e-01, 3.26883644e-01, 1.53522953e-01,
          7.81353191e-02, 4.80216667e-02, 1.88475242e-03, 2.02838145e-03,
          3.28999758e-02, 1.66378215e-01, 3.26883644e-01, 3.26883644e-01,
          3.26883644e-01, 2.60210276e-01, 2.49835309e-02, 1.21111318e-03,
          1.90611649e-03, 5.51854901e-04, 5.15915230e-02, 7.10723251e-02,
          2.45035917e-01, 1.30778745e-01, 3.06230746e-02, 2.77031679e-02,
          6.37148134e-03, 4.24621766e-03, 8.47609341e-03, 6.01242855e-02,
          1.23259865e-01, 3.26883644e-01, 3.26883644e-01, 1.43373474e-01,
          3.10483929e-02, 1.26878368e-02, 7.44325155e-03, 2.27062404e-02,
          1.03386536e-01, 2.50624418e-01, 2.50624418e-01, 2.50624418e-01,
          2.28724211e-01, 1.65591389e-01, 8.69665146e-02, 2.45957132e-02,
          4.79459763e-02, 1.88230067e-01, 2.05559164e-01, 2.50624418e-01,
          2.50624418e-01, 2.50624418e-01, 6.41445443e-02, 2.77650859e-02,
          7.83116370e-03, 4.05677920e-03, 5.85879087e-02, 1.23005919e-01,
          2.30281055e-01, 2.50624418e-01, 2.21579209e-01, 2.50624418e-01,
          1.40363008e-01, 2.21642535e-02, 7.90361408e-03, 1.03787608e-01,
          1.23377897e-01, 1.33102551e-01, 2.49582022e-01, 2.50624418e-01,
          2.56314069e-01, 1.34525642e-01, 1.11674294e-01, 7.37853646e-02,
          2.12371007e-01, 1.01999357e-01, 1.48506269e-01, 1.37283996e-01,
          2.44918108e-01, 2.56314069e-01, 2.56314069e-01, 2.56314069e-01,
          1.65515885e-01, 1.98095322e-01, 6.05245084e-02, 2.60471590e-02,
          4.89414334e-02, 1.77443445e-01, 2.56314069e-01, 1.14510149e-01,
          9.75245386e-02, 3.03175095e-02, 9.68706161e-02, 5.47624528e-02,
          5.44495843e-02, 1.54208690e-01, 2.56314069e-01, 2.56314069e-01,
          1.59920260e-01, 2.56314069e-01, 7.12050647e-02, 9.82792303e-02,
          1.94212291e-02, 2.24896856e-02, 7.10291266e-02, 2.56314069e-01,
          2.31387109e-01, 3.00432146e-01, 3.00432146e-01, 2.55012155e-01,
          1.15771465e-01, 4.13494669e-02, 6.49647415e-03, 1.64245106e-02,
          7.44797140e-02, 6.07114844e-02, 2.62045383e-01, 3.00432146e-01,
          3.00432146e-01, 1.21789679e-01, 2.51848213e-02, 4.88842186e-03,
          4.85723047e-03, 2.27117427e-02, 2.83020526e-01, 2.93981761e-01,
          3.00432146e-01, 9.10166204e-02, 5.23051210e-02, 1.30315805e-02,
          6.90808054e-03, 3.51135083e-03, 8.98511931e-02, 4.23554331e-02,
          1.67394698e-01, 3.00432146e-01, 1.03323899e-01, 3.28785591e-02,
          7.18443142e-03, 3.11406539e-03, 5.88427472e-04, 5.62799210e-03 ]
      - [ 5.98076805e-02, 2.00978622e-01, 3.23210239e-01, 3.23210239e-01,
          9.55852494e-02, 3.37745696e-02, 2.60085240e-02, 1.38899041e-02,
          4.41392623e-02, 8.30977857e-02, 2.42397726e-01, 3.23210239e-01,
          1.93065658e-01, 6.76984191e-02, 4.53314185e-02, 3.98210771e-02,
          5.03072329e-02, 9.05105099e-02, 4.88797612e-02, 8.29556882e-02,
          3.23210239e-01, 3.23210239e-01, 1.87850341e-01, 5.71837574e-02,
          3.55326645e-02, 1.09902993e-02, 2.81177461e-02, 6.98840469e-02,
          1.74937993e-01, 3.23210239e-01, 2.72999197e-01, 1.23873815e-01,
          5.78049570e-02, 7.01017082e-02, 4.34018485e-02, 7.43760541e-02,
          8.89916867e-02, 1.72092155e-01, 1.47948593e-01, 6.68975115e-02,
          5.04904352e-02, 4.14019823e-02, 3.55974883e-02, 2.73544956e-02,
          8.32729191e-02, 2.43729308e-01, 3.48324150e-01, 1.51831120e-01,
          3.85368429e-02, 6.16489798e-02, 4.33469340e-02, 2.23375484e-02,
          2.11704075e-02, 1.37077779e-01, 6.74918666e-02, 3.48324150e-01,
          3.48324150e-01, 1.30441621e-01, 6.40523732e-02, 3.09330150e-02,
          4.51430604e-02, 3.08407731e-02, 7.40280822e-02, 3.04664850e-01,
          3.48324150e-01, 3.48324150e-01, 1.09163575e-01, 1.06386319e-01,
          7.39551112e-02, 5.45743443e-02, 3.50624286e-02, 2.06321329e-01,
          2.74068952e-01, 1.61166519e-01, 5.10013662e-02, 1.27586788e-02,
          3.15085649e-02, 1.95070039e-02, 1.33350790e-02, 5.31837195e-02,
          2.34129056e-01, 2.29910418e-01, 1.63928010e-02, 2.57699471e-02,
          1.59312710e-02, 2.28281375e-02, 1.89875737e-02, 1.01568133e-01,
          2.43348107e-01, 2.50218481e-01, 2.74068952e-01, 2.74068952e-01,
          1.81382686e-01, 9.52501222e-02, 1.26724243e-01, 8.49818885e-02,
          6.48412108e-02, 1.20543279e-01, 2.74068952e-01, 2.74068952e-01,
          5.99908344e-02, 6.21096566e-02, 6.15197644e-02, 1.02432117e-01,
          1.24994703e-01, 2.74068952e-01, 2.74068952e-01, 2.74068952e-01,
          9.44211930e-02, 1.50205037e-02, 2.52421238e-02, 2.18287986e-02,
          2.35384628e-02, 4.94272709e-02, 1.93893671e-01, 2.71539032e-01,
          1.08848743e-01, 3.19512412e-02, 1.69990342e-02, 1.55129256e-02,
          6.70036022e-03, 5.22150807e-02, 8.79077315e-02, 1.40478000e-01,
          9.32971761e-02, 2.94225961e-02, 1.39093190e-01, 4.22648564e-02,
          3.79160121e-02, 2.70906314e-02, 5.33695929e-02, 2.65590757e-01,
          3.86778951e-01, 3.86778951e-01, 2.40157768e-01, 3.66481133e-02,
          3.48831937e-02, 2.25053038e-02, 1.98731739e-02, 6.56522065e-02,
          3.86778951e-01, 3.86778951e-01, 2.35917330e-01, 4.65465933e-02,
          1.64344702e-02, 2.31805146e-02, 1.45562157e-01, 2.72221059e-01,
          1.77714795e-01, 4.38699089e-02, 2.17895992e-02, 7.02439155e-03,
          1.04178283e-02, 3.45887206e-02, 1.02051690e-01, 3.42757165e-01,
          3.42757165e-01, 1.69070095e-01, 2.48245019e-02, 3.15788351e-02,
          1.44989518e-02, 2.00791247e-02, 8.73656292e-03, 6.37650769e-03,
          4.32757214e-02, 2.74340361e-01, 3.42757165e-01, 1.10514529e-01,
          2.88464036e-02, 1.07451314e-02, 7.84336496e-03, 3.75330783e-02,
          3.76649462e-02, 3.42757165e-01, 3.42757165e-01, 3.42757165e-01,
          1.47721156e-01, 2.33295131e-02, 4.78977636e-02, 3.24961990e-02,
          5.87063991e-02, 1.92383036e-01, 2.65380055e-01, 2.04833090e-01,
          9.03606787e-02, 9.65924561e-03, 3.03904377e-02, 2.79265679e-02,
          6.22606277e-02, 1.89268932e-01, 2.65380055e-01, 2.65380055e-01,
          1.62278518e-01, 1.59616753e-01, 5.73030710e-02, 7.59014562e-02,
          3.93747911e-02, 1.70564830e-01, 8.94514769e-02, 5.22043742e-02,
          2.65380055e-01, 2.65380055e-01, 2.54907370e-01, 9.31606293e-02,
          5.68192005e-02, 1.18870705e-01, 1.30983844e-01, 2.11008862e-01,
          1.47862554e-01, 2.53489375e-01, 1.84236184e-01, 2.02188224e-01,
          1.28505081e-01, 1.23986512e-01, 1.18364848e-01, 2.26665631e-01,
          1.63745821e-01, 1.92590147e-01, 2.29369625e-01, 1.55038744e-01,
          1.99951977e-01, 1.45840764e-01, 8.74195993e-02, 6.55277446e-02,
          1.31174207e-01, 1.88584268e-01, 4.92941439e-02, 6.88937232e-02,
          8.63566771e-02, 1.90447062e-01, 2.32374340e-01, 2.32374340e-01,
          2.32374340e-01, 2.32374340e-01, 1.35342255e-01, 1.10585816e-01,
          1.98443204e-01, 1.30234167e-01, 1.76635265e-01, 1.71375856e-01,
          1.07957475e-01, 5.38593829e-02, 1.14424735e-01, 2.15781078e-01,
          1.27907753e-01, 1.21669203e-01, 9.16370749e-02, 2.02882349e-01,
          2.32374340e-01, 1.79384485e-01, 1.47343874e-01, 2.32374340e-01,
          1.04087003e-01, 2.74155624e-02, 3.84355783e-02, 4.02555689e-02,
          9.92599577e-02, 2.86222607e-01, 2.86222607e-01, 2.56849557e-01,
          1.84521437e-01, 1.27455341e-02, 1.93056818e-02, 1.29089653e-02,
          3.04834414e-02, 1.32698670e-01, 2.86222607e-01, 2.86222607e-01,
          9.25157517e-02, 3.15946303e-02, 1.89679831e-01, 1.46933362e-01,
          9.51353833e-02, 1.06000416e-01, 2.49486625e-01, 2.44706169e-01,
          2.01614410e-01, 1.24570824e-01, 2.14262247e-01, 3.06019597e-02,
          4.13070843e-02, 5.15444614e-02, 1.15784779e-01, 2.86222607e-01,
          2.86222607e-01, 1.58123404e-01, 6.51106536e-02, 4.73722517e-02,
          1.17480336e-02, 3.49377631e-03, 1.50734708e-02, 1.30984411e-01,
          3.09143931e-01, 1.63520455e-01, 2.73967274e-02, 1.27893342e-02,
          6.89075235e-03, 3.40421796e-02, 8.51949211e-03, 5.23223728e-02,
          3.26693743e-01, 3.26693743e-01, 3.26693743e-01, 8.58511552e-02,
          4.68077399e-02, 2.37281714e-02, 2.11196430e-02, 1.26747880e-02,
          2.88343094e-02, 4.78959978e-02, 3.08292538e-01, 2.90409088e-01,
          6.49816170e-02, 2.23888867e-02, 1.95389800e-02, 4.23969924e-02,
          1.44279357e-02, 4.95582446e-02, 6.28110692e-02, 3.26693743e-01,
          3.26693743e-01, 3.26693743e-01, 6.39454499e-02, 2.73678098e-02,
          7.60044754e-02, 1.03916312e-02, 9.26940292e-02, 1.84430972e-01,
          2.57795304e-01, 2.57795304e-01, 1.22183427e-01, 1.42873690e-01,
          7.51097575e-02, 9.52354372e-02, 3.08642965e-02, 1.43081188e-01,
          1.63356110e-01, 1.72634333e-01, 2.28142992e-01, 1.53514028e-01,
          1.62575155e-01, 1.24041900e-01, 8.09160694e-02, 1.46131488e-02,
          1.44135326e-01, 1.01945609e-01, 2.52684444e-01, 2.57795304e-01,
          2.57795304e-01, 1.27664000e-01, 3.55347916e-02, 1.26401588e-01,
          1.19754881e-01, 2.57795304e-01, 1.80960372e-01, 1.69964507e-01,
          1.84210315e-01, 2.57795304e-01, 2.00851843e-01, 1.38621673e-01,
          8.12666863e-02, 4.70207930e-02, 1.02565177e-01, 8.98484662e-02,
          1.25996828e-01, 1.54627293e-01, 7.61090592e-02, 7.59494081e-02,
          1.20566472e-01, 1.44291908e-01, 2.02991545e-01, 1.76498026e-01,
          1.77394763e-01, 2.30260417e-01, 2.14868039e-01, 5.45692369e-02,
          9.09390822e-02, 1.18996978e-01, 1.79634675e-01, 1.79884955e-01,
          2.30260417e-01, 8.14160481e-02, 1.07139476e-01, 1.66150555e-01,
          2.04790533e-01, 1.73896879e-01, 2.30260417e-01, 1.30913943e-01,
          2.30260417e-01, 2.30260417e-01, 2.06848174e-01, 2.22843051e-01,
          2.30260417e-01, 1.77833349e-01, 1.96704552e-01, 1.66272536e-01,
          1.36270359e-01, 2.37642214e-01, 1.85459003e-01, 2.82672733e-01,
          2.66580731e-01, 1.33812860e-01, 4.06267382e-02, 6.67427406e-02,
          8.15147832e-02, 4.35403287e-02, 7.34964162e-02, 1.42923266e-01,
          2.82672733e-01, 2.82672733e-01, 1.17120408e-01, 2.16744207e-02,
          3.48075256e-02, 2.86423769e-02, 5.07538356e-02, 2.27013960e-01,
          2.82672733e-01, 2.82672733e-01, 1.69676781e-01, 1.62727892e-01,
          5.65261059e-02, 1.06704071e-01, 6.55936822e-02, 3.73368300e-02,
          1.25558123e-01, 2.82672733e-01, 2.82672733e-01, 1.78741708e-01,
          6.73730075e-02, 9.27497353e-03, 2.16960516e-02, 1.66362207e-02,
          2.31857859e-02, 2.18053572e-02, 2.81155370e-02, 3.24270204e-02,
          2.25184426e-01, 2.99327761e-01, 2.85619259e-01, 6.04891405e-02,
          3.65326405e-02, 5.30842543e-02, 4.58721742e-02, 6.57968521e-02,
          5.62277064e-02, 1.77657038e-01, 3.22354227e-01, 3.22354227e-01,
          1.54755071e-01, 6.51399791e-02, 2.14388780e-02, 1.89069491e-02,
          1.81837548e-02, 1.99116673e-02, 9.94715020e-02, 2.88390011e-01,
          3.22354227e-01, 1.94111601e-01, 5.39241806e-02, 5.47634438e-02,
          6.09694682e-02, 5.77483885e-02, 3.75640132e-02, 1.11004457e-01,
          1.73273027e-01, 3.22354227e-01, 2.69281358e-01, 1.33099988e-01,
          3.93855870e-02, 2.49072965e-02, 7.38078654e-02, 4.79380079e-02,
          7.89744332e-02, 1.72119468e-01, 2.87099659e-01, 2.87099659e-01,
          6.01046197e-02, 1.27055466e-01, 1.12718843e-01, 2.30877966e-01,
          9.04278979e-02, 9.21182260e-02, 6.28484562e-02, 2.87099659e-01,
          2.87099659e-01, 2.71374196e-01, 2.27134861e-02, 3.32553349e-02,
          5.13906479e-02, 3.25658545e-02, 4.25060466e-02, 5.32334521e-02,
          2.87099659e-01, 2.87099659e-01, 1.16215125e-01, 1.53162017e-01,
          3.83808017e-02, 3.62676345e-02, 4.69070151e-02, 2.98202373e-02,
          2.23450996e-02, 2.42102683e-01, 2.87099659e-01, 2.87099659e-01,
          2.72023618e-01, 1.85402647e-01, 2.04691842e-01, 6.29935488e-02,
          8.03241581e-02, 9.76083577e-02, 1.92384928e-01, 1.66741356e-01,
          2.72023618e-01, 1.98209554e-01, 2.72023618e-01, 2.72023618e-01,
          8.81528780e-02, 5.41573614e-02, 1.29059434e-01, 1.42049149e-01,
          9.12283435e-02, 1.09376810e-01, 2.72023618e-01, 1.45300895e-01,
          6.01056367e-02, 3.06266360e-02, 2.83406936e-02, 2.35566888e-02,
          5.35018034e-02, 1.53345540e-01, 2.72023618e-01, 2.72023618e-01,
          2.72023618e-01, 2.72023618e-01, 3.42034176e-02, 2.78073028e-02,
          2.65541188e-02, 2.54586618e-02, 1.48862470e-02, 7.90409073e-02,
          6.52111024e-02, 3.18515480e-01, 3.18515480e-01, 1.90582022e-01,
          3.67968269e-02, 6.81846663e-02, 4.02300470e-02, 5.99097982e-02,
          5.68046309e-02, 3.86023186e-02, 1.94180578e-01, 3.18515480e-01,
          3.18515480e-01, 1.30239889e-01, 5.03822900e-02, 8.40026885e-03,
          1.74200106e-02, 3.89682576e-02, 1.05825722e-01, 3.18515480e-01,
          3.18515480e-01, 9.11473036e-02, 5.51924668e-02, 2.25647278e-02,
          3.37500200e-02, 2.72902064e-02, 7.82382339e-02, 4.08292860e-02,
          2.02265784e-01, 2.61323452e-01, 3.01480591e-01, 1.79866686e-01,
          1.89070702e-02, 1.50125502e-02, 1.84564125e-02, 8.00108314e-02 ]
      - [ 6.85310783e-03, 7.74764642e-02, 3.40578437e-01, 3.27558607e-01,
          1.67949840e-01, 5.43807894e-02, 1.57581568e-02, 2.69384519e-03,
          2.53149820e-03, 9.73227527e-03, 2.36856222e-01, 3.40578437e-01,
          1.75012365e-01, 7.08486214e-02, 3.14904414e-02, 1.06200529e-02,
          3.67812044e-03, 5.47134923e-03, 7.73841236e-03, 7.43089542e-02,
          3.40578437e-01, 3.40578437e-01, 1.99871272e-01, 3.58324647e-02,
          7.92682450e-03, 1.68531586e-03, 3.71769094e-03, 7.11968169e-03,
          1.14670932e-01, 3.40578437e-01, 3.40578437e-01, 5.19692488e-02,
          6.82269502e-03, 4.25406732e-03, 1.92263140e-03, 3.00777028e-03,
          8.67151245e-02, 3.30220073e-01, 3.30220073e-01, 1.11886412e-01,
          3.83427888e-02, 2.07728166e-02, 1.05110658e-02, 9.38334502e-03,
          1.33483987e-02, 2.38650024e-01, 3.30220073e-01, 1.70094937e-01,
          2.67793760e-02, 5.28161675e-02, 2.75682285e-02, 2.19099205e-02,
          4.23412994e-02, 5.68409674e-02, 6.73744008e-02, 2.21609309e-01,
          3.30220073e-01, 1.97856486e-01, 5.96536137e-02, 4.47884165e-02,
          7.00976178e-02, 6.57786503e-02, 4.56448346e-02, 2.23369136e-01,
          1.51099324e-01, 2.05669641e-01, 1.10347487e-01, 1.81035429e-01,
          2.05449700e-01, 1.66650429e-01, 2.45490432e-01, 2.06489965e-01,
          2.18133792e-01, 1.36002481e-01, 3.77100632e-02, 2.07317490e-02,
          5.26802503e-02, 3.90890203e-02, 3.93323414e-02, 7.50300512e-02,
          1.43459484e-01, 1.35394245e-01, 5.86285479e-02, 1.31329549e-02,
          1.63423046e-02, 3.95807065e-02, 4.22678813e-02, 1.25163019e-01,
          2.59340912e-01, 2.27492914e-01, 2.63006210e-01, 1.41355529e-01,
          1.09739095e-01, 9.40760374e-02, 2.34769702e-01, 2.13521332e-01,
          1.68949738e-01, 2.63006210e-01, 2.63006210e-01, 2.19795376e-01,
          1.71799675e-01, 3.01021356e-02, 1.02117017e-01, 1.81790888e-01,
          1.72554478e-01, 2.63006210e-01, 2.63006210e-01, 2.63006210e-01,
          3.24452557e-02, 1.88500602e-02, 8.45417753e-03, 1.11816758e-02,
          2.91797165e-02, 3.19454521e-02, 2.36494258e-01, 2.93980300e-01,
          1.31426871e-01, 2.47142445e-02, 9.28447768e-03, 6.28744485e-03,
          2.26892941e-02, 1.89972803e-01, 2.79698581e-01, 2.93980300e-01,
          2.93980300e-01, 6.85296506e-02, 5.85367493e-02, 4.81353886e-02,
          2.48117726e-02, 4.60060611e-02, 1.24436632e-01, 1.55233771e-01,
          2.93980300e-01, 2.93980300e-01, 2.01006502e-01, 4.59257029e-02,
          6.88651344e-03, 1.34918578e-02, 2.07981281e-02, 1.57472894e-01,
          2.93980300e-01, 2.93980300e-01, 2.54775107e-01, 1.19177066e-01,
          5.33118984e-03, 2.67154928e-02, 2.02681825e-01, 3.59137028e-01,
          3.59137028e-01, 3.42313014e-02, 2.11828109e-03, 8.52629170e-03,
          8.49042553e-03, 1.65070649e-02, 6.95501864e-02, 1.70567393e-01,
          3.59137028e-01, 1.54468000e-01, 3.13253887e-02, 2.11457759e-02,
          8.25667102e-03, 9.55352001e-03, 3.63994460e-03, 1.14690783e-02,
          1.66312084e-02, 3.59137028e-01, 3.59137028e-01, 2.55131274e-01,
          1.56752858e-02, 1.50636397e-02, 8.90397467e-03, 3.19621079e-02,
          3.94496731e-02, 2.83304267e-02, 1.96184054e-01, 3.43959570e-01,
          1.36493534e-01, 4.90680225e-02, 2.70746518e-02, 2.65952293e-02,
          9.56273898e-02, 1.18711986e-01, 9.80766565e-02, 1.58136219e-01,
          1.10577762e-01, 7.17005506e-02, 1.08912341e-01, 7.84075633e-02,
          8.57663900e-02, 2.16686904e-01, 1.42547980e-01, 2.13602424e-01,
          2.19306216e-01, 2.30641574e-01, 1.42819464e-01, 1.56775683e-01,
          1.77982584e-01, 2.22086310e-01, 1.58142701e-01, 1.11950547e-01,
          6.67296797e-02, 2.01845869e-01, 2.32528895e-01, 1.57683641e-01,
          1.33025885e-01, 8.03026408e-02, 1.52092174e-01, 2.05194101e-01,
          1.52934834e-01, 1.92157105e-01, 2.34721884e-01, 2.34721884e-01,
          2.34721884e-01, 1.63336784e-01, 1.19805641e-01, 1.98017240e-01,
          1.57854408e-01, 1.09457560e-01, 1.33232668e-01, 1.00906551e-01,
          1.72066465e-01, 1.35608003e-01, 1.37392819e-01, 2.23872483e-01,
          2.04487413e-01, 8.24039653e-02, 8.45289230e-02, 3.41314301e-02,
          6.25739694e-02, 1.67715862e-01, 2.37180218e-01, 2.50082672e-01,
          2.50082672e-01, 1.93536013e-01, 9.51226428e-02, 1.23454772e-01,
          1.57609910e-01, 1.43417269e-01, 1.77072152e-01, 2.08558843e-01,
          1.19480573e-01, 1.60157010e-01, 1.12684660e-01, 5.20847924e-02,
          1.03544749e-01, 1.21905424e-01, 2.05012023e-01, 2.50082672e-01,
          2.50082672e-01, 2.50082672e-01, 2.08763137e-01, 9.60125327e-02,
          5.06759584e-02, 2.25094073e-02, 2.21378542e-02, 6.43382594e-02,
          2.22372219e-01, 2.77359873e-01, 2.77359873e-01, 1.90697357e-01,
          1.49873853e-01, 3.62924188e-02, 3.83449974e-03, 1.15250880e-02,
          4.24432941e-02, 2.77359873e-01, 2.77359873e-01, 2.18180090e-01,
          1.08395196e-01, 8.71028677e-02, 5.49441166e-02, 3.70574333e-02,
          7.81682879e-02, 2.74087310e-01, 2.77359873e-01, 2.77359873e-01,
          1.82910874e-01, 8.67214054e-02, 9.54015702e-02, 3.61317173e-02,
          1.29874349e-02, 3.60932052e-02, 2.18928769e-01, 2.77359873e-01,
          2.77359873e-01, 6.49508983e-02, 4.31183390e-02, 5.58987856e-02,
          5.58403041e-03, 1.44406082e-03, 1.53613416e-03, 5.40930443e-02,
          3.51469517e-01, 3.51469517e-01, 4.63234410e-02, 1.79433599e-02,
          1.39926355e-02, 2.05324497e-02, 1.08893523e-02, 1.63357891e-02,
          4.87779304e-02, 2.21525386e-01, 2.69993663e-01, 6.22022077e-02,
          4.07998338e-02, 2.00622957e-02, 6.43204525e-03, 5.52421808e-03,
          1.16944779e-02, 7.42548052e-03, 3.50143433e-01, 3.51469517e-01,
          3.26731205e-01, 1.35261025e-02, 1.13537060e-02, 4.15921863e-03,
          4.79265116e-03, 1.57282855e-02, 5.75363915e-03, 9.68168527e-02,
          3.51469517e-01, 3.49982917e-01, 5.85907139e-02, 1.01349466e-02,
          1.16595007e-01, 1.12457089e-01, 1.16584122e-01, 1.32868856e-01,
          1.91122875e-01, 1.89956531e-01, 1.34078592e-01, 1.32102042e-01,
          1.56251743e-01, 1.30666673e-01, 1.47023857e-01, 1.35458365e-01,
          1.56476438e-01, 2.46465996e-01, 2.46465996e-01, 2.46465996e-01,
          2.20104694e-01, 2.35254288e-01, 2.38807239e-02, 6.82206675e-02,
          7.73685202e-02, 2.67133508e-02, 8.76928642e-02, 2.27144435e-01,
          2.46465996e-01, 2.24508926e-01, 8.32160488e-02, 9.23527405e-02,
          1.41042560e-01, 9.01963040e-02, 3.26411612e-02, 1.14754423e-01,
          1.33169368e-01, 2.46465996e-01, 2.46465996e-01, 2.46465996e-01,
          1.05337590e-01, 1.41122729e-01, 1.21134706e-01, 9.60902721e-02,
          1.66416556e-01, 1.84355170e-01, 1.61907539e-01, 1.75945669e-01,
          1.47733346e-01, 1.31101966e-01, 2.30649218e-01, 2.47376949e-01,
          2.47376949e-01, 2.47376949e-01, 1.75647169e-01, 7.17585608e-02,
          6.71103299e-02, 9.88548994e-02, 2.03013048e-01, 1.97623193e-01,
          1.02101713e-01, 2.84673646e-02, 7.19647110e-02, 9.39638689e-02,
          1.94133624e-01, 2.30117574e-01, 2.29160428e-01, 2.41912007e-01,
          2.47376949e-01, 2.47376949e-01, 8.34169686e-02, 1.32493615e-01,
          9.51576978e-02, 1.09335169e-01, 6.48258403e-02, 1.35558978e-01,
          7.79972076e-02, 1.25486955e-01, 2.85394579e-01, 2.85394579e-01,
          2.85394579e-01, 2.04803973e-01, 4.27704602e-02, 3.98572162e-02,
          7.61570409e-02, 3.88449468e-02, 6.16273060e-02, 2.09257498e-01,
          2.85394579e-01, 2.85394579e-01, 1.37054101e-01, 8.19084607e-03,
          1.73546355e-02, 4.04674336e-02, 1.17264271e-01, 2.65198797e-01,
          2.85394579e-01, 1.61461905e-01, 9.80942249e-02, 6.84892312e-02,
          2.79277414e-02, 3.40054631e-02, 6.78978115e-02, 6.13241568e-02,
          2.20711872e-01, 2.85394579e-01, 2.85394579e-01, 1.33875921e-01,
          1.89044923e-02, 6.13243785e-04, 9.86026786e-03, 2.83928923e-02,
          1.50243333e-03, 4.47703619e-03, 9.44336317e-03, 1.96910519e-02,
          1.35336980e-01, 3.14905256e-01, 3.14905256e-01, 1.96161605e-02,
          1.30140886e-03, 1.31054097e-04, 1.47815107e-03, 8.53533763e-03,
          5.57270693e-03, 3.23907435e-02, 3.14905256e-01, 3.14905256e-01,
          1.42768219e-01, 8.89471360e-03, 1.83600246e-03, 2.09419755e-03,
          6.09954447e-03, 8.40983540e-02, 3.14905256e-01, 2.98836678e-01,
          3.14905256e-01, 2.98966337e-02, 2.18391721e-03, 1.33119971e-02,
          2.57145683e-03, 1.19229825e-02, 4.59924974e-02, 1.34659991e-01,
          2.04467669e-01, 3.14905256e-01, 3.14905256e-01, 5.48721291e-02,
          7.03802146e-03, 1.83761381e-02, 6.69883750e-03, 7.24334363e-03,
          2.66729258e-02, 1.59249932e-01, 3.46255243e-01, 3.46255243e-01,
          4.69600260e-02, 5.27439676e-02, 6.71663284e-02, 1.59864537e-02,
          1.90024134e-02, 3.09334453e-02, 6.04970343e-02, 1.49588346e-01,
          2.37407431e-01, 1.35197103e-01, 6.88208267e-02, 1.57877412e-02,
          1.73605531e-02, 1.46933040e-02, 2.53435075e-02, 7.73419589e-02,
          3.46255243e-01, 3.46255243e-01, 2.61447132e-01, 1.11997388e-01,
          3.06154937e-02, 8.38398375e-03, 1.41208712e-02, 2.82512717e-02,
          3.21853571e-02, 2.06912115e-01, 3.46255243e-01, 3.46255243e-01,
          2.04702735e-01, 1.79236695e-01, 5.95189147e-02, 2.10429877e-02,
          3.39434408e-02, 7.75483027e-02, 1.27506867e-01, 1.66465923e-01,
          2.12431699e-01, 2.77193338e-01, 2.69363195e-01, 2.60443330e-01,
          3.98933478e-02, 4.56498303e-02, 4.46301103e-02, 9.67585817e-02,
          1.03666186e-01, 1.44290835e-01, 2.48243257e-01, 8.31985623e-02,
          1.43952118e-02, 1.30522680e-02, 1.38102740e-01, 1.31839707e-01,
          1.66133314e-01, 2.77193338e-01, 2.77193338e-01, 2.77193338e-01,
          1.44292802e-01, 5.89180551e-02, 1.09500773e-02, 1.72910169e-01,
          1.09254248e-01, 1.39061749e-01, 1.82282031e-01, 2.77193338e-01,
          1.82731926e-01, 2.89344698e-01, 2.89344698e-01, 8.51126313e-02,
          2.99904589e-02, 2.22188029e-02, 3.57004069e-02, 6.57910854e-02,
          9.26336721e-02, 1.03624403e-01, 2.89344698e-01, 2.89344698e-01,
          2.89344698e-01, 1.45072564e-01, 1.19986963e-02, 1.09964442e-02,
          1.84577983e-02, 5.09937480e-02, 1.64540797e-01, 2.01574236e-01,
          1.27684370e-01, 3.27894241e-02, 8.00681934e-02, 4.55220826e-02,
          1.17820300e-01, 1.80266052e-01, 1.88768998e-01, 5.54923005e-02,
          2.69877166e-01, 2.26243377e-01, 2.70404696e-01, 2.89344698e-01,
          6.26577809e-02, 8.68092179e-02, 1.01009235e-01, 7.82501027e-02 ]
      - [ 5.25203720e-02, 1.59653842e-01, 3.23824733e-01, 3.23824733e-01,
          1.00885339e-01, 2.26540826e-02, 4.04031090e-02, 4.32164408e-02,
          2.62244008e-02, 4.84709293e-02, 3.23824733e-01, 3.23824733e-01,
          1.60948947e-01, 4.25776020e-02, 2.55650077e-02, 3.26680951e-02,
          3.63909081e-02, 2.21898351e-02, 4.99452539e-02, 6.86155632e-02,
          3.23824733e-01, 3.23824733e-01, 1.48682281e-01, 4.70302626e-03,
          4.30012047e-02, 2.41294391e-02, 2.27010287e-02, 4.36955057e-02,
          1.98228329e-01, 3.23824733e-01, 3.23824733e-01, 8.08482245e-02,
          9.92906652e-03, 2.46045236e-02, 1.71859413e-02, 1.07883662e-02,
          1.15858249e-01, 3.23961765e-01, 3.23961765e-01, 6.12279810e-02,
          1.72499660e-02, 1.63391698e-02, 1.03267813e-02, 1.91731881e-02,
          1.82995927e-02, 3.23961765e-01, 3.23961765e-01, 1.64608523e-01,
          1.33257657e-02, 2.20008679e-02, 8.42318032e-03, 6.10026903e-02,
          1.99379027e-02, 6.52357936e-02, 5.15792929e-02, 3.23961765e-01,
          3.23961765e-01, 1.90897763e-01, 4.41231653e-02, 2.24893484e-02,
          1.87785607e-02, 1.70281362e-02, 1.32883061e-02, 1.61225259e-01,
          3.23961765e-01, 3.23961765e-01, 7.86327198e-02, 6.23954758e-02,
          4.18318845e-02, 1.11336090e-01, 7.17382059e-02, 6.83254823e-02,
          2.63207763e-01, 2.26307169e-01, 6.13337643e-02, 1.75683461e-02,
          5.84452190e-02, 3.05767003e-02, 5.80903366e-02, 3.09733283e-02,
          2.03515470e-01, 2.63207763e-01, 8.25314447e-02, 5.56946620e-02,
          7.60895088e-02, 1.02272503e-01, 4.29934040e-02, 7.60482028e-02,
          2.45219350e-01, 2.63207763e-01, 2.63207763e-01, 2.63207763e-01,
          1.78658932e-01, 5.61766401e-02, 1.17867276e-01, 9.08987224e-02,
          1.15615234e-01, 1.36152923e-01, 2.29920879e-01, 2.50633210e-01,
          7.69911855e-02, 7.99500570e-02, 9.26624909e-02, 2.36412287e-01,
          1.32936165e-01, 1.17566571e-01, 2.63207763e-01, 2.63207763e-01,
          8.59764665e-02, 2.59792395e-02, 2.72566602e-02, 4.53198887e-02,
          5.56363650e-02, 2.92236377e-02, 2.01822400e-01, 2.78936476e-01,
          1.82709962e-01, 5.06686978e-02, 2.97167022e-02, 5.64751923e-02,
          1.30106509e-01, 2.53942102e-01, 2.05772221e-01, 2.78936476e-01,
          2.78936476e-01, 7.35420883e-02, 7.91915432e-02, 3.05167232e-02,
          1.77718904e-02, 4.84037958e-02, 1.08791620e-01, 1.09700173e-01,
          2.78936476e-01, 2.78936476e-01, 2.58245051e-01, 8.75552893e-02,
          6.20526448e-02, 6.57718107e-02, 1.02509543e-01, 1.38719127e-01,
          2.67135799e-01, 2.78936476e-01, 2.78936476e-01, 1.02293529e-01,
          1.15959160e-02, 2.40956694e-02, 2.65233487e-01, 3.13939124e-01,
          2.88146406e-01, 2.21153591e-02, 2.08898000e-02, 1.51687898e-02,
          1.15883043e-02, 3.11150588e-02, 5.80635853e-02, 3.13939124e-01,
          3.13939124e-01, 2.30752736e-01, 2.45905370e-02, 7.15688057e-03,
          6.79237256e-03, 1.12909684e-02, 1.55199750e-03, 2.26404425e-03,
          4.85253446e-02, 3.13939124e-01, 3.13939124e-01, 1.62211224e-01,
          7.58241350e-03, 9.83746070e-03, 9.31404345e-03, 1.71551686e-02,
          4.04755548e-02, 1.71087831e-01, 3.13939124e-01, 3.13939124e-01,
          1.77412689e-01, 2.55426262e-02, 1.66823193e-02, 2.52058636e-02,
          9.32105407e-02, 1.81925163e-01, 2.54502118e-01, 2.54502118e-01,
          1.41731605e-01, 4.83260751e-02, 2.38226932e-02, 1.01392111e-02,
          2.63998471e-02, 1.70102745e-01, 2.54502118e-01, 2.54502118e-01,
          1.58695966e-01, 1.48810372e-01, 8.02505240e-02, 1.16107300e-01,
          5.53724915e-02, 9.09604281e-02, 1.06248245e-01, 1.07158422e-01,
          2.54502118e-01, 2.54502118e-01, 2.54502118e-01, 1.91066906e-01,
          5.90928309e-02, 3.44010331e-02, 6.45641834e-02, 1.70730889e-01,
          1.68458223e-01, 2.54502118e-01, 2.15037346e-01, 2.54502118e-01,
          2.16277793e-01, 1.01284340e-01, 6.48578256e-02, 9.10100937e-02,
          1.90980941e-01, 2.24688843e-01, 2.24688843e-01, 7.45351613e-02,
          1.67408422e-01, 8.05755928e-02, 1.25155583e-01, 1.37275785e-01,
          1.45629391e-01, 1.68608084e-01, 8.78485739e-02, 9.84966308e-02,
          7.96092302e-02, 2.24688843e-01, 1.59936011e-01, 1.63107857e-01,
          2.24688843e-01, 2.24688843e-01, 1.53563604e-01, 1.80489779e-01,
          2.24688843e-01, 1.61429748e-01, 1.89911336e-01, 1.33378103e-01,
          1.29568949e-01, 1.37654901e-01, 7.81766847e-02, 1.38727009e-01,
          1.39951497e-01, 1.76400542e-01, 1.90348133e-01, 2.10597143e-01,
          2.06341177e-01, 1.85211524e-01, 1.88046739e-01, 1.32343516e-01,
          7.26639777e-02, 4.14502025e-02, 2.16795765e-02, 4.01932858e-02,
          1.65404290e-01, 2.25169286e-01, 2.88040102e-01, 2.28014335e-01,
          1.39802307e-01, 3.65754440e-02, 2.56601050e-02, 1.12802507e-02,
          3.32610346e-02, 2.54494220e-01, 2.88040102e-01, 2.88040102e-01,
          1.52620450e-01, 4.89135273e-02, 8.26035216e-02, 9.30949673e-02,
          6.99890181e-02, 1.22988433e-01, 2.88040102e-01, 2.88040102e-01,
          1.82299614e-01, 1.02980591e-01, 1.26271665e-01, 3.17423046e-02,
          3.71343195e-02, 2.89372262e-02, 1.72363058e-01, 2.88040102e-01,
          2.88040102e-01, 1.73619881e-01, 4.61299233e-02, 5.90656176e-02,
          1.92775263e-03, 5.41620073e-04, 1.24679478e-02, 1.04136519e-01,
          3.33741635e-01, 3.33741635e-01, 3.58902775e-02, 2.33465992e-03,
          6.08284259e-03, 1.05567314e-02, 2.76935752e-02, 3.12625207e-02,
          1.10828817e-01, 3.33741635e-01, 3.33741635e-01, 1.14203416e-01,
          2.82478239e-02, 2.81598493e-02, 8.62643681e-03, 8.08560941e-03,
          1.37532847e-02, 3.03869732e-02, 2.06057817e-01, 3.33741635e-01,
          3.33741635e-01, 6.40725717e-03, 2.15008035e-02, 8.35302286e-03,
          1.13543654e-02, 1.70593075e-02, 2.25125495e-02, 1.21461600e-01,
          3.33741635e-01, 3.33741635e-01, 6.27653450e-02, 2.42165867e-02,
          8.40543732e-02, 9.01733488e-02, 7.48182833e-02, 1.73198164e-01,
          2.55752742e-01, 2.55752742e-01, 1.76315963e-01, 9.12936479e-02,
          9.61011946e-02, 1.70790717e-01, 1.08286507e-01, 1.15660027e-01,
          1.78579822e-01, 1.93389654e-01, 2.55752742e-01, 1.66181535e-01,
          1.49737626e-01, 1.21781513e-01, 6.85285851e-02, 4.31917831e-02,
          4.16715704e-02, 8.36776793e-02, 6.74843192e-02, 2.55752742e-01,
          2.55752742e-01, 2.11913019e-01, 7.25844204e-02, 2.01208755e-01,
          1.03309371e-01, 1.02934241e-01, 2.09001899e-01, 1.14738472e-01,
          1.77715123e-01, 2.55752742e-01, 2.55752742e-01, 1.77440032e-01,
          1.93782419e-01, 1.07103080e-01, 1.40676543e-01, 1.29966497e-01,
          1.26328379e-01, 1.60715684e-01, 1.20416880e-01, 1.33066088e-01,
          8.65750685e-02, 1.70545414e-01, 1.41463220e-01, 2.21493125e-01,
          2.14286745e-01, 1.96730927e-01, 1.35297760e-01, 1.00555427e-01,
          1.13747418e-01, 1.33435115e-01, 2.34378725e-01, 1.31991863e-01,
          1.45027131e-01, 1.18163064e-01, 1.63532898e-01, 1.40000850e-01,
          1.01662137e-01, 1.69716761e-01, 1.78076372e-01, 2.34378725e-01,
          2.34378725e-01, 2.34378725e-01, 1.71194330e-01, 1.77705139e-01,
          1.49132580e-01, 1.08295426e-01, 2.32832551e-01, 2.23861650e-01,
          6.82428852e-02, 9.40960720e-02, 2.25933418e-01, 2.09396407e-01,
          2.53627032e-01, 1.12698875e-01, 7.42197707e-02, 5.61991483e-02,
          1.23794138e-01, 2.38274522e-02, 3.64305042e-02, 2.31005728e-01,
          3.20365638e-01, 3.20365638e-01, 1.03081338e-01, 3.14036123e-02,
          1.58800837e-02, 5.27311936e-02, 7.58541673e-02, 2.47269750e-01,
          3.20365638e-01, 2.21646264e-01, 9.77115035e-02, 3.53644751e-02,
          8.01054239e-02, 1.17953710e-01, 1.20320484e-01, 1.89099610e-02,
          1.36531010e-01, 3.20365638e-01, 3.20365638e-01, 1.49607927e-01,
          6.11053919e-03, 1.87695958e-02, 1.04236612e-02, 2.81742867e-02,
          1.18026091e-02, 2.13693995e-02, 1.67683288e-02, 1.92094222e-02,
          5.42282276e-02, 3.32288831e-01, 3.32288831e-01, 4.27329876e-02,
          2.57437043e-02, 7.08542066e-03, 1.09265633e-02, 7.23824464e-03,
          7.13158352e-03, 2.15168167e-02, 3.32288831e-01, 3.32288831e-01,
          1.58361554e-01, 2.46896073e-02, 8.69860873e-03, 2.46412847e-02,
          1.25106564e-02, 1.53348381e-02, 6.16177469e-02, 3.32288831e-01,
          3.32288831e-01, 1.76089779e-01, 3.43069732e-02, 2.01456621e-02,
          2.11502314e-02, 1.77027145e-03, 1.33483857e-02, 3.59492861e-02,
          1.82137862e-01, 3.32288831e-01, 3.32288831e-01, 8.77301171e-02,
          2.60489956e-02, 1.12894056e-02, 1.46986004e-02, 1.97346453e-02,
          2.01021396e-02, 1.43952221e-01, 2.98492938e-01, 2.93613255e-01,
          6.35678917e-02, 9.33566242e-02, 3.99227031e-02, 5.93269914e-02,
          9.23848376e-02, 7.93313906e-02, 1.02209136e-01, 2.98492938e-01,
          2.98492938e-01, 2.79875904e-01, 1.10180661e-01, 2.58937273e-02,
          3.66802071e-03, 9.19597596e-03, 3.55993174e-02, 8.39699581e-02,
          2.98492938e-01, 2.98492938e-01, 2.64393628e-01, 2.08185598e-01,
          2.32238732e-02, 1.32658472e-02, 1.30120832e-02, 3.26995254e-02,
          3.27529646e-02, 1.08323731e-01, 2.88053125e-01, 2.98492938e-01,
          2.27264509e-01, 9.04374719e-02, 9.21582803e-02, 5.61503060e-02,
          1.10025600e-01, 9.03548673e-02, 6.17904477e-02, 1.94779843e-01,
          2.88253635e-01, 2.88253635e-01, 2.88253635e-01, 2.88253635e-01,
          8.68495554e-02, 8.72969851e-02, 8.64071399e-02, 3.55299227e-02,
          1.54283613e-01, 2.44829953e-01, 2.88253635e-01, 8.30209777e-02,
          1.88603792e-02, 1.21179391e-02, 2.00046636e-02, 1.55121880e-02,
          1.50154456e-02, 1.10603668e-01, 2.88253635e-01, 2.88253635e-01,
          2.88253635e-01, 8.12400505e-02, 1.84080079e-02, 2.81665623e-02,
          3.20492242e-03, 1.93714851e-03, 3.82352136e-02, 2.48108014e-01,
          1.37086719e-01, 3.15126270e-01, 3.15126270e-01, 1.05234593e-01,
          2.50929128e-02, 1.74067970e-02, 2.45002210e-02, 6.36105910e-02,
          6.09021783e-02, 3.18985656e-02, 2.54521966e-01, 3.15126270e-01,
          3.15126270e-01, 5.60117923e-02, 1.68768875e-02, 8.95437319e-03,
          6.25819992e-03, 1.66555047e-02, 2.67207325e-01, 3.15126270e-01,
          2.08953306e-01, 2.48377994e-02, 2.15916783e-02, 7.23939884e-05,
          4.12767055e-03, 1.46051673e-02, 4.55984361e-02, 1.06507562e-01,
          3.15126270e-01, 3.15126270e-01, 1.94197282e-01, 1.53140634e-01,
          1.43533973e-02, 7.74287619e-03, 1.37457345e-02, 3.90980989e-02 ]
      - [ 6.99765310e-02, 1.97979689e-01, 2.86061227e-01, 2.04348445e-01,
          7.37117082e-02, 2.67758425e-02, 1.11038508e-02, 1.12350713e-02,
          4.30499427e-02, 1.82408437e-01, 2.54019022e-01, 2.86061227e-01,
          2.08474591e-01, 9.38116014e-02, 3.65605019e-02, 4.32222076e-02,
          6.23993240e-02, 1.24639615e-01, 1.12207651e-01, 1.35591611e-01,
          2.86061227e-01, 2.86061227e-01, 1.57084018e-01, 6.78517371e-02,
          5.14304340e-02, 2.72265431e-02, 7.58358017e-02, 1.87433869e-01,
          2.86061227e-01, 2.86061227e-01, 2.86061227e-01, 1.35574117e-01,
          6.52579144e-02, 1.17009796e-01, 8.50569606e-02, 9.71449465e-02,
          1.57316431e-01, 1.81399807e-01, 2.39536896e-01, 1.89363316e-01,
          5.41390441e-02, 5.49645089e-02, 5.18929735e-02, 7.93897808e-02,
          1.17970251e-01, 2.07188010e-01, 1.12440400e-01, 1.68843821e-01,
          1.90156981e-01, 1.06499717e-01, 1.21630132e-01, 8.76287669e-02,
          1.59088656e-01, 1.88041195e-01, 1.03001893e-01, 2.57964283e-01,
          2.57964283e-01, 2.19192252e-01, 6.79777116e-02, 7.54248574e-02,
          9.48616043e-02, 1.01070702e-01, 5.28141968e-02, 1.01522513e-01,
          2.57964283e-01, 2.57964283e-01, 2.45652914e-01, 1.97704345e-01,
          2.31356919e-01, 2.20930487e-01, 1.71865463e-01, 6.46676198e-02,
          2.03960046e-01, 7.83606619e-02, 9.20307189e-02, 7.36893266e-02,
          7.26257041e-02, 1.08087488e-01, 1.26394764e-01, 1.74069151e-01,
          1.75615042e-01, 1.95082620e-01, 9.62866172e-02, 1.08999200e-01,
          3.12109217e-02, 7.63056874e-02, 1.74288616e-01, 2.37803027e-01,
          2.33289033e-01, 1.30566657e-01, 1.55482218e-01, 1.05459504e-01,
          1.33493960e-01, 1.43510833e-01, 2.12758347e-01, 2.26905942e-01,
          2.37803027e-01, 1.78868622e-01, 1.17326804e-01, 2.10716546e-01,
          1.15948252e-01, 1.59959763e-01, 1.10830568e-01, 1.96619108e-01,
          2.37803027e-01, 2.37803027e-01, 2.37803027e-01, 2.01755062e-01,
          9.18001607e-02, 5.36395013e-02, 8.25452730e-02, 4.68316302e-02,
          1.76628724e-01, 1.21807076e-01, 2.87101716e-01, 2.37000555e-01,
          8.38256329e-02, 4.78951186e-02, 1.12354914e-02, 4.02094573e-02,
          9.22354907e-02, 2.87101716e-01, 8.22691545e-02, 2.56390631e-01,
          1.70841664e-01, 6.97524920e-02, 1.25941813e-01, 7.33942389e-02,
          1.51567101e-01, 1.44964486e-01, 1.50869042e-01, 2.34391972e-01,
          2.87101716e-01, 2.87101716e-01, 1.37621850e-01, 8.37429985e-02,
          3.28162424e-02, 7.76991472e-02, 1.01608306e-01, 1.84957460e-01,
          1.55954808e-01, 2.87101716e-01, 2.87101716e-01, 9.52095762e-02,
          1.30076036e-01, 7.90729374e-02, 1.47982210e-01, 1.89115375e-01,
          1.62588611e-01, 1.18682846e-01, 9.65833589e-02, 6.21481165e-02,
          7.73855671e-02, 2.07144409e-01, 2.29564622e-01, 2.30939507e-01,
          1.63969830e-01, 7.51780123e-02, 1.19184799e-01, 1.67293817e-01,
          1.68429226e-01, 1.43047661e-01, 1.13912173e-01, 6.66703060e-02,
          1.24740452e-01, 1.80033043e-01, 2.30939507e-01, 2.04320207e-01,
          9.02219787e-02, 8.67841095e-02, 1.01509772e-01, 2.25730911e-01,
          1.80254027e-01, 2.28139132e-01, 1.53523073e-01, 2.05786839e-01,
          2.30939507e-01, 1.91819608e-01, 2.30939507e-01, 2.30939507e-01,
          1.35481670e-01, 2.32355222e-01, 2.32355222e-01, 1.30380675e-01,
          3.30023654e-02, 7.53780380e-02, 1.11070365e-01, 1.13919608e-01,
          1.25795692e-01, 1.27475634e-01, 2.04347134e-01, 2.32355222e-01,
          1.97583467e-01, 1.43993184e-01, 1.41929433e-01, 1.25139967e-01,
          7.42997006e-02, 1.20581791e-01, 1.52602777e-01, 2.03348085e-01,
          2.32355222e-01, 1.24597184e-01, 1.11252040e-01, 2.07767367e-01,
          2.00109199e-01, 1.81262895e-01, 2.32355222e-01, 1.46594733e-01,
          1.99669272e-01, 2.23998278e-01, 1.72630623e-01, 1.32500857e-01,
          1.48932159e-01, 1.74957991e-01, 1.60989344e-01, 1.56898424e-01,
          1.11806035e-01, 1.08564630e-01, 1.46222040e-01, 1.64428115e-01,
          1.73196152e-01, 1.29588693e-01, 9.58460048e-02, 6.13170415e-02,
          1.32784873e-01, 1.32686809e-01, 2.40315348e-01, 2.40315348e-01,
          1.58316806e-01, 1.91305101e-01, 1.63364649e-01, 1.66896999e-01,
          1.81583062e-01, 1.88207626e-01, 1.34209275e-01, 2.02870190e-01,
          2.18565717e-01, 2.18676716e-01, 1.42126575e-01, 9.27919075e-02,
          1.00825287e-01, 1.12029150e-01, 1.52618408e-01, 1.45863459e-01,
          2.40315348e-01, 2.40315348e-01, 2.35479742e-01, 1.75397590e-01,
          1.23110235e-01, 1.42622590e-01, 1.34003341e-01, 1.54246137e-01,
          1.14696406e-01, 1.72930285e-01, 2.40398511e-01, 1.86704695e-01,
          1.43227085e-01, 1.27437308e-01, 2.14469433e-01, 2.08809644e-01,
          1.25083834e-01, 9.01199803e-02, 5.10627106e-02, 1.14293844e-01,
          1.34812459e-01, 2.11290345e-01, 1.48713604e-01, 2.40398511e-01,
          1.87559754e-01, 6.67875037e-02, 1.24380611e-01, 2.40398511e-01,
          2.40398511e-01, 2.22417340e-01, 2.24373639e-01, 8.93504918e-02,
          1.14517882e-01, 1.27442956e-01, 1.09981246e-01, 1.00875549e-01,
          1.09012321e-01, 1.50593549e-01, 2.40398511e-01, 2.40398511e-01,
          1.75596729e-01, 1.31730467e-01, 1.24719322e-01, 9.67845321e-02,
          8.27250704e-02, 6.03736378e-02, 7.75461346e-02, 1.99581221e-01,
          2.37725899e-01, 1.56882793e-01, 4.40275297e-02, 5.41391000e-02,
          1.50654137e-01, 9.93332937e-02, 9.35643390e-02, 1.50105223e-01,
          1.88455477e-01, 2.37725899e-01, 2.37725899e-01, 1.98533908e-01,
          1.46816194e-01, 2.37725899e-01, 1.27933845e-01, 6.15026765e-02,
          3.37012932e-02, 1.56370178e-01, 2.37725899e-01, 1.53584898e-01,
          1.85163245e-01, 1.19041011e-01, 1.74935162e-01, 1.05846822e-01,
          1.27364382e-01, 1.08945124e-01, 1.71127483e-01, 2.37725899e-01,
          2.37725899e-01, 2.37725899e-01, 2.23784596e-01, 1.79780751e-01,
          6.79128170e-02, 1.04395613e-01, 1.64520994e-01, 1.01957835e-01,
          1.83408365e-01, 2.08861083e-01, 2.23222971e-01, 1.24006592e-01,
          1.32719100e-01, 1.15543194e-01, 1.55032501e-01, 1.69022784e-01,
          1.34808004e-01, 1.24554217e-01, 1.25159994e-01, 1.99764639e-01,
          1.70254648e-01, 9.31570753e-02, 1.08607240e-01, 2.23222971e-01,
          2.04979837e-01, 1.49344921e-01, 2.23222971e-01, 2.13524133e-01,
          2.23222971e-01, 1.69789627e-01, 8.41476023e-02, 2.02991351e-01,
          2.23222971e-01, 2.23222971e-01, 1.72546789e-01, 2.17129365e-01,
          1.28122419e-01, 1.67217240e-01, 1.20079704e-01, 9.03181583e-02,
          7.84315169e-02, 1.23731151e-01, 1.79092407e-01, 1.58595949e-01,
          9.30821374e-02, 1.04464568e-01, 2.55880743e-01, 2.12500945e-01,
          8.77614468e-02, 5.25213890e-02, 1.80510476e-01, 2.59693086e-01,
          1.66904613e-01, 1.28767163e-01, 1.39630377e-01, 2.59693086e-01,
          2.59693086e-01, 8.94872248e-02, 1.15088761e-01, 8.18929598e-02,
          2.11353093e-01, 1.12684675e-01, 1.01112425e-01, 9.51478779e-02,
          2.59693086e-01, 2.51641065e-01, 7.83627406e-02, 8.42116252e-02,
          5.44754006e-02, 1.45802125e-01, 1.12006359e-01, 1.01777680e-01,
          1.88010439e-01, 2.59693086e-01, 2.59693086e-01, 1.15099646e-01,
          5.20206355e-02, 1.59267977e-01, 2.20983073e-01, 2.15552077e-01,
          2.45321795e-01, 1.10405877e-01, 1.43123224e-01, 1.20084986e-01,
          6.49732053e-02, 6.25350103e-02, 1.37511089e-01, 1.78886712e-01,
          2.45321795e-01, 2.45321795e-01, 1.46843553e-01, 4.02643122e-02,
          3.46812531e-02, 7.17097372e-02, 6.63796961e-02, 1.38458997e-01,
          2.23345995e-01, 2.15454102e-01, 2.28088558e-01, 1.82043642e-01,
          2.45321795e-01, 2.10732967e-01, 1.15067080e-01, 4.23228256e-02,
          1.82403103e-01, 2.45321795e-01, 2.45321795e-01, 2.45321795e-01,
          1.09114036e-01, 3.47659476e-02, 2.39977334e-02, 7.60783181e-02,
          8.47351477e-02, 3.43929343e-02, 2.77174748e-02, 7.55416229e-02,
          2.09812194e-01, 1.64630562e-01, 2.75744885e-01, 1.95045784e-01,
          8.18391368e-02, 1.11858241e-01, 1.79620519e-01, 9.96004641e-02,
          1.15281105e-01, 2.00554475e-01, 2.64653325e-01, 2.75744885e-01,
          2.52468675e-01, 1.36695325e-01, 2.44988967e-02, 8.02362617e-03,
          8.11588019e-03, 4.11895663e-02, 1.01492524e-01, 1.49632022e-01,
          2.75744885e-01, 2.75744885e-01, 7.60212913e-02, 9.36114714e-02,
          9.69158038e-02, 2.21082009e-02, 4.35386114e-02, 1.27734393e-01,
          2.25449175e-01, 2.75744885e-01, 2.75744885e-01, 1.45171404e-01,
          1.19362444e-01, 2.33757377e-01, 2.33757377e-01, 1.62799716e-01,
          2.28100792e-01, 2.04439431e-01, 2.17324033e-01, 1.42744213e-01,
          1.19718328e-01, 2.05440313e-01, 2.33757377e-01, 2.33757377e-01,
          1.62415817e-01, 2.10552707e-01, 1.09058574e-01, 8.07229951e-02,
          8.81867781e-02, 9.95005071e-02, 1.53946549e-01, 1.54867306e-01,
          9.20642018e-02, 5.15804999e-02, 1.06787547e-01, 2.30763882e-01,
          2.09699586e-01, 1.35378644e-01, 1.38121977e-01, 2.33757377e-01,
          1.67174339e-01, 1.82019889e-01, 6.58949912e-02, 1.09339923e-01,
          1.66721016e-01, 1.12078354e-01, 1.16210721e-01, 1.51127949e-01,
          2.29695246e-01, 1.54319778e-01, 2.21716970e-01, 9.44096446e-02,
          1.06641360e-01, 5.63140810e-02, 1.29813418e-01, 1.71437100e-01,
          1.45773590e-01, 2.39059672e-01, 2.14169309e-01, 2.39059672e-01,
          1.24296330e-01, 7.97158033e-02, 1.14138626e-01, 2.39059672e-01,
          2.39059672e-01, 1.95863262e-01, 2.39059672e-01, 1.75454795e-01,
          1.61523089e-01, 7.04292953e-02, 9.24632773e-02, 4.81727272e-02,
          3.81846689e-02, 1.02126956e-01, 1.92053273e-01, 2.39059672e-01,
          2.39059672e-01, 2.39059672e-01, 8.73126835e-02, 7.67903700e-02,
          6.90863281e-02, 4.15855162e-02, 7.75963515e-02, 2.39059672e-01,
          2.06650540e-01, 2.50916839e-01, 2.50916839e-01, 1.86098158e-01,
          1.36927664e-01, 1.16164170e-01, 2.13422239e-01, 1.78494662e-01,
          1.45245299e-01, 8.51314217e-02, 2.50916839e-01, 2.50916839e-01,
          2.17757508e-01, 1.73996389e-01, 4.45801169e-02, 2.67787799e-02,
          2.16639005e-02, 7.16409683e-02, 2.50916839e-01, 2.50916839e-01,
          2.50916839e-01, 1.09258972e-01, 1.46003529e-01, 7.65862763e-02,
          3.28315981e-02, 4.40448709e-02, 1.42880201e-01, 1.33404717e-01,
          1.95089653e-01, 1.89561903e-01, 1.57206178e-01, 2.50916839e-01,
          6.32111877e-02, 1.06696151e-02, 2.01289933e-02, 9.44138467e-02 ]
      - [ 1.04123816e-01, 2.94979870e-01, 2.94979870e-01, 2.31386960e-01,
          7.55510926e-02, 5.90411685e-02, 2.13066097e-02, 3.41829099e-02,
          1.40384315e-02, 2.03698426e-01, 2.94979870e-01, 2.94979870e-01,
          1.08521461e-01, 1.13457620e-01, 5.37830107e-02, 2.95998268e-02,
          6.70246556e-02, 7.45255128e-02, 5.32126613e-02, 1.96959943e-01,
          2.94979870e-01, 2.94979870e-01, 2.87853271e-01, 5.35629578e-02,
          2.29931958e-02, 2.78634150e-02, 1.32261692e-02, 1.06292590e-01,
          2.15537354e-01, 2.94979870e-01, 1.76640332e-01, 1.06267907e-01,
          3.20008583e-02, 1.85022671e-02, 3.84229161e-02, 2.61251889e-02,
          2.14766234e-01, 2.62735486e-01, 2.55270034e-01, 1.07895881e-01,
          8.70641321e-02, 2.51818672e-02, 4.29486260e-02, 6.14501722e-02,
          1.03843458e-01, 2.62735486e-01, 2.46044636e-01, 1.28722548e-01,
          6.09929562e-02, 4.68191803e-02, 3.91312428e-02, 5.96890450e-02,
          9.44520310e-02, 1.88316509e-01, 1.22771323e-01, 2.62735486e-01,
          2.62735486e-01, 1.30808353e-01, 1.14934340e-01, 3.80388424e-02,
          1.71386413e-02, 4.68695872e-02, 7.77016580e-02, 2.62735486e-01,
          2.62735486e-01, 2.62735486e-01, 8.16284791e-02, 1.81588575e-01,
          1.57535389e-01, 1.05023310e-01, 1.85030147e-01, 2.62735486e-01,
          2.53579646e-01, 1.31696492e-01, 5.66703416e-02, 2.06998531e-02,
          3.70722339e-02, 2.36571040e-02, 2.71012504e-02, 1.22451425e-01,
          2.84961641e-01, 1.61375046e-01, 7.42502064e-02, 2.64883265e-02,
          4.53965180e-02, 6.56000823e-02, 4.62155528e-02, 3.82645130e-02,
          2.81398982e-01, 2.83038020e-01, 2.84961641e-01, 1.61601782e-01,
          6.32767230e-02, 5.98690957e-02, 1.83229506e-01, 1.35201171e-01,
          8.93423781e-02, 2.31091082e-01, 2.84961641e-01, 2.39903092e-01,
          7.37351105e-02, 2.06637867e-02, 7.35521242e-02, 1.62617102e-01,
          1.10641219e-01, 1.79489419e-01, 2.84961641e-01, 2.84961641e-01,
          1.02278225e-01, 4.70775291e-02, 3.15452926e-02, 7.68684074e-02,
          9.06828195e-02, 1.15072258e-01, 9.13955048e-02, 2.69964933e-01,
          1.51443005e-01, 2.38155797e-02, 9.34086647e-03, 1.45312399e-02,
          4.88651209e-02, 2.24357605e-01, 3.27196062e-01, 1.31673887e-01,
          3.58591676e-02, 3.35866623e-02, 1.00910291e-01, 5.90330772e-02,
          4.47097197e-02, 6.34289831e-02, 9.73716676e-02, 2.58702844e-01,
          3.27196062e-01, 3.27196062e-01, 2.33857527e-01, 3.12794857e-02,
          1.80450212e-02, 3.53774205e-02, 3.97960991e-02, 2.16634095e-01,
          3.27196062e-01, 3.27196062e-01, 1.93828106e-01, 5.88293150e-02,
          3.01867053e-02, 7.42262229e-02, 2.29370281e-01, 2.94319123e-01,
          2.94319123e-01, 7.90247247e-02, 1.03944279e-02, 2.31115259e-02,
          1.98154654e-02, 9.15551707e-02, 1.21760219e-01, 2.56362438e-01,
          2.94319123e-01, 2.69273847e-01, 4.14787568e-02, 4.60317433e-02,
          4.43629324e-02, 3.30887809e-02, 3.07829343e-02, 3.11096422e-02,
          5.51027656e-02, 2.94319123e-01, 2.94319123e-01, 1.53333589e-01,
          4.59682532e-02, 3.36946659e-02, 3.33056264e-02, 8.68587047e-02,
          9.33665857e-02, 1.47154659e-01, 2.94319123e-01, 2.94319123e-01,
          1.97555110e-01, 1.95194796e-01, 6.35801405e-02, 6.42881170e-02,
          8.58026966e-02, 1.22135542e-01, 2.30569959e-01, 1.76971018e-01,
          1.79716349e-01, 9.06279162e-02, 4.04263586e-02, 8.45684409e-02,
          1.02175266e-01, 1.54599860e-01, 1.37506813e-01, 1.66495711e-01,
          1.30655721e-01, 1.93613008e-01, 1.95060074e-01, 8.85981247e-02,
          1.95653081e-01, 2.30569959e-01, 1.97281465e-01, 6.41882643e-02,
          9.93634984e-02, 2.30569959e-01, 2.30569959e-01, 1.98494583e-01,
          1.32985026e-01, 1.22463338e-01, 1.85544416e-01, 2.30569959e-01,
          8.98818746e-02, 6.56030551e-02, 2.30569959e-01, 2.30569959e-01,
          1.98907256e-01, 1.09083682e-01, 1.62871674e-01, 2.30569959e-01,
          2.21983328e-01, 6.90468103e-02, 3.67188118e-02, 1.13536023e-01,
          2.00129524e-01, 1.51419669e-01, 8.06054026e-02, 1.60937086e-01,
          2.27787495e-01, 1.91045463e-01, 7.81350285e-02, 2.29542963e-02,
          1.02844805e-01, 2.27787495e-01, 1.70447007e-01, 2.13977784e-01,
          2.27787495e-01, 2.27787495e-01, 1.97633952e-01, 9.81383920e-02,
          4.58342806e-02, 1.53497636e-01, 2.27787495e-01, 1.51199922e-01,
          7.80980587e-02, 9.00932550e-02, 1.88622281e-01, 2.24324062e-01,
          1.27304912e-01, 6.83613569e-02, 1.36756659e-01, 2.27787495e-01,
          2.27787495e-01, 1.93184376e-01, 1.27230525e-01, 2.27787495e-01,
          1.02350399e-01, 5.11774532e-02, 2.63189413e-02, 7.91934878e-02,
          9.50158387e-02, 2.46016711e-01, 2.64785111e-01, 2.64785111e-01,
          1.39193520e-01, 3.68605740e-02, 1.73608251e-02, 2.74829082e-02,
          3.77855562e-02, 1.42672092e-01, 2.64785111e-01, 2.64785111e-01,
          8.93085599e-02, 2.57385094e-02, 1.97443932e-01, 1.07706189e-01,
          6.57620504e-02, 2.10344255e-01, 2.64785111e-01, 2.64785111e-01,
          2.64785111e-01, 8.37333053e-02, 1.73026100e-01, 9.16014314e-02,
          5.65152019e-02, 5.77602647e-02, 1.66121408e-01, 2.64785111e-01,
          2.64785111e-01, 2.06730038e-01, 4.25611362e-02, 3.68906632e-02,
          1.88785270e-02, 2.49274969e-02, 4.00472768e-02, 2.06823796e-01,
          2.81555802e-01, 2.17508957e-01, 6.95622191e-02, 1.86573546e-02,
          9.90519114e-03, 4.92698625e-02, 6.98150322e-02, 7.07373321e-02,
          2.71568477e-01, 2.81555802e-01, 2.51412302e-01, 2.81555802e-01,
          9.39475968e-02, 4.33477834e-02, 7.56571488e-03, 2.16149371e-02,
          2.17017643e-02, 1.16009682e-01, 2.81555802e-01, 2.81555802e-01,
          2.81555802e-01, 1.30006075e-01, 2.76501458e-02, 2.20939741e-02,
          6.17853142e-02, 4.35361490e-02, 8.69808570e-02, 1.83403254e-01,
          2.35346347e-01, 2.81555802e-01, 2.16583043e-01, 5.03034890e-02,
          1.38088763e-01, 1.02621108e-01, 6.35078549e-02, 1.83678016e-01,
          2.31387809e-01, 1.88344091e-01, 2.20531717e-01, 1.07904121e-01,
          1.16614923e-01, 2.15164423e-01, 1.65424049e-01, 1.02566622e-01,
          1.83355600e-01, 2.31387809e-01, 1.47023991e-01, 1.10919841e-01,
          1.00495450e-01, 1.62197948e-01, 6.06358387e-02, 1.08163618e-01,
          6.16562180e-02, 8.50943699e-02, 1.02593414e-01, 1.82404533e-01,
          2.31387809e-01, 2.24321395e-01, 8.27036127e-02, 2.14767158e-01,
          2.06228629e-01, 1.37055293e-01, 2.05798939e-01, 1.95589781e-01,
          1.33227795e-01, 2.31387809e-01, 2.31387809e-01, 1.78789273e-01,
          1.80138484e-01, 1.06730931e-01, 5.04935496e-02, 1.17889814e-01,
          2.31306225e-01, 1.11696385e-01, 4.79201414e-02, 6.23821579e-02,
          1.53580055e-01, 2.09814698e-01, 9.93509144e-02, 7.03639314e-02,
          1.11412622e-01, 2.31306225e-01, 2.06601530e-01, 1.34865299e-01,
          1.11921526e-01, 1.92366421e-01, 2.31306225e-01, 1.45423532e-01,
          6.11011758e-02, 1.55314997e-01, 2.31306225e-01, 1.29801318e-01,
          8.20381269e-02, 1.67654678e-01, 2.31306225e-01, 2.31306225e-01,
          2.31306225e-01, 1.14093594e-01, 1.68547153e-01, 2.31306225e-01,
          2.31306225e-01, 8.26015919e-02, 2.15898380e-01, 1.90822393e-01,
          1.64371625e-01, 8.41388851e-02, 1.09445915e-01, 2.45614395e-01,
          2.52241164e-01, 2.00330243e-01, 1.70255631e-01, 7.31760785e-02,
          1.02109626e-01, 6.28101900e-02, 6.40868917e-02, 1.29569292e-01,
          2.52241164e-01, 2.52241164e-01, 1.88425079e-01, 6.81533068e-02,
          2.30287090e-02, 2.12640073e-02, 2.52241164e-01, 2.52241164e-01,
          2.52241164e-01, 2.52241164e-01, 1.75359115e-01, 1.18335269e-01,
          9.10183117e-02, 1.34900928e-01, 7.60758817e-02, 5.69743849e-02,
          1.33729875e-01, 2.52241164e-01, 2.52241164e-01, 2.52241164e-01,
          6.17234744e-02, 2.93395426e-02, 2.48131696e-02, 2.25513410e-02,
          1.07392091e-02, 1.21606011e-02, 2.19086017e-02, 5.31715564e-02,
          1.39590576e-01, 2.95021325e-01, 2.95021325e-01, 2.38387793e-01,
          3.59028690e-02, 2.14161221e-02, 2.02884860e-02, 2.54479870e-02,
          2.64220610e-02, 6.64975196e-02, 1.75979540e-01, 2.95021325e-01,
          2.73406059e-01, 5.78060225e-02, 1.36001687e-02, 1.59177948e-02,
          3.34547721e-02, 3.52353007e-02, 1.02380373e-01, 1.34293810e-01,
          2.95021325e-01, 2.95021325e-01, 3.03594451e-02, 4.91791703e-02,
          1.55938361e-02, 6.21969402e-02, 1.01942524e-01, 2.94315934e-01,
          1.89913243e-01, 2.95021325e-01, 2.95021325e-01, 1.38084978e-01,
          4.35288176e-02, 4.24371809e-02, 2.76574567e-02, 4.72906455e-02,
          5.78606613e-02, 1.35207549e-01, 2.69004732e-01, 2.69004732e-01,
          1.02310792e-01, 1.80960953e-01, 1.24635734e-01, 5.95712550e-02,
          1.05845593e-01, 1.41679868e-01, 8.74134973e-02, 2.69004732e-01,
          2.69004732e-01, 2.45724782e-01, 1.25188306e-01, 3.34244817e-02,
          7.81667307e-02, 8.44192356e-02, 1.83644369e-01, 1.00417271e-01,
          2.69004732e-01, 2.69004732e-01, 2.69004732e-01, 1.98102549e-01,
          9.00274441e-02, 4.96992655e-02, 3.99278216e-02, 8.15549940e-02,
          4.47261184e-02, 1.49057433e-01, 2.69004732e-01, 2.69004732e-01,
          2.57029206e-01, 1.46111965e-01, 4.39768694e-02, 8.35306197e-02,
          2.02430502e-01, 8.70569050e-02, 1.11475997e-01, 2.57029206e-01,
          2.57029206e-01, 2.57029206e-01, 2.57029206e-01, 1.67831808e-01,
          1.22385927e-01, 1.69330269e-01, 1.69370875e-01, 7.18380064e-02,
          2.16203272e-01, 1.89821616e-01, 2.35755116e-01, 1.02367461e-01,
          4.32261750e-02, 3.11563239e-02, 6.08380735e-02, 6.45187721e-02,
          1.03553683e-01, 2.21633151e-01, 2.57029206e-01, 2.57029206e-01,
          1.56054512e-01, 9.29791033e-02, 6.19819872e-02, 7.45748356e-02,
          1.02090158e-01, 9.20085385e-02, 1.58167481e-01, 1.79955319e-01,
          2.80898422e-01, 2.80898422e-01, 2.80898422e-01, 2.37377197e-01,
          1.74993932e-01, 1.46078661e-01, 6.99630231e-02, 1.49330735e-01,
          8.23728368e-02, 8.35293457e-02, 1.92000166e-01, 2.53653586e-01,
          2.80898422e-01, 2.80898422e-01, 4.57726792e-02, 2.67153196e-02,
          3.29705141e-02, 5.77814765e-02, 2.01443166e-01, 1.76605314e-01,
          1.25554815e-01, 1.54297113e-01, 1.50790527e-01, 9.57734957e-02,
          5.49649708e-02, 9.52029824e-02, 1.08937457e-01, 6.99753389e-02,
          4.81190421e-02, 1.00015894e-01, 2.80898422e-01, 2.80898422e-01,
          1.61923524e-02, 1.19325500e-02, 1.17142089e-02, 4.69063260e-02 ]
      - [ 8.06009620e-02, 1.92157552e-01, 3.33144128e-01, 1.99577406e-01,
          4.13770042e-02, 2.17605624e-02, 3.22319567e-02, 9.74512193e-03,
          3.20079885e-02, 8.25826079e-02, 3.33144128e-01, 3.33144128e-01,
          1.09308876e-01, 3.48876566e-02, 9.41868220e-03, 1.07300272e-02,
          3.65819270e-03, 4.08900641e-02, 5.36962524e-02, 9.82536972e-02,
          3.33144128e-01, 3.33144128e-01, 5.50525114e-02, 9.79791507e-02,
          6.15325645e-02, 2.31583565e-02, 1.43651785e-02, 4.08791006e-02,
          2.75170654e-01, 3.33144128e-01, 3.33144128e-01, 4.32377644e-02,
          2.64090952e-02, 2.15367153e-02, 4.60080989e-03, 1.29144834e-02,
          1.37257949e-01, 3.13168019e-01, 3.13168019e-01, 4.11221497e-02,
          1.97036471e-02, 2.01341510e-03, 5.55896782e-04, 6.52158773e-03,
          2.06745137e-02, 3.13168019e-01, 3.13168019e-01, 1.04612693e-01,
          1.93583611e-02, 9.22957249e-03, 4.60641785e-03, 5.51110832e-03,
          2.06555091e-02, 4.50005308e-02, 8.13437700e-02, 3.13168019e-01,
          3.13168019e-01, 1.31860539e-01, 4.67427969e-02, 2.40863748e-02,
          6.84548775e-03, 1.25907706e-02, 2.03188602e-02, 2.99535006e-01,
          3.13168019e-01, 3.13168019e-01, 6.43993542e-02, 1.28121495e-01,
          9.75421816e-02, 2.48628613e-02, 6.03122227e-02, 1.59798935e-01,
          2.79152602e-01, 1.57125160e-01, 2.43095327e-02, 1.51287448e-02,
          1.33878440e-02, 7.82957859e-03, 2.56200805e-02, 7.09278733e-02,
          1.56492561e-01, 1.29736930e-01, 2.53233891e-02, 1.05959587e-02,
          1.00813601e-02, 2.05008704e-02, 1.55215245e-02, 1.68974921e-01,
          2.79152602e-01, 2.43751675e-01, 2.79152602e-01, 2.79152602e-01,
          1.88094556e-01, 1.12675048e-01, 1.84379414e-01, 1.35372862e-01,
          5.90098388e-02, 1.19087934e-01, 2.79152602e-01, 1.97840989e-01,
          9.30563807e-02, 7.90895000e-02, 9.10343677e-02, 1.46443516e-01,
          9.85403880e-02, 2.79152602e-01, 2.79152602e-01, 2.79152602e-01,
          2.81488877e-02, 6.38035731e-03, 8.00373312e-03, 5.31828403e-03,
          3.04972157e-02, 4.91049215e-02, 2.87506044e-01, 3.06278467e-01,
          1.03810057e-01, 4.11444269e-02, 2.56604999e-02, 8.36375449e-03,
          1.16457582e-01, 2.15436280e-01, 3.06278467e-01, 3.06278467e-01,
          2.47732401e-01, 7.97885582e-02, 4.47603874e-02, 1.64694134e-02,
          2.12847106e-02, 1.00673772e-02, 4.96975817e-02, 8.68518949e-02,
          3.06278467e-01, 3.06278467e-01, 1.56423390e-01, 3.13167535e-02,
          1.43463193e-02, 6.63616788e-03, 3.43718715e-02, 1.22981079e-01,
          3.06278467e-01, 3.06278467e-01, 2.31099844e-01, 6.48300201e-02,
          1.62285585e-02, 4.77212667e-02, 3.14385027e-01, 3.14385027e-01,
          1.84499681e-01, 1.04399540e-01, 2.76780985e-02, 2.34540571e-02,
          6.94082119e-03, 5.91540858e-02, 1.49399117e-01, 3.14385027e-01,
          3.14385027e-01, 1.11006476e-01, 4.11494821e-02, 9.87343583e-03,
          1.17462706e-02, 1.66582055e-02, 6.50171144e-03, 1.56287849e-02,
          1.18463613e-01, 3.14385027e-01, 3.14385027e-01, 1.10947929e-01,
          1.07128015e-02, 7.33188679e-03, 8.89469869e-03, 6.45290464e-02,
          1.01624101e-01, 2.44877622e-01, 3.14385027e-01, 3.14385027e-01,
          1.01096623e-01, 4.48794551e-02, 5.02291769e-02, 2.95184962e-02,
          1.08800963e-01, 2.52223432e-01, 2.53239602e-01, 2.22389117e-01,
          8.26827586e-02, 5.96671402e-02, 1.67180169e-02, 2.32372768e-02,
          4.69364449e-02, 2.06646830e-01, 2.53239602e-01, 2.53239602e-01,
          1.04447313e-01, 1.72213718e-01, 1.22228689e-01, 3.62973996e-02,
          5.10586128e-02, 1.58427969e-01, 1.01243339e-01, 1.72587171e-01,
          2.53239602e-01, 2.53239602e-01, 2.53239602e-01, 1.34031683e-01,
          6.92451894e-02, 8.36577043e-02, 8.12178105e-02, 1.33979589e-01,
          2.16122657e-01, 2.53239602e-01, 2.33783588e-01, 1.84258118e-01,
          1.74732730e-01, 7.00450838e-02, 8.59737545e-02, 1.02507897e-01,
          2.00712562e-01, 2.36334920e-01, 1.58667967e-01, 1.12358309e-01,
          2.06773296e-01, 1.54445514e-01, 6.09241314e-02, 1.03008881e-01,
          1.93956614e-01, 1.30219206e-01, 1.16069406e-01, 7.67697319e-02,
          1.07259862e-01, 1.82704285e-01, 1.48770839e-01, 2.36334920e-01,
          2.36334920e-01, 1.71463266e-01, 1.23621061e-01, 1.68028444e-01,
          2.16940194e-01, 1.74483031e-01, 1.17346033e-01, 1.42649367e-01,
          1.20313436e-01, 1.71831816e-01, 9.13862586e-02, 9.82966423e-02,
          1.20290659e-01, 1.07117817e-01, 1.76347420e-01, 2.29216158e-01,
          2.18922585e-01, 2.36334920e-01, 2.36334920e-01, 1.19681962e-01,
          5.04042208e-02, 3.75454202e-02, 2.91451309e-02, 2.28507761e-02,
          9.68308747e-02, 1.80133760e-01, 2.91876674e-01, 2.60548770e-01,
          8.33295509e-02, 1.53692374e-02, 1.35231037e-02, 1.16356723e-02,
          2.32585222e-02, 1.27234966e-01, 2.91876674e-01, 2.91876674e-01,
          1.01365589e-01, 2.86149215e-02, 6.48767129e-02, 9.07385722e-02,
          7.69049376e-02, 1.47765771e-01, 2.91876674e-01, 2.91876674e-01,
          2.91876674e-01, 1.26732633e-01, 6.95890784e-02, 1.40774921e-02,
          2.66611036e-02, 4.13385294e-02, 1.20480038e-01, 2.91876674e-01,
          2.91876674e-01, 2.91876674e-01, 3.89261954e-02, 1.60561949e-02,
          3.94664379e-03, 6.46876451e-03, 3.82636748e-02, 1.89208508e-01,
          3.14114422e-01, 3.14114422e-01, 5.05767912e-02, 2.86984839e-03,
          7.56192533e-03, 1.73111390e-02, 5.62609471e-02, 9.43840817e-02,
          2.43432641e-01, 3.14114422e-01, 2.49769807e-01, 1.74481124e-01,
          6.35738298e-02, 3.93311977e-02, 6.62032235e-03, 1.07553089e-02,
          3.56672741e-02, 5.28128855e-02, 2.32126176e-01, 3.14114422e-01,
          3.14114422e-01, 1.55274654e-02, 1.55149763e-02, 9.51587129e-03,
          2.31905319e-02, 4.47346717e-02, 7.36434609e-02, 1.40670732e-01,
          3.14114422e-01, 3.14114422e-01, 9.53809172e-02, 2.58389022e-02,
          4.57963683e-02, 9.44968760e-02, 1.38570502e-01, 1.85531646e-01,
          2.46182829e-01, 1.99375987e-01, 2.46182829e-01, 1.27701208e-01,
          8.38375166e-02, 1.25244737e-01, 6.63337037e-02, 1.78765640e-01,
          1.28363073e-01, 1.80525258e-01, 2.46182829e-01, 2.30235517e-01,
          1.41281158e-01, 9.15836766e-02, 7.84784257e-02, 5.52732348e-02,
          5.65067008e-02, 5.80498502e-02, 1.17688641e-01, 2.46182829e-01,
          2.46182829e-01, 2.46182829e-01, 6.46177009e-02, 2.29925811e-01,
          7.44957924e-02, 1.07281156e-01, 7.38927051e-02, 1.56872779e-01,
          2.28691459e-01, 2.46182829e-01, 2.46182829e-01, 1.28027767e-01,
          1.27326682e-01, 7.89338872e-02, 2.16829747e-01, 1.32576600e-01,
          9.35501158e-02, 1.62538916e-01, 1.46615967e-01, 1.71415865e-01,
          7.70706534e-02, 1.03422426e-01, 2.10013062e-01, 2.53310442e-01,
          2.53310442e-01, 2.11411998e-01, 1.29037663e-01, 1.56624436e-01,
          1.67504773e-01, 7.75054842e-02, 2.30404466e-01, 1.89365193e-01,
          1.71553299e-01, 1.12209417e-01, 1.32346168e-01, 1.43303648e-01,
          1.44305125e-01, 1.33927807e-01, 1.58918366e-01, 1.92204803e-01,
          2.53310442e-01, 2.53310442e-01, 2.41110146e-01, 1.04624346e-01,
          1.07914746e-01, 1.20593883e-01, 1.03973120e-01, 1.04785413e-01,
          4.28338870e-02, 1.20397016e-01, 2.31901869e-01, 2.85820961e-01,
          2.80228883e-01, 1.30773038e-01, 1.16115205e-01, 7.98863545e-02,
          3.50677036e-02, 8.88869632e-03, 2.87620891e-02, 1.74581796e-01,
          2.85820961e-01, 2.85820961e-01, 1.45486340e-01, 8.21594074e-02,
          1.97745655e-02, 7.83146452e-03, 5.08648232e-02, 2.85432965e-01,
          2.85820961e-01, 2.85820961e-01, 8.69212076e-02, 5.93013987e-02,
          5.98834865e-02, 4.32985276e-02, 3.01598739e-02, 1.32013196e-02,
          8.25124756e-02, 2.85820961e-01, 2.85820961e-01, 2.59064406e-01,
          5.05219288e-02, 2.05451883e-02, 7.03096623e-03, 8.90377630e-03,
          1.09577049e-02, 1.37655409e-02, 2.84736864e-02, 5.71216941e-02,
          6.50256127e-02, 3.21954817e-01, 3.21954817e-01, 7.45347589e-02,
          5.06660007e-02, 6.73174299e-03, 7.19232392e-03, 1.67223513e-02,
          4.37097587e-02, 3.49138640e-02, 3.21954817e-01, 3.21954817e-01,
          1.73925772e-01, 2.95930263e-02, 3.29658687e-02, 1.17721157e-02,
          3.35881449e-02, 5.63840196e-02, 1.38611183e-01, 2.92053103e-01,
          3.21954817e-01, 1.96018830e-01, 1.31580964e-01, 3.63338515e-02,
          1.33584403e-02, 1.83225814e-02, 4.40466441e-02, 5.95624708e-02,
          1.68774232e-01, 3.21954817e-01, 3.21954817e-01, 1.35085464e-01,
          4.06862013e-02, 2.42683776e-02, 3.07664908e-02, 3.67760658e-02,
          3.68990526e-02, 2.05521926e-01, 2.88402557e-01, 2.88402557e-01,
          8.29153284e-02, 1.90305158e-01, 6.50264546e-02, 9.21656042e-02,
          6.51916713e-02, 1.04590096e-01, 1.39698491e-01, 2.88402557e-01,
          2.88402557e-01, 2.78757304e-01, 2.77557354e-02, 2.59728748e-02,
          2.06406042e-02, 4.17304002e-02, 6.29192591e-02, 8.35507885e-02,
          2.88402557e-01, 2.88402557e-01, 1.81886688e-01, 1.42894685e-01,
          2.98917405e-02, 3.24708335e-02, 5.56396805e-02, 9.22759920e-02,
          5.17644621e-02, 1.76208764e-01, 2.88402557e-01, 2.88402557e-01,
          2.91820496e-01, 1.81229398e-01, 7.20815286e-02, 6.97719231e-02,
          7.97208026e-02, 6.60239682e-02, 6.04046322e-02, 1.69674531e-01,
          2.91820496e-01, 2.91820496e-01, 2.91820496e-01, 2.76110142e-01,
          6.54261708e-02, 2.18111146e-02, 5.47257699e-02, 4.09169495e-02,
          4.78665456e-02, 1.74955904e-01, 2.91820496e-01, 7.93058649e-02,
          2.01503057e-02, 2.32953895e-02, 5.52074574e-02, 2.82915663e-02,
          3.70417535e-02, 1.74146622e-01, 2.91820496e-01, 2.91820496e-01,
          2.91820496e-01, 1.26807183e-01, 2.01744661e-02, 2.92753950e-02,
          1.18369870e-02, 8.97912960e-03, 3.12387999e-02, 2.23293975e-01,
          1.45274475e-01, 3.10367703e-01, 3.10367703e-01, 1.21626526e-01,
          1.97374355e-02, 2.43681278e-02, 2.11052019e-02, 1.50181632e-02,
          3.06739509e-02, 2.31428817e-02, 1.90482065e-01, 3.10367703e-01,
          3.10367703e-01, 1.60559684e-01, 3.61438282e-02, 1.16858948e-02,
          3.14853480e-03, 9.03113373e-03, 1.97712898e-01, 3.10367703e-01,
          2.96426773e-01, 4.68208753e-02, 2.20305882e-02, 9.36160702e-03,
          1.14380019e-02, 7.87105691e-03, 4.03184965e-02, 6.11806549e-02,
          2.26742193e-01, 3.10367703e-01, 3.10367703e-01, 1.73262790e-01,
          4.25329134e-02, 3.17646749e-02, 1.45401182e-02, 1.51301455e-02 ]
      - [ 3.94844748e-02, 2.42059067e-01, 3.43840927e-01, 2.68409252e-01,
          6.13526851e-02, 1.38570508e-02, 4.26824857e-03, 2.14624405e-03,
          1.82226282e-02, 9.32117477e-02, 3.43840927e-01, 3.43840927e-01,
          8.73882696e-02, 4.15812507e-02, 1.00612901e-02, 4.12747543e-03,
          2.23484007e-03, 1.81656517e-02, 2.04179063e-02, 8.71757045e-02,
          3.43840927e-01, 3.43840927e-01, 1.55933157e-01, 1.05440728e-02,
          1.42639643e-02, 3.18547385e-03, 1.99453011e-02, 4.01027314e-02,
          1.93655699e-01, 3.43840927e-01, 2.37553045e-01, 5.75805306e-02,
          4.79248399e-03, 8.57044850e-03, 6.18242472e-03, 1.20372009e-02,
          2.75724679e-01, 3.20667565e-01, 3.20667565e-01, 2.73935534e-02,
          1.90784410e-02, 8.60867929e-03, 8.95486027e-03, 2.24644188e-02,
          3.99262905e-02, 3.20667565e-01, 3.20667565e-01, 1.86683953e-01,
          1.19713526e-02, 1.61974281e-02, 1.69866271e-02, 1.33095384e-02,
          5.81764393e-02, 1.03005849e-01, 1.06373690e-01, 3.20667565e-01,
          3.20667565e-01, 1.56604081e-01, 2.66545378e-02, 2.93608848e-03,
          5.07641304e-03, 1.48494411e-02, 1.68941580e-02, 1.99430019e-01,
          3.20667565e-01, 2.28149965e-01, 9.49347615e-02, 2.69354470e-02,
          1.22221541e-02, 2.71370616e-02, 4.12437432e-02, 8.15648884e-02,
          2.73914546e-01, 2.07124338e-01, 6.70241714e-02, 2.83626840e-02,
          3.41387205e-02, 1.99364070e-02, 2.56885216e-02, 1.13053419e-01,
          2.73914546e-01, 2.56283462e-01, 1.29996374e-01, 1.07872583e-01,
          4.76408079e-02, 9.49908048e-02, 4.20338102e-02, 7.89156035e-02,
          2.15921834e-01, 2.73914546e-01, 2.59609282e-01, 2.73914546e-01,
          1.32809833e-01, 8.69589597e-02, 5.23290820e-02, 5.28769605e-02,
          9.20224115e-02, 1.61432281e-01, 2.38064125e-01, 1.68065667e-01,
          1.06392115e-01, 4.88737151e-02, 3.79608162e-02, 7.90323019e-02,
          9.87690762e-02, 2.73914546e-01, 2.73914546e-01, 2.73914546e-01,
          1.02395505e-01, 7.13088512e-02, 1.30777583e-01, 4.49317284e-02,
          9.05976370e-02, 7.55450204e-02, 1.96412355e-01, 1.78167999e-01,
          7.91897252e-02, 2.53330767e-02, 1.03426445e-02, 5.90187907e-02,
          4.49476317e-02, 2.97250181e-01, 3.21543574e-01, 3.21543574e-01,
          1.33977696e-01, 5.13276644e-02, 5.62322326e-02, 3.18719111e-02,
          2.11988129e-02, 1.44498590e-02, 3.57059464e-02, 1.00512885e-01,
          3.21543574e-01, 3.21543574e-01, 1.64309546e-01, 2.03997865e-02,
          8.51322617e-03, 2.20908951e-02, 3.96364219e-02, 1.53662980e-01,
          3.21543574e-01, 3.21543574e-01, 2.50279039e-01, 6.35687709e-02,
          8.92246235e-03, 1.16286213e-02, 3.12564075e-01, 3.32970887e-01,
          3.32970887e-01, 2.67671365e-02, 2.43481379e-02, 1.86119101e-03,
          1.35818636e-02, 2.07739826e-02, 5.38505465e-02, 3.32970887e-01,
          3.32970887e-01, 1.34801850e-01, 9.56210401e-03, 7.24339532e-03,
          7.93671981e-03, 1.42519595e-02, 2.27315747e-03, 1.51278032e-03,
